//Numpy array shape [64]
//Min -0.544433593750
//Max 1.280395507812
//Number of zeros 0

#ifndef B4_H_
#define B4_H_

#ifndef __SYNTHESIS__
bias4_t b4[64];
#else
bias4_t b4[64] = {0.4452514648438, 0.0358276367188, 0.0788574218750, -0.0079345703125, 0.0452880859375, -0.1626586914062, 0.1281127929688, -0.2544555664062, 0.2265014648438, -0.0367431640625, -0.0706176757812, 0.0464477539062, -0.0560302734375, -0.2677612304688, 0.1320800781250, 0.0886840820312, -0.1091308593750, 0.0050048828125, -0.1466674804688, -0.0444946289062, -0.0385131835938, 0.0156860351562, -0.3083496093750, -0.0391235351562, -0.0880737304688, 0.0559082031250, 0.1442871093750, 0.0770263671875, 0.0104980468750, -0.0969238281250, 0.0401000976562, 0.0338745117188, -0.0164184570312, -0.2199096679688, -0.0855712890625, 0.0705566406250, 0.0770263671875, -0.0942993164062, 0.1147460937500, 1.2803955078125, 0.1260986328125, 0.0556640625000, -0.0134887695312, 0.0272216796875, -0.0983276367188, 0.0009765625000, 0.1490478515625, -0.5444335937500, -0.0086669921875, 0.0712890625000, 0.0015258789062, 0.1066284179688, -0.0924072265625, 0.0628662109375, 0.0583496093750, 0.3567504882812, -0.0332031250000, -0.0704956054688, 0.8126831054688, -0.2435913085938, 0.0352783203125, 0.1282958984375, 0.0593872070312, -0.0013427734375};
#endif

#endif
