//Numpy array shape [64, 192]
//Min -2.000000000000
//Max 1.995666503906
//Number of zeros 0

#ifndef BWR2_H_
#define BWR2_H_

#ifndef __SYNTHESIS__
backward_recurrent_weight2_t bwr2[12288];
#else
backward_recurrent_weight2_t bwr2[12288] = {0.3377075195312, 0.1520996093750, -0.1376342773438, 0.3565063476562, 0.6454467773438, -0.9088745117188, 1.0307617187500, 0.6163940429688, -0.0201416015625, 0.4644775390625, -0.3734130859375, 0.1594238281250, -0.3763427734375, 0.4600219726562, 0.5798339843750, 0.5819702148438, 0.4925537109375, -0.9147338867188, 0.1408081054688, -0.3308715820312, 0.7299194335938, 0.8900756835938, -0.1622924804688, 0.0629272460938, 0.7775268554688, -0.0694580078125, -0.3164672851562, 0.7854614257812, 1.9210205078125, -0.0205688476562, 0.0215454101562, -0.3073120117188, 0.8982543945312, 0.4166259765625, 0.0173339843750, 0.3049316406250, 0.7069702148438, -0.3274536132812, 0.7683105468750, -0.5415649414062, 0.4154052734375, 0.0674438476562, -0.3497924804688, 0.7312011718750, 0.2105712890625, -0.4602050781250, 0.9738159179688, 0.7794189453125, -0.1643066406250, 0.2984619140625, 0.1170043945312, 0.1470947265625, 1.1256103515625, 0.1318969726562, 0.1542358398438, 0.9717407226562, -0.5812377929688, 0.1719360351562, 1.1994018554688, 0.0737304687500, -0.5603027343750, -0.8323364257812, 0.4199829101562, -0.1652832031250, 0.6050415039062, 0.0397338867188, 0.6414184570312, -0.6777954101562, 0.8218383789062, -0.3786621093750, 1.2149047851562, -0.9009399414062, 0.2838134765625, 0.9393920898438, 0.8214721679688, -0.0484619140625, -0.4432373046875, 0.7338867187500, -0.4179687500000, -0.1495971679688, 0.5989990234375, -0.9699707031250, -1.0098876953125, -0.4517211914062, -0.4654541015625, 1.0088500976562, -0.5129394531250, -0.3589477539062, 0.1525268554688, -0.3944091796875, -0.2052612304688, 0.2535400390625, 0.5275878906250, 0.8801879882812, 0.3764648437500, -0.2347412109375, 0.1030883789062, 0.5444335937500, -0.0894165039062, 0.3309326171875, 0.5593872070312, -0.0218505859375, 1.3341674804688, 0.1547241210938, 0.7480468750000, 0.2868041992188, 0.0989990234375, 0.2026977539062, -0.3257446289062, -0.5847167968750, 1.0562744140625, 0.3236694335938, 0.3933105468750, 0.2883911132812, 0.8471069335938, -0.4297485351562, 1.0433959960938, -0.6239624023438, 1.2864379882812, 1.2171630859375, -1.3537597656250, -0.0897827148438, 0.8656005859375, -0.2178955078125, 0.4748535156250, -0.9157104492188, 0.1358032226562, -0.1664428710938, 1.0335693359375, -0.4744873046875, -0.6286621093750, 0.6415405273438, -0.3185424804688, -0.8114013671875, 0.5375976562500, -1.3634643554688, 0.5667724609375, 0.6423950195312, 0.5577392578125, -0.0188598632812, 0.0673828125000, 0.4053955078125, 0.0242309570312, 0.3182373046875, -0.1862792968750, -0.5548095703125, -0.1597900390625, -0.6652221679688, -0.1564331054688, 0.5628051757812, -0.4962158203125, 0.0888671875000, -0.2707519531250, 0.0148925781250, -0.0911865234375, 0.5180053710938, -0.5414428710938, 0.4444580078125, -0.5947265625000, -0.1674194335938, 0.5593261718750, 0.8776245117188, -0.4464721679688, 0.1234130859375, 0.3915405273438, -0.2979736328125, -0.0820922851562, 0.2374877929688, 0.3486328125000, 0.2937622070312, 0.2707519531250, 0.0794677734375, 0.4642333984375, -0.9059448242188, 1.0039672851562, -0.5150756835938, 0.4140014648438, 1.1141357421875, -0.0874633789062, -0.4696044921875, 0.3796386718750, 0.3607177734375, 0.6374511718750, -0.0833129882812, -0.1462402343750, -0.0117187500000, 0.2833862304688, 0.1464233398438, 0.4652709960938, 0.3406982421875, 0.7886962890625, 0.2913208007812, 0.5146484375000, -0.0172729492188, 0.2218017578125, -0.8115234375000, 0.4138793945312, -0.5895385742188, 0.0851440429688, -0.0338745117188, 0.1290893554688, -0.0212402343750, -0.0864257812500, 0.3660278320312, -0.3872070312500, 1.1296386718750, 0.5093383789062, -0.2304687500000, -0.1736450195312, -0.6532592773438, -0.5003662109375, -0.8480224609375, -0.3574218750000, 0.8485107421875, 0.5068969726562, -0.2411499023438, 1.2542724609375, 0.7277221679688, -0.4096679687500, -0.4010009765625, 0.6975097656250, -0.5474853515625, 0.2276000976562, -0.8747558593750, -0.3541870117188, 0.4784545898438, 0.0104370117188, 0.3471069335938, 0.2210693359375, 0.2581787109375, 0.6275024414062, 0.1001586914062, 0.8573608398438, -0.4628906250000, -0.0377807617188, 0.8215942382812, -0.4793701171875, -0.6790771484375, 0.0250244140625, 0.1408081054688, -0.3910522460938, -0.1527709960938, 0.5089721679688, -0.1079101562500, -0.0596313476562, -0.6700439453125, 1.1674194335938, -0.0435791015625, 0.1370849609375, -0.2629394531250, 0.4869384765625, 0.2535400390625, 0.1319580078125, -0.4382934570312, 0.1967773437500, -0.4455566406250, 0.3965454101562, -0.0051879882812, -0.3006591796875, 0.1767578125000, -0.8078613281250, -0.1145019531250, 0.7334594726562, 0.0026855468750, 0.2488403320312, 1.2563476562500, 0.6215820312500, 0.4353637695312, -0.6171264648438, 1.0347900390625, -0.3642578125000, -0.4395141601562, -0.1262207031250, -0.2116699218750, -0.5152587890625, -0.8718872070312, -0.0320434570312, 0.4930419921875, 0.0459594726562, -0.5498657226562, -0.1407470703125, -1.5140380859375, 0.7238769531250, -0.7564086914062, -0.2188110351562, 0.3764038085938, 0.4518432617188, 0.0779418945312, -0.1772460937500, 0.3806762695312, -0.5883789062500, -0.7326660156250, -0.1978759765625, 0.0263671875000, -0.4326171875000, -0.0194091796875, 0.3408203125000, -0.2721557617188, 1.1085815429688, 0.5835571289062, -0.7887573242188, 0.1635742187500, 0.3688354492188, 0.1464843750000, 0.2844848632812, 0.3348388671875, 0.5175781250000, 0.0897827148438, 0.4348754882812, 0.0466918945312, -0.0997314453125, 0.0536499023438, -1.0578613281250, 0.1876220703125, 0.3568115234375, -0.4975585937500, 0.9557495117188, -0.9484252929688, -0.0917358398438, 0.8774414062500, -0.0620727539062, 1.5822753906250, -0.7620849609375, 0.4020996093750, -0.5611572265625, -0.2997436523438, 0.5976562500000, 0.6882934570312, -0.0548706054688, 0.3267822265625, 0.4552001953125, 0.4145507812500, -0.6101684570312, 0.2704467773438, -1.2692260742188, 0.2592163085938, 0.5763549804688, -1.2210693359375, -0.2706298828125, -0.6940307617188, -0.1954345703125, 0.7645263671875, -0.8934326171875, -0.5698242187500, -0.7613525390625, -0.5260620117188, 0.0026245117188, -0.6336669921875, 0.3803710937500, -0.2557373046875, 0.1828613281250, 0.3841552734375, 0.1951904296875, 0.5600585937500, -0.7025756835938, -1.7868652343750, 0.4166259765625, 0.4429321289062, -0.0861816406250, -0.4019165039062, 0.0791015625000, 0.4257202148438, 1.1240234375000, -0.9758300781250, -0.5767822265625, 1.0838623046875, 1.0238647460938, 1.1239624023438, -0.0892944335938, -0.3226928710938, 0.3186645507812, 0.0332641601562, 0.6120605468750, 0.3530883789062, -0.5062255859375, 1.1401367187500, -1.1062011718750, 0.4384765625000, 0.8665771484375, -0.5329589843750, -1.0490722656250, -1.3505859375000, 0.1867065429688, 1.0775756835938, 0.6395874023438, 0.5790405273438, -1.2793579101562, -0.5543212890625, 0.7330322265625, -0.7767944335938, -0.1038818359375, 0.4144897460938, -0.6901245117188, 0.3574218750000, -0.7976684570312, -0.4486083984375, 0.4293212890625, 0.8578491210938, -0.6270141601562, 0.3560180664062, -0.7221069335938, -0.6840209960938, -0.5908813476562, -0.2928466796875, 0.4730224609375, 0.5531616210938, -0.0057373046875, 0.2157592773438, 0.8511962890625, -0.4490966796875, -0.8803710937500, -0.4274291992188, 0.1525878906250, -1.4888916015625, 0.1046752929688, -0.7846069335938, 0.4550781250000, 1.0860595703125, 0.2437133789062, 0.4924316406250, 0.3668212890625, -0.9859619140625, 0.3613281250000, 0.2086181640625, 0.3651123046875, 0.3428955078125, -0.7388305664062, 0.3854370117188, -0.0236816406250, -1.2705688476562, 0.5352783203125, -0.2604980468750, 0.2190551757812, -1.2494506835938, 0.2707519531250, -0.9412841796875, -0.4478149414062, 0.2608032226562, 0.4905395507812, 0.2652587890625, 0.2539672851562, 0.4306640625000, -0.3458862304688, 0.5363769531250, -0.7644042968750, -0.5486450195312, 0.0832519531250, 0.1345825195312, -0.0670776367188, -0.0323486328125, -0.0128784179688, 0.1600341796875, 0.2011718750000, -0.1531372070312, -0.3161621093750, -0.9438476562500, -0.4114379882812, 0.4368896484375, -0.3423461914062, 0.2274780273438, -0.4001464843750, 0.5773925781250, 0.6609497070312, 0.4404907226562, -0.0779418945312, -0.2904663085938, -0.1284790039062, -0.3638305664062, 0.2091674804688, 0.1898193359375, -0.3731079101562, 0.4236450195312, 0.2598266601562, -0.0864257812500, 0.3000488281250, -0.0218505859375, 0.4219970703125, -0.7301635742188, -0.4840087890625, -0.3688964843750, 0.2717895507812, -0.0341186523438, -0.3632202148438, 0.4654541015625, 0.3550415039062, -0.6099243164062, 0.4942626953125, -0.3720092773438, 0.4624633789062, -0.5824584960938, -0.3036499023438, -0.0252685546875, 0.4009399414062, 0.1997680664062, 0.9074707031250, -0.6081542968750, 0.2204589843750, -0.0578613281250, -0.4818725585938, -0.0808715820312, 0.4710693359375, -0.0982055664062, 0.3722534179688, 0.2178344726562, -0.0497436523438, 0.4012451171875, 0.4915771484375, -0.0187988281250, 0.3621215820312, 0.0108642578125, 0.0745849609375, 0.2205200195312, 0.2579956054688, 0.3169555664062, 0.5103149414062, 0.0480957031250, 0.4300537109375, -0.7047729492188, -0.2882080078125, -0.5477905273438, 0.1975097656250, -0.2554931640625, 0.1499633789062, 0.0363159179688, 0.0570678710938, 1.1038208007812, -0.3066406250000, 0.2683715820312, -0.8519897460938, -0.5537719726562, -0.3230590820312, -0.3205566406250, -0.1387939453125, 0.8054809570312, -0.3865966796875, 0.2566528320312, 0.3631591796875, 0.2346801757812, -0.3998413085938, 0.2038574218750, 0.0336303710938, 0.3621215820312, -0.0090332031250, -0.7156372070312, 0.0202026367188, -0.2145996093750, -0.3932495117188, -0.1832275390625, 0.4398193359375, 0.0976562500000, 0.0859985351562, -0.3295898437500, 0.4984741210938, 0.2326660156250, -0.0352172851562, -0.1194458007812, 0.4532470703125, -0.0110473632812, 0.7718505859375, -0.0483398437500, 0.1665649414062, 0.6421508789062, 0.1082153320312, -0.2836914062500, 0.3856811523438, -0.0077514648438, 0.1142578125000, 0.3439331054688, 0.4265747070312, 0.0852661132812, 0.4072265625000, 0.1490478515625, -0.6436157226562, -0.0351562500000, 0.4801635742188, 0.4484863281250, 0.0427246093750, 0.7297973632812, -0.5932617187500, -0.5476684570312, 1.2490844726562, -1.2888183593750, 0.5186157226562, 0.0759277343750, -0.2876586914062, 0.2972412109375, 0.8630371093750, 0.1642456054688, -0.1450805664062, 1.0922241210938, -0.6112060546875, 0.1003417968750, 0.4854736328125, -1.5352172851562, -0.9053955078125, -0.8411865234375, 0.6922607421875, 0.9650268554688, -0.6408691406250, -0.4537963867188, -0.4155883789062, -0.5864257812500, -1.0217285156250, -0.2518920898438, -0.0601196289062, -0.7467041015625, -0.0834960937500, -0.6140136718750, 0.4828491210938, 0.3693237304688, 0.1695556640625, 0.2297363281250, 0.2041015625000, -0.1143798828125, 0.5729980468750, -0.1525268554688, -0.2110595703125, 0.9978637695312, -0.3958740234375, 0.7114868164062, 0.1196289062500, -0.4555053710938, 1.4022216796875, -0.3023681640625, 0.0893554687500, -0.1366577148438, 0.2597656250000, -0.0510864257812, 0.1604614257812, 0.4154052734375, 0.3886718750000, 0.5050659179688, -0.9070434570312, -0.2276611328125, 0.1480102539062, 0.2115478515625, -1.0860595703125, -0.2977905273438, 0.9236450195312, 0.5933837890625, 0.3032226562500, 0.2034912109375, -0.1487426757812, 0.6645507812500, -0.5676879882812, 0.1555175781250, 0.0026245117188, -0.2767333984375, 0.1809692382812, 0.4592285156250, 0.2561035156250, -0.0419921875000, -0.5206298828125, 0.7334594726562, -0.6697387695312, 0.7396240234375, -0.3252563476562, -0.4158325195312, 0.2355957031250, -0.2180786132812, -0.7601318359375, 0.0404052734375, -1.1885986328125, 0.2763671875000, -0.2348632812500, 1.1447753906250, 0.3417968750000, -0.3803710937500, -0.4913330078125, -0.2069091796875, 0.7860107421875, 0.0617675781250, 0.2899169921875, 0.1022338867188, -0.1734008789062, 0.0166625976562, 0.9063110351562, 0.6921386718750, 0.3679199218750, -0.3529663085938, -0.4547729492188, 0.3590698242188, -0.3230590820312, 0.1840209960938, 0.8186035156250, 0.1996459960938, 0.5839233398438, 0.2819824218750, 0.7799072265625, 0.4984130859375, -0.4587402343750, 0.1981811523438, -0.2310180664062, 0.3554077148438, -0.5036010742188, 0.4836425781250, -0.4711914062500, -0.2695312500000, 0.0001220703125, -0.7605590820312, -0.1110229492188, 0.2416381835938, -0.7056274414062, -0.0545043945312, 0.3048706054688, 0.5374755859375, 0.1722412109375, 0.2467041015625, 0.1087646484375, -0.3584594726562, 0.5556640625000, -0.0792846679688, 0.1890869140625, 0.2896728515625, -0.4486694335938, -0.1517333984375, -0.1317138671875, 0.1892089843750, 0.0147705078125, 0.2496948242188, -0.3264770507812, -1.0588989257812, -0.6073608398438, -0.4479370117188, -0.3299560546875, 0.5830078125000, -0.7634887695312, 0.5344238281250, 0.1666259765625, -0.1868896484375, -0.2056884765625, 0.0335693359375, 0.3659667968750, -0.0769042968750, -0.0196533203125, 0.3096313476562, -0.0484619140625, 0.6915893554688, -0.7602539062500, -0.5457763671875, 0.9575195312500, -0.2784423828125, 0.8166503906250, -0.2641601562500, -0.1611938476562, 0.1116333007812, -0.0358276367188, 0.8066406250000, 0.0204467773438, 0.6612548828125, 0.4998779296875, -0.2984619140625, -0.0651245117188, 0.2003784179688, -0.2181396484375, -0.3923950195312, 0.2775878906250, -0.0302124023438, 0.2854614257812, 0.2507324218750, -0.9601440429688, 0.3529052734375, 0.1028442382812, 0.2882690429688, -0.3348999023438, -0.7504882812500, 0.5932617187500, 0.0502319335938, 0.2048950195312, 0.1115112304688, 0.8265380859375, -0.6759033203125, 0.7695312500000, -0.9373779296875, -0.0623779296875, 0.0851440429688, 0.0150756835938, 0.3290405273438, -0.1511840820312, -0.4879150390625, 0.1609497070312, 0.3391113281250, 0.0772705078125, -0.1713867187500, -0.1194458007812, -0.7246093750000, -0.3781738281250, -0.5339965820312, -0.3502197265625, 1.4752807617188, 0.0334472656250, -0.5651855468750, 0.6997680664062, 0.4460449218750, -0.6491699218750, 0.0891113281250, 0.5315551757812, -0.0169067382812, -0.7143554687500, -0.3542480468750, -0.0951538085938, -0.1730346679688, 0.4418334960938, 0.4863281250000, 0.0537109375000, 0.0437011718750, 0.5845947265625, 0.2514038085938, 0.1669311523438, -0.0235595703125, -0.3105468750000, 0.5814208984375, -0.0712280273438, -0.6750488281250, -0.0838623046875, -0.2531738281250, -0.3336181640625, 0.5116577148438, 0.4708862304688, 0.0652465820312, 0.1595458984375, -0.5713500976562, 1.3945922851562, 0.0631713867188, 0.5069580078125, -0.6446533203125, -0.0615844726562, 0.0815429687500, -0.2027587890625, 0.0343627929688, 0.3510131835938, -0.9499511718750, 0.4684448242188, 0.9315185546875, -0.6748046875000, 1.3794555664062, 0.2062377929688, -0.7500610351562, 1.6138916015625, 0.5601806640625, 0.1962890625000, 0.7738647460938, 0.5495605468750, -0.0817871093750, -0.2055053710938, 1.6676025390625, -0.0388183593750, 1.1498413085938, 0.3107299804688, -1.7066040039062, -0.4652099609375, -0.6250610351562, -0.1035766601562, 1.2102050781250, -1.2257080078125, 0.2335815429688, -0.3927001953125, 0.4044189453125, -1.2272338867188, 0.7244262695312, 0.7529907226562, -0.4043579101562, -1.1821289062500, -0.2872314453125, 1.1613159179688, 0.6937255859375, -0.3289184570312, -0.0151977539062, 0.8482666015625, -0.5289916992188, 0.6752929687500, -0.7667846679688, -0.3170776367188, 0.1810302734375, -0.2646484375000, 0.9163208007812, 0.6061401367188, -0.1186523437500, 0.9800415039062, 0.4655761718750, 0.2611694335938, -0.3812255859375, 0.0811157226562, 0.6069335937500, 1.2658081054688, -0.5148315429688, 0.9399414062500, 1.2203979492188, -1.0737915039062, 0.4504394531250, 1.2269287109375, -0.4787597656250, -1.7496337890625, -0.7884521484375, -0.0579223632812, -0.1569824218750, 0.4327392578125, 0.6672363281250, 0.0005493164062, -0.0697021484375, 0.1678466796875, -0.3615722656250, 0.5181274414062, 0.0675659179688, -0.3759155273438, 0.8720703125000, -0.0044555664062, -0.4943847656250, -0.1563110351562, 0.7139892578125, -0.1040649414062, 0.7053222656250, -0.6393432617188, -0.9225463867188, -0.0981445312500, -1.1143188476562, 0.3558959960938, 0.2723388671875, -0.7344360351562, 0.2463378906250, 0.3755493164062, 0.3632202148438, -0.7426757812500, 0.0517578125000, -0.6384277343750, 0.2462768554688, -0.9674682617188, -0.0980834960938, 0.3965454101562, 0.5595092773438, -0.1753540039062, -0.1541748046875, 0.6349487304688, 0.3043823242188, 1.4307861328125, 0.1782836914062, 0.6102294921875, 0.4020385742188, 0.0996704101562, 0.2929687500000, -0.5921020507812, -0.2368164062500, 0.7386474609375, -0.1939086914062, 0.5562744140625, -0.2717895507812, 0.2207641601562, 0.0732421875000, -0.4548339843750, 0.0197753906250, 0.8613281250000, 0.3082275390625, -0.1956787109375, 0.3902587890625, -0.0734252929688, 0.3591918945312, -0.0821533203125, -1.1010131835938, 0.3974609375000, 0.4381103515625, -0.4205322265625, 0.7609863281250, 0.1142578125000, -0.5413208007812, 0.3517456054688, -0.8628540039062, 0.3486938476562, -0.3343505859375, -0.4728393554688, 0.7662353515625, 0.5946655273438, -0.5573730468750, -0.3393554687500, 1.1359252929688, 0.4081420898438, 0.3846435546875, 0.6409912109375, -0.9867553710938, -0.4144287109375, -1.3430175781250, -0.4098510742188, 1.7090454101562, 0.1896972656250, -0.6813354492188, 0.7326049804688, 1.2619628906250, -0.7130126953125, -0.1436767578125, 1.2239379882812, 0.5499877929688, -0.7120361328125, -1.0834350585938, -0.3937377929688, 0.0148925781250, 0.3656616210938, 0.1160888671875, 0.1408081054688, 0.2880859375000, 0.7031860351562, 0.0369262695312, 0.4418334960938, -0.3004760742188, 0.4627075195312, 1.2636718750000, -0.4901733398438, -0.4083862304688, 0.2438964843750, 0.8375244140625, -0.4801635742188, 0.2150268554688, 0.1810302734375, 0.3831787109375, 0.6536865234375, -0.9491577148438, 1.5076293945312, 0.4844360351562, -0.2046508789062, -0.6492919921875, 0.7764282226562, 0.3071289062500, -0.1449584960938, -0.3145141601562, 0.8673095703125, -0.7388916015625, 0.3379516601562, 0.7822265625000, -0.3907470703125, 0.2006225585938, 0.4235839843750, 0.1698608398438, -0.0772705078125, 0.2289428710938, -0.0550537109375, 0.6169433593750, -0.2880249023438, -0.4597778320312, -0.4216918945312, 0.2216796875000, -0.2665405273438, 0.6149902343750, -0.0529785156250, -0.9556274414062, -0.0599975585938, -0.1159667968750, 0.6066894531250, 0.4955444335938, -0.5939331054688, 0.2063598632812, 0.2545166015625, -0.4027709960938, -0.2242431640625, 0.2649536132812, 0.7645263671875, -0.4202880859375, -0.7961425781250, -0.1173706054688, 0.9521484375000, 0.4357910156250, -0.3746337890625, -0.3373413085938, 0.6697998046875, -0.2212524414062, 0.6494750976562, -0.7879028320312, 0.0734863281250, 0.1766357421875, -0.3992919921875, 0.0075073242188, -0.2368774414062, -0.7593383789062, 0.9213256835938, 0.3347167968750, 0.2398681640625, -0.2955322265625, 0.0565185546875, -0.3226318359375, 0.8110961914062, 0.3135986328125, 0.2331542968750, 0.5576171875000, -0.1577148437500, 0.6505737304688, 0.7348022460938, 0.2065429687500, -0.8356323242188, -0.9713745117188, 0.1663818359375, -0.3397827148438, 0.5139770507812, 0.5137939453125, 1.7098999023438, 0.0585937500000, 0.9244995117188, -0.3486328125000, 0.5812988281250, -0.6848754882812, 0.3544921875000, 1.4396972656250, -0.5411987304688, -0.5664062500000, 0.1351928710938, 1.6288452148438, -0.6440429687500, 0.9177246093750, 0.0120239257812, -1.3512573242188, -1.0312500000000, -0.6609497070312, -0.0049438476562, 0.8742675781250, -0.1918945312500, -0.2892456054688, 0.2246704101562, -0.7233276367188, -1.1580810546875, 0.1739501953125, 0.1286010742188, 0.5883789062500, -0.7366333007812, -0.3813476562500, -0.0703125000000, 0.1383056640625, -0.6804199218750, 0.5469360351562, 1.2122802734375, -0.0578613281250, 1.3748779296875, 0.1166381835938, 0.4741821289062, 0.1359863281250, -0.5909423828125, 0.8384399414062, 0.0128173828125, -0.4533691406250, 1.0578002929688, -0.1466674804688, 1.1334228515625, 1.4384765625000, -0.3962402343750, 0.1957397460938, 0.4183959960938, 0.6137695312500, 1.8228759765625, 0.4097900390625, -0.5295410156250, 0.8737792968750, 0.8350830078125, -0.0350341796875, 0.0062866210938, -0.9874267578125, 1.0938110351562, -0.0277099609375, -0.0139160156250, 0.8233032226562, -0.2354125976562, -0.1612548828125, 0.0093383789062, -0.6626586914062, 0.4245605468750, 0.6569824218750, -0.1929321289062, -0.1578369140625, 0.4948730468750, -0.1584472656250, 0.0946044921875, 1.0662841796875, 0.6520385742188, -0.1732788085938, 0.5559692382812, -1.3310546875000, -0.4143676757812, -0.4771118164062, -0.2753906250000, 0.9993286132812, 0.2420654296875, -0.7882690429688, 0.1799926757812, 1.0024414062500, -0.8417968750000, -0.3649291992188, 0.5620117187500, -0.3183593750000, 0.1511840820312, -0.7012329101562, -0.2813720703125, -0.1860351562500, 0.3228759765625, 0.4450683593750, 0.1915893554688, 0.2466430664062, 0.7202148437500, -0.0191040039062, 0.1583251953125, -1.1075439453125, -0.2140502929688, 0.9364624023438, -0.7869873046875, -0.1260986328125, 0.0868530273438, 0.0895996093750, -0.5496215820312, -0.0125122070312, 0.2297973632812, 0.2917480468750, 0.6720581054688, -0.5013427734375, 1.0266723632812, 0.3025512695312, 0.2759399414062, -0.2185058593750, 0.6857299804688, 0.0681152343750, -0.4656982421875, -0.1557617187500, 0.5367431640625, -0.5670776367188, -0.3380737304688, 1.3472290039062, -0.5620117187500, -0.1493530273438, -0.1899414062500, -0.5139770507812, -1.2788085937500, 0.6932983398438, -0.3034667968750, 0.2221069335938, -0.3104248046875, -0.8970947265625, -0.2068481445312, 1.4058837890625, -1.3125000000000, 0.8613891601562, -1.1092529296875, -1.3773803710938, -0.7642211914062, -1.3913574218750, 0.1434936523438, 0.8900146484375, 0.0575561523438, 0.5902099609375, -0.5175781250000, -0.0766601562500, -1.5827636718750, -0.5049438476562, 0.3747558593750, -0.6840209960938, 0.2950439453125, 0.1274414062500, 0.3547363281250, -0.1296997070312, 0.8265991210938, -0.0089721679688, 0.3949584960938, -0.3305664062500, 1.0650634765625, 0.0032348632812, -0.0642700195312, 0.6033325195312, -0.1764526367188, 0.3148193359375, -0.1331176757812, -0.7423706054688, 0.7231445312500, 0.2962646484375, -0.6535644531250, -0.7487792968750, -0.4436035156250, 0.0557250976562, -0.0187988281250, 0.6343383789062, 0.7498168945312, 0.2045898437500, -0.2435302734375, -0.4429321289062, -0.0482788085938, -0.2374877929688, 0.0767822265625, -0.2219238281250, -0.0112915039062, 0.6587524414062, 0.3480834960938, -0.0865478515625, -0.5416870117188, -0.0385742187500, 0.1237182617188, -0.4514160156250, 0.2389526367188, -0.5705566406250, -0.1765136718750, 0.3535156250000, 1.2594604492188, 0.2221069335938, -0.0023193359375, 0.7493286132812, -0.3563232421875, -0.5671997070312, -0.7832641601562, 0.0411987304688, -0.9609375000000, -0.7358398437500, -0.9059448242188, -0.5346069335938, -0.3025512695312, -0.0132446289062, 0.4577636718750, 0.5300292968750, -0.2044067382812, 0.1158447265625, 0.2021484375000, -0.4677124023438, 0.9357910156250, -0.3568725585938, -0.1487426757812, 0.2363281250000, 0.5913696289062, 1.0650634765625, -0.1967163085938, -0.2915649414062, 0.1779785156250, 0.2802124023438, 0.6121215820312, 0.4792480468750, -0.9505615234375, 0.2636718750000, -0.2067871093750, -0.8328857421875, 1.4162597656250, -0.1011962890625, 0.3875732421875, 0.9515991210938, 0.4557495117188, -1.1395874023438, 0.0236816406250, -0.0667114257812, 0.2949829101562, 0.1549072265625, -0.7112426757812, -0.2533569335938, 0.0835571289062, 0.3110961914062, -0.1108398437500, 0.3517456054688, -0.2047729492188, -0.3468627929688, 0.1790771484375, 0.0892944335938, 1.5651245117188, 0.4331665039062, -0.2651367187500, -0.4611206054688, 0.5161132812500, 0.0159912109375, -0.2071533203125, 0.4849243164062, 0.2425537109375, -0.1411132812500, -0.3567504882812, 0.6817016601562, 0.1820068359375, 0.9943237304688, -0.0285644531250, -0.4281005859375, -0.9671630859375, -0.4154663085938, 0.7945556640625, 0.4393920898438, -0.7510986328125, -0.4473876953125, -0.2736816406250, -0.0624389648438, -0.5407714843750, 0.1170043945312, -0.8513183593750, 0.0515136718750, -0.6127319335938, -0.2588500976562, 0.9740600585938, -0.5211181640625, 0.0025024414062, 0.0395507812500, 1.1970214843750, -0.0650634765625, 1.1729736328125, -0.5228271484375, 0.5431518554688, 0.0646972656250, -0.2073974609375, 0.1495361328125, 0.5670166015625, -0.5825805664062, 1.3171386718750, -0.3522338867188, 0.5922851562500, 0.1074829101562, -0.1475219726562, 0.1908569335938, 0.0977172851562, 0.7345581054688, 0.6187744140625, 0.5055541992188, -0.4223022460938, 0.6569824218750, 0.7584838867188, 0.2706298828125, 0.0645751953125, -0.8179931640625, 1.1624145507812, 0.5497436523438, 0.3587646484375, 0.0662841796875, -0.1294555664062, -0.7722167968750, 0.0028076171875, -0.0040893554688, -0.0084228515625, -0.4374389648438, -0.3332519531250, 0.5237426757812, -0.0567016601562, 0.0623779296875, 0.6029663085938, 1.3748779296875, 0.2454223632812, -0.5532226562500, -0.1867065429688, -0.7266845703125, -0.9750976562500, -1.0704345703125, -0.1831054687500, 0.9523315429688, 0.3930053710938, -0.7640380859375, 0.5733642578125, -0.1210937500000, -0.6856689453125, -0.6801147460938, 0.7308349609375, -0.6592407226562, 0.0314331054688, -0.7701416015625, -0.3607788085938, 0.4289550781250, -0.5416870117188, 0.4297485351562, 0.1095581054688, -0.0917968750000, 0.1865234375000, 0.3434448242188, 0.3051757812500, 0.0795288085938, 0.5568237304688, 0.8927001953125, 0.0931396484375, 0.0532226562500, 0.4383544921875, 0.3704223632812, 0.1661376953125, 0.3915405273438, -0.3015136718750, -0.4562988281250, 0.4243774414062, -0.8292236328125, 1.0856323242188, -0.2901611328125, 0.4830932617188, -0.4854736328125, 0.6641845703125, -0.0262451171875, 0.1934204101562, -0.4151611328125, 0.4384155273438, 0.0847778320312, 0.6019897460938, 0.4699096679688, 0.9932250976562, -0.5583496093750, 0.9047851562500, -0.3233642578125, 0.1892700195312, -0.7346191406250, -0.2695922851562, 0.2817993164062, 0.2496948242188, -0.0697631835938, -0.1281127929688, 0.8311767578125, -0.1508178710938, 0.2849731445312, -0.1224975585938, -0.5234985351562, -0.4553833007812, -0.2948608398438, 0.2910766601562, 0.7004394531250, -0.0203857421875, -0.0528564453125, 0.2047119140625, 0.2066040039062, -1.0500488281250, 0.0457763671875, 0.0501708984375, 0.1505126953125, -0.8930664062500, -0.3389282226562, 0.1373901367188, 0.5466308593750, 0.4806518554688, 0.0203247070312, 0.4618530273438, 0.1439819335938, 1.3358764648438, 0.0042114257812, 0.0242309570312, 0.1354980468750, -0.2391357421875, 0.3886718750000, 0.0576782226562, -0.1557006835938, 0.5477294921875, -0.7947387695312, -0.1641845703125, 0.0963745117188, -0.3671264648438, -0.3584594726562, 0.0664062500000, -0.3311157226562, 0.6765747070312, -0.1164550781250, 0.2593994140625, -0.8720092773438, 0.1246948242188, 0.4692993164062, -0.0677490234375, -0.1433105468750, 0.1655273437500, 0.2770385742188, 0.1385498046875, 1.3568725585938, 0.2463989257812, -0.1298828125000, -0.3319702148438, 0.2153930664062, 1.1822509765625, 0.2572631835938, 0.6986694335938, 1.5718994140625, 0.2235717773438, -0.4056396484375, 0.1863403320312, 0.1929931640625, -1.0130004882812, -0.1693115234375, 0.4924316406250, -1.4095458984375, -0.7604980468750, -0.5118408203125, 0.0447998046875, 0.6071166992188, -0.4995117187500, -0.6638183593750, -0.0464477539062, -0.1276245117188, -0.2100830078125, -0.3105468750000, 0.1735229492188, 0.4523315429688, -0.6209716796875, 0.5149536132812, 0.5254516601562, 0.9788818359375, -1.0780639648438, -1.3723144531250, 0.3298950195312, 0.7191162109375, 0.5091552734375, -0.6958007812500, 0.2445678710938, 0.6220092773438, 0.6477661132812, -0.0964965820312, 0.0299072265625, 0.7706909179688, 0.7712402343750, 0.6754760742188, -0.3601684570312, 0.2344970703125, 0.5155639648438, 0.4921264648438, 0.8119506835938, 0.3715209960938, -0.2289428710938, 0.7216796875000, -1.4686889648438, 0.2005004882812, 1.0842285156250, 0.0583496093750, -0.7788696289062, -0.8293457031250, 1.4161376953125, 0.8671264648438, -0.4363403320312, 0.6835327148438, -0.3447265625000, 0.2524414062500, -0.3903808593750, -0.4397583007812, 0.3325195312500, -0.2315063476562, 0.1536865234375, 0.0493774414062, 1.0159301757812, -0.2138671875000, 0.3610229492188, 0.7778320312500, -1.0432128906250, 0.2211303710938, -0.4816894531250, -0.4860229492188, -0.6444091796875, -0.4868164062500, -0.7825317382812, -0.1641235351562, -0.1436767578125, -0.3885498046875, -0.2348022460938, 0.5111083984375, -0.2595214843750, -0.5070190429688, -0.0764770507812, -0.2981567382812, 0.1759643554688, 0.2379150390625, 0.2028198242188, 0.5172729492188, 0.2853393554688, -0.1819458007812, 0.4523315429688, -0.6278076171875, -0.2036132812500, -0.1281127929688, -0.1069946289062, 0.9279785156250, -0.3016967773438, -0.2579956054688, 0.2783203125000, 0.0722045898438, 1.0266113281250, 0.6207275390625, -0.4863281250000, 0.4282836914062, 0.8446044921875, 0.2395019531250, -0.2488403320312, -0.1528930664062, -0.7614135742188, 0.0438232421875, -0.5212402343750, 0.4680786132812, 0.2308349609375, -0.6544189453125, -0.1785278320312, -0.5156250000000, -0.5717163085938, 1.2305908203125, 0.3126220703125, 0.0963134765625, 0.3710327148438, 0.1613159179688, -0.2067871093750, -0.7588500976562, 0.5175170898438, 0.1605834960938, 0.7656860351562, 1.7473144531250, 0.0769653320312, 0.0435180664062, -0.0882568359375, 1.2805786132812, -0.4630737304688, -0.0354003906250, -0.0848388671875, -1.1246948242188, -0.8473510742188, -0.7761840820312, -1.2714843750000, 0.8471069335938, -0.6854248046875, -0.2402343750000, 0.4802246093750, 0.0386962890625, -0.0877075195312, -0.4663085937500, -0.1850585937500, -0.2575073242188, 0.3722534179688, -0.0474243164062, 0.0386352539062, 0.4477539062500, -0.6709594726562, -0.3262939453125, 0.1485595703125, 0.6952514648438, 0.0206909179688, -0.1987304687500, 0.6283569335938, -0.1958007812500, 0.4305419921875, 0.1330566406250, -0.0763549804688, 0.1535644531250, 0.0740966796875, 0.1409301757812, 0.6590576171875, 0.4410400390625, 0.4136962890625, -0.2442626953125, -0.2816772460938, -0.1201171875000, 0.2591552734375, 0.3298950195312, -0.2559814453125, 0.4237060546875, 0.3953247070312, 0.0111694335938, -0.0363769531250, -0.9301757812500, 0.0298461914062, 0.4757080078125, 0.0126953125000, 0.7237548828125, 0.2290039062500, -0.2462158203125, 0.3657226562500, -0.7858276367188, 0.1373291015625, -0.2835083007812, 0.3404541015625, 0.1426391601562, -0.5412597656250, -0.1345214843750, 0.1165771484375, 1.1193847656250, 0.2402343750000, 0.1753540039062, 0.4439697265625, -1.1726684570312, -0.1027832031250, -0.4519653320312, -0.1007690429688, 1.3845214843750, -0.0040893554688, 0.7416992187500, 0.1923217773438, 1.0343017578125, -0.8732299804688, 0.8116455078125, 0.3122558593750, -0.0908203125000, -0.9359741210938, -0.8329467773438, -0.1298828125000, 0.4533081054688, 0.6102294921875, 0.4514770507812, 0.3058471679688, 0.3005981445312, 0.5494384765625, 0.4684448242188, 0.0324707031250, -0.4183959960938, -0.2166748046875, 0.8906860351562, -0.1875610351562, 0.2498168945312, -0.8336791992188, -0.0939941406250, -0.6979980468750, -0.5071411132812, 0.0451049804688, 0.4575805664062, 0.0256958007812, -0.9411621093750, 1.1596069335938, 0.5097045898438, -1.0068359375000, -0.4582519531250, 0.3150634765625, 0.0771484375000, -0.9874877929688, 0.2911376953125, 0.2707519531250, -0.6812744140625, 0.4379882812500, 0.5426025390625, 0.0923461914062, 0.6806030273438, 0.4410400390625, -0.2158813476562, 1.2175903320312, -0.1549072265625, 0.0924682617188, 0.6635131835938, 0.2000732421875, -0.1956176757812, -1.4298706054688, 0.6430053710938, 0.7828369140625, 1.1090087890625, 0.7792358398438, -0.8742065429688, 0.3464355468750, 0.1306152343750, -0.2454223632812, 0.7609252929688, -1.3104248046875, 0.5833129882812, 0.0169067382812, -0.1331176757812, -0.2247314453125, 1.4241943359375, 1.1688842773438, 0.1940307617188, -0.5901489257812, 0.3109130859375, 1.5752563476562, -0.5737915039062, -0.1392822265625, 0.6927490234375, 0.9444580078125, -0.3090209960938, 1.2747802734375, -0.7604980468750, 0.1865844726562, -0.1066894531250, -0.2423095703125, 0.6209716796875, 0.5307006835938, -0.4317016601562, -0.0021972656250, 0.5037841796875, 0.5656127929688, 0.1402587890625, -0.5493774414062, 0.6870727539062, 0.3646850585938, -0.0003662109375, 0.7238159179688, 0.7048339843750, -0.6150512695312, 0.7517089843750, 0.2832031250000, 0.5008544921875, -0.5128784179688, -0.4424438476562, 0.1277465820312, 0.1660156250000, 0.4996948242188, 0.5641479492188, 0.4340209960938, -0.5407104492188, -0.1697387695312, -0.0437011718750, 0.2113037109375, -0.4161376953125, 0.0599365234375, 0.5182495117188, 0.4523315429688, -0.0608520507812, -0.4396972656250, 0.9694824218750, 0.0291748046875, 0.0620117187500, -0.3267211914062, -1.1826171875000, -0.2294921875000, -0.2944335937500, -0.1742553710938, 0.1147460937500, -0.3127441406250, -0.2129516601562, 0.1906127929688, 0.5850219726562, 0.2843627929688, 0.2112426757812, -0.4479980468750, 0.2768554687500, 0.1705932617188, -0.2207641601562, 0.2991333007812, -0.3319091796875, -0.1984252929688, 0.0271606445312, 0.5639648437500, -0.1246337890625, 0.2535400390625, -0.4589233398438, 0.4559936523438, 0.0457153320312, 0.1706542968750, -0.1461791992188, -0.0374145507812, -0.4180297851562, 0.4384155273438, -0.5989379882812, 0.1610717773438, 0.0559692382812, 0.5795898437500, -0.0109863281250, -0.1822509765625, 0.1641845703125, 0.3126220703125, -0.2790527343750, -0.2185668945312, 0.3131713867188, -0.1314086914062, -0.1444702148438, 0.3430175781250, -0.5604858398438, 0.5515747070312, 0.4912109375000, 0.6135864257812, -0.2291259765625, 1.2223510742188, -0.0629882812500, 0.6531372070312, -0.2641601562500, -0.0689697265625, -0.3661499023438, -0.1082763671875, 0.1458129882812, 0.0784912109375, -0.1032714843750, -0.1807250976562, 0.7553710937500, 0.5031127929688, -0.2239379882812, 0.2423706054688, -0.3111572265625, -0.6723022460938, -0.0639038085938, 0.3258056640625, -0.0494384765625, -0.1298217773438, 0.2222900390625, -0.3139038085938, -0.3916625976562, -0.3625488281250, -0.1158447265625, -0.5380249023438, -0.2026977539062, -0.1649780273438, -0.1451416015625, 0.0715942382812, 0.1014404296875, -0.5201416015625, 0.0631103515625, 0.5067749023438, 0.4771118164062, 0.1681518554688, -0.0407714843750, 1.0566406250000, -0.5961914062500, -0.2548828125000, 0.3764648437500, 0.0313110351562, -0.4929809570312, 1.0657348632812, -0.2456054687500, 0.6094360351562, 0.4755249023438, 0.3833618164062, -0.2699584960938, -0.0798339843750, 0.3297729492188, 0.9028930664062, 0.2584838867188, 0.2653198242188, 0.0435791015625, -0.2979125976562, 0.7400512695312, -0.2772827148438, -0.1150512695312, 0.4322509765625, 0.1143798828125, 0.7988891601562, 0.8537597656250, 0.5349121093750, -0.1969604492188, 0.7973632812500, -0.6098022460938, 0.7520141601562, -0.4757080078125, 0.1907958984375, 0.9932861328125, -0.1179199218750, 0.0159301757812, 0.5378417968750, 0.8543090820312, -0.6205444335938, 0.5786743164062, -0.2006835937500, -1.2733764648438, -0.9265747070312, -0.4274291992188, 0.8151855468750, 0.1762084960938, -0.9786376953125, -0.2061767578125, 0.4620361328125, 0.6317749023438, -0.4805908203125, 0.1222534179688, 0.5250244140625, 0.4058227539062, -1.2980346679688, 0.0864257812500, 0.9686889648438, 0.1323242187500, -0.0013427734375, -0.6057739257812, 1.1437988281250, -0.6071777343750, 0.5927124023438, -0.3446044921875, 0.0293579101562, -0.0354614257812, -0.5386352539062, 0.0951538085938, -0.0377197265625, -0.0610961914062, 1.6831054687500, -0.5362548828125, 0.0642089843750, -0.0383911132812, 0.2735595703125, 0.2014770507812, 0.7881469726562, 0.0609741210938, 0.3122558593750, 0.8424682617188, -2.0000000000000, 0.2701416015625, 1.2223510742188, 0.9078979492188, -0.9171142578125, -1.0446777343750, 0.6782836914062, 0.2522583007812, -0.0758666992188, 0.3497314453125, 0.2395629882812, -0.3728027343750, -0.0399780273438, 0.2897338867188, -0.2520751953125, -0.0596923828125, -0.0867919921875, 0.5377197265625, 0.5206298828125, 0.0220947265625, 0.5469360351562, 0.8978271484375, 0.0042114257812, 0.0037231445312, -0.3383178710938, -1.1702270507812, -0.4017944335938, -1.1331787109375, -0.3842773437500, 1.0044555664062, 0.1872558593750, -0.5197753906250, 0.5274658203125, -0.0582275390625, -0.0487670898438, -0.0326538085938, 0.3237304687500, -0.3736572265625, -0.1832275390625, -0.5806274414062, -0.2331542968750, -0.0311889648438, -0.2815551757812, 0.4591064453125, 0.5414428710938, 0.4341430664062, 0.6248168945312, 0.3298339843750, 0.5353393554688, 0.0273437500000, 0.7338256835938, 0.3851318359375, -0.3162231445312, -0.1946411132812, 0.4797973632812, 0.5701904296875, -0.3397216796875, 0.0827636718750, -0.0004272460938, -0.2799682617188, 0.5083618164062, -0.2203369140625, 0.5343627929688, -0.0272827148438, 0.3088989257812, -0.5206298828125, 0.2005615234375, 0.3643798828125, -0.2380371093750, 0.0730590820312, 0.4164428710938, -0.0999755859375, 0.6846313476562, 0.3328247070312, 1.0237426757812, -0.0441284179688, 1.0388793945312, -0.3959350585938, 0.8869628906250, -0.2425537109375, 0.6482543945312, 0.9576416015625, 0.0231323242188, -0.2409667968750, 0.6300659179688, 1.4311523437500, 0.0848388671875, 0.3739013671875, -0.1281738281250, -0.9387817382812, -1.0404052734375, -1.1342773437500, -0.2916870117188, 0.5856323242188, -0.2514038085938, 0.2828369140625, 0.4947509765625, -0.3251953125000, -0.8534545898438, 0.8633422851562, 0.2749023437500, 0.3806152343750, -0.7214355468750, -0.0411376953125, -0.1019897460938, 0.4124145507812, -0.2080688476562, 0.3414916992188, 0.3358764648438, -0.4764404296875, 0.7393798828125, -0.4115600585938, 0.4965209960938, 0.6632080078125, 0.2032470703125, 0.8282470703125, -0.1513671875000, -0.1967163085938, 0.7888793945312, -0.3795776367188, 0.1075439453125, 1.0328979492188, 0.0072021484375, -0.0861206054688, 0.2647705078125, -0.7982177734375, 0.9603271484375, 0.1035766601562, -1.0590209960938, -0.4902954101562, 0.6360473632812, 0.0066528320312, -0.0327758789062, -0.3085937500000, 1.4771728515625, -0.2994995117188, -0.0880737304688, 1.1489257812500, -0.0089111328125, 0.2460937500000, 0.5013427734375, -0.2200927734375, 0.1947631835938, 0.8098754882812, -0.3572387695312, 0.3504638671875, -0.2533569335938, -0.1286010742188, -0.1304321289062, 0.5885009765625, -0.7963256835938, 0.1663208007812, 0.2839355468750, -0.9954833984375, -0.3796386718750, -0.7618408203125, 0.2036743164062, 0.4442138671875, -0.3717651367188, -0.1076049804688, 0.0669555664062, -0.2477416992188, -0.6667480468750, -0.6882324218750, -0.0802001953125, 0.4605102539062, -0.3171386718750, 0.0077514648438, 0.9089355468750, 0.1037597656250, 0.1242065429688, -0.4716796875000, 0.8427734375000, -0.2867431640625, 0.6049804687500, -0.0530395507812, 0.0815429687500, 0.5321044921875, -0.3461303710938, 0.2702026367188, 0.2585449218750, 0.2733764648438, 0.3894653320312, 0.3380737304688, 0.0737304687500, -0.7058105468750, 0.3124389648438, 0.1458129882812, -0.1862182617188, 0.5111694335938, 0.1329956054688, 0.7077026367188, -0.8111572265625, 0.9631347656250, 0.1920166015625, -0.5599365234375, -0.5975952148438, -0.7827148437500, 1.4510498046875, -0.0009155273438, -0.9476318359375, 0.8861694335938, 0.1921386718750, 0.8202514648438, 0.4638061523438, -0.8424072265625, 1.6488647460938, 0.9288940429688, 0.1545410156250, 1.1737060546875, 0.6094360351562, -0.2337036132812, -0.2995605468750, 0.4364624023438, -0.8766479492188, 0.4847412109375, 0.3307495117188, -1.1041870117188, -0.3099975585938, -0.4849243164062, -0.3430175781250, 0.5554809570312, -0.7381591796875, -0.3827514648438, -0.1179199218750, -0.0446166992188, -1.0014038085938, 0.1227416992188, 0.6700439453125, 0.4717407226562, -0.7136840820312, 0.3776245117188, 1.2274780273438, 0.6405029296875, 0.0368652343750, -0.1832885742188, 0.7792358398438, -0.2322387695312, 0.4849243164062, -0.8276977539062, -0.4312744140625, -0.0520629882812, -0.0375976562500, 0.6148681640625, -0.0900268554688, 0.2034301757812, -0.0073852539062, 1.3037109375000, 0.0704956054688, -0.1092529296875, 0.4025878906250, 0.8392333984375, 0.8426513671875, 0.3010864257812, 0.2254638671875, 1.4494628906250, -0.9808959960938, 0.4847412109375, 1.0000000000000, -0.9334716796875, -0.6524658203125, -1.0670166015625, 0.9542236328125, 0.8336791992188, 0.2435302734375, 0.2982177734375, 0.7268676757812, -0.8117065429688, 0.3278808593750, -1.0416870117188, -0.0612792968750, 0.2965087890625, -0.4785766601562, 0.7265014648438, -0.1517944335938, 0.2609252929688, 0.9487304687500, 0.7364501953125, 0.1390991210938, -0.3623657226562, -0.1096191406250, -0.9496459960938, -0.5192260742188, -1.6935424804688, -0.1262207031250, 1.3575439453125, 0.3043212890625, -0.8499145507812, 1.0059814453125, -0.3853149414062, -1.2317504882812, -0.7215576171875, 0.1487426757812, -0.6622924804688, -0.3003540039062, -0.7853393554688, -0.7133789062500, 0.2380981445312, -0.0440673828125, -0.2693481445312, 0.4953002929688, 0.6988525390625, 0.9613647460938, 0.3665161132812, -0.0299682617188, 0.3691406250000, -0.2778320312500, 1.2007446289062, -0.3339843750000, -0.3942871093750, 0.6533813476562, 0.3235473632812, -0.6533203125000, -0.0953369140625, 0.2783203125000, -0.3961181640625, 0.4201049804688, -0.6475219726562, 1.2886962890625, 0.3684082031250, -0.0518188476562, -1.0300903320312, 0.2324829101562, 0.7532958984375, -0.6350708007812, -0.0411987304688, 1.0190429687500, -0.8381958007812, -0.1257934570312, 0.5357055664062, -0.0950317382812, -0.5171508789062, -0.3970947265625, -0.4495239257812, 0.3543090820312, 0.2185668945312, -0.0433959960938, 1.1148071289062, 0.1806030273438, -0.3729248046875, -0.1400756835938, 1.0289916992188, -0.4887695312500, 0.3971557617188, 0.3725585937500, -1.0492553710938, -0.6535034179688, -0.4063110351562, 0.5258789062500, 0.6826171875000, -0.3010253906250, 0.4508666992188, -0.2835693359375, -0.2448730468750, -0.4924926757812, -0.1450195312500, 0.0642089843750, -0.5969238281250, 0.3367309570312, -0.1018066406250, 0.3120727539062, -0.1213378906250, -0.4551391601562, -0.4608764648438, 0.6649780273438, 0.1781616210938, 1.1181030273438, -0.0643920898438, 0.3165893554688, 0.6744384765625, 0.6691894531250, 0.0838623046875, 0.2031250000000, 0.6276855468750, 1.2600097656250, 0.0039672851562, 0.2748413085938, -0.0421752929688, -0.0482788085938, 0.1633911132812, 0.3102416992188, 0.3214721679688, 0.0758666992188, 0.1604003906250, 0.1201782226562, 0.5726928710938, 0.1165771484375, -0.5690917968750, 0.1817626953125, -0.5131835937500, 0.6129150390625, 0.5805664062500, 0.2871704101562, 0.2406005859375, 0.0629272460938, -0.2851562500000, 1.0366821289062, -0.9124755859375, 1.0592041015625, 0.0706787109375, -0.0038452148438, 1.4248657226562, -0.2379150390625, 0.2154541015625, 0.8814086914062, 1.5551757812500, 0.2457885742188, -0.2192993164062, 0.2072753906250, -1.4007568359375, -1.1819458007812, -0.7083740234375, -0.1252441406250, 1.9100952148438, -0.0667724609375, -0.5296630859375, 0.5031738281250, 0.5160522460938, -1.6694946289062, -0.3080444335938, 0.5642700195312, -0.7534179687500, -0.8806762695312, -1.1879272460938, -0.4871215820312, 0.7062988281250, -0.1965332031250, 0.3246459960938, 0.0524902343750, 0.1098632812500, 0.8907470703125, 0.2921752929688, 0.1696166992188, -0.3037719726562, 0.4725952148438, 1.9956665039062, -0.8607788085938, -0.6237182617188, 0.1203613281250, -0.5153808593750, -0.5044555664062, 0.2435302734375, 0.5845947265625, -0.3751220703125, 0.5802612304688, -1.1804199218750, 1.5933227539062, 0.2658081054688, -0.0903320312500, -0.6505126953125, 0.5319213867188, 1.1341552734375, -0.9724731445312, -0.2888793945312, 1.7125854492188, -0.3805541992188, -0.1930541992188, 0.2639160156250, 0.3034057617188, -0.6365966796875, 0.1901855468750, -0.8407592773438, -0.3801879882812, 0.1203002929688, 0.1084594726562, 0.1031494140625, 0.3847045898438, -0.2709960937500, 0.1440429687500, 0.8852539062500, 0.2967529296875, -0.3756713867188, 0.1579589843750, -0.9647827148438, -0.8098754882812, -1.1238403320312, -0.2404785156250, 1.0483398437500, 0.4159545898438, -0.3812255859375, 0.9794921875000, 0.3183593750000, -0.2871704101562, -0.2451782226562, 0.2655639648438, -0.4046020507812, 0.1835327148438, -0.6868896484375, -0.3256225585938, 0.3949584960938, 0.3457031250000, -0.1732788085938, 0.3028564453125, 0.5451049804688, 0.6322631835938, 0.3004150390625, 0.8294067382812, -0.2363281250000, 0.1452636718750, 1.0643310546875, -0.1909790039062, -0.4874267578125, -0.1985473632812, 0.0177001953125, -0.9928588867188, -0.1420288085938, 0.0914916992188, -0.1126098632812, 0.2178955078125, -0.8997192382812, 1.1945190429688, 0.3171386718750, 0.3183593750000, -0.6821899414062, 0.1141357421875, -0.0436401367188, -0.0030517578125, -0.0781860351562, 0.0930175781250, -0.5825195312500, 0.3138427734375, 0.6135864257812, -0.0061035156250, 0.5714111328125, 0.5272216796875, -0.6707763671875, 1.3512573242188, 0.4711914062500, -0.4250488281250, 0.8010253906250, 0.4671630859375, -0.6386718750000, -0.0338134765625, 0.5070800781250, 0.2709960937500, 0.3599853515625, 0.5532226562500, -1.1105957031250, -0.3380737304688, -0.7350463867188, -0.3057861328125, 0.8565063476562, -0.3070068359375, -0.0935668945312, 0.0695190429688, -0.4596557617188, -0.2058715820312, 0.0577392578125, 0.9511718750000, -0.2073974609375, 0.2770385742188, -0.1445312500000, 0.7600708007812, -0.0015869140625, -0.2468872070312, 0.2838745117188, 0.6116333007812, 0.2279052734375, 0.7862548828125, -0.3571777343750, 0.6138916015625, -0.3159790039062, 0.4400024414062, 0.9567871093750, -0.0032348632812, -0.1994018554688, 1.1751708984375, 0.7688598632812, -0.4347534179688, 0.2317504882812, 0.2104492187500, 0.0402832031250, 1.1876220703125, -0.1606445312500, 0.7504882812500, 0.3584594726562, 0.4971313476562, 0.0910644531250, 1.5880126953125, -0.7425537109375, -0.3370361328125, -0.8394165039062, 0.2769775390625, -0.4824829101562, 0.7479248046875, 0.6920776367188, -0.5319213867188, -0.7398071289062, 0.2716674804688, -0.8063354492188, -0.4932250976562, 0.2949829101562, -0.9217529296875, 0.3958129882812, -0.1128540039062, -0.5264282226562, 0.8386230468750, 0.9544067382812, -0.3504638671875, 0.1271362304688, -0.1794433593750, -1.1954345703125, -0.3062133789062, -1.4940185546875, 0.4637451171875, 0.4918823242188, 0.0941772460938, 0.4826049804688, 0.7453613281250, 0.1780395507812, -1.1737060546875, -0.3535156250000, -0.2113037109375, -1.6598510742188, -0.2395629882812, 0.1604003906250, 0.0645141601562, 0.3538818359375, 0.2309570312500, 0.6362304687500, 0.9361572265625, -0.2944946289062, 1.0711059570312, -0.1254272460938, 0.2542724609375, 0.3254394531250, -0.7791137695312, 0.7806396484375, -0.0464477539062, -1.0213623046875, 0.6293334960938, -0.2589721679688, -0.3339233398438, -0.3473510742188, -0.4729003906250, -0.3140869140625, -0.0944213867188, -0.0682983398438, 0.3552856445312, 0.0253906250000, 0.0086059570312, -0.5289306640625, 0.4066772460938, 0.6460571289062, -1.2021484375000, -0.1946411132812, 0.8340454101562, 0.6760253906250, -0.2156982421875, 0.9143066406250, 0.1596069335938, -0.0936279296875, 0.1465454101562, -0.3293457031250, 0.2336425781250, 0.7062988281250, -0.4807128906250, 0.9144287109375, -0.3215942382812, 0.4064941406250, 0.6057128906250, 0.7334594726562, -0.9603881835938, 0.4332275390625, -0.0266723632812, -0.7872314453125, -0.2455444335938, -1.0141601562500, 0.5865478515625, 0.6860351562500, -0.3833618164062, 0.0763549804688, -0.0848388671875, 0.4972534179688, -0.8949584960938, -0.2061157226562, -0.3161621093750, -0.8036499023438, -0.4790649414062, -0.2482910156250, -0.0418090820312, 0.6580810546875, -0.0080566406250, -0.4019775390625, -0.1566162109375, -0.4138793945312, 0.0231933593750, -0.0432128906250, 0.0601196289062, 1.1200561523438, -0.6318359375000, 0.3839111328125, -0.1656494140625, 0.3458251953125, 0.5953369140625, -0.1566772460938, 0.0136108398438, 0.2059936523438, -0.2000732421875, 0.5010986328125, 0.4188842773438, -0.2218017578125, -0.5357666015625, -0.1003417968750, -0.4327392578125, -0.2609252929688, 0.3193359375000, 0.3500976562500, -0.3677368164062, -0.0180664062500, 0.8908081054688, 1.1833496093750, 0.0886840820312, 0.5888061523438, 0.0636596679688, 0.6067504882812, -0.6958618164062, -0.2416381835938, 0.6030273437500, -0.1801147460938, 0.2998657226562, 0.6969604492188, 0.4255981445312, -0.0130004882812, 0.1958007812500, 0.6230468750000, -0.4959106445312, 0.4727172851562, -0.3627319335938, -0.8418579101562, -0.7841796875000, -0.9707031250000, -0.5166625976562, 1.3718872070312, -0.3348999023438, 0.0411987304688, -0.1724853515625, 0.3225708007812, -0.9312744140625, -0.4348144531250, -0.4372558593750, -0.2186889648438, -0.0838623046875, -0.2517700195312, -0.0079956054688, 0.1015625000000, -0.4390869140625, -0.9016723632812, 0.5453491210938, -0.1798706054688, 0.1439208984375, 0.1520385742188, 0.0675048828125, 0.6660156250000, 0.5169067382812, 0.9859619140625, 0.1377563476562, 0.3103637695312, 0.7531127929688, 0.1488647460938, -0.0524902343750, 0.3985595703125, -0.1360473632812, 0.4083251953125, 0.7565917968750, -0.1804809570312, -0.2178344726562, 0.4746704101562, 0.0426025390625, 0.2789306640625, 0.7366333007812, 0.1930541992188, -0.0918579101562, -0.8703613281250, 0.1566162109375, 0.5893554687500, -0.3236083984375, 0.3694458007812, 0.4219360351562, -0.3602905273438, -0.1389770507812, -0.8123168945312, -0.1188354492188, -0.1625976562500, -0.7833862304688, 0.6607055664062, 0.4661254882812, 0.0047607421875, 0.5856323242188, 0.9004516601562, 0.2948608398438, -0.1339111328125, 0.2820434570312, -1.4277343750000, -0.5543823242188, -0.9645385742188, -0.5457153320312, 1.3372192382812, 0.2178955078125, -0.2556762695312, 0.7092285156250, 0.2593994140625, -1.1464843750000, -0.5773925781250, 0.4744873046875, -0.3120117187500, -0.0640869140625, -0.5612182617188, -0.2780151367188, 0.2658691406250, -0.1328735351562, 0.1022949218750, -0.1953735351562, 1.3599853515625, 0.6524047851562, 0.5358276367188, 0.1797485351562, -0.4249267578125, 0.2683105468750, 0.7306518554688, 0.0541992187500, -0.4386596679688, 0.2402954101562, 0.4242553710938, -0.3233642578125, 0.2686767578125, 0.2150268554688, -0.0281982421875, 0.2998046875000, -0.3086547851562, 1.4205322265625, 0.1010131835938, 0.3552856445312, -0.6182250976562, -0.1231079101562, 0.1641845703125, -0.4774780273438, -0.3185424804688, 0.1865844726562, -0.4602661132812, -0.4747924804688, 1.0640258789062, 0.4393310546875, 0.5502929687500, -0.4077758789062, 0.6292724609375, 1.5341186523438, 0.0797729492188, -0.1090087890625, 0.9517822265625, 0.4735717773438, -0.5189819335938, -0.5418701171875, -0.3340454101562, -0.9918823242188, 0.1039428710938, 0.6342163085938, -0.7349853515625, -0.3475341796875, -0.5565795898438, 0.0269165039062, 0.0319213867188, -0.6153564453125, -0.5419921875000, -0.7169799804688, -1.0505981445312, 0.2954711914062, -0.5667724609375, 0.3572387695312, 0.3728027343750, -0.0866088867188, 0.9035034179688, 0.2674560546875, 0.0949707031250, -0.6030273437500, -1.0822753906250, -0.2114868164062, 0.0408325195312, -0.3690795898438, -0.1726684570312, 0.0874633789062, 0.3649291992188, 1.5333251953125, -0.5120849609375, -0.2404785156250, 0.3205566406250, 1.1600341796875, 1.3751831054688, -0.5582885742188, -0.2802734375000, 0.6546630859375, 0.5812377929688, 0.3464355468750, 0.9674682617188, -1.1707763671875, 0.4351806640625, -1.3176879882812, 0.5582275390625, 1.2729492187500, -1.5225830078125, 0.5144653320312, -1.3231811523438, 0.3922119140625, 0.9847412109375, 0.8805541992188, 0.0443115234375, 0.2966918945312, 0.5192871093750, 0.0618896484375, -0.2873535156250, 0.6010742187500, -0.1110229492188, -0.0924682617188, 0.6427612304688, 0.6324462890625, 0.1342163085938, 0.2332763671875, 0.6942749023438, 0.1275024414062, 0.3287353515625, 0.1719970703125, -0.8151245117188, -0.2444458007812, -1.1487426757812, 0.6185913085938, -0.1176757812500, -0.6303100585938, -0.1547851562500, 0.0275878906250, 0.3886108398438, 0.3853759765625, 0.0586547851562, 0.1616210937500, 0.7720336914062, -0.0855102539062, -0.6583862304688, 0.2106323242188, 0.2991943359375, -0.2980957031250, 0.4598388671875, 0.3746337890625, -0.2774047851562, 0.4491577148438, -0.2125244140625, 0.1795043945312, 0.3673095703125, -0.4524536132812, 0.5137329101562, 0.2137451171875, -1.4724121093750, 0.5892944335938, 0.4976806640625, 0.3327026367188, 0.4177856445312, -0.2377929687500, -0.1262817382812, -0.3089599609375, 0.2572021484375, 0.5665283203125, 0.1936035156250, -0.5574340820312, 0.2584838867188, 0.6712036132812, 0.2634887695312, -0.4285888671875, 0.1033325195312, 0.4600219726562, 0.6923217773438, -0.2553710937500, 0.4117431640625, 0.4281005859375, 0.2187500000000, 0.3305053710938, -0.6499633789062, 0.9536743164062, 0.1991577148438, 0.0381469726562, 0.5444335937500, 0.1308593750000, -0.9117431640625, -0.0270996093750, -0.1477661132812, -0.9063720703125, 0.1715698242188, -0.1956176757812, -0.4782104492188, -0.2151489257812, 0.0492553710938, 0.0683593750000, -0.3428344726562, -0.5479125976562, -0.2980346679688, 0.0439453125000, -0.7579345703125, -0.1588745117188, 0.0939941406250, -0.2857055664062, 0.2098388671875, 0.0461425781250, 0.1129150390625, 0.4237670898438, 0.2016601562500, -0.4323730468750, -0.1548461914062, 0.1367187500000, -0.3843383789062, 0.1375122070312, -0.2040405273438, 0.0686645507812, 0.4805297851562, 0.7193603515625, 0.0619506835938, 0.1279907226562, 0.2121582031250, 0.9520263671875, 0.5992431640625, -0.1549072265625, 0.1083984375000, -0.0493774414062, 0.3673706054688, 0.2644042968750, 0.6163330078125, -0.1222534179688, 0.2064819335938, -0.8391723632812, 0.2880249023438, 0.1546630859375, -0.4328002929688, -0.4046630859375, -0.2139892578125, 0.4445800781250, 0.6981201171875, 0.1489868164062, 0.0954589843750, 0.0894165039062, -0.9153442382812, 0.1698608398438, 0.0016479492188, -0.4863891601562, 0.4443969726562, -0.3391723632812, 0.2069091796875, -0.1693115234375, 0.4791259765625, 0.3071899414062, 1.4144897460938, 0.3368530273438, -0.4508666992188, -0.1774902343750, -0.8565063476562, -1.3414916992188, -1.0775756835938, -0.2916870117188, 1.3315429687500, 0.5989990234375, -0.6213989257812, 0.3980712890625, 0.1677856445312, -0.6288452148438, -1.3282470703125, -0.0273437500000, -0.4508056640625, -0.5054321289062, -1.5742187500000, -0.5198974609375, 0.4595947265625, -0.1365966796875, 0.4425048828125, 0.0671386718750, -0.2766723632812, 0.4096069335938, 0.3427734375000, 0.1854858398438, 0.2022094726562, 0.3398437500000, 1.1506347656250, -0.8001708984375, -0.0895385742188, -0.0333251953125, -0.4663696289062, 0.0094604492188, -0.4176635742188, 0.5249633789062, -0.4791870117188, 0.8264770507812, -0.6148681640625, 0.4797363281250, -0.5009765625000, 0.3560180664062, -0.9833984375000, 0.8234252929688, 0.2510986328125, -0.6065063476562, -0.7595214843750, 0.5198974609375, -0.2421264648438, -0.1544799804688, -0.4821777343750, 1.1404418945312, -0.2282104492188, 1.0948486328125, -0.6740722656250, 0.6959228515625, -0.9028320312500, 0.5096435546875, 0.3775634765625, 0.1857299804688, 0.5178222656250, 0.7923583984375, 0.7589111328125, 0.3110351562500, 0.1639404296875, -0.6631469726562, -0.2324218750000, -0.9099731445312, -0.7865600585938, -0.0126953125000, -0.1014404296875, 0.1453857421875, -0.4451904296875, -0.8168334960938, -0.5255737304688, -0.3754882812500, 0.8069458007812, -1.4973144531250, 1.3359985351562, -1.7556762695312, 0.1885375976562, -0.0189819335938, -0.5468139648438, -0.0401000976562, -0.6358032226562, 0.4315185546875, -0.4179077148438, 0.8333129882812, -0.0001220703125, 0.5628662109375, 0.0924682617188, -0.1185302734375, -0.5396728515625, 0.2390136718750, -0.6318359375000, 0.7182617187500, -0.4051513671875, -0.2025146484375, 1.3825683593750, -0.3699951171875, -0.0604248046875, -0.5545654296875, 0.4790039062500, 1.1967773437500, -0.3831176757812, -0.4604492187500, -0.3679809570312, 0.0048217773438, -0.1356811523438, 1.0061645507812, 0.1419067382812, 1.8751831054688, 0.3991699218750, -0.7174682617188, 1.0189819335938, 0.6760253906250, -0.1553344726562, 0.5534667968750, -0.9442138671875, 1.4462890625000, -0.0527954101562, -0.2854003906250, 0.8606567382812, 0.9170532226562, -0.8347167968750, 0.4101562500000, 0.9885864257812, 1.0104980468750, -0.0599365234375, 1.2176513671875, -1.2576293945312, -0.6735839843750, -0.1115722656250, -0.4188842773438, 1.4639892578125, 0.0219116210938, -1.0150756835938, 1.0650024414062, 1.2301635742188, -0.4802856445312, -0.5932006835938, 1.3195800781250, 0.5147094726562, 0.0230712890625, -0.7555541992188, -0.2366333007812, -0.4157714843750, -0.0237426757812, 0.5831298828125, -0.0705566406250, 0.8558349609375, 0.2209472656250, 0.4547119140625, 0.4774169921875, -1.2949829101562, 0.1263427734375, 1.1573486328125, -0.6095581054688, 0.0963134765625, 0.2632446289062, 0.1646118164062, -0.6705932617188, -0.1728515625000, 0.4086914062500, 0.8816528320312, 0.7862548828125, -0.3751831054688, 1.4298706054688, 0.3837890625000, -0.0717163085938, -0.4624633789062, 0.6267089843750, 0.1252441406250, -0.5473022460938, -0.2474975585938, 0.6142578125000, -0.7650146484375, 0.4912109375000, 0.3811035156250, -0.0478515625000, 0.0160522460938, 0.4298706054688, 0.0017089843750, 0.4488525390625, 0.1182250976562, -0.3748779296875, 0.5360717773438, -0.8707885742188, 0.0681762695312, 0.1223144531250, 1.0851440429688, -0.1608886718750, 0.5050048828125, 0.1194458007812, -1.0889282226562, -0.1737060546875, -0.0889892578125, 0.7656250000000, 0.5015258789062, -0.2965087890625, -0.4575195312500, 0.4389648437500, -0.0961303710938, -0.4625244140625, 0.6054687500000, 0.5307617187500, -0.0247802734375, -1.1326293945312, -0.2707519531250, 0.1380615234375, 0.4754638671875, 0.2745971679688, 0.1015625000000, 0.6856079101562, -0.1675415039062, 0.6286010742188, -0.1561279296875, 0.6945800781250, -0.4135742187500, -0.4616699218750, 0.3720092773438, -0.3852539062500, -0.2499389648438, 0.4854125976562, -0.1311645507812, -0.6305541992188, -0.3740844726562, 0.2283935546875, -0.4905395507812, 1.5352783203125, 0.5357666015625, 0.4628295898438, 0.3236694335938, -0.7521972656250, 0.1832275390625, 0.7405395507812, 0.1536865234375, -0.7581787109375, -0.5733032226562, 0.6472778320312, 0.0655517578125, -0.7055664062500, 1.1201171875000, -0.2931518554688, 1.5568847656250, -0.3754882812500, -0.3056640625000, 0.7394409179688, 0.3556518554688, 0.0270996093750, 0.0213623046875, 0.0747680664062, -0.3641967773438, -1.7839965820312, 0.4473876953125, 1.2918701171875, 1.1844482421875, 0.3446044921875, -1.2048950195312, 0.4614868164062, 0.7694702148438, 0.1566772460938, 0.5023193359375, -0.9175415039062, 0.3500366210938, 0.1373291015625, 0.2499389648438, -0.3662109375000, 1.5443115234375, 1.2266235351562, -0.2914428710938, -0.6883544921875, 0.3467407226562, 1.9407348632812, 0.5122680664062, 0.0054321289062, 0.4108886718750, 1.2159423828125, -0.7838745117188, 1.4154663085938, -1.6303100585938, -0.5797729492188, -0.2611694335938, -0.3154907226562, 0.6813964843750, 0.8662719726562, -0.4723510742188, 0.2294311523438, 0.1960449218750, 0.8950195312500, -0.3808593750000, -0.8632202148438, 0.5686645507812, 0.8604125976562, 0.2131958007812, 0.3428955078125, 1.3928222656250, -0.3567504882812, 1.4219360351562, 0.9077148437500, -0.3911132812500, -0.8286743164062, -0.6191406250000, 0.2272338867188, -0.6912231445312, 0.8537597656250, 0.1176757812500, -0.2990112304688, 0.0029296875000, -0.7808227539062, 0.3908691406250, 0.5510864257812, 0.4565429687500, 0.7445068359375, 0.2263183593750, 0.3859252929688, 0.5005493164062, -0.0696411132812, 0.4605712890625, -0.7424926757812, -0.0670166015625, -0.2238159179688, -1.0926513671875, -0.4713134765625, -0.8069458007812, -0.1386718750000, 0.9262084960938, -0.2804565429688, 0.1328735351562, -0.1693725585938, 0.0296020507812, -0.6806030273438, 0.2652587890625, 0.3745727539062, -0.1340332031250, -0.1190795898438, -0.3903808593750, 0.0539550781250, 0.8482055664062, 0.2256469726562, 0.2713623046875, 0.5700683593750, -0.0297241210938, 0.2025146484375, 0.1624145507812, 0.3522338867188, 0.5921630859375, 0.5552368164062, 0.0258178710938, -0.3937377929688, 0.9329223632812, -0.1397705078125, 0.0299072265625, 0.5256347656250, -0.5755004882812, 0.2470092773438, -0.6307983398438, 0.0193481445312, -1.4762573242188, -0.3556518554688, 0.4024658203125, -1.4155883789062, -0.1303710937500, 0.6713867187500, 0.5034179687500, -0.5983886718750, -0.5458984375000, -0.5397949218750, 0.5761718750000, 0.5248413085938, 0.7131347656250, 0.4191894531250, 0.1807250976562, -0.0337524414062, -0.7638549804688, 0.4208374023438, 0.4176025390625, 0.3350830078125, 1.6721191406250, -0.1614379882812, -0.0762939453125, 0.0462646484375, 0.4122924804688, -1.7337036132812, 0.2039184570312, 0.1180419921875, -0.7991333007812, -0.4001464843750, -0.5775146484375, 0.8908081054688, 0.6289672851562, -0.7365722656250, -0.0852050781250, -0.7312011718750, -0.0708007812500, -1.1608276367188, -0.0968017578125, 0.1801147460938, -0.7286376953125, -0.8076171875000, 0.1918334960938, 0.4336547851562, 0.1115112304688, -0.8986206054688, -0.7582397460938, 0.3123168945312, 0.1477050781250, 0.0856323242188, -0.4732055664062, 0.4716186523438, 0.5630493164062, 0.7114257812500, -0.0740966796875, 0.3297729492188, 0.0937500000000, 1.0505371093750, -0.4490356445312, 0.3287963867188, 0.5601196289062, 0.8269042968750, 0.4451293945312, 0.6287841796875, -0.4383544921875, 0.4619140625000, 0.5057373046875, -0.4204101562500, 0.7356567382812, 0.1201171875000, 0.3864746093750, -0.0787963867188, -1.3096923828125, 0.9848022460938, 1.7991333007812, 0.0711669921875, 0.0159912109375, 0.8543090820312, -0.1212158203125, -0.1387329101562, -0.8981323242188, 0.8811645507812, -0.6033935546875, -0.1333618164062, 0.1417846679688, 0.1943969726562, 0.0238037109375, 0.1817626953125, 0.4628295898438, 0.5667724609375, -0.0257568359375, 0.3125000000000, -1.0504760742188, -0.6868896484375, -0.6499023437500, -0.9165039062500, 1.0277099609375, 0.2334594726562, -0.1008300781250, 0.7855834960938, 0.2514648437500, -0.7005615234375, 0.1753540039062, 0.9434204101562, 0.2406005859375, -0.9254760742188, -0.2290649414062, 0.1409912109375, 0.1893920898438, -0.0200195312500, 0.3392333984375, 0.2175292968750, -0.0704345703125, 0.5845336914062, -0.0759887695312, -0.2323608398438, 0.2542724609375, 0.5656127929688, 1.4829101562500, -0.3211059570312, -0.4515380859375, 0.1809082031250, 0.5832519531250, -0.1298217773438, 0.1728515625000, 0.2493286132812, 0.4358520507812, 0.3533325195312, -0.8725585937500, 0.7389526367188, 0.6072998046875, -0.0726928710938, -0.4119262695312, 0.7744750976562, 0.5851440429688, -0.5663452148438, -0.5557250976562, 0.4638061523438, -0.0860595703125, 0.5855712890625, 0.8152465820312, -0.4119873046875, 0.4700927734375, 0.3653564453125, -0.3743286132812, -0.1220703125000, 0.5765991210938, -0.0030517578125, -0.3051757812500, -0.3708496093750, -0.1114501953125, -0.6316528320312, 1.0372924804688, -0.1134033203125, 0.6055908203125, -0.2792968750000, -0.8978271484375, -0.2199096679688, -0.4213867187500, -0.0821533203125, 1.2468872070312, -1.1214599609375, 0.6007690429688, 0.3098754882812, -0.0728759765625, -1.4403686523438, 0.5019531250000, 0.1865234375000, -0.6052856445312, 0.1784057617188, -0.4443359375000, 0.7610473632812, 0.7094116210938, 0.4853515625000, 0.2196655273438, 0.5422973632812, -0.2102661132812, 0.7299804687500, -0.7316894531250, -0.4075927734375, 0.6007690429688, -0.9992675781250, 1.0132446289062, 0.5203247070312, -0.3942260742188, 0.0670776367188, -0.2361450195312, 0.5871582031250, -0.0183105468750, -0.5520019531250, -0.4609375000000, -0.2611694335938, -1.1080322265625, 0.5447387695312, 0.8542480468750, -0.2868652343750, 0.6327514648438, 0.5346679687500, 0.5186767578125, -0.8602294921875, 0.3399047851562, -0.1848144531250, 0.2609252929688, 0.9381713867188, -0.2955932617188, 0.3336791992188, -1.0920410156250, 0.8254394531250, -0.8713989257812, -0.3864135742188, -0.5344238281250, -0.2581787109375, -0.1189575195312, -0.4183349609375, 0.2899169921875, 0.3750610351562, 0.9253540039062, 0.3633422851562, -0.2423095703125, -0.3479003906250, -0.8228149414062, -0.9898681640625, -0.9705200195312, -0.3859252929688, 1.1727294921875, 0.4991455078125, -0.6221313476562, 0.9464111328125, 0.6989746093750, -0.7977294921875, -0.2152709960938, 0.0534667968750, -0.2807006835938, -0.5683593750000, -0.4599609375000, -0.3643798828125, 0.2905273437500, -0.4783325195312, 0.0223999023438, 0.2574462890625, 0.1470336914062, 0.9171752929688, 0.2487792968750, 0.5742187500000, -0.3783569335938, -0.0986328125000, 0.8737792968750, -0.2012329101562, -0.3429565429688, 0.2457885742188, -0.6983642578125, -0.0011596679688, 0.2273559570312, -0.2868652343750, -0.7947998046875, 0.1676635742188, -1.0225830078125, 1.0870361328125, -0.2437133789062, 0.0782470703125, -0.4144287109375, 0.3193359375000, 0.1268310546875, -0.3553466796875, -0.0513916015625, 0.7720947265625, -0.2495727539062, 0.2948608398438, 0.5677490234375, -0.8643798828125, 0.0612182617188, 0.2185058593750, -0.3529663085938, -0.4715576171875, 0.4247436523438, 0.2127685546875, 0.9373168945312, -0.5285034179688, -0.7765502929688, -0.7611694335938, 1.1192626953125, -1.4762573242188, 1.3157958984375, -0.1712036132812, -1.1958007812500, -0.1856689453125, -0.0200805664062, 0.2355346679688, 0.7022705078125, -1.5907592773438, 0.7870483398438, 0.2659301757812, -0.5351562500000, -1.0179443359375, 0.6349487304688, 0.4616699218750, -0.7955322265625, 0.2979736328125, -0.2846069335938, 0.9742431640625, 0.6451416015625, -0.2338867187500, 0.4127807617188, 1.1134033203125, -0.4541625976562, 1.2160034179688, -0.7860717773438, 0.3391113281250, 0.2070312500000, -0.8606567382812, 0.1740112304688, 0.5032958984375, -0.9114379882812, 0.2694702148438, -0.5341186523438, 0.9060058593750, -0.4147338867188, -0.3234863281250, -0.3844604492188, -0.2950439453125, -0.3839111328125, 0.3328247070312, 0.5889282226562, -0.0503540039062, 1.5323486328125, 0.4389648437500, 1.0421752929688, -0.8613281250000, -0.9301147460938, 0.5017700195312, -0.0573730468750, 0.3523559570312, 0.4861450195312, 0.0658569335938, 0.6791381835938, 0.0194091796875, -0.1198730468750, 0.8096923828125, 0.2079467773438, 0.1314697265625, 0.3863525390625, 0.0302124023438, -0.2976684570312, -0.4978637695312, 0.6994628906250, -0.7178344726562, 0.2808837890625, 0.5056762695312, -1.0814819335938, -0.1519775390625, -0.7126464843750, 0.0197143554688, 0.2296142578125, -0.3670043945312, -0.6435546875000, 0.1480102539062, 0.0273437500000, -0.5818481445312, -0.5239257812500, 0.2399291992188, -0.3613281250000, -0.1907348632812, 0.2156372070312, -0.2950439453125, 0.8284301757812, -0.4044799804688, -0.1373901367188, -0.1467895507812, 0.7540893554688, -0.0849609375000, -0.0607910156250, -0.1267700195312, 0.3765869140625, 0.4016723632812, 0.2597656250000, -0.3498535156250, 0.1128540039062, 0.3826293945312, 0.4185791015625, -0.0337524414062, 0.0272216796875, 0.5844116210938, 0.6708374023438, 0.2459716796875, -0.0985717773438, 0.1898193359375, 0.4870605468750, -0.8517456054688, -0.2485961914062, 0.4520874023438, 0.2590942382812, 0.0236206054688, -0.7982788085938, -0.1406250000000, 0.1027221679688, -0.2800292968750, 1.0317382812500, 0.3474121093750, 0.0453491210938, 0.5106201171875, -1.0613403320312, 0.5902099609375, -0.8393554687500, 0.4458618164062, 0.4484252929688, -0.8901977539062, 0.4663696289062, 0.0006713867188, 1.2676391601562, -0.0309448242188, 0.0420532226562, 0.6091918945312, -0.8165283203125, 0.0043334960938, -0.7481079101562, 0.3016357421875, 1.3507080078125, -0.1517944335938, 0.6926269531250, 0.0172729492188, 0.6823120117188, -1.9212036132812, 0.4620361328125, 0.5676879882812, 0.1925048828125, -0.7149047851562, -0.1459350585938, 0.4389038085938, 1.0391235351562, 0.8717041015625, 0.6337890625000, 0.5993652343750, -0.2120971679688, 0.9425048828125, -0.4151611328125, -0.2119140625000, -0.2265625000000, -1.0993041992188, 0.9567871093750, 0.5083618164062, 0.1586914062500, -0.0072631835938, 0.3068847656250, 0.2723388671875, 0.4318237304688, -0.3569946289062, 0.3848876953125, -0.0371704101562, -1.4402465820312, 0.6029052734375, 0.4830932617188, -0.3027343750000, 0.5662231445312, 0.3120117187500, 1.0142822265625, -1.3258666992188, 0.2388305664062, 1.0220947265625, -0.0099487304688, -0.3969116210938, 1.0161132812500, -0.3672485351562, 0.2459716796875, -0.1365356445312, 0.1701049804688, 0.8235473632812, 0.6172485351562, 1.1454467773438, 0.5758666992188, 0.6738281250000, -0.4260253906250, -0.0952148437500, 0.1304321289062, -0.2247314453125, 0.2104492187500, 0.1500854492188, -0.9574584960938, -0.1463623046875, -0.0494384765625, -0.1133422851562, 0.0791015625000, -0.1920776367188, 0.2803955078125, -0.3206176757812, 0.3132934570312, 0.2886352539062, 0.0653686523438, 0.4691772460938, 0.5633544921875, 0.4378662109375, 1.0129394531250, 0.6985473632812, 0.5852661132812, 0.1267700195312, 0.5025634765625, 0.4786987304688, -0.5167846679688, -0.2304077148438, -0.2324218750000, 0.0286865234375, -0.1618652343750, 0.0567626953125, -0.5603637695312, 0.3895263671875, 0.9230346679688, 1.2359619140625, 0.7812500000000, 0.4560546875000, -0.0171508789062, 0.1131591796875, 0.8820800781250, -0.0398559570312, 0.0554199218750, -0.7640380859375, 0.5947875976562, -0.9942626953125, 0.4944458007812, 1.0233764648438, -0.9086914062500, -0.1660766601562, -0.5869140625000, -0.3151245117188, 0.6684570312500, 0.0780639648438, 0.5308837890625, 0.0210571289062, 0.3679199218750, 0.3528442382812, -0.5649414062500, 0.2913208007812, 0.0009155273438, -0.4978637695312, -0.5090332031250, 0.0189819335938, -0.1614990234375, -0.4172363281250, 0.6981201171875, -0.4268798828125, -0.0619506835938, -0.0012817382812, -0.4357299804688, -0.3151245117188, -0.2451782226562, -0.4860839843750, 0.5209350585938, 0.0223388671875, -0.4907226562500, 0.5532836914062, 0.0555419921875, 0.0821533203125, 0.2082519531250, 0.2139282226562, -0.1812744140625, 0.2843017578125, -0.4309082031250, -0.0755615234375, 0.7692260742188, 0.0474853515625, -0.0670776367188, -0.0910644531250, 0.2857055664062, 0.3722534179688, -0.1231079101562, 0.0852050781250, 0.8582763671875, 0.6506958007812, 0.1189575195312, -0.4614257812500, -0.1060791015625, 0.4876098632812, 0.0708618164062, -0.0769653320312, 0.1565551757812, 0.2254638671875, -0.4568481445312, -0.1030883789062, -0.1877441406250, -0.1066894531250, -0.0949707031250, 0.4399414062500, 0.2731933593750, 0.1230468750000, 0.0404052734375, -0.0140991210938, 0.4369506835938, -0.5030517578125, -0.0402832031250, -0.4130859375000, 0.9646606445312, 0.4757690429688, 0.4420776367188, 1.2238769531250, -1.3208618164062, 0.6932983398438, 0.2954101562500, 0.3207397460938, 1.7965087890625, -0.0268554687500, 0.0603637695312, 0.1497192382812, 0.9374389648438, 0.3552246093750, -0.1020507812500, 0.3499755859375, -1.2542114257812, 0.2229614257812, -0.4124755859375, 0.4860229492188, 1.0417480468750, -0.2978515625000, -0.0753784179688, 0.0399780273438, 0.2398071289062, -1.3336181640625, 0.4839477539062, 0.4731445312500, 0.0767822265625, -0.9881591796875, -0.6732788085938, 0.2778320312500, 0.1654663085938, -0.3693847656250, 0.1225585937500, 0.0950927734375, -0.6519775390625, -0.0492553710938, -0.1472167968750, 0.2534790039062, -0.3878784179688, 0.2785644531250, 1.1814575195312, -0.2579956054688, -0.3623657226562, 0.4618530273438, -0.3554077148438, 0.1217651367188, 0.6967163085938, 0.8530883789062, 0.9604492187500, 0.5707397460938, -0.5261840820312, 0.4497680664062, 0.6251220703125, -0.8858642578125, 0.0823974609375, 0.3576049804688, 0.3002929687500, -0.9132080078125, -0.0172119140625, 1.0338134765625, -0.7077636718750, 0.4876708984375, 0.5249633789062, 0.4956054687500, 0.1011352539062, -0.3031005859375, 0.5368041992188, 0.7216186523438, 0.7514038085938, 0.2968750000000, 0.0726928710938, 0.2571411132812, -0.0979003906250, -0.6616210937500, -0.5313720703125, 0.8193359375000, 0.1589355468750, 0.4701538085938, 0.0549316406250, 0.3965454101562, 0.0955200195312, -0.1704711914062, 0.1768798828125, 0.0196533203125, -0.4195556640625, -0.4951171875000, -0.4297485351562, 0.5039672851562, 0.3298339843750, 0.3112182617188, 0.6786499023438, -0.6395263671875, -0.0222778320312, 0.5954589843750, -0.0524291992188, -0.0196533203125, -0.1728515625000, 0.0354614257812, 0.0785522460938, 0.0005493164062, -0.4865722656250, 0.0460205078125, -0.4039916992188, 0.3727416992188, -0.0944824218750, -0.2677001953125, 0.0734252929688, 0.4218139648438, 0.0156250000000, -0.0842285156250, 0.0880126953125, 0.0460815429688, 0.5063476562500, -0.0142822265625, 0.3479003906250, -0.1679077148438, 0.4905395507812, 0.3767700195312, 0.3113403320312, -0.1354370117188, -0.8545532226562, 0.3713989257812, 0.1607666015625, 0.0246582031250, -0.5166625976562, 0.0149536132812, -0.1075439453125, 0.1242065429688, 0.1398315429688, -0.2247314453125, 0.1126098632812, -0.0363769531250, 0.3815917968750, 0.1097412109375, -0.4802246093750, -0.1688842773438, 0.2769165039062, -0.0308837890625, -0.0670166015625, 0.1103515625000, -0.1771240234375, -0.1327514648438, 0.3242187500000, 0.1968383789062, 0.0473022460938, -0.2828369140625, -0.2667236328125, 0.4254760742188, 0.0332641601562, -0.3336791992188, -0.0697631835938, 0.3992309570312, -0.0606079101562, -0.3679199218750, 0.0332031250000, 0.0252075195312, 0.1040649414062, -0.2222290039062, 0.2164916992188, 0.0511474609375, -0.1160278320312, -0.1665039062500, -0.1912231445312, -0.0133666992188, 0.0245971679688, 0.1542968750000, 0.0481567382812, -0.2213745117188, -0.0444946289062, -0.1385498046875, 0.1141967773438, -0.1491699218750, -0.2553710937500, -0.1008300781250, 0.4537353515625, -0.0358276367188, -0.1127319335938, -0.3975219726562, 0.0706176757812, -0.1664428710938, -0.5263061523438, 0.1231689453125, 0.0086669921875, -0.0854492187500, -0.2611694335938, 0.4010620117188, 0.0421752929688, -0.0005493164062, -0.1754150390625, -0.4405517578125, -0.3312377929688, -0.2326049804688, -0.1076049804688, 0.3275146484375, 0.3335571289062, 0.7285156250000, -0.3498535156250, 1.1119995117188, 0.2315673828125, -0.5223999023438, -0.0307006835938, 0.2669677734375, -0.1928100585938, 0.9165039062500, -0.0758666992188, 0.3855590820312, 0.3507690429688, -0.3694458007812, 0.9034423828125, -0.0249023437500, -0.6784667968750, -0.1718139648438, -0.5449218750000, -0.3934936523438, 0.0836181640625, -0.0321044921875, 0.6033325195312, -0.4649047851562, 1.2958984375000, -1.2883300781250, 0.4402465820312, -0.1890258789062, -0.3300170898438, 0.1414794921875, -0.4793090820312, -0.3352661132812, 0.2946166992188, -0.5682983398438, 0.2282104492188, 0.0024414062500, -0.7481689453125, 0.0959472656250, -0.5945434570312, -0.0515747070312, 0.3151245117188, 0.0876464843750, -0.3049316406250, 0.0440673828125, 0.7295532226562, 0.4555664062500, 0.3863525390625, -0.2755737304688, 0.7212524414062, 0.3923950195312, -0.2467651367188, -0.5398559570312, -0.1223754882812, -0.2732543945312, -0.5734863281250, 0.9629516601562, 0.2868041992188, 1.1015625000000, 0.5833740234375, -0.3892211914062, 0.5432739257812, -0.2412109375000, -0.0608520507812, -1.0926513671875, 0.2229614257812, -0.4591064453125, 0.9871826171875, 0.0535888671875, 0.3798828125000, 0.0233764648438, -0.3012084960938, -0.1270751953125, -0.1634521484375, 0.3583984375000, -0.2533569335938, 0.9545898437500, 0.2140502929688, -0.2304077148438, -0.4765014648438, -0.6841430664062, 0.4726562500000, 0.6583862304688, -0.7597656250000, -0.6845703125000, 0.4226074218750, -0.3644409179688, -0.6751708984375, 0.9057617187500, 0.0021972656250, -0.0704345703125, -0.1355590820312, 0.0273437500000, 0.3820190429688, 0.8112792968750, -0.4813842773438, -0.5170288085938, 0.3955078125000, 0.0881347656250, 0.6051025390625, -0.5016479492188, -0.5701904296875, 1.2303466796875, 0.8790283203125, -0.4561767578125, 0.7393188476562, 0.0473632812500, 0.3632202148438, -0.4825439453125, -0.2418823242188, 0.3919677734375, 0.4847412109375, -0.0292358398438, -0.4612426757812, -0.0828247070312, 0.1607666015625, 0.0838623046875, -0.4675903320312, -0.2500000000000, -1.2288818359375, 0.2727050781250, 0.3562011718750, -0.7230224609375, -0.3410034179688, -0.1080322265625, -0.2635498046875, -0.0700683593750, -0.7802124023438, 1.4679565429688, -1.1232299804688, -0.0510864257812, 0.1848144531250, 0.2037353515625, -0.0947265625000, -0.3695068359375, -0.9071044921875, 0.1145629882812, -0.3841552734375, 0.2602539062500, -0.1213989257812, 0.3855590820312, -0.1735839843750, -0.0293579101562, 0.0245971679688, -0.1261596679688, 0.2022094726562, 0.5218505859375, 0.1915893554688, 0.1771240234375, -0.0579223632812, -0.3874511718750, -0.1539306640625, -0.0275878906250, 0.5298461914062, -0.6434326171875, 0.0056152343750, -0.1512451171875, -0.1525268554688, -0.0496826171875, 0.4669799804688, 0.1693725585938, 0.2186889648438, 0.8462524414062, 0.2864990234375, 0.2918701171875, -0.3475341796875, -0.1510009765625, -0.1251220703125, 0.1260375976562, -0.7245483398438, -0.0936279296875, 0.1607055664062, -0.1601562500000, 0.0584106445312, -0.1771240234375, -0.3411865234375, 0.0156250000000, 0.3663940429688, 1.0510864257812, 0.0701904296875, 0.5056762695312, -0.5571289062500, 0.2750244140625, 0.2709350585938, -0.6638793945312, 0.0979003906250, 0.7533569335938, -0.5728759765625, 0.2117309570312, -0.2979125976562, 0.0397338867188, 0.0532836914062, 0.4479370117188, -1.1596679687500, 0.9960937500000, 0.7167358398438, 0.2044677734375, -0.0155029296875, -0.1688842773438, 0.4679565429688, -0.2893066406250, 0.3209838867188, 0.9714965820312, 0.7506103515625, -0.0053710937500, -0.2269897460938, 0.6596069335938, 0.7405395507812, 0.9592285156250, 0.2448730468750, 0.1968994140625, 0.2260742187500, 0.0723266601562, 0.1932373046875, 0.1784667968750, 0.6214599609375, 0.3468627929688, 0.5022583007812, -1.1085815429688, -0.3688354492188, 0.8998413085938, -0.3195190429688, 0.0615234375000, 0.7576293945312, 0.6192626953125, -0.5100097656250, 1.1876831054688, -0.5639038085938, -0.1217651367188, -0.7013549804688, -0.4992065429688, 0.4125976562500, 0.4862670898438, -0.8960571289062, 0.1145629882812, -0.4110107421875, 0.4130859375000, -0.4539184570312, -0.8711547851562, 0.2404785156250, 0.5756835937500, -0.1398925781250, 0.3650512695312, 0.3662109375000, -0.0083618164062, 0.1165161132812, 0.5231933593750, 0.3115234375000, -0.1777954101562, 0.3442382812500, 0.4625854492188, -1.1743774414062, -0.8690185546875, -0.1216430664062, 0.3034667968750, 0.6185913085938, 0.0115966796875, 0.8161621093750, 0.7582397460938, 0.4980468750000, -0.2308349609375, 0.2032470703125, 0.0922241210938, 0.1948242187500, -0.3103027343750, -0.6163330078125, -0.1143798828125, 0.5905761718750, -0.0507812500000, 0.6329956054688, 0.4014282226562, 0.1015625000000, -0.5324096679688, -0.4035034179688, -0.1215820312500, 0.6219482421875, -0.1597900390625, -0.8843994140625, 0.3281250000000, 0.6101684570312, -0.4880981445312, -0.2875976562500, -0.0291137695312, -0.2220458984375, 0.6486206054688, -0.1482543945312, -0.1996459960938, -0.4844360351562, 0.2421875000000, -0.3813476562500, -0.0933837890625, -0.2088012695312, -0.4057006835938, -0.3252563476562, -0.2200927734375, 0.1856689453125, 0.3337402343750, 0.2002563476562, -0.6957397460938, 0.2075195312500, 0.6239013671875, 0.6293945312500, -0.4782104492188, 0.2785034179688, -0.0432128906250, 0.8164062500000, -0.4395141601562, 0.1900024414062, -0.2191162109375, 0.9182739257812, -0.0960693359375, -0.6489257812500, 0.4712524414062, -0.5698852539062, 0.0014038085938, -0.1956787109375, 0.5429077148438, -0.1052246093750, -0.2970581054688, -0.3712768554688, -0.4928588867188, 0.1342163085938, -0.3684692382812, -0.8380126953125, -0.1871948242188, 0.1286621093750, -0.2847290039062, 0.2975463867188, 0.5552368164062, 0.3139648437500, -0.1159667968750, -0.8745117187500, -0.0366210937500, -0.0833740234375, -0.3225097656250, -0.4424438476562, -0.3554687500000, 0.3518676757812, 1.1023559570312, -0.7339477539062, 0.6952514648438, 1.0028076171875, -0.2443847656250, -0.8594360351562, -0.2203979492188, -0.6796264648438, -0.0556640625000, -0.2535400390625, -0.6675415039062, 0.3392944335938, 0.7533569335938, 0.4047241210938, -0.5362548828125, 0.0147705078125, -0.3742675781250, 0.3659667968750, 0.3141479492188, 0.5012207031250, 0.6169433593750, 0.7136840820312, -0.5841064453125, -0.0925903320312, -0.0772094726562, -0.4630126953125, -0.3724365234375, 0.1287841796875, 1.0025024414062, -0.7957763671875, -0.1454467773438, -1.8352661132812, -0.3031005859375, -0.2283325195312, -0.5655517578125, -0.3225708007812, 0.0507812500000, -0.0963134765625, 0.8176879882812, 0.4313354492188, -0.7709350585938, 0.3389282226562, 0.2933349609375, 0.2121582031250, -0.6370239257812, -0.0830688476562, -0.4643554687500, 0.4043579101562, 0.0812377929688, 0.5773925781250, -1.5162963867188, 0.5147094726562, 0.2999877929688, -0.1555175781250, 0.2913818359375, 0.1933593750000, 0.2831420898438, -0.0924072265625, 0.3414916992188, -0.4622192382812, -0.0061645507812, -0.2817993164062, -0.2902832031250, 0.4265136718750, -0.0336914062500, -0.7426147460938, 0.2085571289062, 0.7063598632812, 0.1763305664062, -0.2482910156250, -0.0867919921875, 0.0107421875000, 0.6379394531250, -0.0870971679688, -0.0632934570312, 0.6935424804688, 0.0340576171875, 0.1989135742188, -0.3157348632812, 0.4056396484375, 0.0205688476562, 0.1637573242188, -0.1275024414062, -0.3719482421875, 0.5922851562500, 0.6622314453125, -0.6897583007812, 0.0715942382812, 0.2982788085938, -0.0861816406250, -0.2300415039062, -0.3864746093750, 0.4193115234375, -0.1295776367188, -0.1654663085938, -0.1746215820312, 0.3560180664062, -0.1917114257812, 0.2919921875000, -0.5478515625000, 0.1218872070312, 0.4461059570312, 0.2037963867188, -0.4536132812500, -0.3840942382812, 0.5458374023438, -0.0090942382812, -0.0326538085938, 0.6452636718750, 0.0841064453125, -0.1140747070312, 0.4188232421875, -0.0562744140625, -0.1250610351562, 0.3854980468750, 0.7611694335938, 0.1193237304688, 0.0463256835938, -0.3704833984375, 0.1235351562500, 0.1677856445312, 0.0034790039062, 0.0384521484375, 0.2948608398438, 0.0628662109375, 0.1527099609375, -0.0131835937500, -0.3970336914062, 0.0360107421875, 0.5746459960938, 0.1038818359375, 0.0325927734375, -0.2814941406250, 0.1827392578125, -0.0834960937500, 0.0344848632812, -0.3988037109375, -0.2014160156250, 0.4174804687500, -0.0169677734375, -0.2213745117188, 0.4075927734375, 0.0314941406250, 0.1405029296875, 0.0546264648438, -0.3277587890625, 0.3225708007812, -0.3005371093750, -0.1134643554688, -0.1494140625000, -0.0942382812500, -0.1421508789062, 0.0534057617188, 0.3602905273438, 0.1942138671875, 0.0475463867188, -0.0190429687500, -0.0488891601562, 0.0299072265625, -0.4185791015625, -0.1583251953125, -0.0029907226562, 0.2829589843750, 0.2413940429688, 0.1610717773438, 0.0300292968750, 0.7288818359375, 0.5538330078125, -0.1046752929688, -0.4232177734375, -0.3707885742188, 0.7706909179688, 0.3072509765625, -0.4414672851562, 0.1339721679688, 0.3413696289062, 0.9592895507812, -0.3524780273438, 0.1811523437500, 0.1643676757812, 1.7080078125000, -0.1751098632812, -0.1225585937500, 0.1556396484375, -0.0747680664062, 0.0187988281250, 0.3943481445312, -0.3052978515625, -0.2778320312500, -0.1348876953125, -0.5411987304688, 0.5656127929688, -0.1185913085938, -0.2910766601562, -0.2980346679688, -0.2896118164062, -0.0980834960938, 0.8889160156250, 0.1656494140625, 0.2257080078125, -0.5850830078125, 0.1997070312500, 0.1923217773438, -0.0315551757812, 0.2473144531250, 0.1559448242188, -0.0692138671875, 0.1700439453125, 0.0453491210938, 0.1534423828125, -0.0632934570312, -0.3223876953125, 0.3831176757812, -0.0648803710938, 0.0249633789062, 0.0991210937500, 0.4508056640625, 0.1867065429688, -0.1950683593750, 0.3312988281250, 0.3334960937500, 0.1015014648438, 0.7217407226562, 0.0124511718750, 0.2664794921875, 0.2463989257812, -0.1812133789062, -0.0382080078125, 0.3466796875000, -0.1840209960938, 0.3356323242188, -0.2216796875000, 0.6348266601562, 0.0769042968750, 0.2209472656250, -0.2246093750000, 0.2704467773438, 0.0465698242188, -0.3882446289062, -0.0457153320312, -0.0630493164062, 0.3633422851562, 0.1701660156250, 0.0386962890625, 0.4475708007812, -1.0673828125000, 0.1649780273438, 0.6664428710938, 0.1188354492188, -0.0307006835938, -0.2115478515625, 0.0675048828125, 0.0328979492188, 0.1815795898438, 0.4462280273438, 0.1604614257812, -0.1377563476562, 0.0960083007812, -0.1824951171875, -0.1637573242188, -0.1145629882812, -0.0808715820312, -0.1643066406250, 0.0355834960938, 0.1997680664062, -0.3014526367188, 0.3060913085938, -0.3094482421875, 0.3071289062500, 0.4769897460938, -0.1773681640625, 0.4668579101562, -0.3731079101562, 0.2014160156250, -0.0399169921875, -0.1360473632812, 0.1425170898438, 0.0625000000000, -0.0040283203125, -0.1807861328125, -0.3154296875000, -0.1138305664062, -0.1356811523438, 0.1710815429688, 0.1776733398438, 0.2153930664062, -0.3883666992188, -0.2000122070312, -0.0250244140625, 0.0048217773438, 0.2857666015625, -0.0193481445312, -0.1170043945312, 0.0920410156250, 0.0469360351562, 0.1784667968750, -0.0777587890625, 0.1963500976562, -0.0957641601562, 0.0862426757812, 0.0575561523438, -0.1984863281250, 0.0639648437500, 0.2505493164062, -0.3855590820312, -0.0251464843750, 0.0601196289062, -0.8274536132812, -0.3795776367188, 0.3374023437500, -0.4380493164062, -0.0112304687500, -0.2222900390625, 0.0825195312500, -0.3013305664062, -0.0413208007812, 0.1566162109375, -0.0940551757812, 0.3933105468750, -0.0358886718750, -0.0546264648438, 0.1277465820312, 0.0920410156250, -0.1159667968750, 0.2290039062500, -0.2660522460938, -0.4117431640625, -0.3469848632812, -0.2666015625000, -0.1349487304688, -0.2254638671875, 0.0513305664062, 0.2668457031250, -0.1301269531250, 0.2380981445312, 0.1500244140625, 0.2825317382812, -0.2597045898438, 0.1259155273438, -0.1907348632812, -0.2189331054688, -0.2092285156250, -0.0280761718750, 0.2608642578125, -0.0130615234375, 0.2608032226562, -0.0442504882812, -0.0340576171875, -0.0485839843750, 0.0695190429688, -0.5541992187500, 0.0424194335938, -0.7085571289062, -0.1341552734375, 0.2993164062500, 0.0171508789062, -0.1414184570312, 0.0906372070312, 0.1645507812500, 0.4686279296875, -0.0247192382812, -0.0753784179688, -0.0051269531250, -0.1490478515625, -0.1881713867188, -0.5811157226562, 0.1157226562500, 0.1225585937500, -0.0615844726562, -0.1705932617188, -0.0697021484375, 0.1577148437500, 0.0205688476562, -0.3615112304688, 0.1699829101562, 0.4099121093750, -0.0989379882812, 0.0307617187500, 0.1396484375000, 0.2687377929688, -0.3901367187500, 0.0689086914062, -0.4036865234375, -0.0703125000000, 0.0206909179688, -0.0072021484375, -0.1098022460938, 0.3810424804688, 0.1251831054688, -0.4799194335938, -0.1081542968750, 0.2610473632812, 0.3705444335938, -0.1803588867188, 0.0371093750000, -0.0580444335938, -0.0215454101562, -0.0521240234375, -0.3967895507812, -0.1072387695312, -0.1726074218750, 0.2447509765625, 0.2902832031250, -0.1551513671875, 0.4890136718750, -0.0827026367188, -0.2581176757812, -0.4133300781250, 0.1022338867188, -0.1543579101562, 0.2014770507812, 0.1547851562500, 0.6207275390625, -0.1967773437500, 0.0949096679688, 0.0369873046875, -0.3588256835938, 0.0087280273438, -0.1705932617188, -0.4033813476562, 0.3363647460938, 0.3323974609375, 0.5400390625000, 0.2125854492188, 0.1097412109375, 0.2061157226562, -0.0775756835938, 0.0718994140625, 0.3403930664062, 0.2541503906250, 0.1266479492188, -0.2943725585938, -0.0894775390625, -0.3438110351562, -0.4340820312500, -0.0976562500000, -0.3789062500000, -0.2926635742188, -0.2725830078125, -0.0529785156250, 1.3075561523438, 0.1516113281250, 0.0505371093750, -0.1622924804688, -0.6303710937500, -0.6862792968750, -0.2958374023438, 0.5543212890625, -0.2859497070312, -0.0432739257812, -0.0283813476562, -0.4441528320312, -0.8019409179688, -0.5829467773438, -0.3601684570312, -0.2230224609375, -0.2528076171875, 0.0523681640625, -0.3126220703125, 0.1558227539062, 0.2337646484375, -0.1201171875000, 0.3731689453125, 0.3148803710938, -0.1857910156250, -0.2192993164062, 0.0344848632812, 0.0805053710938, 0.0871582031250, -0.0838623046875, 0.1482543945312, 0.2222290039062, 0.8522949218750, 0.0755004882812, -0.0406494140625, 0.4812011718750, 0.0864868164062, -0.3729248046875, 0.3641967773438, 0.1015014648438, 0.2384643554688, 0.3308105468750, -0.2550048828125, 0.0275268554688, 0.4030761718750, -0.1525268554688, -0.1737060546875, -0.9998779296875, 0.9393310546875, -0.1315307617188, 0.0654296875000, 0.1199951171875, 0.0318603515625, -0.3038940429688, -0.1037597656250, 0.3001098632812, -0.1139526367188, 0.2254638671875, -0.1701049804688, 0.5372924804688, -0.4848632812500, 0.1444702148438, -0.2342529296875, -0.0035400390625, -0.1112060546875, 0.1217651367188, -0.0802001953125, -0.2564697265625, -0.1403808593750, 0.0520629882812, 0.6820068359375, 0.4974365234375, 0.2311401367188, -0.1214599609375, -0.5480957031250, -0.4390869140625, -0.6295166015625, -1.0843505859375, -0.1229858398438, -0.4092407226562, -0.4592285156250, -0.1973876953125, -0.2789916992188, 0.2255859375000, -0.0456542968750, -0.1437988281250, -0.3947143554688, 0.2108764648438, -0.2366333007812, 0.0136108398438, -0.2227172851562, 0.1768188476562, 0.3557128906250, 0.1496582031250, -0.1820068359375, -0.4445190429688, -0.3736572265625, -0.1305541992188, -0.1707153320312, -0.4959716796875, 0.2258911132812, 0.0093383789062, -0.1797485351562, -0.6368408203125, -0.1839599609375, 0.3671875000000, -0.3213500976562, -0.0347900390625, 0.1102294921875, 0.3006591796875, -0.2303466796875, 0.1627197265625, 0.5292358398438, 0.3381347656250, -0.8621215820312, 0.2235717773438, 0.0844116210938, 0.1275634765625, -0.0278930664062, 0.9204711914062, 0.5841674804688, -0.0116577148438, 0.0342407226562, 0.4581909179688, 0.3395996093750, 0.1121215820312, -0.2190551757812, -0.1074829101562, 0.0156250000000, -0.1319580078125, 1.6473999023438, -0.0590820312500, 0.0095825195312, 0.0997314453125, 1.0836181640625, 0.3547973632812, -0.4102172851562, 0.0216064453125, -0.1251220703125, -1.1219482421875, 0.2163696289062, -0.0986328125000, 0.3417968750000, 0.3161621093750, 0.0781860351562, 0.1090698242188, 0.6004028320312, 0.0079956054688, -0.3803100585938, -0.9633178710938, 0.3281860351562, 0.7413330078125, 0.0427246093750, -0.4390258789062, -0.1607055664062, 0.4266357421875, 0.1791992187500, 0.1767578125000, 0.2601928710938, 0.2470703125000, 0.3265991210938, 0.4242553710938, 0.4869995117188, -0.2552490234375, -0.1472167968750, 0.3621826171875, 0.5425415039062, 0.7962646484375, -0.4382934570312, 0.4846191406250, 0.0050048828125, 0.4244384765625, 0.3539428710938, -0.8405151367188, 0.3491821289062, -0.6232299804688, 0.3373413085938, -0.0286865234375, -0.1670532226562, 0.0903930664062, -0.1213989257812, 0.1724243164062, 0.0864257812500, -0.1909179687500, 0.0241699218750, 0.1164550781250, 0.1104125976562, 0.1487426757812, 0.5786743164062, -0.1115722656250, 0.3225708007812, -0.0936279296875, 0.1567993164062, -0.1349487304688, -0.0918579101562, -0.0837402343750, -0.0892944335938, 0.2617797851562, -0.8131103515625, 0.0043945312500, -0.1560058593750, 0.0283813476562, 0.2603759765625, 0.0274658203125, 0.1981811523438, 0.0415649414062, 0.0028686523438, 0.0737304687500, -0.2557983398438, -0.2233276367188, -0.3151855468750, -0.2873535156250, -0.1369628906250, 0.1903686523438, -0.0487670898438, 0.2228393554688, 0.0101318359375, 0.0014648437500, 0.1978149414062, 0.1450195312500, 0.2331542968750, 0.1190795898438, -0.4179687500000, -0.1176757812500, -0.0649414062500, 0.0206298828125, 0.2211914062500, 0.0351562500000, 0.3214111328125, -0.1352539062500, 0.0625610351562, -0.1044921875000, 0.1738281250000, -0.3866577148438, -0.1011352539062, -0.2144775390625, 0.1003417968750, -0.1438598632812, 0.3792114257812, -0.1240844726562, -0.2594604492188, 0.0501708984375, -0.1943969726562, 0.2588500976562, 0.1701049804688, -0.0326538085938, -0.5371093750000, 0.1509399414062, 0.2753906250000, 0.5626831054688, 0.2958374023438, -0.0685424804688, 0.4176635742188, -0.0045166015625, 0.2576293945312, -0.1604003906250, -0.3121948242188, -0.4998168945312, 0.1884765625000, -0.4033813476562, -0.4272460937500, -0.3141479492188, -0.5610351562500, 0.0085449218750, 0.4177856445312, -0.5764770507812, -0.3313598632812, -0.3076782226562, 0.3583984375000, -0.9002685546875, -0.5033569335938, 0.2566528320312, -0.2900390625000, -0.1383666992188, -0.3544311523438, -0.1938476562500, -0.0851440429688, -0.2844238281250, -0.1846313476562, 0.3231201171875, -0.3767089843750, 0.5719604492188, 0.0336914062500, 0.1176757812500, 0.8880615234375, -0.1561889648438, 0.0014038085938, 0.5167846679688, 0.1323242187500, 0.2391357421875, -0.5584716796875, 0.0466918945312, 0.4022216796875, 0.2384033203125, 0.2501831054688, 0.3285522460938, -0.2690429687500, -0.3341064453125, 0.1044921875000, -0.5774536132812, 0.1930541992188, -0.5915527343750, 0.1420288085938, -0.4334106445312, -0.0878906250000, 0.6959838867188, -0.2322998046875, 0.1048583984375, -0.1836547851562, 0.0810546875000, -0.2612304687500, 0.2169189453125, -0.8010253906250, 0.5578002929688, -0.4398193359375, -0.3471069335938, 0.5085449218750, 0.0049438476562, 0.3130493164062, -0.2524414062500, 0.0310668945312, -0.2631225585938, 0.2283935546875, 0.1431884765625, -0.1028442382812, -0.3892822265625, -0.2203979492188, 0.3169555664062, 0.3441162109375, -0.1770019531250, -0.3331298828125, 0.3188476562500, -0.3618164062500, -0.6928100585938, -0.2877807617188, -0.5438232421875, 0.6020507812500, -0.1184692382812, -0.4064941406250, 0.1948852539062, 0.2702636718750, -0.2131347656250, -0.3071289062500, 0.2694091796875, -0.4155883789062, 0.0496215820312, 0.2183837890625, 0.2543945312500, 0.4810791015625, -0.4566040039062, -0.2343139648438, 0.3397216796875, 0.0247192382812, 0.0066528320312, -0.6569824218750, -0.4434814453125, 0.1679687500000, -0.1580200195312, -0.0226440429688, -0.1236572265625, -0.0407714843750, -0.4726562500000, -0.0520629882812, -0.4093627929688, -0.1130981445312, -0.3824462890625, 0.1871337890625, -0.1125488281250, -0.0995483398438, 0.2090454101562, 0.0967407226562, 0.9538574218750, 0.4114379882812, -0.1362915039062, -0.1403808593750, -0.1293334960938, 0.6456298828125, -0.4938354492188, 0.0538940429688, 0.5646972656250, -0.3186035156250, -0.2672729492188, -0.3034057617188, 0.3292846679688, 0.0122680664062, 0.2969970703125, 0.0346679687500, -0.6412963867188, -0.3444824218750, -0.1956787109375, -0.2158203125000, 0.0333862304688, -0.3336181640625, 0.1458740234375, -0.1016845703125, 0.0558471679688, -0.5291137695312, 0.0325317382812, 0.4767456054688, 0.2503051757812, -0.3739013671875, -0.0123291015625, 0.0184326171875, 0.1556396484375, 0.1204223632812, -0.0021972656250, 0.5995483398438, -0.1080322265625, 0.1958618164062, -0.2019653320312, 0.2534179687500, -0.0917358398438, 0.3670043945312, 0.3712158203125, 0.2214965820312, 0.2689819335938, 0.4818725585938, -0.3738403320312, -0.6086425781250, 0.2620849609375, 0.0355224609375, 0.3569946289062, 0.5704345703125, -0.2637939453125, 0.3333740234375, -0.0714721679688, -0.3975830078125, 0.1062622070312, 0.4989624023438, 0.1349487304688, -0.2005004882812, -0.1746215820312, 0.3888549804688, 0.1443481445312, 0.8012084960938, -0.3023681640625, -0.2839965820312, -0.7324829101562, 0.4926757812500, -0.5149536132812, -0.5544433593750, -0.0520629882812, -0.1235961914062, -0.3089599609375, -0.3445434570312, 0.1353149414062, 0.5668945312500, 0.7994995117188, -0.7443237304688, -0.5073852539062, -0.9488525390625, -0.5643920898438, -0.7175292968750, -0.7824096679688, 0.1615600585938, 1.7756347656250, 0.2475585937500, -0.5703735351562, 0.4357299804688, 0.3023681640625, -0.6973876953125, -1.1090698242188, -0.2819824218750, 0.1094360351562, -0.7634277343750, -0.4227294921875, -0.9351196289062, 0.2858276367188, -0.1429443359375, 0.3873291015625, -0.5897827148438, -0.4274291992188, -0.5142211914062, 0.9353637695312, 0.6559448242188, 0.1547851562500, 0.3270263671875, 0.1261596679688, -0.7990722656250, -0.8389892578125, -0.4149780273438, -0.4134521484375, -0.3525390625000, -0.5665893554688, 0.6540527343750, -0.3916015625000, -0.3516845703125, -0.0231323242188, 0.3493652343750, -0.3428344726562, -0.5109252929688, -0.8796386718750, 0.6055908203125, 0.9042358398438, -0.3822631835938, 0.1111450195312, 0.4382934570312, -0.3676147460938, 0.0139770507812, -0.4532470703125, 0.0593872070312, -0.2111206054688, -0.1343383789062, 0.3536987304688, -0.3912353515625, 0.6786499023438, 0.1430664062500, -0.0278930664062, 0.3908081054688, 0.0959472656250, 0.1249389648438, -0.3894653320312, -0.0554809570312, -0.4454956054688, 0.0935058593750, 0.0382690429688, 0.1777954101562, 0.4586181640625, -0.6032714843750, -0.3784790039062, 0.1126098632812, -0.3368530273438, -0.3286132812500, 0.1906738281250, 0.1173706054688, -0.9130249023438, -0.0806274414062, 0.5592651367188, 0.3347778320312, -0.1920166015625, -0.5718383789062, -0.0009155273438, 0.0013427734375, -0.2688598632812, -0.7761230468750, 0.2380371093750, -0.5633544921875, 0.4155273437500, -0.1810302734375, -0.4648437500000, 0.7719726562500, 0.0433349609375, -0.2804565429688, 0.4369506835938, -0.0512084960938, 0.6002197265625, -0.1727294921875, -0.2892456054688, -0.0894775390625, -0.0176391601562, -0.2780761718750, 0.1429443359375, -0.2374877929688, -0.2204589843750, 0.4882812500000, -0.2489624023438, 0.0741577148438, -0.0049438476562, 0.4020385742188, 0.1258544921875, -0.6744384765625, 0.0482788085938, -0.0503540039062, 0.1589965820312, -0.3648681640625, -0.2540283203125, 0.5410156250000, -0.6660766601562, 0.2140502929688, 0.2514648437500, -0.3489990234375, -0.4504394531250, -0.3563232421875, -0.4884643554688, 0.3828125000000, -0.7103271484375, -0.1542968750000, 0.1606445312500, 0.2905883789062, -0.0946655273438, 0.3146972656250, 0.5612182617188, 0.1963500976562, 0.4207763671875, -0.0563964843750, 0.5484619140625, -0.2210693359375, -0.0750732421875, -0.0322875976562, 0.3878784179688, 0.2250366210938, -0.6624755859375, 0.0555419921875, 0.4108276367188, 0.3441772460938, 0.0831909179688, 0.4644775390625, -0.2465820312500, -0.0076904296875, -0.1474609375000, 0.0510253906250, -0.2473754882812, -0.2396850585938, -0.1147460937500, -0.6692504882812, -0.0955810546875, 0.1223144531250, -0.3942260742188, -0.7385864257812, 0.6081542968750, 0.2628173828125, -0.2974853515625, -0.1484985351562, -0.0223388671875, 0.1816406250000, -0.2296142578125, -0.0643920898438, 0.5764770507812, 0.2659912109375, 0.0921630859375, 0.2474975585938, 0.0564575195312, -0.1828613281250, 0.3717651367188, -0.0626831054688, -0.3552856445312, 0.7730102539062, -1.2022094726562, -0.6148071289062, -0.3181152343750, 0.3531494140625, -0.9841918945312, -0.8212280273438, -0.3397827148438, -0.0791015625000, -1.0437622070312, -0.3026123046875, 0.4428100585938, 0.0240478515625, 0.4538574218750, 0.9526977539062, -0.1422729492188, -0.7005004882812, 0.6882934570312, -0.0629882812500, 0.1138305664062, 0.1256103515625, -0.0099487304688, 0.6257324218750, 0.1456298828125, 0.4608764648438, 0.6230468750000, -0.1567382812500, 0.2002563476562, -0.3377075195312, -0.2240600585938, 0.3261108398438, -0.4756469726562, -0.0891113281250, -0.1171875000000, 1.0298461914062, 0.8060913085938, -0.0914916992188, -0.0289916992188, 0.3474731445312, 0.3925170898438, 0.5311279296875, -0.6209716796875, -0.9855346679688, 0.1068115234375, 0.0249023437500, -1.1735839843750, -0.2570800781250, -0.7032470703125, -0.0697631835938, 0.0033569335938, -0.1293334960938, -0.9486083984375, -1.1463623046875, -0.3602905273438, 0.7907104492188, -0.5245361328125, 0.7094726562500, -0.0814819335938, -0.6618652343750, 0.9678955078125, 0.3087768554688, 1.3359985351562, 0.0756225585938, -1.1678466796875, 0.3193359375000, 0.0095825195312, 0.4290161132812, -0.0085449218750, -0.1530151367188, 0.4735717773438, 0.4788818359375, -0.0523681640625, 0.5600585937500, 0.8977050781250, 0.1270751953125, 0.3697509765625, 0.1596069335938, 0.4391479492188, -0.3829956054688, -0.4971923828125, 