//Numpy array shape [192]
//Min -0.393554687500
//Max 1.877380371094
//Number of zeros 0

#ifndef FBR2_H_
#define FBR2_H_

#ifndef __SYNTHESIS__
forward_recurrent_bias2_t fbr2[192];
#else
forward_recurrent_bias2_t fbr2[192] = {1.5708618164062, 1.0338745117188, 1.7073364257812, 1.2311401367188, 1.5128784179688, 1.3717651367188, 1.2540283203125, 1.6060180664062, 1.2711791992188, 1.3475341796875, 1.5079956054688, 1.2161254882812, 1.3398437500000, 1.5311889648438, 1.3486328125000, 1.2734985351562, 1.7152709960938, 0.6698608398438, 1.4454956054688, 0.9773559570312, 1.6813964843750, 1.3901367187500, 1.4125366210938, 1.1857910156250, 0.9677734375000, 1.5205078125000, 1.1669311523438, 1.4420166015625, 1.3466796875000, 1.3297119140625, 1.3200683593750, 1.1835937500000, 1.5021972656250, 1.3574829101562, 1.3107299804688, 1.6427612304688, 1.4188842773438, 1.2605590820312, 1.4250488281250, 1.3065795898438, 1.5691528320312, 1.5664062500000, 1.3483886718750, 1.6198120117188, 1.1134643554688, 1.3085937500000, 1.2252197265625, 1.1657714843750, 1.5176391601562, 1.7762451171875, 1.3251342773438, 1.2609863281250, 1.1722412109375, 1.4061889648438, 1.2618408203125, 1.4463500976562, 1.6574096679688, 1.5126342773438, 0.9129638671875, 1.6467285156250, 1.8773803710938, 1.5855712890625, 1.4990234375000, 1.5187377929688, -0.2745971679688, 0.1021118164062, -0.2414550781250, -0.0632324218750, -0.1439819335938, -0.0112304687500, -0.1166992187500, 0.5357666015625, -0.1177368164062, 0.3797607421875, -0.2047119140625, 0.2233886718750, 0.0081787109375, -0.0458984375000, 0.0314331054688, -0.0004882812500, 0.1019897460938, -0.0907592773438, -0.0824584960938, 0.3565063476562, -0.0771484375000, -0.3619384765625, 0.3831787109375, 0.3576049804688, 0.2826538085938, 0.1932373046875, -0.0056762695312, -0.0043945312500, 0.5545043945312, 0.0071411132812, 0.1660156250000, 0.2319335937500, -0.3366699218750, 0.2700195312500, 0.3189697265625, 0.0013427734375, 0.1165161132812, 0.2795410156250, 0.0299072265625, 0.5031738281250, 0.0698852539062, -0.1927490234375, 0.0748901367188, 0.3666992187500, 0.9226074218750, -0.1132202148438, 0.4680175781250, 0.1520385742188, 0.2816162109375, -0.0993652343750, 0.0462036132812, 0.2098999023438, 0.1355590820312, 0.1270751953125, 0.2509155273438, -0.3153076171875, -0.1730957031250, 0.1345214843750, 0.5371093750000, -0.0567016601562, -0.2023925781250, 0.0386352539062, -0.2625732421875, -0.3935546875000, -0.2553100585938, -0.0871582031250, -0.1660156250000, 0.0740356445312, 0.1688842773438, 0.1063842773438, -0.2140502929688, -0.0133666992188, 0.0410766601562, -0.0714721679688, -0.0145874023438, -0.0822143554688, -0.0908813476562, -0.1005249023438, -0.0697021484375, 0.0297851562500, -0.3159790039062, -0.1113891601562, -0.0722656250000, -0.1272583007812, 0.1110839843750, 0.0639038085938, 0.2236938476562, -0.0249633789062, 0.0338745117188, -0.0895996093750, -0.0633544921875, -0.3110351562500, 0.1222534179688, 0.0633544921875, -0.0590820312500, -0.0757446289062, 0.0149536132812, 0.0440673828125, -0.0257568359375, -0.1826782226562, -0.1152343750000, 0.0208129882812, 0.1109008789062, 0.0285034179688, -0.0850830078125, -0.1354370117188, -0.0932617187500, 0.2782592773438, 0.0871582031250, -0.0332031250000, 0.1537475585938, 0.1891479492188, 0.0711059570312, 0.1976318359375, -0.0025634765625, -0.0023803710938, 0.0505981445312, 0.1033935546875, 0.0496826171875, 0.0650634765625, -0.1303100585938, 0.1743774414062, 0.0615844726562, 0.1126708984375, 0.1980590820312, -0.0947875976562, 0.1071166992188, 0.1533813476562};
#endif

#endif
