//Numpy array shape [64, 192]
//Min -1.997497558594
//Max 1.972229003906
//Number of zeros 0

#ifndef FWR2_H_
#define FWR2_H_

#ifndef __SYNTHESIS__
forward_recurrent_weight2_t fwr2[12288];
#else
forward_recurrent_weight2_t fwr2[12288] = {-0.0093994140625, 0.5335083007812, 0.9633789062500, 0.3889770507812, -0.7645263671875, 0.4921264648438, -0.7873535156250, 0.2019042968750, -1.0115966796875, 0.3143310546875, 0.8711547851562, 0.5552978515625, -0.5533447265625, -0.3274536132812, 1.1369018554688, 0.0231933593750, -0.1332397460938, 0.3348999023438, 0.3322143554688, 0.0452270507812, -0.5622558593750, -0.7894287109375, 0.6022338867188, -0.0306396484375, -0.0804443359375, 0.3455200195312, -0.3207397460938, 0.8439941406250, 0.6258544921875, 0.0996093750000, 0.3837890625000, -0.4774169921875, -0.0531005859375, 0.2294921875000, 0.6497802734375, 1.1817016601562, -0.2444458007812, 0.8130493164062, 0.0623779296875, -0.7420043945312, 0.6785888671875, -1.0069580078125, -0.1522827148438, -1.5963745117188, 0.5872802734375, 0.1624145507812, -0.3125610351562, 0.9580688476562, -0.6784667968750, 0.1514282226562, -0.3175048828125, -0.2676391601562, 0.6739501953125, -0.1215820312500, 0.0152587890625, -0.4600219726562, 0.0477905273438, -1.1455078125000, -0.0208129882812, -0.6908569335938, 0.6965942382812, -0.3026123046875, -0.8060913085938, -0.8804321289062, 0.7984619140625, 0.5629882812500, 0.2281494140625, -0.1072387695312, -0.2734375000000, -0.0350952148438, -0.2569580078125, 0.2937622070312, 0.5469360351562, 0.0319824218750, 0.3426513671875, 0.3411865234375, -0.1432495117188, 0.0860595703125, 0.5073242187500, -0.5563354492188, -0.2420654296875, 0.7074584960938, 0.1503906250000, -0.5028686523438, -0.1757812500000, -0.4804687500000, 0.0762939453125, -0.9545288085938, 0.4808959960938, 0.3639526367188, -1.0200805664062, 0.5172729492188, -0.2022094726562, 0.0908203125000, -0.9655151367188, 0.1672363281250, -0.4060058593750, 1.0372924804688, 0.1293334960938, -0.4827880859375, -0.1613769531250, 0.8607177734375, 0.8707885742188, 0.3836669921875, -0.3193359375000, 0.0678710937500, 0.2395019531250, -0.0053100585938, 0.2420654296875, -0.6735839843750, -0.4179687500000, 0.9434204101562, 0.8562011718750, -0.3020019531250, 0.5414428710938, -0.0540161132812, 0.2066650390625, -0.8729858398438, -0.5134887695312, 0.2908935546875, 0.9115600585938, -1.1823730468750, -0.0566406250000, -0.3846435546875, 0.1286621093750, -0.5521850585938, 0.1280517578125, 0.0888671875000, 0.6397705078125, 0.8278808593750, -0.2179565429688, -1.1054687500000, -0.4968872070312, 0.3128051757812, -0.4779052734375, 0.5128784179688, -0.4453735351562, 0.2970581054688, 0.6508178710938, -0.7139892578125, 0.9631347656250, 0.3576660156250, 1.1026611328125, 1.1901855468750, -0.2954711914062, 1.3330688476562, 0.0823974609375, -0.3026733398438, 0.3270263671875, -0.8890380859375, 0.7136840820312, 0.3790283203125, -0.0424804687500, 1.0145874023438, -1.3064575195312, 0.6976928710938, -0.5889282226562, 0.4103393554688, -0.7076416015625, -0.2179565429688, -0.1645507812500, 0.1389160156250, 0.3904418945312, -0.2184448242188, 0.5979003906250, 1.1338500976562, 1.1894531250000, -0.6163940429688, -1.0759277343750, 0.1499023437500, -0.0942382812500, -1.3952026367188, 0.3831176757812, -0.1270751953125, 0.0999755859375, 0.2677612304688, 0.4801025390625, 0.5449829101562, 0.0370483398438, 0.1097412109375, 0.5244750976562, -0.9332275390625, -0.7112426757812, -0.4144897460938, 0.1865844726562, -1.5091552734375, -0.4374389648438, -0.1473999023438, 0.0077514648438, 0.2102661132812, -0.5526123046875, -0.6548461914062, 0.1459350585938, 0.1735839843750, 0.0131225585938, 0.5783691406250, -1.3535766601562, 0.8320922851562, -0.2272949218750, -0.8965454101562, -0.6727905273438, 0.5924682617188, -0.8397216796875, -0.5316772460938, -0.7189331054688, 0.0847167968750, 0.1450195312500, -1.0881958007812, -0.0831298828125, -0.3870849609375, 0.2692871093750, 0.1774291992188, 1.2890625000000, -0.8301391601562, 0.2884521484375, -1.2352905273438, -0.0260620117188, 0.7479858398438, -0.2667236328125, 0.5939331054688, 0.0372314453125, -0.5338134765625, 0.5825195312500, 0.4694824218750, -0.5139160156250, 0.4330444335938, 1.0717773437500, -0.0615844726562, -0.3463745117188, 0.8489379882812, 1.2808837890625, 0.1889038085938, 1.4608764648438, 0.6214599609375, 0.3010864257812, 0.0852661132812, -0.0270385742188, -0.1945190429688, 0.1286621093750, 0.5446777343750, -0.3903198242188, -0.2060546875000, -0.3386230468750, 0.9450073242188, 0.0985717773438, 0.2124023437500, 0.0095825195312, -0.3910522460938, -0.1530761718750, -0.7001342773438, 0.0209350585938, -0.5449218750000, -1.1256103515625, 0.1719360351562, -1.2824096679688, 0.2032470703125, 1.1467285156250, -0.2799682617188, 0.2866210937500, -0.4652709960938, -0.6663818359375, -0.5131835937500, -1.0474853515625, -0.4934692382812, 0.1223754882812, 0.2150268554688, 0.4598999023438, 0.1469726562500, 0.4551391601562, 0.4940185546875, 0.4190063476562, 1.0473022460938, 0.3670654296875, 0.4064331054688, -0.0041503906250, 0.0348510742188, -0.0734252929688, -0.4443359375000, 0.6860351562500, 0.6235961914062, -0.6225585937500, 0.1859130859375, -0.8280029296875, 0.3499145507812, 0.7706909179688, 1.2260131835938, -0.2952880859375, 0.1276855468750, 0.9426879882812, -0.0144042968750, 0.7468261718750, -0.3090209960938, -0.5307617187500, 0.9009399414062, 0.4456176757812, -0.6636352539062, -0.5334472656250, -0.4127807617188, 1.0489501953125, -1.4291992187500, -0.1564941406250, -0.8476562500000, 0.2265625000000, -0.2212524414062, 0.4703979492188, 0.7501220703125, -0.1134643554688, 0.1573486328125, 0.0014648437500, -0.5942382812500, 0.2689819335938, -0.6987304687500, 1.0204467773438, -1.2969360351562, -0.5940551757812, 0.4942016601562, -0.0339965820312, 0.7203369140625, -0.4324951171875, 0.6031494140625, 0.4544067382812, -1.2608642578125, 0.6066894531250, 0.0788574218750, 0.0866088867188, 0.2973022460938, -0.4760742187500, -0.3110351562500, 0.7468261718750, -0.3443603515625, -0.1618041992188, 0.8856811523438, 1.0183715820312, -0.3900146484375, -0.0131835937500, 0.6644287109375, 0.2062377929688, 1.1611328125000, 0.2234497070312, 0.8554687500000, -1.4462890625000, 0.1040649414062, 0.4239501953125, 0.6812133789062, -0.2420654296875, 0.1999511718750, -1.8480224609375, -0.1702270507812, 0.9059448242188, 0.4420776367188, 0.0452880859375, -0.0992431640625, 0.9811401367188, -0.2171630859375, 0.4000244140625, -0.1456298828125, 0.9934692382812, 1.2725830078125, 0.9231567382812, -0.6421508789062, 0.1444702148438, -1.2874145507812, -0.3437500000000, -1.3049926757812, 0.1481323242188, -0.3699340820312, 0.5559692382812, 0.4932250976562, 0.6740112304688, 1.1671752929688, -0.5916137695312, -0.2180175781250, 0.1282958984375, -1.7434692382812, -0.2244262695312, -1.0877685546875, 0.1546020507812, -0.5717773437500, -0.0513305664062, 0.0963134765625, 0.5343017578125, 0.0953979492188, 0.4002075195312, 0.1367797851562, -0.0574340820312, -0.4057617187500, 0.5705566406250, 0.0264282226562, -0.0407714843750, -0.5739746093750, -0.3786621093750, -0.3916625976562, -0.4169921875000, -0.5676879882812, 0.8560791015625, 0.8392944335938, 0.1766357421875, -0.4187622070312, 0.5449218750000, 0.4332275390625, 0.0840454101562, 1.0963745117188, 0.3159790039062, 0.3738403320312, -0.1791381835938, -0.6516723632812, 0.3197631835938, 0.7694702148438, -0.3854980468750, 0.4567260742188, -0.5104980468750, -0.0906372070312, 0.5819702148438, 0.1172485351562, 0.5714721679688, 0.9730224609375, 0.8150024414062, -0.2822875976562, -0.1881713867188, 0.1189575195312, 0.9578857421875, 0.2747192382812, -0.1312866210938, -0.4403076171875, 0.7910156250000, -1.6811523437500, 0.5956420898438, -0.3395385742188, 0.0504760742188, -0.0775146484375, -0.4528808593750, 0.7341308593750, 0.5761718750000, 0.3082885742188, -0.5753784179688, -0.4414672851562, 0.1781005859375, -0.2301025390625, 0.2882690429688, -0.0023803710938, -0.2790527343750, -0.8930664062500, -0.8899536132812, -0.5474243164062, 0.9754638671875, -0.0823974609375, -0.3350219726562, -0.1671752929688, 0.5462036132812, -0.4823608398438, 0.5556030273438, -0.2592163085938, -1.0814208984375, 0.4564208984375, -0.4236450195312, 0.3451538085938, -0.6264038085938, -0.0292358398438, -0.3533935546875, 0.1022338867188, 0.5810546875000, -0.3442993164062, 0.0155639648438, 0.4152221679688, 0.1349487304688, 0.6088867187500, 0.4111938476562, -0.0238647460938, 0.0129394531250, 0.2297363281250, -0.2086181640625, -0.3053588867188, -0.1401977539062, 0.6654663085938, -0.7896118164062, 1.2344360351562, 1.0712280273438, 0.4242553710938, 0.1883544921875, 0.8710937500000, 0.1304931640625, 0.0114746093750, 0.3895874023438, 0.0535888671875, 0.2615966796875, 0.3773803710938, 1.0315551757812, 0.9443969726562, 0.4359130859375, 0.2252807617188, 0.1380615234375, -0.8625488281250, 0.0686645507812, -0.1323852539062, -0.8486938476562, 0.8334960937500, 0.2794799804688, 0.7698364257812, 0.4382324218750, 0.3540039062500, 0.0016479492188, -0.4419555664062, -0.2278442382812, -1.1311035156250, -0.4978027343750, -0.8369140625000, 0.0576171875000, -0.6600952148438, -0.0988159179688, -0.8098144531250, -0.4971923828125, -0.2272949218750, 1.0836181640625, 0.6614379882812, 0.1194458007812, -0.1132202148438, -0.6489257812500, 0.2720336914062, -1.3027954101562, -0.6378173828125, -0.1411132812500, -0.0277099609375, 1.1455078125000, 0.0897216796875, 0.2562255859375, -0.1087646484375, 0.4888305664062, 0.0383300781250, 0.4506225585938, 0.4383544921875, -0.4276123046875, -0.3546142578125, 0.0792846679688, -0.8157348632812, 0.7198486328125, 0.3631591796875, -0.0868530273438, 0.3327636718750, -0.3613891601562, 0.5646362304688, 0.2715454101562, 0.4404907226562, -0.7966918945312, 0.1391601562500, -0.4340209960938, -0.8608398437500, 0.4633789062500, -0.2738037109375, -0.4950561523438, 0.7620239257812, 0.5239257812500, 0.1257324218750, -0.6350097656250, -1.0770263671875, 0.5867919921875, -0.8187866210938, 0.0052490234375, -0.2318115234375, 0.8328857421875, -0.8343505859375, 1.4192504882812, 1.0857543945312, -0.5924072265625, 0.4572143554688, -0.4260253906250, -0.3746948242188, -0.4168090820312, 0.3342895507812, 1.4931640625000, -1.4307861328125, 0.5834960937500, 0.1483154296875, 0.1110229492188, -0.0048828125000, 0.0684814453125, -0.7120971679688, 0.2132568359375, -0.6322021484375, 0.5925903320312, 0.0312500000000, 0.5050659179688, -0.0027465820312, -0.6217651367188, -0.2507324218750, -0.8374023437500, 0.0933837890625, -0.1228027343750, 0.4019165039062, 0.4570922851562, -0.2496948242188, 0.1687622070312, 0.2179565429688, 0.4978027343750, 0.5518798828125, -0.4135131835938, 0.2044067382812, -0.1009521484375, 0.0584716796875, -0.2916870117188, 0.3578491210938, 0.0917968750000, -0.0429077148438, -0.0887451171875, 0.8605957031250, -0.2225341796875, 0.5592041015625, -1.0346069335938, 0.3009033203125, 0.7820434570312, 0.8249511718750, 0.2091674804688, -0.0729980468750, 0.7400512695312, 1.1755371093750, -0.1565551757812, -0.0817260742188, -0.3338623046875, -0.0272827148438, -0.7480468750000, -1.3181152343750, -0.4573974609375, -0.4405517578125, 0.6965332031250, 0.6483154296875, -0.2821655273438, 0.2928466796875, 0.1797485351562, 0.1206665039062, 0.2164916992188, -0.5704345703125, -0.1293334960938, -0.1589355468750, 0.5822753906250, -1.0219726562500, -0.0626220703125, -0.1283569335938, 0.5316162109375, -0.1417846679688, 0.3526611328125, 0.1448364257812, 1.1811523437500, 0.6044311523438, 0.9539794921875, 0.3709716796875, -0.3396606445312, 0.1807250976562, -0.6850585937500, -0.7613525390625, 0.2277221679688, 1.0244750976562, -0.1400756835938, 0.6934204101562, 1.0359497070312, 0.0802001953125, 0.4066772460938, 0.7098388671875, 0.7661132812500, 0.7774047851562, -0.4305419921875, -0.5936889648438, 0.4157104492188, -1.6228637695312, -0.2555541992188, 0.2713012695312, -0.2135620117188, 0.4943237304688, -0.3645019531250, 0.9877319335938, 0.2815551757812, 0.6218261718750, -0.0774536132812, 0.9423217773438, 0.5438232421875, 0.2298583984375, 0.9282226562500, 0.6824951171875, 0.7502441406250, 0.9650268554688, 0.2614746093750, -0.4901733398438, -0.4167480468750, 0.3508300781250, 0.3183593750000, -1.8255004882812, 0.5767822265625, 0.1535644531250, -0.1210937500000, 0.6770019531250, -0.5530395507812, -0.1343994140625, -1.0425415039062, -0.1280517578125, 1.2020874023438, -0.0829467773438, 0.5529785156250, 0.0164794921875, 0.7577514648438, -1.4165649414062, 0.5217895507812, 0.1355590820312, 0.0435180664062, -0.1472167968750, -0.4557495117188, 0.2463989257812, 0.4365844726562, 0.3536987304688, -0.0844116210938, 0.3834838867188, -0.2427368164062, 0.5976562500000, -0.5834960937500, -0.3416137695312, -0.2037353515625, -0.2863769531250, -0.0601196289062, -0.7275390625000, -0.6070556640625, 0.4667968750000, 0.2019653320312, 0.7967529296875, -0.2524414062500, 0.3141479492188, -0.7223510742188, -0.0205078125000, -0.1561889648438, 0.2056274414062, -0.2311401367188, 0.1597900390625, 0.4650878906250, 0.0609130859375, -0.7437744140625, 0.8903198242188, 0.0578002929688, -0.4245605468750, -0.1610107421875, 0.8970336914062, 0.1126708984375, 0.5215454101562, 0.1799926757812, -0.0599365234375, 0.0057373046875, 0.3240966796875, 0.2050781250000, 0.2471923828125, -0.1409912109375, 0.2565307617188, 0.4138793945312, -0.8690795898438, 0.3392944335938, 0.6704101562500, -0.1427612304688, 0.0030517578125, -0.2814331054688, 0.5169677734375, -0.1898803710938, 0.4187622070312, 0.3194580078125, -0.8119506835938, 0.1896362304688, -0.1939697265625, -0.1583251953125, -1.0386962890625, 1.1881103515625, 0.0300292968750, -0.5396728515625, 0.3938598632812, -0.0062255859375, -0.1589355468750, 0.7174072265625, 0.0630493164062, -0.3482055664062, 0.0535278320312, -0.3833618164062, 0.1827392578125, -1.0349121093750, -0.6509399414062, -0.0859375000000, 0.2563476562500, -0.8142089843750, -0.2292480468750, 0.9663085937500, 0.1327514648438, -0.1000366210938, -0.4567260742188, 0.0568847656250, 0.3713378906250, 0.6362304687500, 0.2965087890625, 0.7926025390625, -0.1840209960938, -0.4356079101562, -0.8452148437500, 0.5941772460938, 0.5010986328125, -0.7195434570312, 0.7622680664062, 0.0533447265625, 0.4873657226562, -0.3489379882812, 1.1370849609375, 0.2058105468750, -0.4624633789062, 0.5475463867188, 0.1087646484375, -0.0902099609375, 0.8245849609375, 0.3218383789062, 0.9372558593750, 0.1371459960938, 0.2256469726562, -0.5009155273438, -0.5200195312500, -0.7805175781250, -0.1606445312500, -0.8692016601562, -0.0343017578125, 0.6945190429688, 0.3074340820312, 0.5095825195312, -0.0647583007812, -0.2805175781250, -0.6373901367188, -0.5084228515625, -0.2642822265625, 0.1585083007812, -0.5453491210938, -0.4021606445312, 0.7775268554688, -0.5059204101562, -0.0747070312500, 0.1774291992188, 0.5179443359375, 0.7388916015625, -0.9342041015625, 0.5993041992188, -0.1174316406250, -0.5685424804688, -0.9183959960938, -0.7546386718750, 0.4371337890625, -0.4304809570312, -0.0444335937500, 0.0803833007812, 0.0770874023438, 0.1826171875000, -0.1609497070312, 0.7870483398438, 1.3143310546875, 0.2426757812500, 1.5029907226562, 0.6013793945312, -0.0650024414062, -0.2888183593750, -0.8421630859375, 0.2325439453125, 1.4161987304688, -0.3010864257812, 1.2300415039062, -0.9008178710938, 0.4426879882812, 1.1919555664062, 0.8784790039062, 0.7462768554688, 0.1218872070312, 0.0947265625000, -0.3894653320312, 0.3774414062500, 0.0834960937500, -0.3446044921875, 0.9091186523438, 0.2935791015625, -0.1583251953125, -0.3602294921875, -1.5115966796875, 0.5762329101562, -1.1950683593750, -0.2833251953125, -0.6469726562500, 0.0006103515625, 0.6243896484375, 0.2457275390625, 0.9669189453125, -0.4180908203125, -0.8293457031250, 0.0270385742188, -0.7756347656250, -0.6458129882812, -0.0063476562500, 0.5401611328125, -1.0532226562500, -0.9638671875000, -0.4844360351562, 0.8787231445312, -0.0584106445312, -0.3515014648438, -0.9683837890625, 0.9161376953125, 0.3118286132812, 1.2403564453125, -0.5119018554688, -0.0036010742188, 0.5568847656250, -1.5911865234375, -0.1248779296875, -0.1173706054688, 0.9470214843750, -1.0555419921875, 0.0865478515625, 1.4104003906250, 0.0598754882812, 0.3816528320312, 1.1387329101562, 0.3895874023438, 0.8401489257812, -0.0913085937500, 0.3990478515625, 0.0269775390625, 0.2601318359375, 1.0255126953125, 0.4776000976562, 0.2277221679688, 0.5034179687500, -0.6364135742188, 0.4305419921875, 0.1678466796875, 0.9193725585938, -0.1037597656250, 0.8880615234375, 0.5102539062500, -0.1093139648438, 0.8825683593750, 0.0103149414062, 0.3599853515625, 1.1181030273438, 1.6337890625000, -0.3442993164062, -0.2574462890625, 0.9527587890625, -0.1024780273438, -1.4763793945312, -0.6144409179688, -0.3300781250000, -0.0393676757812, 0.9455566406250, 0.6899414062500, 0.1457519531250, 0.0932617187500, 0.5069580078125, 0.1938476562500, -0.5061035156250, -0.1842651367188, -0.5649414062500, 0.1563720703125, -0.9764404296875, 0.2287597656250, -0.0460815429688, -0.0455322265625, -0.4800415039062, -0.4918823242188, 0.2094116210938, -0.0552978515625, -0.0767822265625, -0.0833740234375, 0.1046752929688, -0.9407958984375, -0.6770019531250, -0.0021972656250, -1.3302001953125, -0.8602294921875, 0.2091674804688, 0.0923461914062, -0.0519409179688, 0.3829345703125, 0.3329467773438, 0.6797485351562, -0.3535766601562, -0.4149780273438, 0.4096679687500, 0.4671630859375, 0.8403930664062, 0.4027709960938, -1.4875488281250, -0.1173706054688, -0.7893066406250, -0.2025146484375, 0.5948486328125, -0.8974609375000, 0.9359130859375, -0.1939697265625, 0.2371215820312, 0.6032104492188, 0.5686035156250, 0.0644531250000, 0.1395263671875, 0.4421997070312, 0.2420043945312, 0.0484008789062, 0.5227661132812, 0.5848999023438, 0.6123657226562, 0.6906127929688, 0.1539306640625, 0.6935424804688, 0.3074951171875, -0.8335571289062, -0.3635864257812, 0.1774291992188, 0.2387084960938, 0.0140380859375, -0.0167236328125, 0.5002441406250, 0.6478271484375, -0.5839233398438, 0.0179443359375, -0.0521240234375, 0.0073852539062, 0.1078491210938, -0.6478271484375, 0.1034545898438, -0.4856567382812, 0.0286254882812, 0.0618896484375, -0.5706787109375, -0.4382934570312, 0.7292480468750, -0.2026367187500, 0.3068237304688, 0.1697387695312, 0.2210083007812, 0.5162963867188, -1.0473022460938, -0.1185302734375, -0.2536010742188, 0.5194702148438, 0.0305175781250, 0.3465576171875, -0.0379028320312, 0.0782470703125, -0.3770751953125, -0.4661865234375, -0.3192138671875, 0.0845336914062, 0.1743164062500, -0.1647338867188, -0.1172485351562, -0.0451660156250, 1.4396972656250, -0.7633666992188, 0.0404663085938, 0.0264282226562, -0.9483032226562, -0.1011962890625, 0.7907104492188, 0.0717163085938, 0.0285644531250, 0.4158935546875, 0.5913696289062, 0.2755737304688, 0.8355712890625, 0.6098022460938, 0.9321899414062, 1.4502563476562, -0.6373901367188, -0.5567016601562, 0.2284545898438, -0.4823608398438, -0.5758056640625, 0.1674804687500, -1.0549316406250, -0.5750732421875, -0.2044677734375, 0.6528930664062, -0.1981201171875, 0.2913208007812, -0.9672241210938, 0.4808349609375, -0.1079711914062, -0.2989501953125, -0.2136840820312, -0.1075439453125, 0.4415283203125, -1.2811889648438, -0.8907470703125, -1.0570068359375, -0.0552978515625, -0.4107666015625, 0.0653076171875, -0.6973876953125, 0.6302490234375, 0.2534790039062, -0.4869384765625, -0.1151733398438, -1.0762329101562, -0.3989868164062, -0.7534179687500, -0.4442138671875, -0.9049072265625, 0.6921386718750, -0.2498779296875, -0.4630126953125, -0.3457031250000, -0.4337158203125, 0.6463012695312, -0.5766601562500, 0.4677734375000, 0.5408325195312, 0.1951293945312, 0.0194091796875, 0.7736816406250, -1.1227416992188, -0.1101684570312, -0.5532226562500, 0.6856079101562, 0.7228393554688, 0.0719604492188, 1.5889892578125, 0.5683593750000, -0.4125976562500, 0.3308105468750, 1.1121215820312, -0.4332885742188, 0.5564575195312, 0.6682128906250, 0.1564941406250, -0.3336791992188, 0.4486083984375, 0.5001220703125, 0.3311767578125, -0.1228027343750, 0.3078613281250, 0.1944580078125, 0.3187866210938, -0.4049682617188, -0.0226440429688, -0.3673706054688, 1.0308837890625, -0.2314453125000, -0.5350952148438, -0.2283325195312, 1.0088500976562, 0.2651977539062, 0.5839843750000, -0.2848510742188, -0.5040893554688, 0.5188598632812, -0.5261840820312, -0.0848999023438, -1.0482177734375, -0.9656982421875, -0.3436889648438, -0.9723510742188, -0.9866943359375, 0.6309814453125, 0.4193115234375, 0.5734252929688, 0.0666503906250, 0.2362670898438, 0.1583862304688, -0.5512084960938, 0.0299072265625, 0.4489135742188, 0.2860717773438, -0.1509399414062, 0.3200073242188, 0.8742675781250, -0.0770263671875, -0.1849365234375, 0.3026733398438, 0.5834350585938, 0.6434936523438, 0.4410400390625, 0.8267211914062, -0.7385253906250, -0.0308227539062, 0.4255371093750, -0.3480834960938, 0.5657348632812, 0.6062011718750, -1.2661132812500, -0.1531982421875, 0.6285400390625, 0.6639404296875, 0.3922729492188, 0.1221923828125, 0.6990966796875, 0.1031494140625, -0.0164794921875, -0.7969360351562, -0.5062866210938, 0.6539916992188, 0.3388061523438, -0.6990966796875, -0.0068359375000, -0.3540649414062, -0.0801391601562, -0.5408325195312, 0.1945800781250, 0.5589599609375, 0.0097656250000, 0.0596313476562, 0.9291992187500, 0.4245605468750, -0.3869628906250, -0.3396606445312, 0.3280029296875, -0.7496948242188, -0.7098388671875, -0.5822143554688, 0.2321777343750, -0.0841674804688, -0.8344726562500, 0.1303710937500, 0.4340820312500, 0.5816650390625, -0.5850830078125, 0.6583251953125, 0.4110107421875, 0.3499145507812, 0.7771606445312, -0.1514282226562, -0.5478515625000, 0.0386352539062, -0.3991088867188, -0.7819213867188, -0.5337524414062, -0.6998291015625, -0.0694580078125, 0.0932617187500, 0.5313720703125, -0.4786376953125, 0.5210571289062, -1.2161865234375, -0.3887939453125, 0.3008422851562, 0.0588378906250, 0.5105590820312, -0.2074584960938, -0.7712402343750, -0.4295654296875, -0.0858764648438, 0.3058471679688, 1.1600952148438, -0.3020019531250, 0.2960205078125, -0.1882934570312, 0.3888549804688, -0.1011962890625, 0.9100341796875, -0.5327758789062, -0.3984985351562, 0.5739746093750, -0.9785766601562, -0.3563842773438, -0.2080078125000, 0.8960571289062, 0.8742065429688, 0.1352539062500, -0.1639404296875, 0.1129150390625, 0.0377807617188, -1.1648559570312, 0.2765502929688, -0.7958374023438, 0.5202026367188, 0.6116333007812, -0.3668823242188, -0.3760986328125, 0.2990722656250, -0.1915283203125, -0.0181274414062, -0.5010986328125, -0.4183349609375, -0.5893554687500, -0.0811157226562, -0.4506225585938, 0.0756835937500, 1.5581665039062, -0.5756835937500, -1.2371215820312, -0.2928466796875, 1.0965576171875, 0.6848144531250, 0.1439819335938, -0.0181884765625, -0.6674804687500, 1.3824462890625, -0.5001220703125, 0.1439208984375, -0.6504516601562, 1.2907714843750, -0.5231933593750, 0.0698242187500, 0.1992797851562, -0.3869628906250, 0.1703491210938, 0.8933105468750, 0.0051269531250, 0.3077392578125, -0.4284057617188, -0.1876831054688, 0.6018066406250, -0.4527587890625, 0.4843750000000, -0.5144042968750, 0.1816406250000, -0.0828247070312, -0.8461303710938, 1.4057006835938, 0.3645019531250, 0.4818725585938, 0.5737304687500, 0.1165161132812, -0.0495605468750, 0.3021850585938, 1.0823974609375, 0.1435546875000, 0.7776489257812, 1.1928100585938, 1.0934448242188, 0.3956909179688, -0.1367797851562, 0.7378540039062, 1.0698852539062, -0.7935180664062, -0.1170654296875, -0.2530517578125, -0.0125122070312, 1.3355712890625, -0.1986694335938, 0.5936889648438, 0.2288818359375, -0.4363403320312, 0.3450317382812, -0.8048095703125, 0.1013183593750, -0.3101196289062, 0.2166748046875, -1.0631713867188, 0.6682739257812, -0.1651611328125, -0.9927978515625, 0.2389526367188, -1.0037841796875, 0.2022094726562, 0.9801025390625, -0.9365234375000, 0.4213256835938, -0.1481323242188, -0.1786499023438, 0.5386962890625, -1.5104370117188, -0.5581054687500, -0.0989379882812, 0.3313598632812, -0.0782470703125, 0.3593750000000, 0.1943359375000, -0.0180664062500, 0.6151123046875, 0.3619995117188, 0.5934448242188, 0.1901245117188, 0.0768432617188, 0.1725463867188, -0.3856811523438, -0.3898315429688, 0.1768188476562, -0.0776977539062, 0.2151489257812, 0.5143432617188, -0.4848632812500, 1.0872192382812, 0.4025268554688, -0.0032958984375, 0.0935058593750, 0.9382934570312, 0.3347167968750, -0.2006225585938, 1.2496337890625, 0.0683593750000, 0.1252441406250, 1.2811889648438, 0.8661499023438, -0.4450073242188, 0.1094360351562, 1.4929809570312, -0.0462036132812, -1.1120605468750, -0.2521972656250, -0.4816894531250, 0.3129272460938, 0.6744995117188, 0.2536621093750, -0.4827880859375, -0.0521240234375, -0.3310546875000, 0.9045410156250, -0.5282592773438, 0.5772705078125, -0.2879028320312, 0.4551391601562, -0.9392700195312, 0.0884399414062, -0.6305541992188, -0.0155029296875, -0.2118530273438, -1.1235961914062, 0.6279296875000, 0.4492797851562, -0.8427734375000, 0.6300048828125, 0.4332885742188, 0.0731811523438, -0.6846923828125, -0.5067138671875, -0.0926513671875, -0.0302124023438, 0.4047241210938, -0.1584472656250, 0.7927856445312, -0.1847534179688, -0.0303344726562, -0.0030517578125, 0.8901367187500, 0.1926269531250, 0.5865478515625, -0.2552490234375, 0.0027465820312, -1.4263305664062, -0.0244750976562, 0.4095458984375, 0.3775634765625, -0.1693725585938, 0.5939941406250, -0.9336547851562, -0.5979003906250, 0.5337524414062, 1.2247924804688, 0.6180419921875, 0.9265747070312, 0.9562988281250, 0.0093383789062, -0.3173828125000, -0.9210815429688, 0.7466430664062, 0.0553588867188, 1.1798706054688, -1.5522460937500, -0.0821533203125, -0.0408325195312, 0.3696289062500, -1.2135009765625, -0.1832275390625, 0.1181640625000, -0.1179199218750, 0.4048461914062, 1.0365600585938, 0.7072753906250, 0.0278320312500, -1.0432739257812, 0.0990600585938, -0.6089477539062, -0.4851684570312, -0.9100952148438, 0.8591308593750, -0.6816406250000, -1.0517578125000, 0.1256713867188, 0.5757446289062, -0.4725341796875, -0.2637939453125, 0.4063110351562, -0.3347778320312, 0.4598388671875, -0.6025390625000, -1.2371826171875, -0.8734741210938, 0.0517578125000, -0.1547241210938, -0.6508789062500, 0.0854492187500, -0.2255859375000, -0.6277465820312, -0.5471191406250, -0.4213256835938, -0.5751342773438, -0.1000976562500, -0.4306640625000, -0.1111450195312, -0.2386474609375, 0.7164916992188, -0.4623413085938, 0.3489990234375, 0.0693359375000, -0.0751953125000, -0.5145874023438, 0.2844238281250, 0.3861083984375, -0.1383666992188, 0.6831665039062, 0.7149047851562, -0.7024536132812, -0.3398437500000, 0.4611816406250, 0.1116333007812, 0.2109985351562, -0.3543701171875, 0.8380737304688, -0.3248291015625, 1.3508911132812, 0.6893310546875, 0.2178344726562, 1.2232666015625, 0.0148925781250, -0.1383056640625, 0.0501098632812, 0.0362548828125, -0.7739868164062, 0.0844726562500, 0.7641601562500, 0.1484375000000, 0.0439453125000, 0.6093750000000, 0.8331909179688, 0.1893310546875, -0.3613891601562, -0.6700439453125, -0.5316772460938, -0.5355834960938, -0.6856689453125, -0.4315185546875, -0.5144042968750, -0.0784912109375, -0.0159301757812, -0.8746948242188, 0.1709594726562, 0.7583618164062, 0.4915771484375, 0.0151367187500, 0.1806030273438, 0.3399658203125, -0.2600097656250, -0.6248168945312, -0.0779418945312, 0.3338012695312, -0.4176635742188, 0.3334350585938, -0.3933715820312, -0.1753540039062, 0.4902343750000, 0.0433959960938, -0.5507812500000, -0.4691772460938, 0.9158325195312, 0.2700805664062, -0.7312622070312, 0.5975952148438, 0.0505981445312, 0.7287597656250, -0.0701293945312, -0.6268920898438, 0.2452392578125, -1.3660278320312, -0.5498046875000, 0.4433593750000, -0.0964965820312, -0.2031250000000, -0.5365600585938, -0.0531616210938, -0.5853881835938, -0.0786132812500, -1.1726074218750, -0.5482788085938, 0.1509399414062, 0.8980712890625, -0.1353149414062, 0.0153808593750, -1.0139160156250, 0.2437133789062, 0.6310424804688, -0.0414428710938, 0.5290527343750, 0.7207031250000, -0.5491943359375, 1.0175781250000, 0.6565551757812, 0.1630249023438, -0.3348388671875, 0.3439331054688, 0.1724243164062, -0.1921997070312, 0.0258178710938, -0.0142211914062, -1.0461425781250, -0.0888061523438, 0.4765014648438, 0.5952758789062, 0.2589721679688, 0.5284423828125, -0.1441040039062, -0.0012207031250, 0.4603881835938, 0.4062500000000, -1.1257934570312, 0.1882324218750, 0.5575561523438, -0.7504882812500, -0.2328491210938, -0.7912597656250, 0.4329223632812, 0.3833618164062, -0.3646850585938, 1.0830688476562, 0.5812988281250, 0.1751098632812, 0.7661743164062, -0.3212280273438, 1.3861694335938, 0.5327148437500, -0.5537719726562, 0.3593139648438, -0.6843261718750, 0.6342163085938, 1.1367187500000, -0.0531005859375, 1.1363525390625, -0.7241821289062, 1.0093994140625, -0.3649902343750, 0.5813598632812, -0.4826049804688, -0.4705200195312, 0.5787353515625, -0.6971435546875, 0.4005737304688, -0.0749511718750, -0.3138427734375, 0.9510498046875, 0.1879882812500, -0.2930297851562, -0.6540527343750, -0.3510131835938, -0.0945434570312, -1.2913818359375, 0.2082519531250, -0.6990966796875, 0.4215698242188, 0.0384521484375, 0.3756713867188, 0.7295532226562, -0.0567626953125, 0.4380493164062, -0.6032714843750, -0.2457885742188, -0.9061279296875, -0.2355957031250, 0.1268310546875, -1.5009155273438, -0.5270996093750, -0.4296875000000, -0.1118164062500, -0.5507202148438, -0.2029418945312, -0.7185058593750, 0.4522094726562, -0.6026611328125, 0.9032592773438, -0.3459472656250, -0.2040405273438, 0.2412719726562, -0.9493408203125, 0.6192016601562, -0.4818725585938, 0.4528198242188, 1.1428222656250, 0.7418823242188, 0.0156860351562, 0.7876586914062, 0.5244140625000, 1.7481689453125, 0.0555419921875, 0.9973144531250, -0.4329833984375, -1.3298339843750, -0.4815063476562, -0.7766723632812, 1.1583251953125, 0.5984497070312, -0.3496093750000, 0.0899658203125, -1.4973754882812, 0.3234863281250, 0.5092773437500, 0.8796386718750, -0.0870971679688, -0.4076538085938, 0.3927612304688, -0.2644042968750, 0.7312622070312, 0.4627685546875, -0.2473144531250, 1.4509277343750, -0.0793457031250, 0.3272705078125, -0.5200195312500, -0.9491577148438, 0.6421508789062, -1.5391235351562, 0.2307739257812, -0.0853881835938, -0.1144409179688, 0.4322509765625, -0.2786865234375, 1.0561523437500, -1.2276611328125, -0.8411865234375, 0.2189941406250, -0.7194824218750, 0.0716552734375, 0.0394287109375, 0.9967041015625, -1.8208007812500, -0.3047485351562, -0.8956909179688, 0.3007202148438, 0.5692138671875, -0.3364257812500, -0.8905029296875, 1.1911010742188, 0.4556274414062, 1.0819091796875, -0.1258544921875, -0.3754882812500, 0.0507202148438, -0.8581542968750, 0.4147949218750, -0.0086059570312, 0.3661499023438, 0.0128784179688, 0.3461303710938, -0.6657714843750, -0.0205688476562, 0.1740112304688, 0.1052856445312, 0.6725463867188, 0.1291503906250, -0.0654907226562, 0.2809448242188, -0.3726196289062, 0.1459350585938, 0.5252075195312, 0.1063842773438, 0.7252807617188, 0.8442993164062, -0.9104003906250, 0.5588989257812, 0.8751220703125, 0.4441528320312, 0.6546020507812, 0.0355834960938, -0.1133422851562, -0.1444091796875, 1.1373291015625, 0.3053588867188, -0.4239501953125, 1.0815429687500, 0.1109008789062, 0.2324218750000, -0.0170898437500, 1.0188598632812, 0.9193725585938, -1.2951660156250, -0.0068969726562, -0.7791748046875, -1.0670166015625, 0.0349731445312, 0.3464965820312, 0.0377197265625, -0.5521850585938, -0.3781127929688, -0.0247192382812, -0.5324707031250, -0.6053466796875, -0.0685424804688, 0.3309326171875, -0.9364624023438, -0.2263183593750, -1.0590209960938, -0.1107788085938, -0.3362426757812, -0.8732910156250, 0.0707397460938, 0.5410766601562, 0.3679809570312, 0.8996582031250, -0.5263061523438, -0.2656860351562, 0.3114624023438, -0.3004150390625, -1.2793579101562, -0.3575439453125, -0.9693603515625, -0.2180786132812, -0.8712158203125, -0.3554077148438, 0.0198364257812, 0.4152832031250, -0.5735473632812, 0.0570068359375, 0.3806762695312, 0.2116699218750, 0.2801513671875, -0.4939575195312, -0.8216552734375, -0.4379882812500, -0.2678833007812, 0.4308471679688, 0.5957641601562, -0.1814575195312, 0.5834350585938, -0.4349365234375, 0.5482788085938, -1.3237915039062, -0.0349731445312, 0.2108764648438, 0.0468750000000, 0.3416137695312, 0.4770507812500, -0.5013427734375, -0.2684936523438, 0.2899169921875, -0.4207763671875, -0.1696777343750, -0.8746337890625, -0.1395263671875, 0.1664428710938, -0.2157592773438, 0.2111206054688, -0.5169067382812, 0.3813476562500, -0.1633911132812, 0.5362548828125, 0.7122192382812, 0.2096557617188, -0.3486938476562, 0.5927124023438, -0.5223999023438, -0.0315551757812, -0.2335815429688, -0.2214355468750, -0.2619628906250, 0.1804199218750, 0.2387695312500, 0.1195068359375, -0.1091308593750, -0.1901855468750, 0.0038452148438, 0.8330688476562, 0.5146484375000, 0.3519287109375, -0.1583251953125, -0.0954589843750, -0.1129760742188, -1.0111694335938, -0.3732299804688, 0.8502807617188, -0.4138183593750, -0.0711059570312, 0.1956176757812, -0.3533935546875, -0.4785156250000, -0.0304565429688, 0.1199951171875, 0.8284301757812, 0.0797729492188, 0.7557373046875, 1.0235595703125, -0.4176635742188, -0.3853759765625, 0.0398559570312, 0.2720947265625, 0.6885986328125, -1.2600097656250, 0.7107543945312, 0.9158325195312, 0.0747680664062, 0.6347656250000, 0.4077148437500, 0.3025512695312, 0.3417968750000, 0.9569702148438, -0.6209716796875, 0.3261108398438, 0.7304077148438, 0.6093139648438, -0.5067749023438, 1.0918579101562, 0.1051025390625, 0.1540527343750, -0.5277099609375, -0.0352172851562, -0.3552856445312, -0.0890502929688, 1.5251464843750, 0.3767089843750, 0.6446533203125, 0.2838134765625, 0.7892456054688, -0.1514282226562, -0.9725341796875, -1.0407714843750, -0.6343994140625, -0.0260620117188, -0.3518676757812, 0.0819091796875, 0.0445556640625, 0.2420654296875, -0.6128540039062, -0.1614379882812, -0.0141601562500, 0.2221069335938, 0.6537475585938, 0.6019287109375, 0.2351684570312, 0.2364501953125, -0.4399414062500, -0.9310913085938, -0.8184204101562, 0.4692382812500, -0.6820068359375, 0.4248046875000, 0.1377563476562, 0.5013427734375, -0.0759887695312, 0.5588989257812, 0.2330322265625, -0.8289794921875, 0.3898925781250, 0.7293090820312, -0.1094360351562, -0.5144653320312, -0.5457153320312, -0.0357666015625, 0.3467407226562, -0.2349853515625, 0.8552246093750, -1.4945678710938, 0.4079589843750, -0.4784545898438, -0.1281127929688, -1.5431518554688, 0.5445556640625, 0.3665161132812, 0.4468383789062, 0.0682373046875, -0.5593261718750, -0.6590576171875, -0.0909423828125, 0.9464111328125, 0.5205078125000, -1.1631469726562, -0.5229492187500, -0.5881958007812, 0.6668701171875, 0.3640747070312, 0.2058715820312, -0.1357421875000, 0.0766601562500, 0.6130371093750, 0.5458374023438, 0.4032592773438, 0.3606567382812, -0.3868408203125, -0.6054077148438, -0.5219116210938, 0.3057861328125, 0.2947387695312, -0.9421997070312, 0.2271118164062, 0.0856933593750, 0.9619750976562, -0.5584106445312, 0.3247070312500, -0.4639282226562, 0.1846923828125, -0.4422607421875, -0.8057250976562, -0.5866699218750, -0.2648925781250, 0.3075561523438, -0.8654174804688, 0.3365478515625, 0.2362060546875, 0.4871215820312, 0.7177124023438, 0.4071044921875, -0.0135498046875, 0.0046386718750, 0.1013183593750, 0.0051879882812, -0.3085327148438, -0.1439819335938, 0.0499877929688, -1.2205810546875, 0.5436401367188, -0.4992065429688, 0.7867431640625, -0.0184936523438, -0.8092651367188, -0.2993774414062, -1.2039184570312, -0.3331909179688, 0.8710937500000, 0.4586791992188, 0.1347656250000, -0.3639526367188, -0.2552490234375, -0.0915527343750, 0.4418945312500, 0.7007446289062, 0.1705322265625, 1.3746948242188, 0.3560791015625, 0.0731201171875, 0.3237915039062, -0.4676513671875, 0.8663330078125, -0.7361450195312, 0.1212158203125, -0.3250122070312, 0.5004882812500, 0.2443847656250, 0.3098144531250, 1.4345703125000, 0.0588378906250, -0.6289062500000, 0.6759643554688, -0.9417724609375, -0.1113281250000, -0.1754150390625, 0.1534423828125, -0.9942626953125, -1.8165283203125, 0.2622070312500, -0.0648803710938, 0.4466552734375, 0.5119018554688, -0.0010986328125, 0.0470581054688, 0.8814086914062, 0.0952758789062, -0.0654296875000, -0.1271972656250, 0.0887451171875, -0.2640991210938, -0.1507568359375, 0.3436889648438, -0.0166625976562, 0.0745849609375, 0.2956542968750, 0.6702270507812, 0.1101684570312, 0.0358886718750, 0.4689331054688, -0.1357421875000, 0.3978271484375, 0.2827758789062, -0.0650024414062, -0.7507324218750, -0.7135620117188, 0.0562744140625, -0.2132568359375, 0.7398071289062, 0.2734985351562, -0.4346313476562, 0.3609008789062, -0.0521850585938, 0.3311157226562, 0.2108764648438, -0.2486572265625, -0.1267700195312, -0.7473144531250, -0.6528320312500, -0.3020019531250, -1.0338134765625, 0.7466430664062, -0.0069580078125, -0.4018554687500, -0.4892578125000, -0.1918945312500, 0.1072998046875, -0.4801025390625, 0.4241333007812, -0.0143432617188, 0.2008666992188, -0.2686767578125, 0.4608154296875, 0.5425415039062, -0.3832397460938, -0.5772705078125, -0.1949462890625, 0.4428710937500, 0.2371826171875, 0.1864013671875, -0.1794433593750, -0.5547485351562, 0.4772338867188, 0.0791015625000, 0.0357666015625, -0.0808105468750, -0.3059692382812, -0.7874145507812, -0.2390747070312, -0.5540161132812, 0.8018798828125, -0.0219726562500, -0.2817993164062, -0.3838500976562, -0.5162963867188, -0.7201538085938, -0.1486816406250, 0.4442138671875, -0.6042480468750, 0.1346435546875, -0.1753540039062, -0.4111938476562, 0.0936279296875, 0.8614501953125, 0.7492675781250, 0.1386108398438, 0.0820312500000, 0.4038085937500, -1.4569702148438, 0.4531250000000, 0.4906005859375, 0.4035644531250, -0.1139526367188, 0.3652954101562, -0.8990478515625, 0.1445312500000, 0.7017822265625, 0.6267089843750, 0.9344482421875, 1.1818847656250, 0.3798217773438, 0.6630249023438, 0.0681152343750, 0.3634643554688, 0.6093139648438, 0.7387695312500, 0.6283569335938, -0.1369628906250, 0.5979614257812, 0.2821044921875, 0.1671752929688, -1.4509887695312, -0.4781494140625, 0.2020874023438, -0.2124633789062, 1.1693725585938, 0.2827148437500, 0.1436767578125, -0.1013793945312, 0.2673950195312, 0.3079223632812, -0.9585571289062, -0.4490356445312, -0.6873168945312, -0.2488403320312, -0.2331542968750, -0.2597656250000, -0.2702636718750, 0.7216186523438, 0.0387573242188, -0.7739868164062, 0.0693969726562, 0.4783935546875, 0.2651977539062, 0.5947875976562, 0.1634521484375, 0.0885620117188, 0.0199584960938, -0.5361328125000, -0.2727661132812, 1.2351074218750, -0.8398437500000, 0.5462036132812, -0.2957763671875, 0.9212646484375, -0.1087646484375, 0.1097412109375, 0.0385131835938, -0.1796875000000, 0.8513183593750, 1.0033569335938, 0.4824829101562, -0.8966064453125, -0.6962890625000, 0.4263916015625, 0.4848022460938, -0.2679443359375, 0.6503906250000, -1.2001342773438, -0.5367431640625, -0.0528564453125, 0.0725708007812, 0.7886352539062, -0.4309692382812, 0.7689208984375, -0.5667114257812, 0.0531616210938, -1.0231323242188, 0.3378295898438, 0.7429199218750, 0.2218017578125, 0.2854003906250, -0.4323120117188, -1.6446533203125, 0.8166503906250, -1.0531005859375, 0.1618652343750, -0.2408447265625, 0.4531250000000, -0.1916503906250, 1.7166748046875, 1.0853271484375, -0.1679077148438, 0.1673583984375, -0.6622314453125, -0.4963989257812, 0.3432006835938, 0.0375366210938, 0.1270141601562, -0.5103149414062, 0.4586791992188, 0.0337524414062, 0.6300659179688, -0.2900390625000, 1.0828247070312, -0.1883544921875, 1.1203613281250, 0.7994384765625, 0.3332519531250, 0.0246582031250, 0.3457641601562, 0.5209960937500, -0.3159790039062, -1.0188598632812, 0.2352294921875, 0.4177246093750, 0.8042602539062, 0.6604003906250, -0.1154785156250, 0.5023193359375, 0.0112304687500, 0.5237426757812, 0.7963867187500, 0.5161743164062, -1.0225830078125, -0.2359008789062, -0.1198730468750, -0.5921020507812, 0.3376464843750, -0.1917724609375, -0.1401977539062, 0.2077636718750, -0.6319580078125, 1.1714477539062, -0.6178588867188, 1.0479736328125, -0.2540893554688, 0.1596679687500, 1.1010131835938, -0.0552368164062, 0.0817260742188, -0.6650390625000, 0.4442749023438, 1.1710205078125, -0.4720458984375, -0.2352905273438, -0.7089843750000, -0.3416748046875, 0.3287963867188, -1.0908813476562, 0.3267211914062, -0.7718505859375, -0.6184692382812, 0.0101928710938, 0.3173217773438, 0.7022094726562, -0.6188354492188, -0.1303100585938, -0.9069824218750, 0.2763061523438, 0.0799560546875, 1.1808471679688, 1.0328369140625, -1.5298461914062, -0.1773681640625, -0.6344604492188, 0.2920532226562, -0.3347778320312, 0.9868774414062, -0.6121215820312, 0.8741455078125, -0.7863769531250, 0.9918212890625, 0.3074951171875, 1.0573120117188, -0.2337646484375, -0.4892578125000, -0.4333496093750, 0.8009033203125, -0.8976440429688, 0.9462280273438, 0.2067260742188, 0.0899658203125, 0.7360839843750, 1.2019653320312, 0.1926879882812, -0.3987426757812, 1.6101074218750, 0.3300170898438, -0.4046630859375, -1.0399780273438, -0.3191528320312, 0.6895141601562, 1.4221191406250, 0.4666748046875, 1.0275878906250, -0.5449218750000, -0.1614990234375, -0.0915527343750, 1.1623535156250, -0.8555297851562, -0.0079956054688, 0.5253906250000, -0.7549438476562, -0.1590576171875, -1.0940551757812, -1.0003051757812, 0.6439819335938, 0.2977294921875, -0.2532348632812, -0.7633056640625, -1.1347656250000, -0.3585815429688, -0.8173828125000, 0.0193481445312, 0.0241088867188, -0.1506958007812, -1.1181030273438, 1.0799560546875, 0.4296875000000, -0.4533081054688, 0.5858764648438, -0.2998657226562, -0.4948730468750, 0.0858764648438, 0.0054931640625, 0.7487792968750, -1.3944702148438, 0.1940917968750, -0.4505615234375, 0.4893188476562, -0.6574707031250, 0.4796752929688, -0.2080688476562, 0.2667236328125, -1.5753173828125, 1.2017211914062, -0.6236572265625, -0.2224731445312, -0.6019897460938, -0.6370849609375, -0.5054321289062, -0.5799560546875, -0.2431030273438, -0.1676635742188, 0.1651000976562, 0.9029541015625, -0.7150878906250, 0.8779296875000, 0.8700561523438, 0.1646728515625, 1.0603637695312, -0.2261962890625, -0.1065063476562, -1.6852416992188, -0.2938842773438, -0.0895996093750, 1.0519409179688, -1.1275634765625, 0.8908081054688, -0.9965820312500, 0.3538818359375, 1.3024902343750, 0.6967773437500, 0.0277099609375, 0.5001831054688, 0.3987426757812, -0.0505981445312, -0.2178955078125, -0.3612670898438, -0.0590820312500, 0.8660888671875, 1.0354003906250, -0.9982910156250, 0.2863769531250, -1.1132202148438, 0.0787963867188, -1.8557128906250, -0.3262329101562, 0.2059326171875, -0.7592163085938, 0.1853027343750, 0.2626953125000, 0.7955322265625, 0.0541992187500, -1.4131469726562, 0.7994384765625, -0.5183105468750, -0.0565795898438, -0.9414062500000, -0.0497436523438, -1.0096435546875, -1.5115966796875, -0.1873168945312, 1.0291748046875, -0.3046264648438, -0.8911743164062, 0.2743530273438, 1.8583374023438, -0.0805053710938, -0.3480834960938, 0.2398681640625, -0.8839111328125, 0.8525390625000, -1.2980957031250, 0.0166625976562, -0.6843261718750, 0.9832763671875, 1.9722290039062, 0.8430786132812, -1.0762329101562, 1.1105957031250, 0.3686523437500, 0.5277099609375, 1.3846435546875, 1.3574829101562, -0.8553466796875, -1.5164184570312, -0.5644531250000, -1.5137329101562, -0.1212158203125, -0.1491088867188, 0.6109619140625, -0.7086791992188, 0.0786743164062, 1.2087402343750, -0.1676025390625, 0.3075561523438, -0.3022460937500, -0.8202514648438, 0.6282348632812, -0.2670288085938, 1.0011596679688, 1.9474487304688, -0.1198120117188, 1.9372558593750, -1.0460815429688, -0.3344726562500, -1.1164550781250, -0.7798461914062, 1.3522338867188, -1.9318847656250, 0.0422973632812, -0.9980468750000, 0.3286132812500, -0.6347656250000, -1.0053100585938, 0.3532104492188, -1.7707519531250, -0.9952392578125, 0.0808715820312, 0.4420776367188, -0.0955200195312, 1.4641113281250, 1.6719970703125, -1.8923339843750, 0.2008056640625, -1.0191650390625, -0.0282592773438, 0.3776245117188, 0.4790039062500, -1.7434692382812, 0.6199340820312, 0.6098632812500, -0.3119506835938, -0.0153198242188, -0.6525878906250, -0.3214111328125, -0.6163330078125, -0.2139282226562, -0.2132568359375, 0.5473022460938, -0.4602661132812, 0.1335449218750, 0.2094116210938, 0.3655395507812, -0.2630615234375, 0.2127685546875, 0.7493286132812, 0.0020751953125, 0.2576293945312, 0.7965087890625, -0.0334472656250, 0.0686035156250, -0.0937500000000, 0.0191650390625, 0.5383911132812, 0.4627075195312, -0.9473266601562, -0.3277587890625, 0.5169067382812, 0.6980590820312, 0.4703979492188, 0.4758911132812, 0.6231079101562, -0.4796142578125, 0.5404663085938, -0.4653320312500, 0.3928222656250, 0.7960205078125, 0.6119384765625, -0.1857910156250, 0.9815063476562, 0.7524414062500, 0.2644042968750, -1.0588989257812, -0.2454223632812, -0.2918701171875, 0.2552490234375, 1.0469360351562, -0.2572021484375, 0.5667724609375, 0.1971435546875, 0.4318237304688, 0.2581787109375, -0.8389892578125, -0.3121337890625, -0.7565917968750, -0.1577758789062, -0.6999511718750, -0.5557861328125, 0.1082763671875, -0.2455444335938, 0.2164306640625, -1.1376342773438, 0.0037841796875, -0.0552978515625, -0.0158081054688, -0.5815429687500, 0.5875244140625, -0.3870849609375, 0.3500366210938, -0.1433105468750, -0.4203491210938, 0.0432128906250, 0.8568725585938, -0.4183349609375, -0.5856323242188, -0.3265380859375, 0.5912475585938, 0.0686035156250, -0.1063842773438, -0.2028808593750, 0.1045532226562, -0.2346191406250, 0.5113525390625, 0.6309204101562, -0.5755615234375, -0.0865478515625, -0.7638549804688, 0.0162353515625, 0.4029541015625, -0.8400878906250, 0.9053344726562, 0.3703613281250, 0.0914306640625, 0.0266723632812, -0.0259399414062, 0.1926879882812, 0.2877807617188, 0.7065429687500, -0.0786132812500, 1.2365112304688, 0.7326049804688, 0.5036621093750, 0.0102539062500, 1.2249755859375, 0.4996337890625, 0.5772705078125, 0.3194580078125, 0.1823730468750, -0.4904174804688, 0.3020019531250, 1.0996093750000, 0.3697509765625, -0.1672973632812, 0.9232177734375, 0.4463500976562, 0.5485229492188, -0.5197143554688, 0.0087280273438, -0.5173339843750, -0.4906616210938, -0.7185668945312, -0.2068481445312, 0.0980834960938, -0.6531372070312, -0.4129028320312, 0.0347900390625, -0.3883056640625, 0.7037353515625, 0.2440795898438, 0.2788085937500, -0.0591430664062, -0.2989501953125, 0.8825683593750, -0.3398437500000, -0.7561035156250, -0.5871582031250, 0.0610961914062, 0.5443725585938, -0.0889282226562, 0.6525268554688, -0.4901123046875, 0.2617187500000, -0.0391235351562, 0.5539550781250, 0.2454833984375, -0.0765991210938, -0.0634155273438, -0.2061157226562, -0.9061889648438, -0.4628295898438, 0.6435546875000, -0.3054809570312, 1.3239135742188, -0.3814697265625, 0.5618286132812, 0.5400390625000, 0.8646850585938, 0.1834106445312, 0.5671386718750, -0.1381835937500, 0.0295410156250, 0.1842041015625, -0.9192504882812, 0.7102050781250, 0.6849365234375, 0.4664306640625, -0.2674560546875, 0.1291503906250, -0.1733398437500, 0.0618286132812, -0.5967407226562, -0.2288818359375, -0.4908447265625, -0.9038085937500, 0.9966430664062, 0.0941162109375, 0.2634887695312, -0.8010253906250, -0.8635864257812, 0.0866699218750, -0.0440063476562, -0.5697021484375, 0.2464599609375, 0.5167236328125, -1.3554687500000, -0.4378051757812, -0.4454345703125, 0.3139648437500, -1.1051635742188, -0.7290649414062, -0.5676269531250, 0.2700805664062, -0.9501342773438, 0.4771728515625, -0.3772583007812, -0.2303466796875, -0.5219726562500, -1.3027954101562, 0.8096923828125, 0.7340698242188, -0.0435180664062, 1.0665283203125, 0.8892211914062, 0.3345947265625, 0.3892211914062, 0.6713867187500, 0.2676391601562, -0.2087402343750, 0.4866333007812, -0.0134277343750, 0.4215087890625, -0.2019042968750, -0.6110229492188, 1.1651000976562, -0.3653564453125, -0.3029174804688, 0.6507568359375, -1.3123168945312, 0.0736083984375, -0.2603759765625, 0.6494140625000, 0.5516357421875, -0.3654785156250, -0.1172485351562, -0.6313476562500, 0.4207763671875, -0.6950683593750, -0.1898193359375, 1.1342163085938, 0.5442504882812, 0.0738525390625, -0.3637695312500, -1.7983398437500, 0.3159179687500, -0.1281127929688, -0.0744628906250, -0.5606079101562, -0.0235595703125, -0.2553710937500, 0.7404174804688, 0.4502563476562, -0.4249267578125, -0.6075439453125, -0.3950805664062, 0.1934204101562, -0.6847534179688, 0.4460449218750, 0.4010009765625, -0.5124511718750, -0.2371826171875, 0.4924316406250, 0.9834594726562, -0.0980224609375, 1.1087036132812, -0.5360717773438, 0.4275512695312, 0.1738281250000, 1.0689086914062, -0.1159057617188, -0.4874267578125, -0.6806030273438, 0.1124267578125, -0.5404052734375, -0.0350341796875, -1.5435791015625, 0.4112548828125, -0.1691284179688, -0.5608520507812, -0.5213623046875, -0.0400390625000, -0.2824096679688, -0.9334716796875, 0.5079345703125, 0.3712768554688, -0.0470581054688, -0.7095336914062, -0.6085815429688, 0.3511352539062, -0.1895751953125, 0.5197143554688, 0.4781494140625, -0.9476928710938, 0.0276489257812, 0.3872070312500, 0.6150512695312, -0.7174072265625, 0.4454345703125, 0.3355102539062, -0.0783081054688, -0.1088867187500, -1.0834350585938, -0.2501831054688, 0.1654663085938, 0.7692871093750, -1.2254028320312, 0.0341186523438, -1.2781982421875, -0.4193115234375, 0.7534790039062, 0.2567138671875, -0.2206420898438, -0.0385742187500, 0.2611083984375, 0.4822998046875, -0.5364379882812, -0.3110351562500, -0.5717163085938, -1.4708862304688, 0.0286254882812, -0.3749389648438, -0.5791625976562, -0.2069702148438, -1.2578735351562, -1.0283813476562, -0.1707153320312, 1.5977172851562, -0.5980224609375, 0.4476318359375, -0.5098266601562, 0.7897949218750, 0.0250244140625, 0.0507812500000, -0.0093383789062, 0.0532226562500, 0.0509643554688, -0.4968261718750, -1.0114746093750, 0.7682495117188, -0.5577392578125, 0.4819335937500, -0.3455810546875, 1.2191772460938, 0.3676757812500, 0.2390747070312, 0.4172973632812, -0.3190307617188, 0.9564208984375, 0.7296142578125, 0.0447387695312, -0.2879028320312, -0.4359130859375, -0.4566040039062, 0.4262695312500, 0.5222167968750, 0.1813964843750, -0.5287475585938, 0.6150512695312, -0.1334838867188, 0.3599243164062, -0.8758544921875, -0.0158691406250, -0.0568847656250, 0.1640625000000, -0.8649902343750, -0.7954101562500, -0.6116943359375, 0.7261352539062, -0.1773681640625, 0.5300903320312, -0.6532592773438, -0.1934204101562, -0.0764770507812, -0.0221557617188, 0.6422729492188, 0.2219238281250, -0.0867919921875, -1.1729736328125, 0.9114379882812, 0.5900268554688, 0.0540161132812, -0.0184936523438, -1.1556396484375, -0.2058105468750, -0.4599609375000, -0.5108642578125, 0.6796264648438, -1.5330200195312, 0.2562866210938, 0.0163574218750, -0.3283081054688, -0.7282714843750, 0.4337158203125, 0.1044311523438, 0.5665893554688, -0.0926513671875, 0.0162353515625, -0.3293457031250, 0.2608642578125, 0.6120605468750, -0.8029174804688, 0.6574096679688, 0.3515625000000, 0.4928588867188, 1.0082397460938, 1.4915161132812, -0.0514526367188, 0.6889648437500, -0.3103637695312, 0.5398559570312, 0.2316894531250, 0.3235473632812, -0.8953247070312, 0.1514892578125, -0.5783691406250, -0.0240478515625, 0.3272705078125, 0.5794677734375, 0.6323242187500, -0.2540283203125, -0.9925537109375, -0.4017944335938, 0.0338134765625, -0.0635375976562, -0.4692993164062, -0.2482299804688, 0.0816650390625, -0.9885253906250, 0.6994628906250, -0.3235473632812, -0.4226684570312, 1.3353271484375, -0.4781494140625, -0.0954589843750, 0.4577636718750, -0.2318115234375, -0.0911254882812, -1.5711059570312, 0.2409057617188, 0.1482543945312, 0.8070678710938, -0.1409912109375, -0.2873535156250, 0.0900268554688, -0.5682983398438, -0.3366088867188, 1.3730468750000, -1.0093383789062, -0.3684082031250, 0.6335449218750, 0.1077880859375, -0.3005981445312, -0.4318237304688, -0.4346313476562, 0.3247680664062, 0.1877441406250, 0.0968627929688, 0.4895019531250, 0.6765136718750, -1.1011962890625, 1.1273193359375, -0.2855224609375, -0.6655273437500, -0.7816162109375, -0.8039550781250, 0.2742309570312, -0.1841430664062, 0.5118408203125, 0.5111694335938, 0.7364501953125, -0.3383178710938, -0.6647338867188, 0.1361694335938, 0.4585571289062, -0.0053100585938, 1.1442260742188, -0.1077880859375, 0.7491455078125, -0.8137817382812, -0.2164916992188, 0.4847412109375, 0.9531860351562, -0.3000488281250, 1.0645141601562, -1.2629394531250, -0.5343627929688, 1.2657470703125, 0.3638916015625, 0.7822265625000, 0.7370605468750, 0.5477294921875, -0.5464477539062, 0.3201904296875, 0.4378662109375, 0.3726196289062, 0.4617309570312, 0.4658813476562, -1.0891113281250, 0.4931030273438, -0.9493408203125, 0.6152954101562, -1.0388183593750, 0.1419067382812, 0.0882568359375, -0.0744018554688, 0.5130004882812, -0.4418945312500, 0.3632202148438, -0.4657592773438, -1.4504394531250, -0.1093750000000, -0.8755493164062, -0.2186889648438, -0.3870239257812, 0.0057983398438, -1.3350830078125, -0.6616210937500, -0.5089721679688, 0.8898315429688, -0.2901000976562, -0.3050537109375, -0.3727416992188, 0.9002685546875, 0.0628662109375, 0.8184814453125, -0.6546630859375, -0.2086791992188, -0.0198974609375, -0.5397338867188, -0.2446289062500, 0.0908203125000, -0.8319702148438, 0.5847167968750, 0.2042236328125, 0.2489013671875, -0.4231567382812, 0.4956054687500, 0.4421997070312, 0.4584350585938, 0.2412719726562, 0.5191040039062, -0.7783813476562, -0.7904663085938, -0.9748535156250, 0.3470458984375, 1.3948364257812, -0.0994262695312, 0.4253540039062, -1.4484252929688, 0.0706176757812, 0.2990112304688, 0.6516113281250, 0.2303466796875, 0.1276245117188, 0.6479492187500, 0.3140869140625, -0.1458740234375, -0.7880859375000, 1.1917114257812, 0.3261108398438, 0.4385986328125, -0.7791137695312, -0.8434448242188, -0.9655761718750, 0.8104248046875, -0.8723144531250, 0.3892822265625, -0.1087646484375, 0.0293579101562, -0.1762084960938, 0.0917968750000, 1.4655151367188, -0.5684204101562, -0.2979125976562, -0.7193603515625, -1.4364013671875, -0.5067138671875, 0.3186035156250, 0.7034912109375, -1.0750732421875, 0.2069091796875, 0.0639038085938, 0.9080810546875, 0.1372070312500, 0.5504760742188, -0.0714721679688, 1.1178588867188, 0.6824951171875, 0.6701660156250, -1.1326293945312, -0.1031494140625, 0.2646484375000, -0.8737182617188, -0.3826904296875, -0.2643432617188, -0.6550292968750, 1.2357177734375, -0.1557617187500, -0.2110595703125, 0.1948242187500, 0.4089355468750, 0.0018310546875, 0.9361572265625, 0.5332031250000, 0.2491455078125, -0.3750000000000, -1.1777343750000, -1.0583496093750, 0.5911865234375, -0.2560424804688, 0.3059692382812, 0.2644042968750, -0.1770019531250, 0.3880004882812, -0.3965454101562, 1.0647583007812, 0.0247802734375, -0.2951049804688, 0.2218627929688, -0.0761108398438, 0.4301757812500, 0.2249755859375, -0.8091430664062, 0.4046020507812, 0.3342285156250, -0.1395263671875, -1.9204101562500, -1.1624755859375, 0.2302246093750, -1.4340820312500, -0.4129638671875, -0.4071655273438, 0.1094970703125, -1.0364379882812, 0.1579589843750, 0.2860717773438, -0.6013793945312, 0.1806640625000, -0.8035278320312, 0.5167236328125, -0.5545654296875, 0.3897705078125, 1.6875610351562, -1.0759277343750, 0.9974365234375, -0.6275634765625, 0.9959106445312, -0.1237182617188, 0.6425170898438, -0.0867309570312, 0.4382324218750, -0.6235351562500, 1.0936889648438, -0.0657348632812, -0.4015502929688, -0.1250610351562, -0.8879394531250, -0.2105712890625, 0.3326416015625, -0.3640136718750, 1.0977172851562, 0.3330688476562, 0.1963500976562, -0.2300415039062, 0.5486450195312, -0.0225830078125, 0.4000244140625, 0.4547729492188, -0.0189208984375, -0.1599731445312, -0.3540039062500, 0.3001708984375, 1.0051269531250, 1.5073852539062, 0.4899291992188, 0.6892700195312, -0.6790771484375, 0.5450439453125, 0.1465454101562, 0.7050170898438, 0.3732910156250, 0.1784057617188, 0.1483764648438, -0.1026611328125, 0.3916015625000, -0.4736328125000, 0.4835205078125, 0.3522949218750, -0.1005859375000, -0.1408691406250, -0.0016479492188, -0.7187500000000, -0.0078125000000, -0.7027587890625, -0.2083129882812, -0.0184936523438, 0.1747436523438, 0.4791870117188, 0.2380371093750, 0.4161987304688, -0.4578857421875, -0.4965209960938, -0.1409912109375, 0.1502685546875, -0.8432617187500, -0.1573486328125, 1.3401489257812, -1.1182250976562, -0.1691894531250, -0.4666137695312, 0.5162353515625, 0.0668945312500, 0.7909545898438, -0.5553588867188, 0.6104736328125, -0.4512939453125, 0.1381225585938, 0.4208984375000, 0.2588500976562, 0.2737426757812, -0.7280273437500, -0.0110473632812, 0.2051391601562, 0.6088256835938, 0.2219848632812, -0.2933349609375, 0.6165161132812, 0.0733032226562, -0.1595458984375, 0.0202636718750, 0.6220092773438, 0.5665283203125, -0.3079833984375, 0.2994995117188, -0.4103393554688, 0.0540161132812, 0.4808349609375, 0.9640502929688, -0.1300659179688, 0.4460449218750, -0.4422607421875, -0.4412231445312, 0.5734863281250, 0.8489990234375, -0.0191040039062, 0.5922851562500, 0.4641723632812, -0.3583984375000, 0.2689208984375, -0.7015380859375, -0.5270385742188, 0.7022094726562, -0.3486938476562, -0.6930541992188, -0.6714477539062, -0.2089233398438, 0.4283447265625, -1.0112304687500, -0.1447143554688, 0.4192504882812, -0.6585083007812, -0.2801513671875, 0.3984985351562, 0.2182617187500, -0.3699951171875, -0.2318725585938, 0.1740722656250, -0.1641235351562, 0.2117919921875, 0.6174316406250, 0.9027099609375, -0.0429077148438, -0.5057373046875, 0.1896972656250, -0.1161499023438, 0.1124877929688, -0.0761718750000, 0.0608520507812, 0.0304565429688, 0.7744140625000, 0.5585937500000, 0.0725097656250, -0.3574218750000, -0.4703369140625, 0.0111083984375, 0.0505981445312, -0.2238769531250, -0.7726440429688, -0.1600341796875, -0.4469604492188, 0.1900634765625, -0.3517456054688, -0.1513061523438, -0.9141845703125, -0.0509033203125, 0.6143188476562, 0.3726806640625, 0.9213256835938, -0.2138061523438, -0.8582763671875, -0.1441650390625, 0.2402954101562, 0.1818237304688, 0.0639038085938, -0.9757080078125, 0.4429321289062, -0.4089355468750, -0.4879150390625, -0.1384887695312, 0.3914794921875, 0.0715942382812, -0.4144287109375, 0.2412719726562, -0.2916259765625, 0.3727416992188, -0.2516479492188, 0.9401245117188, 0.5162963867188, 0.2526245117188, -0.3074340820312, -0.3832397460938, 0.0001831054688, -0.0449218750000, 0.4805908203125, -0.1719970703125, 0.4049682617188, 0.0646972656250, -0.1634521484375, 0.2451171875000, 0.5009155273438, -0.2089233398438, -0.5340576171875, -0.1762084960938, -0.8912353515625, -0.3869628906250, -0.2815551757812, -0.3051147460938, 0.3587646484375, 0.5560302734375, -0.5112915039062, -0.5648193359375, -0.6405029296875, 0.8129882812500, 0.5019531250000, -0.0875244140625, 0.2745971679688, 0.0672607421875, 0.3298339843750, 0.0521240234375, -0.8977661132812, -0.3553466796875, 0.1346435546875, 0.4058227539062, 0.1236572265625, -0.0847778320312, 0.2835083007812, -0.2749633789062, -0.1790161132812, 0.4820556640625, 0.0738525390625, -0.1069335937500, 0.1489257812500, 0.3804931640625, -0.4509277343750, -0.0414428710938, -0.2946166992188, 0.7003784179688, 0.0943603515625, -0.4298706054688, 0.5966796875000, 1.1542358398438, 0.3573608398438, 0.1103515625000, -0.3237915039062, 0.0671997070312, -0.3015747070312, -0.2980957031250, 0.6826782226562, 0.8284912109375, 0.6378784179688, -0.6179809570312, 0.1087646484375, 0.1734619140625, -0.5300903320312, -0.0670776367188, -0.7833862304688, -0.4719238281250, 0.1252441406250, -0.2996826171875, 0.2971801757812, -0.4230957031250, 0.7351074218750, -0.0142211914062, 0.3891601562500, 0.3276367187500, -0.4107055664062, 0.0791625976562, -0.0278930664062, 0.2382812500000, -0.5158081054688, -0.1396484375000, 0.2622680664062, -0.1915893554688, -0.1147460937500, -0.2511596679688, -0.4267578125000, 0.8452148437500, -0.4434204101562, 0.6747436523438, -0.6348876953125, -0.2956542968750, 0.1459350585938, -0.6281738281250, 0.4335327148438, 0.1318359375000, -0.3764038085938, 0.4488525390625, 0.4061889648438, -0.7986450195312, 0.0856323242188, 1.0390014648438, -0.1201171875000, -0.8753662109375, 0.5336914062500, 0.1052856445312, -1.3256225585938, -0.1012573242188, -0.9639282226562, 0.3428955078125, 0.0789794921875, -0.1959838867188, 1.0163574218750, -0.0551147460938, 0.5793457031250, 0.2026367187500, 0.4038085937500, -0.8616333007812, -0.8991699218750, -1.0241699218750, -0.2469482421875, 0.5821533203125, -1.2757568359375, -1.6492919921875, 0.8015136718750, 1.1326904296875, -0.0805664062500, -0.1663818359375, -0.8293457031250, -0.0628051757812, -0.3560791015625, 0.4389038085938, -0.4254150390625, 0.2590942382812, 0.4580688476562, 0.5253295898438, 0.1240234375000, -1.4622192382812, -1.6148071289062, 0.2189331054688, -0.1187133789062, -0.3268432617188, 0.1836547851562, -0.0532836914062, -1.4652709960938, -0.7512817382812, -0.8972167968750, 1.0584106445312, -0.9067382812500, -0.4636840820312, -0.7199707031250, 0.4631347656250, -0.1601562500000, 0.1218261718750, -0.3203735351562, 0.0810546875000, 0.6351928710938, -0.4036865234375, 1.1850585937500, 0.0851440429688, 0.1939697265625, 0.4725952148438, 0.0572509765625, -0.0117187500000, 0.2677612304688, 0.3764038085938, 0.3034057617188, -0.5019531250000, 0.2698364257812, 0.2618408203125, -0.7246704101562, -0.0758666992188, -0.4838867187500, 0.5163574218750, -0.2579956054688, -0.6383056640625, 0.3472900390625, -0.7448120117188, 0.1395263671875, 0.1433105468750, -0.7080078125000, -0.1040649414062, -1.2554321289062, 0.1484985351562, -0.6200561523438, 0.3370361328125, 0.0700683593750, 0.4921875000000, 0.8773803710938, 0.1682739257812, 0.5355834960938, -0.4008789062500, -1.0086059570312, -0.3961181640625, -0.2277832031250, 1.1040649414062, -0.4325561523438, 0.7365112304688, 0.3603515625000, 0.1741943359375, 0.6348876953125, -0.2119750976562, 0.2062988281250, 0.5808715820312, -0.3361206054688, -0.0104370117188, 0.0970458984375, 0.1800537109375, -0.7038574218750, 0.1610717773438, 0.0509643554688, 0.4506225585938, -0.2781372070312, 0.1318359375000, -0.9528808593750, 0.6637573242188, -0.5952758789062, 0.9089965820312, -0.3298950195312, -1.0594482421875, 0.6122436523438, -0.3732299804688, 0.0155029296875, -0.1574707031250, -0.3642578125000, 0.5239868164062, -0.2898559570312, -0.4801635742188, 0.2022705078125, 0.5919799804688, 0.1820678710938, -0.0280761718750, 0.7264404296875, 0.0926513671875, 0.4129638671875, -0.3041992187500, -0.3534545898438, 0.7418212890625, 0.8208007812500, 0.6343383789062, 0.6475830078125, -1.1945190429688, -0.9368286132812, -0.0241699218750, 0.4594726562500, -0.4106445312500, 0.0179443359375, -0.0642700195312, -0.0106811523438, 0.1522216796875, -0.0422973632812, -0.5635375976562, 1.4264526367188, 1.0825195312500, -0.7230224609375, 0.0720214843750, 0.4295654296875, 0.6270751953125, -1.3060302734375, 0.3436889648438, -0.5361938476562, -0.1907958984375, -0.1549072265625, 0.3990478515625, 0.0552978515625, -0.0015869140625, 0.0885620117188, 0.3633422851562, -0.1000366210938, 0.1897583007812, -0.3265380859375, 0.8560791015625, -0.9360961914062, 0.0352783203125, -0.7869262695312, 0.6170654296875, 0.2979125976562, -0.2540283203125, 0.2675781250000, 0.3304443359375, -0.1732788085938, 0.7845458984375, 0.4638671875000, -0.3247070312500, -0.5924682617188, -0.2314453125000, -0.5656127929688, -1.5293579101562, -0.1091918945312, -0.8330688476562, 0.1851806640625, -0.2272338867188, -0.7600097656250, 0.4777832031250, -0.3005981445312, -0.1354980468750, 0.1473388671875, 0.2171020507812, -0.2015380859375, 0.5662231445312, -0.0126342773438, -0.2262573242188, 0.1111450195312, 0.3054809570312, 0.1737060546875, -0.6443481445312, 0.4303588867188, 0.6986694335938, 0.1557617187500, -0.5587768554688, 0.8101806640625, 0.1098022460938, 0.3373413085938, 0.3051757812500, 0.4754028320312, 0.3009643554688, 0.1854248046875, 0.5151977539062, -0.1225585937500, 0.5322265625000, -0.4000244140625, 0.3179931640625, 0.1447143554688, -0.1861572265625, -0.1161499023438, -0.5120849609375, 1.4509277343750, -0.4491577148438, -0.6598510742188, 0.5369873046875, 0.1319580078125, 0.4913330078125, -0.4767456054688, -0.3589477539062, -0.4501342773438, -0.3032226562500, -0.4320678710938, -0.7297973632812, -0.2647094726562, 0.4821166992188, -0.3183593750000, -0.8557739257812, -1.2019653320312, 0.0354003906250, 0.0689086914062, 1.2258911132812, 0.0445556640625, -0.1644287109375, -0.3769531250000, -0.8863525390625, 0.2724609375000, -0.0367431640625, 0.0715332031250, 0.7824096679688, 1.1632080078125, -0.5859985351562, 0.5331420898438, 0.5527954101562, -0.2884521484375, 0.2182006835938, -0.0833129882812, 0.3453979492188, 0.8336181640625, -0.6883544921875, 0.0910034179688, 0.5757446289062, 0.1434326171875, -0.3441162109375, 1.4066772460938, -1.5486450195312, 0.0831298828125, 1.4207153320312, -0.2215576171875, 0.9166870117188, 0.8653564453125, 0.3673706054688, -0.2454833984375, 0.8289794921875, 0.3184204101562, 0.1325683593750, 1.2971801757812, 1.0944824218750, 0.4650268554688, 0.8775024414062, -0.0322265625000, 0.6906738281250, -1.7593383789062, -0.1313476562500, -0.2931518554688, 0.0313720703125, 0.9994506835938, 0.2103271484375, 1.1770019531250, -1.0006713867188, 0.0592041015625, 0.9002075195312, -1.7619018554688, 0.0333862304688, -0.5164794921875, -0.1460571289062, -1.0620727539062, 0.3151245117188, -0.6112670898438, 1.3449707031250, -0.3351440429688, -1.3988037109375, -0.8882446289062, 0.7549438476562, 0.6691284179688, 0.2459716796875, 0.0261840820312, 0.6463012695312, 0.0634155273438, -0.5397338867188, -0.5102539062500, -0.2996826171875, -0.6515502929688, 0.0225830078125, -0.4049072265625, 0.2004394531250, -0.0748901367188, -0.1389770507812, -0.0654907226562, -0.2017211914062, 1.0438232421875, -0.4529418945312, -0.6334838867188, 0.6228637695312, -0.4400024414062, 0.4168701171875, -0.1694335937500, 0.0867919921875, -0.3048095703125, -0.4241943359375, 0.0886840820312, 0.4631347656250, 0.7261352539062, -0.8078002929688, 0.0838623046875, -0.1589965820312, 0.7403564453125, -0.4792480468750, -0.8204345703125, -0.7022705078125, 0.6168212890625, 0.6333007812500, 0.1110229492188, 0.0360107421875, -0.1037597656250, 0.1808471679688, 0.2107543945312, -0.0816650390625, -0.2188110351562, 0.9571533203125, -0.0819091796875, 0.2003173828125, 0.5493774414062, 0.6414794921875, -0.8399047851562, 0.0780029296875, 0.4805908203125, -0.1756591796875, 0.2273559570312, 0.3621826171875, -0.5028686523438, 0.0460205078125, 0.1998291015625, -0.2339477539062, -0.2185668945312, 0.0164184570312, 0.1067504882812, 1.3441772460938, 0.1410522460938, 1.3745727539062, -0.3297119140625, -0.3638305664062, 0.9414672851562, -0.9218750000000, 0.2773437500000, -0.2318115234375, -0.7946166992188, 1.0548706054688, 0.2924194335938, 0.6326904296875, -0.1968994140625, 1.0767822265625, 0.6795043945312, 0.7780761718750, 0.7847290039062, -0.4679565429688, -0.1357421875000, -0.9607543945312, -0.1204833984375, 0.8212280273438, 0.5839233398438, 0.4863281250000, 0.4794311523438, -1.1195068359375, -0.4820556640625, -0.9610595703125, 0.8888549804688, -0.0692749023438, 0.6198120117188, 0.1270141601562, -0.5967407226562, 0.6011352539062, -0.2246093750000, -0.4280395507812, 0.6205444335938, 0.4152221679688, -0.2976074218750, -0.7989501953125, -1.1459350585938, 0.4576416015625, -1.0089721679688, -0.2729492187500, -0.1158447265625, 0.0848999023438, 0.2763061523438, 0.1428833007812, -0.4323730468750, -0.5622558593750, -0.1859130859375, -0.0920410156250, -0.2434692382812, -0.8993530273438, 0.3066406250000, 0.6448364257812, -1.1568603515625, -0.5727539062500, -0.7994995117188, 1.1798706054688, -0.5079956054688, 0.7454833984375, -0.8176879882812, 0.4461669921875, 0.8026123046875, -0.5447998046875, -0.8002929687500, -1.2708129882812, 0.6821899414062, -0.4190673828125, -0.4611816406250, -0.5364990234375, 0.9417724609375, -0.8115234375000, -0.7412719726562, 1.0396728515625, -0.4473266601562, 0.8377685546875, 1.2329711914062, 0.1126708984375, 1.5251464843750, 0.8355712890625, -0.4179077148438, 0.8189697265625, -0.1787109375000, -0.0035400390625, 0.0905151367188, 0.0175781250000, -0.0034790039062, -0.7391967773438, 1.3557128906250, -0.0283203125000, 0.7011718750000, -0.6448974609375, -0.2883911132812, 0.4284057617188, 0.8592529296875, -0.0226440429688, 1.0719604492188, 0.8098144531250, 1.6323242187500, 0.8922119140625, 0.0330200195312, -0.9208374023438, 0.5213623046875, 0.0325317382812, -1.3236083984375, 0.9093017578125, -1.0393676757812, -0.0640869140625, 0.4885864257812, 0.0535278320312, 0.8385009765625, 0.5054931640625, 0.2114868164062, 0.5792846679688, -0.8287963867188, -0.4828491210938, -0.5343017578125, 0.2272338867188, -1.9655761718750, -0.1271972656250, 0.1201782226562, 0.0861206054688, -0.6237182617188, -0.6987304687500, -0.3056030273438, 0.4729003906250, -0.7072143554688, -0.0776977539062, 0.0690307617188, -0.6775512695312, 0.0729370117188, -0.4747314453125, -0.0037231445312, -0.2915039062500, 0.4205322265625, 0.4616088867188, 0.0788574218750, 0.5622558593750, 0.0521240234375, 0.1926879882812, 0.2015991210938, 0.0031127929688, 0.3203125000000, 0.1140747070312, 0.7242431640625, -0.4418334960938, 0.0563964843750, 0.7775878906250, 0.6235961914062, -0.2888793945312, 0.6804199218750, -1.1962280273438, -0.5764160156250, 0.3406372070312, 0.7377929687500, 0.5181884765625, 0.0515136718750, 0.5723876953125, -0.2867431640625, 0.5133666992188, 0.1389160156250, 0.2183837890625, 1.0399169921875, 0.6085815429688, -0.3789672851562, -0.1363525390625, -0.3181152343750, 0.7755737304688, -1.1081542968750, 0.3354492187500, 0.1635131835938, 0.3693847656250, 0.3023071289062, -0.2487182617188, 0.4849243164062, -0.2738037109375, -0.1726074218750, -0.2788696289062, -0.7070312500000, -0.8162841796875, -0.0970458984375, 0.1514282226562, -0.5922241210938, -0.1875000000000, -0.0936889648438, 0.7399291992188, 0.1911010742188, 0.2327270507812, -0.2290039062500, 0.8981323242188, 0.4586181640625, 0.6652832031250, 0.1013183593750, -0.0227050781250, -1.3093872070312, -0.2919311523438, -0.0120849609375, 0.2614746093750, -0.7033691406250, -0.2387695312500, -0.0408935546875, 0.1331787109375, -0.4553833007812, 0.0856323242188, 0.1185913085938, -0.0140991210938, 0.5253906250000, 0.5568237304688, 0.2341918945312, 0.8979492187500, -0.3323974609375, 0.4244384765625, 0.3902587890625, 0.4160156250000, 0.6549072265625, -1.3894042968750, -0.0071411132812, 0.1495361328125, -0.0285034179688, 0.0524902343750, 0.7802734375000, 0.2284545898438, 0.1062622070312, 0.1590576171875, -0.7641601562500, 0.1687011718750, 0.3218383789062, 1.1608886718750, 0.0123291015625, 0.4799804687500, -0.1558227539062, 0.3956909179688, -0.3879394531250, 0.0075073242188, 0.2955322265625, 0.1199340820312, 0.6190795898438, 0.4890136718750, 0.4774780273438, -0.5646972656250, -0.1859130859375, -0.2229003906250, -0.4965820312500, -0.1087646484375, -0.3308105468750, 0.4082641601562, -1.0276489257812, -0.0749511718750, -0.2451171875000, 1.1853027343750, -0.4391479492188, -1.2021484375000, -1.0473632812500, 1.4744262695312, 0.3615722656250, 0.6889038085938, -0.9430541992188, -0.1380615234375, 0.6412963867188, -0.7150268554688, 0.3435668945312, 0.0626220703125, -0.1344604492188, 0.6432495117188, 0.0828857421875, 0.2476806640625, 0.6818237304688, 0.6642456054688, 0.4826660156250, 0.4507446289062, 0.3057250976562, -0.0699462890625, -0.5902709960938, -0.3380737304688, -0.6821289062500, 0.1358032226562, 0.7968750000000, -0.5469970703125, 0.2239990234375, -0.1934204101562, 0.5392456054688, -0.2969970703125, 0.7521972656250, -1.0551757812500, -0.7825317382812, 0.5379638671875, -0.6566772460938, 0.6917114257812, -0.2678833007812, -1.1965942382812, 0.8434448242188, 0.0452880859375, 0.0950927734375, -0.8174438476562, -1.0886840820312, 0.5119628906250, -0.6728515625000, 0.1801757812500, -0.8973999023438, 0.2566528320312, -0.9276733398438, 0.9764404296875, 0.8938598632812, 0.0811767578125, 0.8762817382812, -0.6925659179688, -0.1692504882812, 0.0363769531250, 0.4167480468750, 1.4855346679688, -1.9165039062500, 0.3523559570312, 0.3109741210938, 0.3391113281250, 0.4060058593750, 0.7218627929688, 0.0886840820312, 0.1375732421875, 0.0711669921875, -0.2537231445312, 0.2935791015625, 0.0428466796875, -0.1381835937500, 0.4271240234375, -0.0385131835938, 0.2155761718750, 0.2073974609375, 0.1106567382812, 0.2424316406250, -0.4190673828125, -0.0015258789062, -0.1391601562500, 0.0440673828125, 0.6919555664062, -0.2371215820312, 0.0466918945312, 0.3920898437500, -0.0084838867188, 0.1938476562500, -0.2153320312500, 0.3779296875000, -0.4915771484375, -0.4539184570312, 0.1973876953125, 0.0148925781250, 0.3025512695312, -0.2473144531250, 0.0471191406250, -0.1337890625000, 0.0145263671875, 0.3900756835938, -0.1673583984375, 0.0883178710938, 0.0125122070312, -0.0634765625000, -0.4156494140625, 0.0578613281250, 0.3372802734375, 0.0288696289062, 0.0259399414062, 0.0778808593750, -0.3639526367188, -0.1614379882812, 0.0296020507812, -0.1489868164062, -0.1710205078125, 0.0162353515625, 0.1775512695312, 0.1171875000000, 0.3518676757812, -0.1965332031250, 0.3274536132812, 0.0934448242188, 0.0816040039062, 0.4116821289062, 0.1228027343750, 0.0010375976562, -0.4480590820312, 0.1738891601562, 0.3136596679688, -0.1862792968750, 0.0971069335938, -0.6047973632812, 0.0974121093750, 0.1018066406250, -0.0187377929688, -0.2635498046875, 0.0968017578125, -0.8772583007812, 0.0772705078125, 0.3252563476562, -0.4288330078125, -0.1661376953125, 0.5369262695312, -0.3123168945312, -0.4189453125000, 0.4201049804688, 0.2372436523438, 0.4378051757812, -0.1037597656250, 0.1227416992188, -0.2007446289062, 0.0279541015625, -0.3090209960938, -0.0593872070312, -0.0942993164062, 0.0889892578125, -0.3410034179688, -0.1423339843750, 0.3609619140625, 0.3067016601562, 0.2531738281250, 0.2149047851562, 0.0146484375000, 0.1723632812500, -0.5941772460938, -0.6051025390625, 0.0343627929688, 0.2691040039062, 0.0831298828125, -0.1661376953125, 0.2290039062500, -0.2045288085938, 0.3576049804688, -0.6167602539062, -0.2233886718750, 0.0450439453125, 0.2008056640625, -0.4352416992188, 0.4898681640625, 0.3302612304688, -0.0382080078125, 0.4083251953125, 0.2032470703125, -0.0691528320312, -0.4777832031250, -0.3591308593750, -0.0144653320312, -0.0878906250000, 0.2037963867188, 0.6361083984375, 0.5034790039062, 0.1818847656250, -0.2612304687500, 0.6963500976562, 0.0991210937500, 0.1481323242188, 0.0895996093750, -0.0740966796875, 0.0354003906250, 0.1826171875000, 0.0487060546875, 0.0268554687500, -0.3185424804688, 0.1330566406250, -0.0349121093750, -0.0772705078125, 0.0675659179688, 0.0808715820312, -0.4324951171875, 0.0775146484375, 0.4142456054688, 0.2266235351562, 0.1232299804688, 0.1094970703125, -0.2050170898438, 0.4227294921875, -0.4491577148438, 0.7311401367188, 0.3262939453125, -0.2051391601562, 0.1887207031250, -0.0303955078125, 0.2182617187500, 0.0057373046875, -0.2386474609375, -0.0180053710938, 0.1159057617188, 0.1180419921875, -0.0755004882812, 0.2439575195312, 0.0264282226562, -0.0697631835938, -0.3005981445312, 0.2443847656250, 0.1381835937500, 0.0709228515625, 0.1298828125000, -0.1259765625000, -0.2008056640625, -0.0482788085938, -0.2260742187500, 0.2544555664062, -0.3900756835938, -0.1965332031250, 0.1010131835938, -0.1723022460938, 0.0267333984375, 0.3151855468750, -0.2608642578125, 0.1354370117188, 0.0838012695312, 0.3103027343750, 0.3482055664062, -0.1157226562500, -0.0122680664062, -0.0336914062500, 0.1325683593750, 0.2135620117188, 1.0480957031250, 1.2455444335938, -0.1500244140625, -0.8679809570312, -0.2242431640625, -0.2110595703125, -0.3928833007812, -0.8743896484375, 0.1669311523438, -0.0853271484375, -0.1190795898438, -0.8563842773438, -0.3509521484375, -0.3018798828125, 0.6773071289062, -0.3154907226562, 0.8655395507812, 0.6404418945312, 0.7239990234375, 1.0052490234375, 0.7796020507812, -0.4059448242188, -0.2536010742188, 0.2523193359375, 0.0963745117188, -0.3093261718750, 0.5142822265625, 1.1148071289062, 0.2743530273438, -0.3020629882812, 0.0924682617188, 0.3665771484375, -0.2055664062500, 0.4415283203125, -0.6516723632812, 0.3507690429688, 0.1906127929688, -0.1810302734375, -0.2459716796875, -0.6375122070312, 0.2211914062500, 0.9531250000000, -0.4484863281250, 0.0317993164062, -1.1447753906250, -0.5932617187500, -0.4593505859375, 0.2235717773438, -0.4680786132812, -0.7216796875000, 1.0284423828125, 0.8844604492188, -0.1410522460938, 0.4414672851562, -0.8575439453125, 0.3395996093750, 0.5508422851562, -1.0025634765625, 0.6693725585938, -0.2848510742188, -0.8502197265625, -0.1768798828125, 0.1708984375000, 0.7115478515625, -0.0225219726562, 0.6517333984375, 0.6209716796875, -0.5994262695312, 0.4844970703125, 0.7379760742188, 0.1914672851562, -0.4128417968750, -0.3469238281250, 0.4577026367188, -0.1323242187500, -0.3064575195312, -0.1654663085938, 0.2060546875000, -0.0433959960938, -0.4013671875000, -0.5697021484375, -0.0702514648438, 0.0939331054688, -0.0848999023438, 0.2330932617188, 0.7539062500000, -0.0665893554688, 0.0536499023438, 1.0681762695312, 0.0653076171875, -0.3430786132812, -0.4680786132812, -0.1328125000000, 0.0087280273438, -1.0874023437500, -0.4274902343750, -0.1012573242188, 0.0139770507812, -0.3643188476562, 0.0584106445312, -0.6965332031250, 0.2297363281250, -0.0779418945312, 0.1084594726562, -0.5817871093750, 0.6508789062500, -0.5712890625000, 0.6254272460938, 0.4343872070312, -0.0427856445312, 0.2564086914062, -0.2805786132812, -0.0816650390625, -0.3399658203125, 0.2839355468750, 0.4519653320312, 0.0775756835938, 0.5646362304688, -0.2009277343750, 0.3888549804688, -0.0879516601562, 0.3244018554688, 0.8124389648438, 0.0446777343750, 0.3242797851562, 0.1471557617188, 0.5764770507812, 0.1262817382812, 0.0299682617188, -0.1832885742188, 0.0726928710938, -0.0295410156250, 0.3233032226562, 0.2820434570312, 0.0499267578125, 0.3418579101562, 0.0591430664062, -0.1311035156250, 0.6287841796875, 0.2366943359375, -0.8833007812500, 0.2501831054688, 0.4407958984375, -0.6304321289062, -0.1731567382812, -0.4726562500000, 0.0961303710938, -0.7702026367188, -0.0689697265625, -0.3100585937500, 0.2022094726562, -0.2631225585938, 0.3740844726562, 0.1384277343750, 0.7167968750000, 0.2039794921875, 0.1539916992188, 0.3867187500000, -0.4321289062500, -0.7158203125000, -0.2868652343750, -0.5044555664062, -0.0029296875000, 0.2850952148438, -0.8010864257812, -0.3129272460938, -0.2807617187500, -0.0302124023438, -0.3442993164062, -0.0956420898438, 0.4636230468750, 0.2248535156250, -0.2841796875000, -0.1470947265625, 0.1116943359375, -0.6904907226562, -0.8557128906250, -0.0510864257812, -0.3378295898438, -1.0270996093750, -0.1965942382812, 0.4660644531250, 0.2256469726562, 0.6757202148438, 0.2102661132812, -0.1033325195312, -0.0977172851562, -0.3425903320312, 0.2454223632812, -0.0206298828125, -0.0538940429688, 0.0988159179688, -0.4887695312500, 0.5856323242188, -0.5931396484375, 0.0864868164062, 0.4675903320312, 0.7792968750000, 0.2713623046875, 0.3605346679688, 0.0713500976562, 0.4100341796875, 0.2070312500000, 0.1318359375000, 0.0414428710938, 0.4163818359375, -0.2569580078125, -0.3528442382812, 0.1738891601562, -0.3420410156250, 0.0656738281250, 0.5759277343750, 0.4559326171875, 0.4552612304688, 0.5546264648438, -0.1108398437500, 0.2631835937500, -0.3696899414062, -0.2375488281250, 0.0549926757812, -0.3301391601562, -0.2086791992188, -0.4036865234375, -0.5429077148438, -0.1892700195312, -0.0969238281250, 0.1592407226562, 0.9462890625000, -0.0551757812500, 0.4490356445312, 0.0807495117188, 0.0015258789062, 0.2131347656250, 0.4993286132812, -0.1122436523438, 0.2100830078125, 0.3076171875000, -0.1567993164062, 0.6992187500000, -0.0394897460938, -0.6753540039062, -0.3674316406250, -0.0853271484375, -0.1828002929688, -0.2391357421875, -0.0755004882812, -0.8682250976562, -0.1206054687500, -0.0486450195312, 0.2643432617188, 0.7070922851562, 0.0154418945312, -0.5468139648438, 0.3304443359375, 0.2762451171875, 0.1646728515625, 0.3587646484375, -0.0095214843750, -0.2581176757812, -0.0681152343750, -0.0437011718750, 0.5264892578125, 0.3067626953125, 0.3510742187500, 0.4020385742188, -0.2472534179688, 0.1425781250000, -0.2330932617188, 0.4114990234375, -0.0676879882812, -0.0831909179688, 0.6690063476562, 0.2984619140625, 0.6769409179688, 0.1520385742188, 0.2025146484375, 0.2503051757812, -0.2492675781250, 0.0278930664062, 0.8784790039062, -0.1728515625000, -0.2350463867188, -0.1862182617188, -0.0606689453125, 0.4426269531250, 0.0045166015625, 0.0586547851562, 0.4793090820312, 0.5150146484375, -0.2028808593750, -0.1423950195312, 0.2680664062500, 0.3272705078125, 0.4999389648438, -0.1378784179688, -0.7628173828125, 0.2435913085938, 0.0165405273438, 0.3492431640625, -0.3318481445312, 0.2025146484375, 0.0385131835938, 0.0881347656250, 0.2030639648438, -0.0262451171875, -0.2573852539062, 0.0501708984375, -0.1748657226562, -0.1268920898438, -0.2127685546875, 0.2240600585938, 0.3475952148438, 0.2781372070312, -0.2703247070312, -0.0213012695312, -0.2346191406250, -0.0357055664062, 0.4749755859375, 0.0213012695312, 0.1901855468750, -0.0285034179688, 0.8867797851562, 0.0380249023438, -0.1315307617188, -0.2298583984375, 0.5571289062500, -0.1170043945312, 0.1373901367188, 0.0040283203125, -0.3282470703125, -0.1364746093750, 0.4208984375000, -0.1656494140625, -0.0762939453125, 0.1045532226562, -0.2080688476562, 0.1594848632812, -0.1715698242188, 0.0373535156250, 0.0304565429688, -0.3137207031250, -0.0624389648438, -0.1190795898438, -0.8399658203125, 0.8479003906250, 0.0910034179688, 0.1250610351562, 0.1094360351562, -0.1831665039062, -0.3135986328125, -0.4057006835938, -0.7509765625000, 0.0032348632812, 0.5197753906250, 0.0031738281250, -0.4197998046875, -0.3482666015625, 0.1531982421875, -0.3784790039062, -0.3769531250000, -0.1781005859375, -0.0939331054688, 0.0137329101562, 0.6051635742188, -0.1871948242188, -0.0798950195312, -0.0299682617188, 0.0349731445312, 0.0078125000000, -0.7551269531250, 0.0705566406250, -0.0786743164062, -0.0222167968750, 0.6008911132812, 0.2106933593750, 0.3721313476562, 0.3242797851562, -0.0488891601562, 0.7119750976562, -0.5567016601562, 0.0866699218750, -0.1560668945312, 0.2407836914062, -0.2717285156250, 0.3002929687500, 0.1080932617188, 0.1228027343750, 0.1219482421875, 0.7071533203125, 0.1852416992188, -0.6999511718750, -0.2682495117188, -0.0554809570312, -0.0921630859375, 0.6984252929688, -0.1658935546875, 0.1372070312500, 0.0245971679688, 0.3039550781250, -0.4935302734375, 0.0217285156250, 0.3043212890625, 0.2163696289062, 0.1119995117188, -0.0119628906250, -0.0812377929688, 0.5099487304688, -0.1958618164062, 0.0747680664062, 0.5532226562500, 0.4125366210938, -0.4310913085938, -0.0568847656250, 0.1819458007812, -0.2666015625000, 0.4492187500000, -0.2737426757812, -0.1130371093750, -0.4003906250000, -0.5679931640625, -0.0345458984375, -0.1096801757812, -0.1346435546875, -0.5955810546875, -0.5281982421875, -0.8259277343750, -0.1704101562500, 0.4970092773438, 0.3184814453125, 0.2665405273438, -0.0962524414062, -0.5454101562500, 0.3642578125000, 0.3281860351562, -0.6577758789062, -0.6561279296875, 0.0849609375000, 0.2822265625000, -0.0904541015625, 0.3905029296875, 0.4500732421875, 0.4224853515625, -0.1113891601562, -0.4080810546875, 0.7203979492188, 0.0408935546875, 0.6005249023438, -0.4646606445312, -0.4454345703125, 0.3726196289062, 0.1661376953125, 0.0394287109375, 0.3364868164062, 0.0889282226562, 0.3964233398438, -0.6015625000000, -0.0173339843750, -0.2509155273438, -0.1008911132812, -1.0284423828125, -0.0207519531250, -0.2539062500000, -0.4555053710938, -0.1260375976562, 0.4263916015625, -0.0964355468750, -0.1157836914062, -0.2446899414062, 0.4141235351562, 0.2331542968750, -0.5432739257812, -0.1388549804688, -0.3815917968750, -0.2753295898438, 0.0081787109375, 0.5307006835938, 0.5161743164062, 0.0488891601562, 0.1898193359375, -0.1234130859375, 0.0841674804688, 0.5557861328125, -0.4255981445312, 0.2205810546875, 0.2031860351562, -0.1654052734375, 0.2372436523438, 0.2896728515625, 0.5217895507812, 0.5761718750000, -0.1067504882812, 0.2467041015625, 0.0357666015625, 0.1675415039062, -0.0733642578125, -0.4113159179688, 0.3029785156250, -0.1121826171875, 0.1923828125000, -0.0175170898438, 0.1750488281250, -0.1052246093750, 0.0109252929688, 0.4522094726562, -0.0672607421875, 0.0664672851562, -0.1130371093750, 0.3542480468750, -0.0181274414062, -0.2286987304688, 0.0465087890625, 0.2385253906250, 0.4086914062500, -0.1379394531250, 0.1019287109375, -0.4879150390625, 0.1521606445312, 0.2225952148438, -0.0056152343750, 0.1173706054688, 0.2569580078125, 0.6864624023438, 0.7691040039062, 0.4549560546875, 0.6267089843750, 0.1122436523438, -0.1191406250000, 0.8757324218750, 0.2722778320312, 0.4680786132812, 0.1318969726562, -0.3104248046875, 0.4177246093750, -0.6232910156250, -0.0206909179688, 0.9262695312500, 0.0486450195312, -0.5565795898438, 0.5339965820312, -0.1948242187500, -0.2180175781250, 0.0254516601562, -0.8954467773438, -0.1205444335938, 0.8154296875000, -0.0936279296875, -0.1063842773438, 0.7391357421875, -0.2788696289062, 0.5524291992188, -0.2888793945312, -0.1552124023438, -0.6141357421875, -0.3498535156250, -0.2066650390625, 0.2468872070312, -0.1007690429688, -0.2190551757812, 0.5524291992188, -0.2440795898438, -0.1467285156250, 0.0334472656250, -0.0242309570312, -0.5565185546875, 0.2072143554688, 0.0003051757812, 0.4974975585938, 0.3462524414062, 0.3400878906250, -0.1149902343750, -0.3417968750000, 0.0164184570312, -0.2749633789062, 0.1983032226562, 0.5939941406250, -0.2074584960938, -0.2533569335938, 1.1813354492188, -0.3231201171875, -0.6505126953125, -0.3060302734375, -0.1219482421875, 0.1748046875000, 0.2203369140625, -0.5264282226562, 0.0603027343750, -0.4664306640625, -1.6350097656250, 0.7864379882812, -0.8121948242188, 0.0132446289062, -0.0350341796875, 0.1257324218750, 0.1210937500000, 0.3059082031250, -0.6564941406250, 1.4686889648438, -0.2288818359375, -0.6070556640625, -1.4080200195312, 0.3974609375000, -0.1973876953125, 0.1613769531250, 1.3803710937500, -0.4017944335938, -0.2594604492188, -0.5312500000000, 0.4466552734375, -0.3383789062500, 0.7559814453125, 0.0659790039062, 0.8336791992188, 0.5175781250000, -0.0125732421875, -0.1199340820312, 0.4229125976562, 0.6620483398438, 0.6260986328125, -0.4298706054688, -0.0685424804688, 0.9767456054688, 0.1424560546875, -0.0580444335938, 1.0014648437500, -0.2634887695312, -0.7038574218750, 0.7162475585938, 1.1404418945312, 0.5056152343750, 0.5640258789062, -0.0179443359375, 0.2976684570312, -0.4423828125000, -0.8957519531250, 0.3056640625000, -0.4769287109375, -1.0961303710938, 0.0540771484375, -0.2647705078125, 0.2489013671875, -0.3063964843750, 0.1715087890625, -0.1624755859375, 0.1228637695312, 0.2116088867188, 0.6336059570312, -0.0560302734375, 0.0720214843750, 0.1110229492188, 0.3836059570312, 0.1441650390625, -0.0244140625000, -0.0550537109375, 0.1949462890625, -0.3250122070312, -0.2752075195312, 0.1567993164062, -0.2720947265625, -0.2917480468750, 0.1495971679688, -0.4022827148438, 0.4978027343750, 0.3092041015625, -0.8712768554688, 0.3688354492188, -0.1777954101562, 0.0039672851562, 0.0003051757812, -0.1873779296875, 0.1566772460938, -0.2813720703125, -0.0722045898438, -0.0404663085938, 0.3337402343750, 0.0465698242188, 0.1874389648438, 0.2732543945312, 0.0142822265625, -0.2534790039062, -0.0078735351562, 0.2440795898438, 0.1770019531250, 0.0955200195312, 0.1413574218750, -0.0842285156250, 0.0262451171875, 0.2271728515625, 0.2368164062500, -0.1080932617188, -0.5267944335938, 0.1318359375000, 0.1577148437500, 0.1000366210938, 0.2503051757812, 0.2572021484375, 0.1447143554688, 0.1448974609375, 0.5316162109375, 0.2525024414062, -0.0437011718750, -0.1024780273438, 0.0996093750000, 0.4541625976562, -0.2008056640625, 0.3251342773438, -0.0650634765625, -0.0538940429688, 0.2737426757812, -0.1879882812500, -0.0570068359375, 0.2006835937500, 0.4592895507812, -0.0870361328125, -0.4628295898438, 0.4367675781250, 0.2108764648438, -0.4526367187500, -0.2191772460938, 0.4940185546875, -0.0094604492188, 0.0303344726562, -0.2526855468750, 0.0696411132812, -0.0229492187500, -0.2028808593750, -0.6234741210938, -0.0982055664062, 0.6441650390625, 0.1779785156250, 0.2511596679688, -0.0975952148438, 0.1885375976562, -0.3994750976562, -0.2920532226562, 0.1477661132812, -0.2051391601562, -0.5861206054688, 0.2341308593750, -0.1389160156250, -0.1462402343750, -0.2798461914062, 0.1345214843750, -0.2335205078125, -0.2868652343750, -0.3174438476562, -0.3645019531250, 0.1961669921875, -0.0960083007812, 0.2161865234375, 0.1716308593750, 0.1396484375000, 0.0325927734375, 0.2290649414062, -0.0523071289062, 0.0540771484375, -0.4288940429688, -0.2039794921875, -0.1749877929688, -0.1024780273438, 0.2342529296875, 0.2725830078125, -0.1312866210938, -0.1509399414062, -0.1889648437500, 0.1007080078125, 0.1055297851562, 0.1079711914062, -0.1149291992188, 0.3760986328125, -0.0054321289062, 0.3902587890625, -0.5117797851562, 0.2062377929688, -0.6045532226562, -0.1605834960938, -0.4447021484375, 0.8607177734375, -0.7208251953125, 0.2329711914062, -1.0263061523438, 0.3456420898438, -0.2200317382812, 0.3737792968750, 0.6453857421875, -0.0140380859375, 0.5298461914062, 0.3263549804688, -0.5848999023438, -0.8596801757812, -0.4609985351562, -0.5145874023438, 0.5568847656250, -0.9395141601562, -0.0260620117188, -0.2313232421875, -0.1735229492188, 0.2857055664062, 0.4437255859375, -0.5773925781250, 0.3309936523438, 0.9219970703125, -0.1146240234375, -0.2567749023438, -0.4144897460938, 0.1398315429688, -0.6021728515625, 0.2768554687500, -0.0060424804688, -1.2465820312500, -0.9609375000000, -0.1494750976562, -0.1111450195312, -0.0876464843750, -0.0516967773438, -0.4191894531250, -0.4542846679688, 0.3842163085938, -0.0721435546875, 0.6889038085938, 0.7057495117188, -0.6637573242188, -0.5982055664062, 0.0925292968750, -0.6037597656250, 0.0705566406250, -0.5781860351562, -0.6494750976562, 0.5801391601562, 0.4613647460938, -0.4230346679688, 0.4072265625000, 0.1802978515625, 0.0627441406250, 0.2506713867188, -0.3728027343750, -0.3519287109375, 0.0732421875000, -0.3139038085938, -0.2799072265625, 0.4290161132812, 0.5112304687500, -0.4993286132812, 0.7260742187500, 0.2985839843750, -0.7548217773438, 0.2335815429688, 0.3192138671875, -0.2623901367188, 0.6212768554688, -0.1334838867188, 0.2855834960938, -0.1914062500000, 0.0142211914062, -0.3110351562500, -0.3228149414062, 0.3402709960938, -0.1168212890625, 0.4844970703125, -0.0692749023438, -0.2343750000000, 0.3359375000000, 0.0560913085938, -0.2359619140625, -0.2687377929688, -0.4146728515625, -0.1533813476562, -0.2310791015625, -0.2361450195312, -0.1071166992188, 0.2586669921875, -0.1511230468750, 0.2313232421875, 0.4329223632812, -0.8345947265625, 0.0735473632812, 0.1597900390625, 0.8622436523438, 0.2348632812500, -0.0895385742188, -0.2918090820312, -0.2620849609375, -0.2212524414062, 0.3235473632812, -0.5949707031250, -0.0463867187500, -0.4762573242188, -0.8981323242188, 0.5709838867188, -0.3075561523438, 0.1032714843750, -0.0889892578125, 0.1132202148438, 0.1259155273438, 0.2322998046875, 0.0458984375000, 0.1201782226562, 0.1539916992188, 0.2841796875000, -0.0300903320312, -1.5728759765625, 0.0718994140625, -0.3001708984375, -0.3634643554688, 0.2485351562500, 0.5520629882812, -0.9217529296875, 0.4807739257812, -0.6314086914062, 0.9868164062500, -0.0136108398438, -0.1476440429688, -0.3989868164062, 0.0187988281250, 0.7274169921875, -0.1561279296875, 0.0664672851562, -0.8753662109375, -0.8114624023438, -0.2940673828125, 0.8237915039062, -0.0383300781250, 0.1538085937500, 0.4108276367188, -0.0025634765625, -0.4737548828125, -0.0047607421875, -0.1746826171875, -0.4354858398438, -0.0206909179688, 0.4497070312500, -0.8971557617188, -1.1688842773438, -0.8156738281250, -0.5047607421875, 0.4555664062500, -0.6574096679688, -0.5050659179688, -0.3978271484375, -0.1433105468750, -0.2763671875000, -0.1180419921875, -0.1658325195312, -0.0490112304688, -0.9926147460938, 1.2224731445312, -0.3710327148438, -0.0199584960938, 0.1667480468750, -0.4629516601562, 0.1951293945312, -0.4796142578125, 0.1239624023438, 0.6222534179688, -0.4915161132812, -0.0046386718750, 0.2452392578125, 0.6495971679688, -0.0554199218750, 0.1914672851562, 0.1359252929688, -0.2047729492188, 0.5690917968750, -0.7917480468750, 0.0838623046875, -0.3790893554688, 0.8759765625000, 0.1833496093750, 0.3950195312500, -0.1580200195312, 0.2929687500000, 0.2965087890625, -0.2979125976562, 0.1392822265625, 0.2333374023438, -0.0001831054688, -0.0951538085938, -0.0229492187500, -0.1951293945312, -0.0919189453125, -0.4714355468750, 0.2933349609375, -0.2420654296875, -0.1187744140625, 0.2100830078125, 0.0373535156250, -0.3771362304688, 0.1608276367188, 0.1461791992188, -0.3345336914062, -0.9073486328125, -0.1799926757812, -0.6591186523438, 0.1818237304688, 0.2141723632812, 0.6498413085938, 1.1107177734375, 0.0932006835938, 0.2838745117188, -1.0756225585938, 1.0786132812500, -0.0200805664062, 0.1650390625000, 0.0267944335938, -0.0100708007812, 0.4147949218750, -0.4050903320312, 0.3174438476562, -0.1415405273438, -1.5311279296875, -0.1812133789062, -0.1421508789062, 0.3032226562500, 0.3019409179688, 0.1537475585938, -0.0605468750000, 0.8211059570312, 0.0348510742188, -0.0018920898438, 0.9333496093750, -0.3891601562500, -0.3571777343750, 0.2826538085938, 0.2508544921875, -0.8825683593750, -0.2149658203125, 0.0404663085938, 0.0768432617188, -0.0838623046875, -0.4722290039062, -0.3947143554688, 0.2836303710938, -0.1223144531250, -0.2728881835938, -0.4028320312500, -0.3292846679688, -0.1553955078125, -0.1494140625000, -0.5092773437500, -0.1846313476562, -0.1732788085938, 0.2121582031250, 0.2607421875000, 0.6526489257812, 1.0585937500000, -0.0825805664062, -0.0072021484375, -0.3270263671875, -1.1098632812500, 0.0560302734375, 0.3444824218750, -0.1184692382812, 0.2114868164062, -0.1640625000000, 0.1004638671875, 0.0090332031250, 0.3840942382812, 0.2772216796875, 0.5563964843750, -0.4125976562500, 0.1290893554688, -0.1699829101562, -0.6605224609375, 0.3746337890625, 0.2268676757812, 0.0408325195312, -0.2197265625000, 0.0269165039062, -0.2435913085938, 0.1087646484375, 0.1355590820312, 0.1223754882812, 0.2183227539062, -0.5505981445312, 0.1445922851562, -0.0185546875000, 0.1359252929688, -0.4301147460938, -0.3677368164062, -0.2290039062500, -0.5972290039062, -0.4023437500000, -0.4243164062500, 0.3897094726562, 0.7022705078125, 0.2794799804688, -0.2728881835938, -0.7266235351562, 0.4090576171875, 0.1146240234375, 0.2712402343750, -0.7681884765625, -0.9511108398438, -0.9156494140625, -0.7794799804688, -0.3031616210938, -0.3820190429688, -0.3394165039062, -0.0323486328125, -0.6384277343750, -1.0502319335938, 0.4594726562500, -0.4185180664062, 0.2234497070312, 0.9176025390625, 0.7487182617188, 0.7147216796875, 0.1905517578125, -0.6676025390625, -0.2281494140625, -0.4608154296875, -0.3889770507812, 0.0125122070312, 0.8723754882812, 0.2832031250000, 1.1670532226562, 0.9771118164062, 0.4464111328125, 0.6666870117188, -0.2721557617188, -0.0512695312500, 0.0271606445312, 0.5070800781250, -0.6917114257812, 0.5997314453125, 0.2921752929688, 0.0220336914062, -0.2844848632812, -0.3212280273438, -0.2475585937500, 0.3167724609375, -0.0221557617188, 0.0310058593750, 0.1068725585938, -0.4290771484375, -0.4558105468750, 0.6264038085938, -0.8894653320312, -1.3520507812500, -0.3515625000000, -0.4158325195312, -0.0241699218750, 1.2441406250000, -0.7330932617188, 1.0863647460938, 0.2684936523438, -0.6041259765625, -0.4579467773438, -0.4119262695312, -0.0644531250000, 0.1906127929688, -0.0247192382812, -0.6614990234375, 0.2142944335938, 0.2929687500000, -0.0231933593750, 0.1829833984375, -0.1172485351562, 0.1688842773438, 0.3754272460938, 0.1072387695312, 0.1027832031250, 0.2510986328125, 0.3214721679688, -0.2437133789062, -0.6043701171875, -0.0098876953125, 0.2955932617188, -0.3384399414062, 0.1124267578125, -0.1820068359375, 0.5080566406250, -0.3547363281250, 0.7018432617188, -0.3984375000000, -0.1844482421875, -0.9581298828125, 0.3238525390625, -0.3041381835938, 0.4394531250000, 0.1190795898438, -0.4897460937500, -0.1398315429688, -0.0223999023438, -0.6687622070312, -0.4592895507812, 0.0662231445312, -0.3728637695312, 0.1190185546875, -0.7562255859375, -0.1080322265625, 0.1287231445312, 0.3076171875000, -0.2485351562500, 0.2241821289062, 0.1763916015625, -0.1428833007812, -0.0161132812500, -0.2123413085938, 0.2067260742188, -0.6044311523438, 0.1724853515625, -0.0519409179688, 0.2947387695312, 0.0252685546875, -0.0430908203125, -0.0560913085938, -0.0794677734375, 0.2762451171875, 0.0490112304688, -0.2445068359375, -0.0552978515625, -0.2140502929688, -0.2230224609375, -0.0335693359375, -0.3854980468750, 0.3719482421875, 0.5161132812500, 0.5849609375000, -0.8790283203125, -0.4871826171875, -0.0327148437500, 0.5747680664062, 0.2188720703125, -0.3333740234375, 0.0568237304688, 0.4541625976562, 0.3279418945312, -0.2552490234375, 0.0426635742188, 0.1889038085938, -0.0181884765625, 0.0928344726562, 0.1471557617188, 0.0535888671875, 0.3505859375000, -0.5288696289062, 0.6816406250000, -0.7100219726562, 0.4310913085938, -0.7351074218750, -0.2371215820312, -0.2098388671875, 0.0384521484375, 0.8057250976562, -0.1573486328125, 0.1138305664062, -0.8979492187500, -0.4506835937500, -0.3283691406250, 0.2199707031250, 0.1154174804688, 0.7293701171875, -0.6572265625000, 0.4473876953125, -0.3435058593750, 0.4389038085938, 0.4537963867188, 0.1961669921875, 0.2611083984375, 0.4842529296875, 0.2704467773438, -0.2691650390625, 0.2485961914062, -0.0014648437500, -0.6532592773438, -0.3353881835938, -0.1160888671875, -0.0021972656250, 0.3152465820312, 0.0707397460938, -0.0242309570312, 0.5616455078125, -0.1883544921875, -0.6472778320312, 0.0321655273438, -0.5380859375000, -0.6202392578125, 0.1668090820312, 0.3222656250000, -0.4138183593750, 0.5924072265625, 0.9555053710938, -0.4722290039062, -1.1583862304688, 0.0654296875000, 0.1239013671875, -0.7404174804688, -0.3510742187500, -0.2225341796875, -0.1304931640625, -0.1523437500000, -0.3265991210938, -0.0941162109375, 0.2898559570312, 0.5238647460938, -0.5875854492188, 0.4821166992188, 0.3246459960938, 0.1124267578125, -0.1331176757812, 0.6022949218750, -0.5704345703125, 0.2825927734375, 0.0878295898438, 0.6230468750000, 0.4272460937500, -0.1827392578125, 0.9271850585938, 0.4971313476562, -0.1390991210938, -0.3129882812500, 0.0387573242188, -1.3165283203125, -0.0694580078125, -0.1130981445312, -0.7232666015625, -0.6016845703125, 0.5296630859375, 0.3338623046875, -0.4283447265625, 0.0958251953125, 0.1120605468750, -0.5739746093750, -0.1442260742188, 0.3389282226562, -0.3757934570312, -0.1289672851562, 0.1370849609375, -0.1071777343750, -0.4468383789062, -0.2050781250000, 0.4551391601562, -0.0321655273438, 0.1493530273438, -0.9235839843750, 0.6083984375000, 0.2091674804688, -0.5045776367188, 0.5300292968750, -0.4570312500000, 0.1619873046875, -0.2636718750000, -0.3914794921875, -0.5012817382812, 0.6978149414062, 0.8883666992188, 0.1511840820312, -0.1305541992188, -0.1931152343750, -0.7099609375000, 0.2295532226562, -0.2900390625000, -0.7133178710938, -0.1911010742188, -0.7357177734375, -0.9059448242188, 0.0761108398438, -0.2586059570312, 0.1752319335938, -0.9577636718750, 0.2351684570312, -0.0289916992188, 0.1281127929688, 0.1895141601562, 1.1514282226562, -1.1284179687500, -1.0004272460938, -0.3989257812500, 0.8537597656250, 0.3249511718750, 0.0515136718750, 0.1663208007812, 0.0168457031250, -0.4751586914062, -0.6382446289062, 0.4019165039062, -0.4216918945312, 0.1323852539062, 0.1468505859375, -0.0969848632812, -0.2189941406250, -0.0407714843750, -0.3820190429688, 0.7503662109375, 0.5625000000000, 0.0245361328125, -0.1309204101562, 0.2769775390625, -0.1047973632812, 0.1361083984375, -0.9168090820312, 0.3713378906250, 0.2343750000000, -0.2191772460938, 0.1277465820312, 0.4420166015625, -0.2682495117188, 1.0335693359375, -0.8445434570312, 0.5930175781250, 0.1010131835938, -0.2923583984375, 0.4174194335938, -0.0844726562500, -0.0070190429688, -0.2526855468750, -0.1828002929688, -0.9340209960938, -0.0576782226562, 0.3222045898438, 0.0355224609375, 0.2071533203125, -0.1281127929688, -0.2464599609375, -0.1901245117188, 0.6349487304688, -0.0534057617188, -0.0239868164062, 0.1886596679688, 