//Numpy array shape [64, 192]
//Min -0.283447265625
//Max 0.284057617188
//Number of zeros 3

#ifndef W10_H_
#define W10_H_

#ifndef __SYNTHESIS__
weight10_t w10[12288];
#else
weight10_t w10[12288] = {-0.1177368164062, -0.0352172851562, -0.1395263671875, 0.0657958984375, -0.0044555664062, -0.1439208984375, -0.0216674804688, -0.0588378906250, -0.0385131835938, 0.0405883789062, -0.1416015625000, -0.0438232421875, -0.1116943359375, -0.2532958984375, -0.1715698242188, -0.0451660156250, -0.0762329101562, -0.0265502929688, -0.0972900390625, 0.0697021484375, 0.1046142578125, -0.0773925781250, -0.0161132812500, 0.0979003906250, 0.0280151367188, 0.1378784179688, 0.2613525390625, 0.1918945312500, 0.2053222656250, 0.0042724609375, -0.1555786132812, 0.1490478515625, -0.0260620117188, -0.0653076171875, -0.1926269531250, -0.1894531250000, 0.1589355468750, -0.0471801757812, 0.2266235351562, 0.1957397460938, 0.1306152343750, -0.0534667968750, 0.0065307617188, 0.0501098632812, -0.0963134765625, -0.1136474609375, 0.0612182617188, -0.1052246093750, 0.0962524414062, -0.0042724609375, -0.1469726562500, -0.1013183593750, -0.0558471679688, 0.0742187500000, 0.0386962890625, 0.0148925781250, -0.1484375000000, 0.1450805664062, -0.0410766601562, -0.1450195312500, -0.1341552734375, -0.0013427734375, -0.0332031250000, 0.0498657226562, -0.0150756835938, 0.2721557617188, -0.1018066406250, 0.0476684570312, 0.0776367187500, 0.0867309570312, -0.0045776367188, 0.2056274414062, -0.1799926757812, -0.2129516601562, -0.0651855468750, -0.2425537109375, 0.0556640625000, 0.0386962890625, 0.0838012695312, 0.0110473632812, -0.0395507812500, -0.1065063476562, 0.1239013671875, -0.0035400390625, 0.1638183593750, 0.0610351562500, -0.1278686523438, 0.0828247070312, 0.0750732421875, 0.0991210937500, -0.2282714843750, -0.0103149414062, 0.0062255859375, -0.1174316406250, 0.0528564453125, 0.0724487304688, -0.0140380859375, -0.1165161132812, -0.0811157226562, 0.0348510742188, 0.2755126953125, 0.0246582031250, -0.0373535156250, -0.0046386718750, 0.0770263671875, -0.0744018554688, -0.0189208984375, 0.2251586914062, -0.0501708984375, 0.2199707031250, 0.0007934570312, 0.0105590820312, 0.1193847656250, -0.0555419921875, 0.0213012695312, 0.0426635742188, 0.0507202148438, -0.1690673828125, -0.1868896484375, -0.0841064453125, -0.0641479492188, 0.1660766601562, 0.0662841796875, -0.0986938476562, 0.1510009765625, 0.2177734375000, -0.1478271484375, -0.1614379882812, 0.0933837890625, 0.0910644531250, 0.0004882812500, 0.1032714843750, 0.1593627929688, 0.0685424804688, 0.0083618164062, 0.0059814453125, 0.1657714843750, 0.0336303710938, 0.0704956054688, 0.1090698242188, -0.1882324218750, 0.2041625976562, -0.1240844726562, 0.0961303710938, 0.1204223632812, -0.1790771484375, 0.1741943359375, 0.0657958984375, -0.1471557617188, -0.0108642578125, -0.2465820312500, -0.0169677734375, 0.0954589843750, -0.1595458984375, -0.0700073242188, -0.0845336914062, 0.1587524414062, -0.0572509765625, -0.2408447265625, -0.0091552734375, 0.0328369140625, 0.0336914062500, -0.0589599609375, -0.1997070312500, -0.1872558593750, -0.0635986328125, 0.0469360351562, -0.1478881835938, -0.1792602539062, -0.1515502929688, -0.1456909179688, -0.0297241210938, 0.1619873046875, -0.0122070312500, 0.2494506835938, 0.1176147460938, 0.0392456054688, -0.1817626953125, 0.2127075195312, 0.0357666015625, -0.1109008789062, -0.0908203125000, 0.0089721679688, 0.0905151367188, -0.0396118164062, 0.0261840820312, 0.0903930664062, -0.1730957031250, -0.0998535156250, 0.0205078125000, 0.1054077148438, 0.0416259765625, -0.0799560546875, 0.0535278320312, -0.2463378906250, -0.2610473632812, 0.0508422851562, 0.1194458007812, -0.0555419921875, -0.1542968750000, 0.0744018554688, -0.2054443359375, -0.1852416992188, 0.0042724609375, 0.1158447265625, 0.2387084960938, -0.0559692382812, 0.2130737304688, 0.1392211914062, -0.0883789062500, -0.0897827148438, 0.1431884765625, 0.0841674804688, 0.0378417968750, 0.0552978515625, 0.1964111328125, 0.1518554687500, 0.0585327148438, -0.1663208007812, 0.1743774414062, 0.1760864257812, -0.2380371093750, 0.1672363281250, -0.2138061523438, -0.0398559570312, 0.0741577148438, 0.0025024414062, -0.1296386718750, -0.1930541992188, 0.0233154296875, -0.1563720703125, -0.0250854492188, 0.0716552734375, -0.0379028320312, 0.0308837890625, 0.0248413085938, 0.0886840820312, -0.0430297851562, -0.0815429687500, -0.0117797851562, -0.0698852539062, -0.1875000000000, 0.0120239257812, -0.1376953125000, -0.0355834960938, 0.0239868164062, 0.0217895507812, 0.1932373046875, 0.1599121093750, -0.0848999023438, 0.1820678710938, -0.0706176757812, -0.0883178710938, 0.0302734375000, -0.1088256835938, 0.0162353515625, -0.0081176757812, 0.0668945312500, 0.0186157226562, 0.1163940429688, 0.1013183593750, 0.1090087890625, -0.1276245117188, -0.1282348632812, -0.1463623046875, -0.0795288085938, -0.0777587890625, -0.1861572265625, 0.0866088867188, 0.0222167968750, 0.0698852539062, -0.0239868164062, -0.2090454101562, 0.2244262695312, 0.0783081054688, -0.1477050781250, 0.1691894531250, 0.0913085937500, 0.1822509765625, 0.0442504882812, 0.1342163085938, 0.0145874023438, -0.1943359375000, 0.0572509765625, -0.0747680664062, 0.0295410156250, -0.1135253906250, -0.1604003906250, -0.1879272460938, -0.1488037109375, -0.2456665039062, -0.0272827148438, 0.0548095703125, 0.1881713867188, 0.0934448242188, 0.1543579101562, -0.1400146484375, 0.0811157226562, 0.0114135742188, -0.0071411132812, 0.1300048828125, -0.1547851562500, -0.0426025390625, 0.1810913085938, 0.1534423828125, -0.0859375000000, 0.1887817382812, 0.1371459960938, 0.2466430664062, 0.0617065429688, 0.0112304687500, 0.0501708984375, -0.0595092773438, -0.2107543945312, -0.0288696289062, -0.0981445312500, -0.0636596679688, 0.1042480468750, -0.0005493164062, 0.0004882812500, 0.1079711914062, -0.0995483398438, -0.0004882812500, 0.1261596679688, -0.0877685546875, -0.0054931640625, -0.1875610351562, -0.1582031250000, 0.0440673828125, 0.2096557617188, 0.1033935546875, -0.0180053710938, 0.0694580078125, 0.1036987304688, -0.2576293945312, 0.0409545898438, 0.1021728515625, 0.1640625000000, -0.1200561523438, 0.0455322265625, 0.0568237304688, 0.0839843750000, 0.0036621093750, 0.0601806640625, 0.0632324218750, 0.2062988281250, -0.1718750000000, -0.1207275390625, -0.1314697265625, 0.2192382812500, 0.1391601562500, -0.0573730468750, -0.0172119140625, 0.1766357421875, -0.0850830078125, 0.0854492187500, -0.0289916992188, 0.0912475585938, 0.0570678710938, 0.1460571289062, 0.0484008789062, 0.1936645507812, 0.2569580078125, 0.0397949218750, -0.1632690429688, 0.1815185546875, 0.0230102539062, -0.2026367187500, -0.0284423828125, -0.0603027343750, 0.0422973632812, 0.1429443359375, -0.1266479492188, -0.1491699218750, 0.1586914062500, -0.1318359375000, -0.2600708007812, 0.0257568359375, 0.0999145507812, 0.0585327148438, -0.0863037109375, -0.2711181640625, 0.0466918945312, 0.1939697265625, 0.0720825195312, 0.1871948242188, 0.1465454101562, 0.0868530273438, 0.0124511718750, 0.0373535156250, -0.0180664062500, 0.0387573242188, -0.0517578125000, -0.0171508789062, 0.0238037109375, -0.2153320312500, -0.0908203125000, -0.1372070312500, -0.0390014648438, 0.1833496093750, 0.0676879882812, 0.1831665039062, 0.0581665039062, 0.0018310546875, -0.1658935546875, -0.1508178710938, -0.0427246093750, -0.0441284179688, -0.1398315429688, -0.0665893554688, 0.1276855468750, 0.2043457031250, 0.1664428710938, 0.1408081054688, 0.2455444335938, -0.0158691406250, 0.0301513671875, -0.2579345703125, 0.0393676757812, -0.0507812500000, -0.0133056640625, 0.1828002929688, -0.2664184570312, 0.0381469726562, 0.0023803710938, 0.2687988281250, -0.0654907226562, 0.1757202148438, -0.0813598632812, -0.1062622070312, 0.1466674804688, -0.1557006835938, -0.1409912109375, -0.1554565429688, 0.0375366210938, 0.1967773437500, 0.1846923828125, 0.0560302734375, -0.0307617187500, 0.0347290039062, 0.2285766601562, -0.0527954101562, -0.0078735351562, 0.0596313476562, 0.0407104492188, -0.0430908203125, 0.1429443359375, -0.1334228515625, -0.1357421875000, 0.0682983398438, -0.1440429687500, -0.0253295898438, -0.0391845703125, -0.1995239257812, 0.0735473632812, 0.0179443359375, -0.0181274414062, -0.1729736328125, 0.0912475585938, 0.0182495117188, -0.0120239257812, 0.0401611328125, 0.0254516601562, 0.0802612304688, 0.1425170898438, -0.0440673828125, -0.0775756835938, 0.0262451171875, -0.0768432617188, -0.0579223632812, -0.0941162109375, -0.0568237304688, 0.1393432617188, 0.2270507812500, -0.1134033203125, 0.2318115234375, 0.0186767578125, 0.0156860351562, 0.0718994140625, 0.1317138671875, -0.1601562500000, 0.0204467773438, -0.0118408203125, 0.0646362304688, -0.0933227539062, -0.2026367187500, -0.0297851562500, 0.1203613281250, -0.1201171875000, 0.2203979492188, -0.1458129882812, 0.0969238281250, -0.0423583984375, 0.0148315429688, -0.0296020507812, 0.1000366210938, -0.1599121093750, -0.1458129882812, 0.0022583007812, 0.0010375976562, -0.0169677734375, -0.1016845703125, 0.0473632812500, -0.0977172851562, 0.1909790039062, -0.0606689453125, -0.1723632812500, 0.0682983398438, 0.0753784179688, 0.1976928710938, 0.1198730468750, -0.1243896484375, -0.0446777343750, 0.1904907226562, 0.0584106445312, -0.1189575195312, -0.1200561523438, -0.0390625000000, -0.2287597656250, -0.0393066406250, 0.1212158203125, -0.0739746093750, 0.1412963867188, 0.1881713867188, 0.2695312500000, -0.0297851562500, 0.0793457031250, -0.1600341796875, 0.1859741210938, -0.1188964843750, 0.2734375000000, -0.0632324218750, -0.0936889648438, 0.0994873046875, -0.2487182617188, -0.2329101562500, -0.1890869140625, 0.2640380859375, -0.0365600585938, -0.1704101562500, 0.1644897460938, -0.1888427734375, 0.1224365234375, -0.0231933593750, 0.1042480468750, 0.1912841796875, -0.1078491210938, 0.1976928710938, -0.1712036132812, -0.0068359375000, 0.0071411132812, -0.0601806640625, 0.0189208984375, -0.1196289062500, -0.0546264648438, -0.0511474609375, -0.0010375976562, 0.0422363281250, -0.0836791992188, -0.0946044921875, 0.0604248046875, 0.1855468750000, 0.0831298828125, -0.1096191406250, -0.0194091796875, -0.0223388671875, -0.0208740234375, -0.0494384765625, 0.2537841796875, 0.1142578125000, 0.0082397460938, 0.1965942382812, 0.1102905273438, -0.1557617187500, -0.0507812500000, -0.2305908203125, -0.2764892578125, -0.1278686523438, 0.0854492187500, 0.1785278320312, 0.1203613281250, 0.1376342773438, -0.0792236328125, -0.1212158203125, 0.1170654296875, -0.1732177734375, 0.0807495117188, 0.2465820312500, -0.1912231445312, 0.0045166015625, -0.1090698242188, 0.0133056640625, -0.1046142578125, -0.0348510742188, -0.2768554687500, -0.0228881835938, 0.0292358398438, 0.0302124023438, -0.0485229492188, 0.0155639648438, -0.0009765625000, -0.1194458007812, 0.1701660156250, 0.0118408203125, -0.0494384765625, -0.0004272460938, -0.1174316406250, -0.1292724609375, 0.1580200195312, -0.0333862304688, 0.0325317382812, 0.0506591796875, 0.2375488281250, -0.0048828125000, -0.0046386718750, -0.0338134765625, -0.0232543945312, 0.1905517578125, -0.1624145507812, 0.2488403320312, 0.1165161132812, -0.0251464843750, 0.0670776367188, -0.1447143554688, 0.1173095703125, -0.0661621093750, 0.0812988281250, -0.1820678710938, 0.0122680664062, -0.0421142578125, -0.1231689453125, 0.1741943359375, 0.1441650390625, 0.0611572265625, 0.1754150390625, 0.1315917968750, -0.1682739257812, 0.1406250000000, -0.0540771484375, 0.0713500976562, -0.0407714843750, 0.0907592773438, -0.1152954101562, 0.0108032226562, -0.1146240234375, -0.0522460937500, -0.0177612304688, -0.0125732421875, -0.0640869140625, -0.1280517578125, 0.0528564453125, 0.2460327148438, -0.0873413085938, -0.2095336914062, 0.1965942382812, 0.0175781250000, 0.2322387695312, -0.0435791015625, 0.0086669921875, 0.1293945312500, 0.1019897460938, 0.0908203125000, -0.2285156250000, 0.0719604492188, -0.0422973632812, -0.0585937500000, 0.0062866210938, 0.1207885742188, -0.0049438476562, 0.0196533203125, 0.0468750000000, -0.1828002929688, -0.1911010742188, 0.0327758789062, 0.0432128906250, -0.2792358398438, 0.1442260742188, -0.0026245117188, 0.1622314453125, 0.0408325195312, 0.0244140625000, -0.2076416015625, -0.0071411132812, -0.2564086914062, 0.1714477539062, 0.0059204101562, -0.1724243164062, 0.1773071289062, -0.2548217773438, -0.0669555664062, -0.1635742187500, 0.0798339843750, 0.1125488281250, 0.0249633789062, 0.0405273437500, -0.0140380859375, 0.0674438476562, -0.0206298828125, -0.2369384765625, 0.1822509765625, 0.0461425781250, 0.0684814453125, 0.1111450195312, -0.0404052734375, 0.1217041015625, -0.0439453125000, 0.1892089843750, 0.1566772460938, 0.1403198242188, 0.0170288085938, 0.0815429687500, 0.0725708007812, 0.0827026367188, -0.1502685546875, 0.2121582031250, -0.0483398437500, -0.0659179687500, 0.2484741210938, 0.0289306640625, 0.1679077148438, -0.0529785156250, 0.1183471679688, -0.0780639648438, -0.1342163085938, 0.0413208007812, -0.2011718750000, -0.0046997070312, 0.0823974609375, 0.0985107421875, 0.0142822265625, 0.0714111328125, -0.1303100585938, 0.0693969726562, -0.0759277343750, -0.1138305664062, 0.1072998046875, 0.0546875000000, 0.0988159179688, 0.0266113281250, -0.0914306640625, -0.1044311523438, -0.0905151367188, -0.1099853515625, 0.0219726562500, -0.1285400390625, -0.1085205078125, -0.2796020507812, 0.0263061523438, -0.0635375976562, 0.0967407226562, 0.0410156250000, 0.0341186523438, -0.0637817382812, -0.1284179687500, -0.2234497070312, -0.0064697265625, -0.2041625976562, 0.0761718750000, 0.1745605468750, -0.0025024414062, -0.0544433593750, 0.1019287109375, -0.0490112304688, 0.0491333007812, -0.1184082031250, -0.0246582031250, 0.0612182617188, 0.0531616210938, -0.0558471679688, -0.1033325195312, 0.0427246093750, -0.1145019531250, 0.0454101562500, 0.0640869140625, 0.2018432617188, 0.0005493164062, -0.0221557617188, -0.0108032226562, -0.2233276367188, -0.0785522460938, -0.0708007812500, -0.1491088867188, -0.0180053710938, 0.1301879882812, -0.0011596679688, 0.0742797851562, -0.0567016601562, -0.0361938476562, -0.1973876953125, -0.0327148437500, 0.1651611328125, -0.0550537109375, -0.0213623046875, -0.0635986328125, 0.0052490234375, -0.0605468750000, -0.0643920898438, -0.0948486328125, -0.0266723632812, -0.0552978515625, 0.2730712890625, -0.0529174804688, 0.0053100585938, -0.0667724609375, 0.1287841796875, -0.2034301757812, 0.2089233398438, 0.0552978515625, -0.0792236328125, 0.0200805664062, 0.0151367187500, -0.0385742187500, 0.0635986328125, 0.0467529296875, -0.1023559570312, 0.0357055664062, 0.0657348632812, 0.0296020507812, -0.0067749023438, -0.1783447265625, -0.1018676757812, 0.1912231445312, -0.1477050781250, 0.0125122070312, 0.1492919921875, -0.2047729492188, -0.1326293945312, -0.0258789062500, -0.0197143554688, 0.0325927734375, -0.0920410156250, -0.0393066406250, 0.2537231445312, -0.1007080078125, -0.1072387695312, 0.0285644531250, 0.2608032226562, 0.0258789062500, -0.1635131835938, 0.0640869140625, -0.1839599609375, -0.0539550781250, -0.2512817382812, -0.1682739257812, -0.1459350585938, 0.1947021484375, 0.2009277343750, -0.0808105468750, 0.1279907226562, 0.0234985351562, 0.0155639648438, 0.1858520507812, -0.2148437500000, -0.0955810546875, 0.0674438476562, 0.1660766601562, -0.0864868164062, 0.0668334960938, -0.0971069335938, 0.0167846679688, 0.1287231445312, -0.2153320312500, -0.0505371093750, -0.1320800781250, -0.2346191406250, 0.0809326171875, -0.0264282226562, 0.0274047851562, -0.0856933593750, 0.0922851562500, -0.1057128906250, -0.0916748046875, 0.0354003906250, -0.1124267578125, 0.0971069335938, 0.2171020507812, 0.0878906250000, 0.1286621093750, 0.0783691406250, 0.0062866210938, 0.0509643554688, -0.0187988281250, -0.0799560546875, 0.0359497070312, 0.0042114257812, -0.0911254882812, -0.2819213867188, 0.0968627929688, 0.1724243164062, 0.2574462890625, -0.1264038085938, 0.0151367187500, -0.0003662109375, -0.1020507812500, -0.1334228515625, 0.0744018554688, 0.1550292968750, -0.0460205078125, -0.0811767578125, 0.0943603515625, -0.2266845703125, -0.0283203125000, 0.1575317382812, 0.0686035156250, -0.0957641601562, 0.0346069335938, -0.1307983398438, -0.0185546875000, -0.1056518554688, 0.1597900390625, -0.1354980468750, -0.2254638671875, -0.1497192382812, 0.1050415039062, 0.0952148437500, 0.1904296875000, -0.0060424804688, 0.0246582031250, -0.1494140625000, 0.0291137695312, 0.1607666015625, 0.0025634765625, 0.1329956054688, -0.0883178710938, 0.0996093750000, 0.1661376953125, 0.2230224609375, 0.1116943359375, -0.0399169921875, -0.0222778320312, -0.0133056640625, -0.0977172851562, 0.0103149414062, -0.0679321289062, -0.0241699218750, 0.0375976562500, 0.1074218750000, -0.1347045898438, -0.1286010742188, -0.0644531250000, 0.0897827148438, -0.1385498046875, -0.0490112304688, -0.0101928710938, 0.0675048828125, -0.0755615234375, 0.1404418945312, 0.0643310546875, -0.1947021484375, -0.2755737304688, -0.0017700195312, 0.0439453125000, -0.1138916015625, 0.0249633789062, -0.0717163085938, -0.0294799804688, 0.0251464843750, -0.0587158203125, -0.0784301757812, 0.0233764648438, 0.1906738281250, -0.0809326171875, 0.1300659179688, -0.0196533203125, -0.0885009765625, 0.0068359375000, -0.2189331054688, 0.0057373046875, 0.1088867187500, -0.2590332031250, 0.1290283203125, -0.0893554687500, 0.1588745117188, -0.0796508789062, 0.0584106445312, 0.0474853515625, 0.2610473632812, 0.1665039062500, 0.0408325195312, -0.0942993164062, 0.2122802734375, -0.0628662109375, -0.1453247070312, -0.0878906250000, -0.1710205078125, 0.0679321289062, -0.0354614257812, -0.0230712890625, -0.0040283203125, -0.0363769531250, 0.0184326171875, -0.1543579101562, -0.0661010742188, 0.0281372070312, -0.1570434570312, 0.0412597656250, 0.2282714843750, 0.0407104492188, -0.1369018554688, -0.0455932617188, 0.0961914062500, -0.0688476562500, 0.1310424804688, 0.0963745117188, 0.2259521484375, 0.0325317382812, -0.0296630859375, -0.0405883789062, -0.0256347656250, -0.1545410156250, 0.1021728515625, -0.2003173828125, -0.0498657226562, -0.0639648437500, -0.2265625000000, 0.2761840820312, -0.1372680664062, 0.0098266601562, 0.1794433593750, 0.1270751953125, 0.0567016601562, -0.0983276367188, -0.2686767578125, 0.0869140625000, -0.1326293945312, 0.0493164062500, 0.2614135742188, -0.0566406250000, 0.1301269531250, 0.1887207031250, -0.2457275390625, 0.0225830078125, 0.1358032226562, 0.2579956054688, -0.0270996093750, 0.0702514648438, -0.0410156250000, 0.0980224609375, -0.2526245117188, -0.1368408203125, -0.1421508789062, 0.2710571289062, -0.0835571289062, 0.1210327148438, -0.0003662109375, 0.0291748046875, -0.0271606445312, 0.1508178710938, -0.2382812500000, 0.0985717773438, 0.1654052734375, 0.1093139648438, 0.0936889648438, -0.0688476562500, -0.0964355468750, -0.0301513671875, 0.1784667968750, 0.2387695312500, -0.1740112304688, -0.0878906250000, 0.1190795898438, 0.1018066406250, -0.0680541992188, 0.0785522460938, -0.1486206054688, -0.0455322265625, 0.1881103515625, -0.0556030273438, -0.0543823242188, 0.2711181640625, -0.0119628906250, -0.0416259765625, 0.0507202148438, -0.1937255859375, -0.1215820312500, 0.0037231445312, -0.0964965820312, 0.0005493164062, -0.0693969726562, 0.1004028320312, -0.1140747070312, -0.0714721679688, 0.1353149414062, 0.0015869140625, 0.0344848632812, 0.0097045898438, 0.0301513671875, 0.1730346679688, -0.0015869140625, 0.0607910156250, -0.1610717773438, 0.0245361328125, -0.0316772460938, 0.0621337890625, 0.1221313476562, 0.1343994140625, 0.0231323242188, 0.0553588867188, -0.2228393554688, 0.0525512695312, 0.0054931640625, -0.1075439453125, -0.1292724609375, -0.1837158203125, 0.0051879882812, -0.1368408203125, 0.1832885742188, -0.0755615234375, 0.2578125000000, -0.1049194335938, 0.2523803710938, 0.0877685546875, 0.0611572265625, 0.2672729492188, -0.0339965820312, -0.2425537109375, -0.0423583984375, -0.0892333984375, 0.1577148437500, 0.0346069335938, 0.0260009765625, -0.0306396484375, 0.0379028320312, -0.1913452148438, 0.0437011718750, 0.0353393554688, 0.0949096679688, -0.0122680664062, 0.2471923828125, -0.1834106445312, 0.2583618164062, -0.0933837890625, 0.0791625976562, -0.0597534179688, -0.0965576171875, 0.0729980468750, -0.0824584960938, 0.1342163085938, -0.1382446289062, 0.0304565429688, 0.0085449218750, -0.0929565429688, 0.0928955078125, -0.0428466796875, 0.2686157226562, -0.0602416992188, -0.1452636718750, 0.0260620117188, 0.1412353515625, 0.0331420898438, 0.1451416015625, -0.2597656250000, 0.0303955078125, -0.0879516601562, 0.1721801757812, 0.0396728515625, 0.0172729492188, -0.1188354492188, -0.0131835937500, 0.2697143554688, -0.0450439453125, 0.1398925781250, 0.0120849609375, 0.1434936523438, 0.2310791015625, -0.0168457031250, -0.0172119140625, 0.1619262695312, 0.0258178710938, 0.0541992187500, 0.2335205078125, 0.0520019531250, 0.0091552734375, -0.0445556640625, -0.0936889648438, -0.2567749023438, -0.1858520507812, -0.1075439453125, 0.1973876953125, -0.0068359375000, -0.0501098632812, 0.1762084960938, 0.0297241210938, -0.0882568359375, 0.0313720703125, -0.0689697265625, 0.0785522460938, -0.0606689453125, 0.1739501953125, 0.0806274414062, -0.1140136718750, -0.1624145507812, 0.0792236328125, 0.1757812500000, 0.0288696289062, -0.0363769531250, -0.0358886718750, 0.0788574218750, -0.0732421875000, 0.2041015625000, 0.1071166992188, 0.1400756835938, 0.0700683593750, 0.1770629882812, -0.0882568359375, -0.0493164062500, 0.0502319335938, -0.0390625000000, 0.0421142578125, -0.1052246093750, 0.1320190429688, -0.0827636718750, 0.0218505859375, -0.1468505859375, -0.2136230468750, 0.2518920898438, -0.2092895507812, -0.0397949218750, -0.2061157226562, -0.1141967773438, -0.0079956054688, -0.1683959960938, -0.0449218750000, -0.0158081054688, 0.0902709960938, 0.0166015625000, 0.0425415039062, 0.2677001953125, 0.1865844726562, -0.0426025390625, 0.0319824218750, -0.0249633789062, -0.1718139648438, 0.0727539062500, -0.0536499023438, -0.0786743164062, 0.2335205078125, -0.1473999023438, 0.0667114257812, -0.0527343750000, -0.1103515625000, 0.1105346679688, -0.0682373046875, 0.2103881835938, -0.0573120117188, 0.0142822265625, -0.1925659179688, 0.1002807617188, 0.0595703125000, 0.1155395507812, 0.0095825195312, 0.1167602539062, -0.2272949218750, -0.0504760742188, -0.0564575195312, 0.1497192382812, 0.0874633789062, -0.1500244140625, 0.1224975585938, 0.1933593750000, -0.0807495117188, -0.0921020507812, 0.2290649414062, 0.2033691406250, -0.0319213867188, 0.0385131835938, 0.0672607421875, -0.1131591796875, 0.0191040039062, -0.2621459960938, 0.1238403320312, -0.0122680664062, -0.0364990234375, 0.0667114257812, 0.0418090820312, 0.0677490234375, -0.0897827148438, 0.0593872070312, -0.1488037109375, 0.1477050781250, 0.1210327148438, -0.2475585937500, 0.1970825195312, -0.1392211914062, -0.0794677734375, -0.0090942382812, -0.0722656250000, 0.0756835937500, -0.2511596679688, 0.1607055664062, -0.2558593750000, -0.1624145507812, -0.1210327148438, 0.0853271484375, -0.0789794921875, -0.1073608398438, 0.0477905273438, -0.1814575195312, -0.0015869140625, -0.1279907226562, 0.0543212890625, 0.0974731445312, 0.0176391601562, -0.2074584960938, -0.0454101562500, 0.1060791015625, 0.1468505859375, -0.0495605468750, 0.1259155273438, 0.1241455078125, 0.2132568359375, 0.0198364257812, 0.2504272460938, 0.1561279296875, -0.1497192382812, 0.0139160156250, -0.0993652343750, -0.0775756835938, 0.0274047851562, 0.0762329101562, -0.0217895507812, -0.0288696289062, 0.0083007812500, -0.0665893554688, -0.1464843750000, 0.0244750976562, -0.1370239257812, -0.2073974609375, -0.1275634765625, 0.0903320312500, 0.0540771484375, -0.1621704101562, -0.1117553710938, 0.2157592773438, -0.2149047851562, -0.0098876953125, 0.0795288085938, 0.1769409179688, 0.0942382812500, 0.0375976562500, -0.0397338867188, 0.0037231445312, 0.0809326171875, 0.1854248046875, -0.0112304687500, 0.1795654296875, 0.0623779296875, -0.0169067382812, -0.1179199218750, 0.1765747070312, -0.0035400390625, 0.1265258789062, 0.0217285156250, -0.0236206054688, -0.0904541015625, -0.2148437500000, -0.0284423828125, -0.0798950195312, 0.2702636718750, 0.1295166015625, -0.1519165039062, -0.0200195312500, 0.1024780273438, 0.0410766601562, 0.1328735351562, 0.1768798828125, 0.0662841796875, 0.0158691406250, 0.1680908203125, 0.0532836914062, 0.0933837890625, -0.1935424804688, -0.0289916992188, 0.2821655273438, -0.0296020507812, -0.1218261718750, 0.1055297851562, -0.1041259765625, 0.0695800781250, -0.0424194335938, -0.2262573242188, 0.0900878906250, -0.0783081054688, 0.1633300781250, -0.0517578125000, 0.1693725585938, -0.0207519531250, 0.1622314453125, 0.0480346679688, 0.2461547851562, -0.1177978515625, -0.0654907226562, -0.0059814453125, -0.0955200195312, 0.0220947265625, -0.1506958007812, -0.0676269531250, -0.0834960937500, -0.1489868164062, 0.1566162109375, -0.0051879882812, -0.1468505859375, -0.0223999023438, -0.1122436523438, -0.1112060546875, -0.1596679687500, -0.0443725585938, -0.0999145507812, -0.2344970703125, 0.0217895507812, -0.1798706054688, 0.1724243164062, 0.0050659179688, -0.0535278320312, 0.0620727539062, -0.0551757812500, 0.0811157226562, -0.1275024414062, -0.1611328125000, 0.2202148437500, 0.1436157226562, 0.1226196289062, -0.1389160156250, -0.0310058593750, 0.0238037109375, -0.1049804687500, -0.1324462890625, 0.1954345703125, 0.1741943359375, -0.0969848632812, -0.1904296875000, -0.0320434570312, 0.1411132812500, -0.1840820312500, 0.0568847656250, 0.1154785156250, -0.0756835937500, -0.0975341796875, 0.1029663085938, 0.1168823242188, 0.2071533203125, 0.1392822265625, -0.1298828125000, 0.1402587890625, 0.1615600585938, -0.0694580078125, -0.1599731445312, 0.0797729492188, -0.0440063476562, -0.0048828125000, -0.0309448242188, 0.0404663085938, 0.1193237304688, -0.1362304687500, 0.1897583007812, 0.0236206054688, 0.1231079101562, 0.1839599609375, 0.1707153320312, -0.0499877929688, 0.2119750976562, 0.0767211914062, -0.1398925781250, -0.1494140625000, -0.0084228515625, -0.1618041992188, -0.0822753906250, -0.0239868164062, -0.2453613281250, -0.1541748046875, -0.1209716796875, 0.0791015625000, -0.0920410156250, -0.1515502929688, 0.0625000000000, -0.2608032226562, -0.2478027343750, -0.1203002929688, -0.1454467773438, -0.2097167968750, -0.0250854492188, -0.0700683593750, -0.0058593750000, -0.0386352539062, 0.0145263671875, -0.1304931640625, -0.1941528320312, 0.0479125976562, 0.1459960937500, -0.0308837890625, 0.0891113281250, -0.1101684570312, -0.2079467773438, 0.2064208984375, 0.0932006835938, -0.1529541015625, 0.2272338867188, -0.0679931640625, 0.0266723632812, -0.0756225585938, -0.2614135742188, 0.0307006835938, -0.0672607421875, -0.0411376953125, -0.0464477539062, 0.1901855468750, -0.0052490234375, -0.1539306640625, -0.0181274414062, 0.1921997070312, 0.1313476562500, 0.0668945312500, -0.0742797851562, -0.0518798828125, 0.0926513671875, 0.0359497070312, -0.0648193359375, -0.0527343750000, 0.2229614257812, 0.1045532226562, -0.1751708984375, 0.0541992187500, 0.1809692382812, 0.0120849609375, -0.0047607421875, -0.1108398437500, 0.0359497070312, -0.0575561523438, 0.1290893554688, -0.2742309570312, -0.1597290039062, 0.1728515625000, 0.0230712890625, 0.0658569335938, -0.0585327148438, 0.0624389648438, -0.0654907226562, -0.1372680664062, -0.2702636718750, 0.1229248046875, -0.0442504882812, -0.1356201171875, -0.1796875000000, 0.0067138671875, -0.1535034179688, 0.1234130859375, -0.1085205078125, 0.0317993164062, 0.0964355468750, -0.0444335937500, -0.1742553710938, 0.0216674804688, -0.0414428710938, 0.1298828125000, 0.0564575195312, -0.1383666992188, 0.1036987304688, 0.0767822265625, -0.0373535156250, 0.1010131835938, 0.1798706054688, -0.1033325195312, 0.0211181640625, -0.0057983398438, 0.0023803710938, 0.2683715820312, 0.0727539062500, -0.1143188476562, -0.0494384765625, 0.0030517578125, 0.1121215820312, -0.2061157226562, 0.2147216796875, 0.0090942382812, 0.0434570312500, -0.0162353515625, 0.0377197265625, -0.1356811523438, -0.0690917968750, -0.0235595703125, -0.0191650390625, 0.1029052734375, -0.1857299804688, 0.1932983398438, 0.0360717773438, 0.0077514648438, -0.1551513671875, 0.0065307617188, -0.0492553710938, -0.1307373046875, -0.1308593750000, 0.1696166992188, -0.2265625000000, 0.0009155273438, 0.0935058593750, -0.0825195312500, -0.1198120117188, -0.1881713867188, 0.0000000000000, 0.0910644531250, -0.1296997070312, 0.0197753906250, -0.2649536132812, 0.1627197265625, -0.1877441406250, 0.0495605468750, -0.2402954101562, 0.1737060546875, -0.0397949218750, -0.1133422851562, 0.1156005859375, -0.0878295898438, 0.0804443359375, -0.0474243164062, 0.0471191406250, 0.0523681640625, 0.2570190429688, -0.2480468750000, -0.0969848632812, -0.2211914062500, 0.1036376953125, -0.0212402343750, -0.0451049804688, -0.0555419921875, -0.1142578125000, -0.0982666015625, -0.0148315429688, 0.1295166015625, 0.0841674804688, -0.0666503906250, -0.1408081054688, -0.1975097656250, 0.0435791015625, 0.0093383789062, 0.1372070312500, -0.0439453125000, 0.0359497070312, -0.0433959960938, 0.1757812500000, -0.1574707031250, -0.0747070312500, -0.0407714843750, -0.0444335937500, -0.2772216796875, 0.1477661132812, -0.1250000000000, -0.2017822265625, 0.0559082031250, -0.1271972656250, -0.0420532226562, -0.1630859375000, 0.0938110351562, -0.2283325195312, -0.0891113281250, -0.0317382812500, -0.0651245117188, 0.1576538085938, 0.1892089843750, -0.0662841796875, -0.1024780273438, 0.0848388671875, 0.1278686523438, 0.0121459960938, 0.1225585937500, -0.0089111328125, 0.1754760742188, -0.0453491210938, -0.1900634765625, 0.1925659179688, -0.0889892578125, 0.2466430664062, 0.0335693359375, 0.0751953125000, 0.0136718750000, -0.1466674804688, 0.0257568359375, -0.1013183593750, 0.0217895507812, -0.0582885742188, 0.0500488281250, -0.2082519531250, -0.1088867187500, 0.0798339843750, 0.1091308593750, -0.1725463867188, -0.0379638671875, 0.0523681640625, -0.0703125000000, -0.0960083007812, 0.1296997070312, 0.1338500976562, 0.0046997070312, -0.1902465820312, -0.0450439453125, -0.1316528320312, 0.1150512695312, -0.0291137695312, 0.2199707031250, 0.0318603515625, -0.1995849609375, -0.2128906250000, -0.0601196289062, -0.1469726562500, -0.0302124023438, -0.0368652343750, -0.1459350585938, -0.0098266601562, -0.0115356445312, -0.0979614257812, -0.0808715820312, 0.2130737304688, 0.0473022460938, 0.0841064453125, -0.0152587890625, -0.0447387695312, 0.0595092773438, -0.0195312500000, 0.0645141601562, -0.2362670898438, 0.1221923828125, 0.2279663085938, 0.0812988281250, 0.0510253906250, 0.0527343750000, -0.0300903320312, 0.0628662109375, -0.1426391601562, 0.1842041015625, -0.0533447265625, 0.0836181640625, 0.0549316406250, 0.0234985351562, 0.1146850585938, 0.0636596679688, -0.1564941406250, 0.1032104492188, 0.0295410156250, 0.0070800781250, -0.0836791992188, 0.0592041015625, 0.1510620117188, 0.0463867187500, -0.1205444335938, -0.0479736328125, -0.1765136718750, -0.0341796875000, -0.2005004882812, -0.0356445312500, 0.2421875000000, 0.1737060546875, -0.0324096679688, 0.0639648437500, 0.1928100585938, -0.2017822265625, 0.1307983398438, 0.0840454101562, -0.1371459960938, -0.0478515625000, -0.1057128906250, -0.0457763671875, 0.1298828125000, -0.0659179687500, 0.1090698242188, -0.1946411132812, -0.0087280273438, 0.0894165039062, -0.0720825195312, 0.0914916992188, 0.0936889648438, 0.1729125976562, 0.2430419921875, 0.0078735351562, -0.1590576171875, -0.0279541015625, 0.2017822265625, -0.2487792968750, -0.2702636718750, -0.2670288085938, -0.2454223632812, 0.1646728515625, -0.1546630859375, 0.0314331054688, -0.0001220703125, -0.0919799804688, -0.0510864257812, 0.1779785156250, -0.1525268554688, -0.1022949218750, -0.1371459960938, 0.1690063476562, 0.0534667968750, 0.0140380859375, -0.0621337890625, -0.0065307617188, 0.0911865234375, 0.0399780273438, 0.0531005859375, -0.1284790039062, 0.0872192382812, 0.0855712890625, -0.0397949218750, 0.1088256835938, 0.0609130859375, 0.0190429687500, -0.0050659179688, -0.2453613281250, -0.0261230468750, 0.1583251953125, -0.0053100585938, -0.0742187500000, 0.0914916992188, -0.1473388671875, 0.0326538085938, -0.0609741210938, 0.0510253906250, 0.1345825195312, -0.1921386718750, 0.1544189453125, -0.0764160156250, -0.1171875000000, 0.0473632812500, 0.0119628906250, -0.1543579101562, 0.0910034179688, -0.0054321289062, 0.0204467773438, 0.0684204101562, 0.2291870117188, -0.0130615234375, 0.1405639648438, 0.1178588867188, -0.0592651367188, -0.1298828125000, -0.0120849609375, -0.0915527343750, 0.0145263671875, -0.1484375000000, 0.1634521484375, -0.1439208984375, 0.1675415039062, -0.1437988281250, -0.2170410156250, 0.2099609375000, 0.0247192382812, 0.0189208984375, 0.1006469726562, -0.1044311523438, -0.2566528320312, -0.1093139648438, -0.0134277343750, -0.0092163085938, -0.0134887695312, -0.0054931640625, -0.0215454101562, -0.2233886718750, 0.0476074218750, 0.2070312500000, 0.0284423828125, -0.1101074218750, -0.0468750000000, 0.0229492187500, -0.1677856445312, 0.0422363281250, -0.1159057617188, -0.1439819335938, 0.0482177734375, -0.1163940429688, -0.0081176757812, 0.0875244140625, -0.0455322265625, 0.1076660156250, 0.0349731445312, -0.1104125976562, 0.0361938476562, -0.2404785156250, 0.1945800781250, 0.0282592773438, -0.0498046875000, -0.1230468750000, 0.2686767578125, 0.0834350585938, 0.1276855468750, -0.0263061523438, 0.1124877929688, 0.1284790039062, -0.1522216796875, -0.1287231445312, -0.0775146484375, 0.0346679687500, 0.0737915039062, 0.1051025390625, 0.0084838867188, 0.1066284179688, 0.0345458984375, 0.0195922851562, -0.0415649414062, 0.1773071289062, 0.0458984375000, 0.1316528320312, -0.0537109375000, 0.1901245117188, -0.0556030273438, -0.0352172851562, -0.0061035156250, -0.1000976562500, 0.1373291015625, 0.0681152343750, 0.1438598632812, 0.0666503906250, 0.2263793945312, -0.1876831054688, 0.0330810546875, 0.1705322265625, -0.1265869140625, -0.1982421875000, 0.0091552734375, -0.0853881835938, -0.0828857421875, 0.1367797851562, -0.0634765625000, 0.0347290039062, -0.0109252929688, -0.1187744140625, 0.0193481445312, 0.2555541992188, 0.0098876953125, 0.0167846679688, -0.0078735351562, 0.0426025390625, 0.2472534179688, 0.0634155273438, 0.0320434570312, -0.0930175781250, -0.0113525390625, -0.0194091796875, 0.0535278320312, -0.0100708007812, -0.1510620117188, -0.0650024414062, -0.0055541992188, -0.1115112304688, -0.1504516601562, 0.1894531250000, 0.0170898437500, 0.0577392578125, -0.1339721679688, -0.0429687500000, 0.0084838867188, 0.0438232421875, -0.1219482421875, 0.1876220703125, -0.1081542968750, 0.1492919921875, 0.0429687500000, -0.0666503906250, 0.0426025390625, -0.1154785156250, -0.0548095703125, 0.0368041992188, -0.0549316406250, 0.1195678710938, 0.0690307617188, -0.1156616210938, 0.0434570312500, 0.0231323242188, -0.0675048828125, 0.1060180664062, 0.0015258789062, 0.1735839843750, -0.1352539062500, 0.0214233398438, -0.0139770507812, -0.1087036132812, -0.0557250976562, -0.0551757812500, 0.0873413085938, 0.0841064453125, 0.1717529296875, 0.1672363281250, 0.0759277343750, -0.0222778320312, 0.0206909179688, 0.1453247070312, -0.0444946289062, 0.0192871093750, 0.0433349609375, 0.0252075195312, 0.1185302734375, -0.0607910156250, 0.1353149414062, -0.0635986328125, -0.0921630859375, -0.2830810546875, 0.0018920898438, 0.1820068359375, 0.0410766601562, 0.1038208007812, -0.1590576171875, 0.0546264648438, -0.0892944335938, -0.1563720703125, 0.2712402343750, -0.1887817382812, 0.1229858398438, 0.0688476562500, 0.0481567382812, 0.2545166015625, -0.0347290039062, -0.0679931640625, -0.1701660156250, 0.0463256835938, -0.0444335937500, 0.0524291992188, 0.1426391601562, -0.1683349609375, 0.1346435546875, 0.1228027343750, 0.0185546875000, -0.1464233398438, -0.1939697265625, -0.1940307617188, -0.1140747070312, 0.0517578125000, 0.1525878906250, -0.2328491210938, -0.0881347656250, -0.1787109375000, -0.1759033203125, -0.1812133789062, 0.0931396484375, -0.1278076171875, 0.2221679687500, -0.1846313476562, 0.0485229492188, 0.1953125000000, 0.2047729492188, 0.0267333984375, -0.0982055664062, 0.1655273437500, -0.2690429687500, 0.1845703125000, 0.1231689453125, -0.0784912109375, -0.0263061523438, -0.1754150390625, 0.0532226562500, 0.0526123046875, 0.2286987304688, -0.0244140625000, -0.0662231445312, -0.0422973632812, -0.1749877929688, 0.2011108398438, 0.1442260742188, 0.1252441406250, -0.0823364257812, 0.1973876953125, -0.2424316406250, 0.0640258789062, 0.1062622070312, 0.0423583984375, -0.0718994140625, 0.2813110351562, -0.0839843750000, 0.0994873046875, 0.1105957031250, 0.0473022460938, 0.0825195312500, -0.0283203125000, 0.0458984375000, -0.0691528320312, 0.0154418945312, 0.1317138671875, -0.1235351562500, -0.0608520507812, -0.1751708984375, 0.0743408203125, -0.1094970703125, -0.1265258789062, -0.2019653320312, 0.0837402343750, -0.0837402343750, 0.0515747070312, -0.2006225585938, 0.0087890625000, 0.0960083007812, -0.0883789062500, -0.0744018554688, -0.0104980468750, 0.1600341796875, 0.1274414062500, -0.0326538085938, 0.2774658203125, -0.0050659179688, 0.0989379882812, -0.1132202148438, 0.1320190429688, 0.1757202148438, -0.0903320312500, -0.0462646484375, -0.1159667968750, -0.0459594726562, 0.0351562500000, -0.0474243164062, -0.1295776367188, -0.0833740234375, -0.2642211914062, 0.1224365234375, -0.1725463867188, -0.1870727539062, 0.2570190429688, 0.1542968750000, -0.1216430664062, -0.1294555664062, -0.0985717773438, -0.0947265625000, -0.1952514648438, -0.1096801757812, -0.1076049804688, 0.0921020507812, -0.0737304687500, -0.0222167968750, 0.1148071289062, 0.0151977539062, -0.2411499023438, -0.0563964843750, -0.2145385742188, 0.0782470703125, -0.0695800781250, 0.1239624023438, 0.1372070312500, -0.1444091796875, -0.2421875000000, -0.0569458007812, -0.0895385742188, 0.0254516601562, -0.1132202148438, -0.1674804687500, -0.0899047851562, -0.0281982421875, 0.2526855468750, -0.0526733398438, 0.1074218750000, 0.0333862304688, -0.0097656250000, 0.0227050781250, 0.0317993164062, 0.1259765625000, -0.1870727539062, -0.0261230468750, -0.0538330078125, 0.0974121093750, 0.0284423828125, 0.0840454101562, -0.0203247070312, 0.1046752929688, -0.0437011718750, -0.1893920898438, -0.1624145507812, -0.2092895507812, 0.0490112304688, 0.0300903320312, 0.0436401367188, 0.2136230468750, -0.0852661132812, -0.2417602539062, -0.1964721679688, 0.2452392578125, 0.0564575195312, 0.0332031250000, 0.0560302734375, 0.0059814453125, 0.0146484375000, 0.0134277343750, -0.2149047851562, -0.0518188476562, -0.1535644531250, -0.0195312500000, 0.0892944335938, 0.1431274414062, -0.0045166015625, -0.0052490234375, -0.0346679687500, 0.0313110351562, -0.0529174804688, -0.0563354492188, -0.1477661132812, 0.0109252929688, -0.0281982421875, 0.0005493164062, 0.0483398437500, -0.1002197265625, -0.0141601562500, -0.1818847656250, 0.1897583007812, -0.0413818359375, 0.2296142578125, -0.0083618164062, 0.0376586914062, 0.0493164062500, -0.2586059570312, -0.0028076171875, 0.0471801757812, -0.0916748046875, 0.0168457031250, 0.0795898437500, 0.0820922851562, -0.0402832031250, -0.1109619140625, -0.0449218750000, 0.1629028320312, -0.0635375976562, 0.0078125000000, 0.0081176757812, 0.0195922851562, 0.1285400390625, 0.0803833007812, 0.1505737304688, -0.0919799804688, -0.0781860351562, -0.0809936523438, -0.0724487304688, 0.1488647460938, 0.0015258789062, -0.2164306640625, 0.0568237304688, 0.0237426757812, -0.0349731445312, -0.0712280273438, -0.0374145507812, 0.0314331054688, 0.1718139648438, 0.2649536132812, 0.1818847656250, 0.0040893554688, -0.2080688476562, -0.2484741210938, -0.2375488281250, 0.0823364257812, 0.0205688476562, -0.2371826171875, 0.0537109375000, 0.1549072265625, 0.0926513671875, 0.0848388671875, 0.0857543945312, -0.0938720703125, -0.2022094726562, -0.0592651367188, 0.1043701171875, 0.1462402343750, -0.0369262695312, -0.0158691406250, 0.0420532226562, 0.0203857421875, 0.1637573242188, 0.1370239257812, -0.0332641601562, -0.0963134765625, -0.1824951171875, -0.0231323242188, -0.0806884765625, 0.0486450195312, -0.0969238281250, 0.1183471679688, -0.2576293945312, 0.2259521484375, -0.0374755859375, 0.0640258789062, 0.2012939453125, -0.0976562500000, -0.0461425781250, -0.0045166015625, -0.0917968750000, 0.2516479492188, -0.0941772460938, 0.2216796875000, -0.1671142578125, 0.0986328125000, 0.0748291015625, -0.0502319335938, 0.2288208007812, -0.1174926757812, 0.0865478515625, -0.0537719726562, -0.0115356445312, -0.2714843750000, -0.1544189453125, -0.0229492187500, -0.1266479492188, -0.0720214843750, 0.1101684570312, 0.1060180664062, 0.0349121093750, 0.0899047851562, 0.1280517578125, 0.1813964843750, 0.1672363281250, -0.2352294921875, 0.0993652343750, 0.0421752929688, -0.1760864257812, -0.1338500976562, 0.0386352539062, 0.0715332031250, 0.0786132812500, -0.1028442382812, 0.1859741210938, 0.1499023437500, 0.0324707031250, 0.0726318359375, 0.0341186523438, -0.0332641601562, -0.0629882812500, -0.1773071289062, 0.1412963867188, -0.0684204101562, 0.1819458007812, -0.0400390625000, -0.0891113281250, 0.1771850585938, -0.2197265625000, 0.1019897460938, 0.0788574218750, -0.1676025390625, 0.2373046875000, -0.1781005859375, 0.0996093750000, 0.0893554687500, -0.0374755859375, 0.1533203125000, 0.0521850585938, 0.1201782226562, 0.0397338867188, 0.1677856445312, -0.0161132812500, 0.0690917968750, 0.1215820312500, -0.0514526367188, 0.1907958984375, -0.0023803710938, 0.1000366210938, -0.1550292968750, -0.0054931640625, -0.0025634765625, 0.1242065429688, -0.2392578125000, -0.1300659179688, 0.1340332031250, -0.0041503906250, -0.0180664062500, 0.0507202148438, -0.0697631835938, 0.0138549804688, -0.0556640625000, 0.0325927734375, 0.0350341796875, -0.1000366210938, -0.1631469726562, -0.0341796875000, 0.0169677734375, -0.1171875000000, 0.0032958984375, 0.1304931640625, -0.1641235351562, -0.0593261718750, -0.2236938476562, -0.0139160156250, 0.2572021484375, -0.1033935546875, 0.0915527343750, -0.0759277343750, -0.1795654296875, -0.1657714843750, 0.1013183593750, -0.1369628906250, 0.1576538085938, -0.2131958007812, 0.2221679687500, -0.0770263671875, -0.0852661132812, 0.2620849609375, -0.0824584960938, 0.1039428710938, -0.2205200195312, -0.0567626953125, 0.1325073242188, 0.1033935546875, 0.2684936523438, 0.0861816406250, -0.0786743164062, -0.0731811523438, -0.0048828125000, 0.0518188476562, 0.2265014648438, 0.1818237304688, -0.1682739257812, -0.0770263671875, 0.0997924804688, 0.2133789062500, -0.0054931640625, 0.0674438476562, -0.0639648437500, -0.1011352539062, 0.1350708007812, -0.1112670898438, -0.1643676757812, -0.1103515625000, 0.0195312500000, 0.0184326171875, -0.1417846679688, -0.0771484375000, -0.0383300781250, -0.2755126953125, -0.1846313476562, 0.0809326171875, 0.1353149414062, 0.1277465820312, -0.1389160156250, -0.0225830078125, 0.0498657226562, -0.1999511718750, 0.1537475585938, -0.0272216796875, 0.0604248046875, -0.0384521484375, -0.1092529296875, -0.0898437500000, -0.0730590820312, 0.1389160156250, 0.0038452148438, 0.0946655273438, -0.0548095703125, 0.0491943359375, -0.0715332031250, 0.1063232421875, 0.0569458007812, 0.0814819335938, -0.0581054687500, 0.1956176757812, 0.0761718750000, -0.1498413085938, -0.0404052734375, 0.2623901367188, 0.1049194335938, 0.2102050781250, -0.0762939453125, -0.2470703125000, 0.0011596679688, -0.0982055664062, -0.0531005859375, 0.1640014648438, -0.1327514648438, -0.0360717773438, -0.2224731445312, -0.0217285156250, 0.0134277343750, -0.1572265625000, -0.0080566406250, 0.2635498046875, 0.0551757812500, -0.2056884765625, -0.1688842773438, 0.1676635742188, 0.0404663085938, 0.0884399414062, -0.0910034179688, -0.1525268554688, -0.1268310546875, 0.0825805664062, 0.1439819335938, -0.1294555664062, -0.2679443359375, 0.0150146484375, 0.1179809570312, 0.1770629882812, -0.2342529296875, -0.0793457031250, -0.2822265625000, 0.0513305664062, -0.0094604492188, 0.1575927734375, 0.0095825195312, 0.0235595703125, -0.1898803710938, -0.0355224609375, -0.0227661132812, -0.1213378906250, -0.1293334960938, -0.0046386718750, 0.1750488281250, -0.1304931640625, 0.0304565429688, 0.1499633789062, -0.0610961914062, -0.0288085937500, 0.2462158203125, -0.1292114257812, -0.0510864257812, 0.1687011718750, 0.0570678710938, 0.0693969726562, 0.0805053710938, -0.0148925781250, 0.0969848632812, 0.2373046875000, -0.0267944335938, 0.0162353515625, 0.0652465820312, -0.1852416992188, 0.0269165039062, -0.0465087890625, 0.0510864257812, -0.1357421875000, 0.0850830078125, 0.0372314453125, -0.0521240234375, -0.1842041015625, -0.1473388671875, -0.0548095703125, 0.2500610351562, -0.1763305664062, 0.0677490234375, 0.0241088867188, 0.0102539062500, -0.1356811523438, -0.0587158203125, 0.0341796875000, 0.2340698242188, 0.1614379882812, 0.0098266601562, 0.0806884765625, 0.0089111328125, 0.0907592773438, -0.1018676757812, 0.0311889648438, -0.0430297851562, 0.1055297851562, 0.0563964843750, -0.1075439453125, -0.2158813476562, 0.0372924804688, 0.1244506835938, -0.0177001953125, -0.0016479492188, -0.0162353515625, -0.1398315429688, -0.2732543945312, -0.0399169921875, 0.1818237304688, -0.1466064453125, -0.2322387695312, 0.0112915039062, -0.1553344726562, -0.0093994140625, 0.1135253906250, 0.0537109375000, -0.1065063476562, -0.1764526367188, 0.1472778320312, -0.0629272460938, -0.1422729492188, -0.2382202148438, 0.0762939453125, -0.0613403320312, 0.0794067382812, 0.0813598632812, 0.0510253906250, 0.0918579101562, -0.0178222656250, -0.0004882812500, -0.1882934570312, -0.0488891601562, -0.1076049804688, 0.0066528320312, -0.0696411132812, -0.0114135742188, -0.2141723632812, 0.0645141601562, 0.1661987304688, -0.2350463867188, 0.1510009765625, -0.0869750976562, 0.0563354492188, 0.0517578125000, 0.0570678710938, 0.0033569335938, -0.1270141601562, -0.0526123046875, 0.2763061523438, 0.1591186523438, 0.1213378906250, 0.1904907226562, 0.0823974609375, 0.0588378906250, 0.0225219726562, 0.0518188476562, -0.0466918945312, -0.1538085937500, -0.1801147460938, 0.0092773437500, -0.0225830078125, -0.1826171875000, -0.0260009765625, -0.2704467773438, 0.2266235351562, 0.1845703125000, -0.0897827148438, -0.1357421875000, -0.0615234375000, -0.0841064453125, -0.0787963867188, -0.0701293945312, -0.1207885742188, 0.0128173828125, 0.0238037109375, -0.1178588867188, 0.0372924804688, 0.1531372070312, -0.0222167968750, 0.0522460937500, 0.2831420898438, -0.0690917968750, 0.0218505859375, 0.0320434570312, -0.1755981445312, 0.0228881835938, 0.0759887695312, 0.0051269531250, -0.2299804687500, 0.0467529296875, 0.0821533203125, -0.2355957031250, -0.0317993164062, 0.1950683593750, -0.1917114257812, 0.0197753906250, -0.1940307617188, 0.2091064453125, -0.2507934570312, 0.0438842773438, -0.0631713867188, -0.0520629882812, -0.0241088867188, -0.0184326171875, 0.0441894531250, -0.0270996093750, 0.0382080078125, 0.0371093750000, 0.0759277343750, -0.0526733398438, -0.1392211914062, -0.1252441406250, 0.0665893554688, -0.1999511718750, 0.2096557617188, 0.2185668945312, 0.0227661132812, -0.0931396484375, 0.0326538085938, 0.0360107421875, 0.1958007812500, -0.0791015625000, 0.1556396484375, 0.0779418945312, 0.2525634765625, 0.1822509765625, -0.1223144531250, -0.2607421875000, -0.1898803710938, -0.0758056640625, -0.1491699218750, 0.1300659179688, -0.2291259765625, -0.1884765625000, 0.1434936523438, 0.1003417968750, 0.1008911132812, 0.1283569335938, -0.0931396484375, -0.2165527343750, -0.2406005859375, -0.1085815429688, 0.0857543945312, -0.0902099609375, 0.0968627929688, -0.1093139648438, 0.1513671875000, 0.0228271484375, 0.0315551757812, -0.1254272460938, -0.1481323242188, -0.1514892578125, 0.1639404296875, 0.2024536132812, -0.0434570312500, -0.1283569335938, -0.2031250000000, 0.0655517578125, 0.0850219726562, -0.0186157226562, -0.1149291992188, 0.2492675781250, -0.0153808593750, -0.1068115234375, -0.0791625976562, 0.1098022460938, -0.0974121093750, 0.2020263671875, -0.2587890625000, -0.2478637695312, -0.0725097656250, -0.0004882812500, 0.1376953125000, 0.1533203125000, 0.2098999023438, -0.0735473632812, -0.0617675781250, 0.0935668945312, -0.1140747070312, -0.1389770507812, -0.2038574218750, 0.0535888671875, 0.1140747070312, 0.2225952148438, -0.2246093750000, -0.1829223632812, 0.0816040039062, -0.0907592773438, 0.1549072265625, 0.2593994140625, 0.1068725585938, -0.0855712890625, 0.1717529296875, -0.0446166992188, -0.0657958984375, 0.2159423828125, 0.0271606445312, 0.0361938476562, -0.0574951171875, 0.0179443359375, 0.1038818359375, 0.1589965820312, -0.0585327148438, -0.0418090820312, -0.0906372070312, -0.1100463867188, -0.0703125000000, -0.0976562500000, -0.0006103515625, -0.2217407226562, -0.1815185546875, -0.0261840820312, 0.1463012695312, 0.2111206054688, -0.1023559570312, -0.2280273437500, -0.0087890625000, -0.1497192382812, -0.1741943359375, -0.2709960937500, 0.1693115234375, -0.0322875976562, 0.0445556640625, -0.0246582031250, -0.2202758789062, 0.0024414062500, 0.0628662109375, -0.0028686523438, 0.1007080078125, -0.0507202148438, 0.1200561523438, 0.0705566406250, 0.0812377929688, 0.1489257812500, 0.0272216796875, 0.1502075195312, 0.2131347656250, 0.1885375976562, -0.0413208007812, -0.0348510742188, 0.0488891601562, 0.0673217773438, -0.0197753906250, -0.1085205078125, -0.1774902343750, 0.1295776367188, 0.1337280273438, -0.1112060546875, -0.1622314453125, -0.1184082031250, -0.1204223632812, -0.1647338867188, -0.2023315429688, -0.2379760742188, -0.0016479492188, 0.0509033203125, 0.1008911132812, 0.0000000000000, 0.1008911132812, -0.0786132812500, 0.2130126953125, 0.1986694335938, 0.0161743164062, -0.2174682617188, -0.0905151367188, -0.0237426757812, 0.0133056640625, -0.0748901367188, -0.0991821289062, 0.0326538085938, 0.0380859375000, -0.1591186523438, -0.0518188476562, 0.1588134765625, 0.0287475585938, 0.1737060546875, 0.0839233398438, -0.0196533203125, -0.1093750000000, -0.1854858398438, -0.0559082031250, 0.0457763671875, 0.0031127929688, 0.1600952148438, 0.0125122070312, -0.0395507812500, -0.0658569335938, 0.1842041015625, 0.1406860351562, -0.2025146484375, 0.2716674804688, 0.0817871093750, -0.1378784179688, -0.0571899414062, -0.1212768554688, -0.2086791992188, -0.0263061523438, -0.0973510742188, -0.0277709960938, -0.0167846679688, 0.0719604492188, -0.0300292968750, -0.0786743164062, 0.1669311523438, 0.0240478515625, 0.0370483398438, -0.2192382812500, 0.1796875000000, 0.2501220703125, -0.2177734375000, 0.0096435546875, 0.1194458007812, -0.2084960937500, -0.1181030273438, -0.1621704101562, 0.0588989257812, -0.0448608398438, 0.0917358398438, 0.1972656250000, -0.2116699218750, 0.1080322265625, -0.0604858398438, 0.1430664062500, -0.0933837890625, 0.0440673828125, 0.1543579101562, -0.1779174804688, 0.1727294921875, 0.1439208984375, -0.0640258789062, 0.1530151367188, -0.0913085937500, -0.0520629882812, 0.1741333007812, 0.0281372070312, 0.1316528320312, 0.0437622070312, -0.2425537109375, 0.0263061523438, 0.0742187500000, 0.1040649414062, -0.0216064453125, -0.0648193359375, -0.2570190429688, -0.1575927734375, 0.1302490234375, -0.1141967773438, 0.0603027343750, -0.0020751953125, 0.0222778320312, 0.0354614257812, 0.0552978515625, 0.1291503906250, -0.2125244140625, 0.1569213867188, -0.1847534179688, 0.1549682617188, -0.0866088867188, 0.0898437500000, 0.0385131835938, 0.2509155273438, 0.1109008789062, -0.0390014648438, 0.1273803710938, 0.0352172851562, 0.0174560546875, 0.0430908203125, 0.0330810546875, 0.1159667968750, 0.0061645507812, 0.2695922851562, 0.0985717773438, 0.2162475585938, -0.0064697265625, 0.0886230468750, -0.1842041015625, -0.0576782226562, -0.0346069335938, -0.0537109375000, 0.0551757812500, 0.1281127929688, -0.0154418945312, 0.0114746093750, -0.1083374023438, -0.1571655273438, 0.1348266601562, -0.0130615234375, 0.0632324218750, 0.0281982421875, 0.0578002929688, -0.0606689453125, -0.0675048828125, 0.0957031250000, -0.1027221679688, -0.1146240234375, -0.1043701171875, -0.2547607421875, 0.1675415039062, -0.0034179687500, 0.1729125976562, -0.1507568359375, -0.2567138671875, 0.0774536132812, 0.0288085937500, 0.1651000976562, 0.0418701171875, -0.2573242187500, 0.2213134765625, 0.0866088867188, -0.0278320312500, -0.0280151367188, -0.0465087890625, -0.0254516601562, 0.2189941406250, -0.0007934570312, -0.1494750976562, 0.0148925781250, 0.1148681640625, -0.0799560546875, 0.0684814453125, 0.0582275390625, -0.0606079101562, -0.0035400390625, -0.1130981445312, 0.1674194335938, -0.0415649414062, 0.1003417968750, -0.0052490234375, -0.0775146484375, 0.1421508789062, -0.0749511718750, -0.0502929687500, 0.2047119140625, -0.1192626953125, 0.0418701171875, -0.0203857421875, 0.1015014648438, 0.0618896484375, -0.0229492187500, 0.2023315429688, -0.0886230468750, -0.0879516601562, -0.1380004882812, 0.0594482421875, -0.1381835937500, -0.2379760742188, 0.0756225585938, 0.1012573242188, -0.1126708984375, 0.0006103515625, 0.0299682617188, -0.1163330078125, 0.2199096679688, 0.1235351562500, -0.1014404296875, 0.0003662109375, -0.1633911132812, 0.0079956054688, -0.0808715820312, -0.0546875000000, 0.1046752929688, 0.0457153320312, 0.0066528320312, 0.2774047851562, 0.2314453125000, -0.0749511718750, 0.0537109375000, 0.1122436523438, -0.1213989257812, 0.0615234375000, -0.0245361328125, 0.1698608398438, -0.0130004882812, 0.0514526367188, -0.0753173828125, 0.1589355468750, -0.0983886718750, 0.1596069335938, 0.1887207031250, 0.0607910156250, -0.0791015625000, 0.0356445312500, -0.0941772460938, 0.0011596679688, 0.1239013671875, -0.0195312500000, 0.1025390625000, 0.1978759765625, 0.0780639648438, 0.0616455078125, 0.0115356445312, 0.1663818359375, -0.0637207031250, -0.1928710937500, 0.0738525390625, 0.0253295898438, 0.0742797851562, -0.0577392578125, -0.1834716796875, 0.0092163085938, 0.0883789062500, 0.0770263671875, 0.1516113281250, 0.1319580078125, 0.1776733398438, -0.1777954101562, -0.0172119140625, -0.1066894531250, 0.0118408203125, -0.0789184570312, -0.0424804687500, -0.0415039062500, -0.1564331054688, -0.0434570312500, -0.0636596679688, -0.0269775390625, -0.2760620117188, -0.0757446289062, 0.0260620117188, 0.0372924804688, -0.0931396484375, -0.1932983398438, -0.0184326171875, -0.1123046875000, 0.0758666992188, 0.1887207031250, -0.0811767578125, -0.1518554687500, -0.2137451171875, 0.0265502929688, 0.2504882812500, -0.1367797851562, -0.1080322265625, 0.0986938476562, -0.1182861328125, 0.2720336914062, 0.1354370117188, 0.0490722656250, -0.1119384765625, 0.1690063476562, -0.1408081054688, -0.0286865234375, -0.1707763671875, -0.1755981445312, -0.0083007812500, 0.1363525390625, -0.1798706054688, 0.1978759765625, -0.0654296875000, 0.0382080078125, 0.0906372070312, -0.0166015625000, -0.1040039062500, 0.0432739257812, -0.2024536132812, 0.0843505859375, 0.0170288085938, -0.0413818359375, 0.1411132812500, 0.0980834960938, -0.0479736328125, 0.2081298828125, 0.1159667968750, -0.0376586914062, 0.0043334960938, 0.0244140625000, -0.0374145507812, 0.1983032226562, 0.0645141601562, 0.1569213867188, -0.1242675781250, 0.2170410156250, 0.1701660156250, 0.1021118164062, -0.0374755859375, 0.2516479492188, -0.1912231445312, -0.1010131835938, -0.2165527343750, 0.0511474609375, 0.1259155273438, -0.0081787109375, 0.0156860351562, -0.0627441406250, 0.0537719726562, -0.0048828125000, 0.1055297851562, -0.1726684570312, 0.0864257812500, -0.0988159179688, -0.1062622070312, 0.0900268554688, 0.1790161132812, -0.0943603515625, 0.0601196289062, -0.0667724609375, 0.0291137695312, -0.2503051757812, -0.2528076171875, 0.0007934570312, 0.0707397460938, -0.0331420898438, -0.1132202148438, 0.2772216796875, -0.0227661132812, 0.0429077148438, -0.1111450195312, -0.0012207031250, 0.0961303710938, 0.2029418945312, 0.0363159179688, 0.1534423828125, 0.0109863281250, -0.1535644531250, -0.0484008789062, 0.0485839843750, 0.1799316406250, 0.1685791015625, -0.1209716796875, 0.0458984375000, -0.1061401367188, -0.2235717773438, -0.0636596679688, -0.1644897460938, -0.1409301757812, 0.0385131835938, -0.0149536132812, -0.1070556640625, -0.0314331054688, -0.2454833984375, -0.1379394531250, 0.0311279296875, 0.2501220703125, -0.0866088867188, 0.0656738281250, 0.0380859375000, 0.1165771484375, -0.0213623046875, 0.2728271484375, 0.2211303710938, -0.1571044921875, 0.2239379882812, 0.0228881835938, -0.1946411132812, -0.0627441406250, -0.1480102539062, -0.0008544921875, -0.1351318359375, -0.0186157226562, 0.1536254882812, 0.2081909179688, -0.0448608398438, 0.0900878906250, 0.0303344726562, -0.0631103515625, 0.1651611328125, 0.2745971679688, -0.0573730468750, -0.1804809570312, 0.0496826171875, -0.1065673828125, 0.1390380859375, -0.2620849609375, -0.1143798828125, 0.0694580078125, -0.0541992187500, -0.0021972656250, 0.0488281250000, 0.1087646484375, 0.0604858398438, -0.0789184570312, 0.0310668945312, 0.0823974609375, 0.1414794921875, 0.1246948242188, 0.1168823242188, -0.1163940429688, 0.0958862304688, -0.1586303710938, 0.2004394531250, 0.1390991210938, 0.2154541015625, 0.1223754882812, -0.1072387695312, -0.0603027343750, 0.0238647460938, -0.1597900390625, 0.1132812500000, -0.0050659179688, -0.0453491210938, -0.1065063476562, 0.1229858398438, -0.0212402343750, 0.0535888671875, -0.2263793945312, -0.0239257812500, -0.0812377929688, 0.2310791015625, 0.0626220703125, 0.1345825195312, 0.0420532226562, 0.0909423828125, 0.1561889648438, 0.2381591796875, 0.1806030273438, -0.0114746093750, -0.2093505859375, -0.1713256835938, -0.2707519531250, 0.1026000976562, -0.0869750976562, -0.2684326171875, 0.0296020507812, -0.0289916992188, -0.0253295898438, -0.0322265625000, 0.0571899414062, -0.0056762695312, -0.0791015625000, -0.0902709960938, -0.1566162109375, -0.0607910156250, 0.0861206054688, 0.1999511718750, -0.0555419921875, -0.0019531250000, 0.0333251953125, 0.1108398437500, -0.0065307617188, 0.2019042968750, 0.0528564453125, 0.0620117187500, 0.2362670898438, 0.0283203125000, -0.0922241210938, -0.1202392578125, 0.0205688476562, -0.1148071289062, 0.1624145507812, 0.1072387695312, -0.0224609375000, -0.0154418945312, 0.2352905273438, -0.2150268554688, -0.1702880859375, 0.0559082031250, -0.0648193359375, -0.2148437500000, -0.0325317382812, 0.1047363281250, 0.1318359375000, 0.0650024414062, -0.1781005859375, 0.0390014648438, -0.0729370117188, -0.1596069335938, -0.2396850585938, -0.2100219726562, 0.2125854492188, -0.2591552734375, -0.0192871093750, 0.1580200195312, -0.1003417968750, 0.1655273437500, 0.0116577148438, -0.1390991210938, -0.1430664062500, -0.0908813476562, -0.0520019531250, -0.0772705078125, 0.1524047851562, 0.0259399414062, 0.0574340820312, 0.0021362304688, 0.0796508789062, -0.0397338867188, 0.0435791015625, 0.1029052734375, -0.0659790039062, -0.0751342773438, -0.1658935546875, -0.0514526367188, -0.1536865234375, 0.2246704101562, 0.1802368164062, -0.1032104492188, 0.0026245117188, -0.2114257812500, 0.1274414062500, 0.0122070312500, -0.0596313476562, -0.1110229492188, -0.0576782226562, 0.0443725585938, -0.1166381835938, 0.2193603515625, 0.0332641601562, -0.1284790039062, 0.0111694335938, 0.1455688476562, 0.1378173828125, 0.0852661132812, 0.2365722656250, 0.0023803710938, 0.0261840820312, -0.0239868164062, -0.1079101562500, -0.0689697265625, -0.0691528320312, -0.1850585937500, -0.0132446289062, -0.1177978515625, 0.0681762695312, 0.0009155273438, -0.1734008789062, -0.1832275390625, 0.0254516601562, 0.0925903320312, -0.0338134765625, -0.0892333984375, 0.0227050781250, -0.1185302734375, -0.0815429687500, 0.0966796875000, -0.0006713867188, -0.0962524414062, -0.0473632812500, -0.1536865234375, -0.1914672851562, 0.2583618164062, 0.2312622070312, -0.0476684570312, 0.0510253906250, 0.2044067382812, -0.0089111328125, -0.0191040039062, -0.0183715820312, -0.0001220703125, -0.1423339843750, -0.2044677734375, -0.0375366210938, 0.1838989257812, -0.1292724609375, 0.0938110351562, -0.0045776367188, -0.0097045898438, -0.1266479492188, 0.0002441406250, -0.0491333007812, -0.1350708007812, 0.0209350585938, 0.2590942382812, -0.1623535156250, 0.1229248046875, -0.1124877929688, 0.0068359375000, -0.1352539062500, 0.1065673828125, -0.2072753906250, 0.0648803710938, 0.0413818359375, 0.1940307617188, -0.1183471679688, 0.0541381835938, -0.2764892578125, 0.2066650390625, 0.1205444335938, -0.0362548828125, -0.1956787109375, 0.0402221679688, 0.0505371093750, -0.0736694335938, 0.0147705078125, -0.0993041992188, 0.1551513671875, -0.0061645507812, 0.1114501953125, 0.0540161132812, 0.0914306640625, 0.0441894531250, 0.0542602539062, 0.1914672851562, 0.0483398437500, 0.2064819335938, -0.0418701171875, 0.0113525390625, 0.0334472656250, -0.1817626953125, -0.1279296875000, -0.1062011718750, 0.1420898437500, -0.2112426757812, -0.1073608398438, 0.0967407226562, -0.1234130859375, 0.1167602539062, 0.1737670898438, -0.1510009765625, -0.1629638671875, 0.0798950195312, -0.1181640625000, -0.0939331054688, -0.1837158203125, -0.0623168945312, -0.0140380859375, 0.1136474609375, 0.2661132812500, -0.1587524414062, 0.0334472656250, -0.1419067382812, -0.0795288085938, 0.0407104492188, 0.0303344726562, 0.1555786132812, 0.0983276367188, -0.0267944335938, 0.2548828125000, -0.2036132812500, 0.1110229492188, 0.0888671875000, 0.1872558593750, 0.0726318359375, -0.0039062500000, 0.1137084960938, -0.1354980468750, -0.0991210937500, 0.0496215820312, 0.0637817382812, -0.0487670898438, -0.2039794921875, 0.1714477539062, -0.2210083007812, 0.1535644531250, 0.0328979492188, -0.0864257812500, 0.2431640625000, -0.0292968750000, -0.0385131835938, 0.2680053710938, 0.0717773437500, -0.0583496093750, 0.1123046875000, 0.0962524414062, 0.0000000000000, -0.0095825195312, 0.0986938476562, 0.0446166992188, -0.1171875000000, -0.1151123046875, -0.0361938476562, 0.0999145507812, -0.0509033203125, 0.0087280273438, 0.0504150390625, -0.0861206054688, -0.1594238281250, -0.0173339843750, 0.1361694335938, 0.1672973632812, 0.0351562500000, -0.0669555664062, 0.0241088867188, -0.0098266601562, 0.0570678710938, 0.0533447265625, -0.0047607421875, 0.0353393554688, 0.0046386718750, -0.0065307617188, -0.0416259765625, 0.1499633789062, 0.1495971679688, -0.0526123046875, 0.1817016601562, 0.0513916015625, 0.0247192382812, -0.0954589843750, -0.1477661132812, 0.0042724609375, -0.0103759765625, 0.2299194335938, 0.0653076171875, -0.0883178710938, 0.0164184570312, 0.1875000000000, 0.0391845703125, 0.0552368164062, -0.0509033203125, 0.1908569335938, -0.0820922851562, -0.0354614257812, -0.0556640625000, 0.0541381835938, -0.1647949218750, 0.1851196289062, 0.1665039062500, -0.1177978515625, -0.0769653320312, -0.0290527343750, 0.0575561523438, -0.0005493164062, -0.0484619140625, 0.1752929687500, 0.0213012695312, -0.0485229492188, -0.1524047851562, -0.0064086914062, 0.0686035156250, -0.0688476562500, -0.0758056640625, 0.1881713867188, -0.0634155273438, -0.0563354492188, 0.1241455078125, -0.2213134765625, -0.0625610351562, 0.0339355468750, 0.0408325195312, -0.1171264648438, 0.1079711914062, -0.0339965820312, -0.2011718750000, 0.0385131835938, -0.0698242187500, -0.0027465820312, -0.1926879882812, 0.0278930664062, 0.1729736328125, 0.0822753906250, 0.1096191406250, 0.0407104492188, 0.0100708007812, -0.1463012695312, -0.0648803710938, 0.0509033203125, -0.2385864257812, 0.0266113281250, 0.1061401367188, 0.1064453125000, 0.0850219726562, 0.2227783203125, -0.1808471679688, 0.1041870117188, -0.0929565429688, 0.0171508789062, 0.0873413085938, -0.0059204101562, 0.0377807617188, 0.0305786132812, -0.0432128906250, 0.1334228515625, 0.0272827148438, 0.2158813476562, -0.0169067382812, -0.0498046875000, 0.1083984375000, -0.0811157226562, 0.1287231445312, -0.0114135742188, -0.0863037109375, -0.0586547851562, -0.0498657226562, 0.1679687500000, -0.0007934570312, -0.1523437500000, -0.0980834960938, 0.1229248046875, -0.1771240234375, -0.0624389648438, 0.0817871093750, -0.1029663085938, -0.1206054687500, 0.0122680664062, 0.1180419921875, 0.0435791015625, -0.1155395507812, 0.0258789062500, -0.0635375976562, -0.2513427734375, 0.0511474609375, 0.0506591796875, 0.0372314453125, 0.0447998046875, -0.0297851562500, -0.1228027343750, 0.0923461914062, 0.1745605468750, -0.0324707031250, 0.0800170898438, -0.1011962890625, -0.0465087890625, -0.0711669921875, 0.0131225585938, 0.0046386718750, 0.1461181640625, -0.0431518554688, 0.0210571289062, -0.0902099609375, 0.2192382812500, 0.0675659179688, 0.0515747070312, -0.0425415039062, -0.0207519531250, 0.0752563476562, 0.2026367187500, 0.0604248046875, -0.1580200195312, 0.0231323242188, 0.1833496093750, 0.0886840820312, 0.1430053710938, -0.1777343750000, 0.1323852539062, 0.0996704101562, 0.0565795898438, -0.0269165039062, 0.0223999023438, -0.0223388671875, -0.1032714843750, 0.0205688476562, -0.0606079101562, -0.2826538085938, -0.2058105468750, 0.1979370117188, 0.2003173828125, 0.1535034179688, 0.0388793945312, -0.0656738281250, -0.0172119140625, 0.0112915039062, -0.0285034179688, 0.1673583984375, -0.0541992187500, -0.0145263671875, -0.0140380859375, 0.1072998046875, -0.2601928710938, -0.0637207031250, 0.0987548828125, 0.0968627929688, -0.1156005859375, -0.0227661132812, 0.0218505859375, 0.0352783203125, 0.0790405273438, -0.1022949218750, -0.0210571289062, 0.1582641601562, -0.0025024414062, -0.0098266601562, -0.0460205078125, -0.0586547851562, 0.0813598632812, -0.1303710937500, 0.2655029296875, -0.0021362304688, 0.1518554687500, 0.0769042968750, 0.0685424804688, 0.0013427734375, -0.0728149414062, 0.0029907226562, -0.2040405273438, -0.0960083007812, -0.0532836914062, -0.0425415039062, 0.1864013671875, -0.0081176757812, -0.2594604492188, 0.0977172851562, -0.0117187500000, -0.1782226562500, -0.2141723632812, -0.1734619140625, 0.1411743164062, -0.1220092773438, 0.0178833007812, -0.0366210937500, 0.0603027343750, -0.2601318359375, -0.0404052734375, 0.1242065429688, 0.2329711914062, 0.0575561523438, -0.1302490234375, 0.1882324218750, 0.1141967773438, 0.0555419921875, 0.1083374023438, -0.0298461914062, 0.2678833007812, -0.0383300781250, 0.2202758789062, -0.0351562500000, 0.1213989257812, -0.0083007812500, -0.0068969726562, -0.0389404296875, -0.0305786132812, 0.0177001953125, -0.2406005859375, -0.0397338867188, -0.1603393554688, 0.1599731445312, 0.2045288085938, 0.1471557617188, -0.0364379882812, 0.0234985351562, 0.0525512695312, 0.1115112304688, -0.1220092773438, -0.0936279296875, 0.1042480468750, 0.1857910156250, 0.1359863281250, -0.0529174804688, 0.0031127929688, -0.0587158203125, 0.0413208007812, -0.1181030273438, -0.1553344726562, 0.1864624023438, 0.2635498046875, -0.0476074218750, -0.1742553710938, -0.1179199218750, -0.1467895507812, 0.0072021484375, -0.0206298828125, 0.1351318359375, 0.0923461914062, -0.0696411132812, -0.1870727539062, 0.0396728515625, 0.0908203125000, 0.0654296875000, 0.1549072265625, 0.0402832031250, 0.0123901367188, -0.0944213867188, -0.0442504882812, -0.0968627929688, 0.2619628906250, 0.1940307617188, -0.1171264648438, -0.1497192382812, -0.1636352539062, 0.1085815429688, -0.0346679687500, -0.0792236328125, 0.1423950195312, 0.2011108398438, -0.0353393554688, 0.2479248046875, -0.0535278320312, -0.2426147460938, 0.0151367187500, 0.0784912109375, 0.0308227539062, 0.1032104492188, -0.0289916992188, 0.1074218750000, -0.1748657226562, -0.2177734375000, 0.1208496093750, 0.0453491210938, -0.0614624023438, 0.1133422851562, -0.2611694335938, -0.1118164062500, 0.0977783203125, 0.0645141601562, 0.1101074218750, 0.1424560546875, -0.0718383789062, -0.0646972656250, 0.1846923828125, -0.1561889648438, -0.0772094726562, 0.0739135742188, -0.0183715820312, -0.0827026367188, -0.2334594726562, 0.1323852539062, 0.0015869140625, 0.0759887695312, 0.1104125976562, -0.1871337890625, 0.1851806640625, 0.0543212890625, -0.1794433593750, -0.0675659179688, -0.0404663085938, -0.0213012695312, 0.0776367187500, -0.0998535156250, 0.2163085937500, 0.2661132812500, -0.1621093750000, 0.0347900390625, -0.0743408203125, -0.1333007812500, -0.0087890625000, -0.1502075195312, -0.2469482421875, -0.0272216796875, -0.1480102539062, -0.1920166015625, 0.1943969726562, -0.1010131835938, -0.0065307617188, -0.0113525390625, -0.1090698242188, -0.0118408203125, -0.0942993164062, 0.0061645507812, 0.0407104492188, 0.1014404296875, 0.1267089843750, 0.1232299804688, -0.0336914062500, -0.1339111328125, 0.0521240234375, 0.1397094726562, 0.0706176757812, -0.0441894531250, -0.1475830078125, 0.2595825195312, -0.0164184570312, -0.1390380859375, -0.2312622070312, 0.2006225585938, 0.0430908203125, -0.1643676757812, -0.0394897460938, 0.1201782226562, -0.1013183593750, -0.0252685546875, 0.0983886718750, -0.0632324218750, -0.1820678710938, -0.1789550781250, 0.0498046875000, -0.0186767578125, -0.1113891601562, -0.0160522460938, -0.0657958984375, 0.0001220703125, -0.1782836914062, -0.0176391601562, -0.0400390625000, 0.0415649414062, -0.0106201171875, 0.0337524414062, -0.0377807617188, -0.0769653320312, -0.0702514648438, -0.0413818359375, -0.2200927734375, -0.1392211914062, -0.0452270507812, -0.0501098632812, -0.0097656250000, 0.0181274414062, -0.0319213867188, -0.0222167968750, 0.0433349609375, 0.1646728515625, -0.1644287109375, -0.0126953125000, 0.1607666015625, 0.0852661132812, -0.1951293945312, 0.0401611328125, -0.0208129882812, 0.1310424804688, -0.0122070312500, 0.0019531250000, -0.2605590820312, -0.1235351562500, -0.1446533203125, 0.0222167968750, 0.1211547851562, -0.0455322265625, -0.0319824218750, 0.2236938476562, -0.1033935546875, -0.0512084960938, 0.0411376953125, -0.0234375000000, 0.1425781250000, -0.1246337890625, 0.0781250000000, -0.0020751953125, 0.1574707031250, -0.0444335937500, 0.0175781250000, 0.0795898437500, 0.0588378906250, -0.0637817382812, -0.0775756835938, 0.0093383789062, -0.0933837890625, 0.0321655273438, 0.1129150390625, 0.0258178710938, 0.0009155273438, -0.0070800781250, 0.0224609375000, 0.0482788085938, -0.1503906250000, 0.0117797851562, 0.1358642578125, 0.1462402343750, 0.0074462890625, 0.0142822265625, 0.1869506835938, -0.0652465820312, -0.0347290039062, 0.1004638671875, 0.0144042968750, -0.0130004882812, 0.1124267578125, -0.0426025390625, -0.2313232421875, -0.0321044921875, 0.0046386718750, -0.0192260742188, 0.0968627929688, 0.2336425781250, 0.0241699218750, 0.0391845703125, -0.0992431640625, 0.0457763671875, -0.1338500976562, -0.2459106445312, 0.2280273437500, -0.1027832031250, 0.1117553710938, -0.0356445312500, 0.0886840820312, -0.0731811523438, 0.1788330078125, 0.1076660156250, 0.0664062500000, -0.1072387695312, -0.0469970703125, -0.0487060546875, -0.1158447265625, 0.1860351562500, -0.1323242187500, 0.0064086914062, -0.2095947265625, -0.0825805664062, -0.1002197265625, 0.1109619140625, -0.0315551757812, -0.1265869140625, -0.1499633789062, -0.0430908203125, 0.0535278320312, -0.0667114257812, -0.1849975585938, 0.1554565429688, -0.0571289062500, 0.0981445312500, -0.2326049804688, -0.0357666015625, 0.1358032226562, 0.0399780273438, 0.0515747070312, -0.0087890625000, -0.1566772460938, 0.0693969726562, -0.0412597656250, -0.0320434570312, -0.0937500000000, -0.2604980468750, -0.1420288085938, 0.1058959960938, 0.1193847656250, 0.0145874023438, 0.0697631835938, 0.0769653320312, 0.0577392578125, 0.1869506835938, -0.0987548828125, -0.1193237304688, 0.0228271484375, -0.1109008789062, 0.1489868164062, 0.1250610351562, -0.1105346679688, 0.0804443359375, -0.1146850585938, 0.1821899414062, -0.0772094726562, 0.0382080078125, 0.0153808593750, -0.2387084960938, 0.0932617187500, 0.1349487304688, 0.1178588867188, 0.0161132812500, 0.2537841796875, -0.0443115234375, 0.0791015625000, -0.1753540039062, 0.1799316406250, -0.0796508789062, -0.0375366210938, -0.0932617187500, -0.0511474609375, 0.1646118164062, -0.0080566406250, 0.0094604492188, -0.1569213867188, -0.0065917968750, -0.0831909179688, -0.0426025390625, 0.1983032226562, 0.0081787109375, -0.1156005859375, -0.1648559570312, -0.1953125000000, -0.0541992187500, 0.2273559570312, 0.1123046875000, -0.0233154296875, 0.1053466796875, 0.2113647460938, 0.0170898437500, 0.1564331054688, 0.0451049804688, -0.1109008789062, -0.0474853515625, -0.1892700195312, 0.0108642578125, 0.0393676757812, 0.2118530273438, -0.1245117187500, 0.0308837890625, -0.1705322265625, 0.0875244140625, -0.0199584960938, 0.2333984375000, 0.0939331054688, 0.0115356445312, 0.2106933593750, 0.1627807617188, 0.1201782226562, -0.2078247070312, 0.1533203125000, 0.0615844726562, -0.0431518554688, 0.1694946289062, -0.0589599609375, -0.1666870117188, 0.1457519531250, 0.0117797851562, 0.0081787109375, 0.1375732421875, 0.1713867187500, -0.0809936523438, -0.0338134765625, -0.1508178710938, -0.0725708007812, 0.1602172851562, 0.0817260742188, 0.1613769531250, -0.0632934570312, 0.0552978515625, 0.1055297851562, 0.0544433593750, 0.0027465820312, 0.0549316406250, -0.0432739257812, -0.1024780273438, 0.0704956054688, -0.1646118164062, 0.0621948242188, -0.0114135742188, 0.1719360351562, -0.1368408203125, -0.0407714843750, 0.0407714843750, 0.1339721679688, 0.1564331054688, 0.0161132812500, -0.0676879882812, 0.0554199218750, 0.0453491210938, -0.2413940429688, 0.1220092773438, 0.0720214843750, 0.1499023437500, -0.0319824218750, -0.0719604492188, -0.0759887695312, 0.0495605468750, -0.0499267578125, -0.0802001953125, 0.1880493164062, -0.1500854492188, -0.0438842773438, 0.1259765625000, 0.0946655273438, 0.1290893554688, 0.0327758789062, 0.0796508789062, 0.0067138671875, -0.2229003906250, -0.0039672851562, -0.1435546875000, 0.0991210937500, -0.0952148437500, -0.0914916992188, 0.2235717773438, 0.0466308593750, 0.0703125000000, -0.1377563476562, -0.1998291015625, -0.0375366210938, -0.1859130859375, 0.1947631835938, 0.2097167968750, 0.2269287109375, 0.1463623046875, -0.0470581054688, 0.0716552734375, 0.2592163085938, -0.0585937500000, -0.1964111328125, 0.1165771484375, -0.0142822265625, -0.0065917968750, 0.0358886718750, -0.0350341796875, 0.0852050781250, -0.1811523437500, 0.0346679687500, 0.1581420898438, -0.1062011718750, -0.0671386718750, -0.0262451171875, -0.2493896484375, 0.1100463867188, 0.0269165039062, -0.0859375000000, -0.2430419921875, -0.1491088867188, -0.1862792968750, -0.2213134765625, 0.0409545898438, -0.0062866210938, -0.0212402343750, 0.1987304687500, 0.0017700195312, -0.1219482421875, 0.0032348632812, -0.0381469726562, 0.1027221679688, 0.1675415039062, -0.2255249023438, 0.0438232421875, -0.0734252929688, 0.1008300781250, -0.1497192382812, 0.1260986328125, -0.0261840820312, 0.2449951171875, 0.0570068359375, 0.0418090820312, -0.0722656250000, -0.1858520507812, 0.0811767578125, -0.0072021484375, 0.1043701171875, -0.0864257812500, 0.0783081054688, -0.2003173828125, -0.1490478515625, -0.0740966796875, -0.1820068359375, -0.1744384765625, 0.0120849609375, -0.0449218750000, 0.1669921875000, -0.0278930664062, -0.1481323242188, 0.0289306640625, 0.0533447265625, -0.1967773437500, 0.0094604492188, -0.0510253906250, 0.1931762695312, -0.1251220703125, -0.1953125000000, -0.1132812500000, 0.2145996093750, -0.0963745117188, 0.1792602539062, -0.2526855468750, 0.2042236328125, -0.0425415039062, 0.1161499023438, -0.0427856445312, 0.1662597656250, -0.0459594726562, 0.1477050781250, -0.1118164062500, -0.2503051757812, -0.0003662109375, -0.0648193359375, -0.0728759765625, -0.0661010742188, -0.1130981445312, 0.1875610351562, -0.1219482421875, -0.0313720703125, 0.0452270507812, -0.1798706054688, 0.0009155273438, -0.1417846679688, 0.0567626953125, 0.1420288085938, 0.0899658203125, -0.2568359375000, -0.2487792968750, 0.0310668945312, -0.1966552734375, 0.0832519531250, -0.0321655273438, -0.0587158203125, -0.1389770507812, 0.1288452148438, -0.1414794921875, -0.1665649414062, -0.0455932617188, 0.0562744140625, 0.1441650390625, -0.1973876953125, -0.0895996093750, 0.0881958007812, 0.2327880859375, -0.0203857421875, -0.0034790039062, -0.1708984375000, 0.0209960937500, -0.1432495117188, -0.0821533203125, -0.2474365234375, 0.1828613281250, -0.0994262695312, 0.0590820312500, 0.0760498046875, 0.1145019531250, 0.2203369140625, 0.0111694335938, 0.2704467773438, 0.0841674804688, 0.0905151367188, 0.0822753906250, 0.0094604492188, -0.0800781250000, 0.0906982421875, -0.0802001953125, -0.0227661132812, 0.1047973632812, 0.0150756835938, 0.0963745117188, 0.1449584960938, -0.1121826171875, 0.0766601562500, 0.1343383789062, -0.0427856445312, -0.0033569335938, -0.0321655273438, 0.0827636718750, -0.1439819335938, -0.0093383789062, 0.0909423828125, -0.0978393554688, -0.0062866210938, 0.2102661132812, 0.1676025390625, 0.1242675781250, -0.0440673828125, -0.0340576171875, 0.0453491210938, -0.0081176757812, 0.0696411132812, 0.0032348632812, 0.2037963867188, 0.1856689453125, -0.0181274414062, -0.0814819335938, -0.0040893554688, 0.0543823242188, 0.2245483398438, 0.0233764648438, 0.0319213867188, -0.2241821289062, 0.1213989257812, -0.0054931640625, 0.2580566406250, -0.0916137695312, -0.0616455078125, 0.0663452148438, -0.1199340820312, -0.0041503906250, -0.0786743164062, 0.0936279296875, 0.2119750976562, -0.0767211914062, -0.0007934570312, 0.2735595703125, 0.0170898437500, -0.0434570312500, -0.0055541992188, 0.1842651367188, -0.0703735351562, -0.2075195312500, 0.1528320312500, -0.0336914062500, 0.0019531250000, -0.0294799804688, 0.0678100585938, -0.0033569335938, -0.0515747070312, -0.0279541015625, -0.1208496093750, 0.0244750976562, 0.2022094726562, 0.1263427734375, -0.0372924804688, 0.0984497070312, -0.0993041992188, 0.1024169921875, -0.0244750976562, 0.1365966796875, 0.1982421875000, 0.2048950195312, 0.1577758789062, 0.2689819335938, 0.0558471679688, -0.0299682617188, 0.2536621093750, -0.0861816406250, 0.0754394531250, 0.0231323242188, 0.2633056640625, 0.0238647460938, 0.0019531250000, -0.2721557617188, -0.0440673828125, -0.0319824218750, -0.2738037109375, 0.0026855468750, -0.0018310546875, 0.1889038085938, -0.1902465820312, 0.1893920898438, 0.0544433593750, -0.0457153320312, -0.2424926757812, -0.2525634765625, -0.1590576171875, 0.2450561523438, 0.0047607421875, 0.0799560546875, 0.0218505859375, -0.1261596679688, -0.0099487304688, 0.2374877929688, 0.2246704101562, 0.1565551757812, -0.1320800781250, 0.0774536132812, 0.0463256835938, 0.0061035156250, 0.1241455078125, 0.0676269531250, -0.1290893554688, -0.0441284179688, -0.1069335937500, -0.0965576171875, 0.2114868164062, 0.1405029296875, 0.0220336914062, 0.0629882812500, -0.1176757812500, 0.0144653320312, 0.1771850585938, 0.2216796875000, -0.1422729492188, -0.2543945312500, 0.0899658203125, -0.2203369140625, 0.1187744140625, 0.1731567382812, 0.0354614257812, -0.1387329101562, 0.1879272460938, -0.0241088867188, 0.0104370117188, -0.0289916992188, -0.2467041015625, -0.1157836914062, -0.2241821289062, -0.0398559570312, -0.1888427734375, 0.1258544921875, 0.1555175781250, -0.0658569335938, -0.0161132812500, -0.0570068359375, -0.0272827148438, 0.0586547851562, 0.1933593750000, -0.0454711914062, 0.0212402343750, 0.1456298828125, 0.0041503906250, 0.0567016601562, 0.2109375000000, -0.0631103515625, -0.1755981445312, 0.1190185546875, -0.0543823242188, -0.1404418945312, 0.0261230468750, -0.0233154296875, -0.0804443359375, 0.0425415039062, -0.1647949218750, 0.0595703125000, -0.2469482421875, 0.1909179687500, 0.0378417968750, 0.2360839843750, 0.0086669921875, -0.0279541015625, -0.0912475585938, 0.1016235351562, -0.0342407226562, -0.0074462890625, 0.1052856445312, -0.0268554687500, 0.0234375000000, 0.1069335937500, -0.1167602539062, -0.0850830078125, -0.0725097656250, 0.1533203125000, 0.0388183593750, 0.1217041015625, 0.0798950195312, -0.1162109375000, -0.1416625976562, 0.0915527343750, 0.0935668945312, -0.0145263671875, 0.0129394531250, -0.0350952148438, -0.2314453125000, 0.0440673828125, 0.0008544921875, -0.0476074218750, 0.0789794921875, 0.1651000976562, -0.0651855468750, -0.2436523437500, -0.0324707031250, 0.0701293945312, -0.0997924804688, -0.0104370117188, 0.0300903320312, -0.0400390625000, 0.1190185546875, 0.0159912109375, 0.0769042968750, 0.0019531250000, -0.2420043945312, -0.0388793945312, -0.0168457031250, -0.2005615234375, 0.0184936523438, 0.0725708007812, 0.2820434570312, -0.0683593750000, -0.0828857421875, 0.0169677734375, 0.1746215820312, -0.0408935546875, 0.1224365234375, -0.1198120117188, 0.0607299804688, -0.0417480468750, -0.0187988281250, 0.0615234375000, 0.0778808593750, 0.0323486328125, -0.2321166992188, -0.0415649414062, -0.1002807617188, -0.0212402343750, -0.0997924804688, -0.0059814453125, -0.0668945312500, 0.2299804687500, -0.0700683593750, 0.2423095703125, 0.0042114257812, 0.0174560546875, 0.2167968750000, 0.1683349609375, 0.1046142578125, 0.0768432617188, -0.0648803710938, -0.1659545898438, -0.1595458984375, 0.1248168945312, 0.0316162109375, -0.0802612304688, 0.0343627929688, 0.0887451171875, -0.0148315429688, 0.1585693359375, -0.1037597656250, -0.1487426757812, 0.0836791992188, -0.1485595703125, 0.0604248046875, -0.0217285156250, -0.0377197265625, 0.0190429687500, -0.1095581054688, 0.1727905273438, 0.0755004882812, -0.0770874023438, -0.0013427734375, -0.0439453125000, -0.0192871093750, 0.1746215820312, -0.0632324218750, -0.1625366210938, 0.0484008789062, 0.0628662109375, -0.0979003906250, -0.2547607421875, 0.1918945312500, 0.1065673828125, 0.0328979492188, 0.0841674804688, 0.0177612304688, -0.0442504882812, 0.0568237304688, -0.2324218750000, -0.0884399414062, 0.0206298828125, -0.0926513671875, 0.2274169921875, 0.0177612304688, -0.1055908203125, -0.0308227539062, -0.1359252929688, -0.1868896484375, -0.0366210937500, 0.0170898437500, -0.2175292968750, -0.1441040039062, 0.1838989257812, -0.0729370117188, -0.0373535156250, -0.0272827148438, 0.0516967773438, 0.0463867187500, -0.1158447265625, 0.2222290039062, 0.1937255859375, 0.1214599609375, -0.2333984375000, 0.0222167968750, 0.2510986328125, -0.0891723632812, -0.0803833007812, 0.0052490234375, 0.2260742187500, -0.1624755859375, 0.1027221679688, -0.0189819335938, -0.1279296875000, -0.0212402343750, 0.1600341796875, -0.1688842773438, -0.0255126953125, -0.0391235351562, 0.1168823242188, 0.2291259765625, 0.2406616210938, 0.0643310546875, 0.2543334960938, 0.0687255859375, 0.0317382812500, -0.0938720703125, -0.0864868164062, -0.2357177734375, -0.1245727539062, -0.1240234375000, 0.1019897460938, -0.0749511718750, 0.2228393554688, -0.1109008789062, -0.1730346679688, 0.2325439453125, 0.0493774414062, 0.0541992187500, 0.0422363281250, -0.0596313476562, -0.0324096679688, -0.1158447265625, -0.0952758789062, 0.0426025390625, 0.0151367187500, -0.1153564453125, -0.0222778320312, 0.0776367187500, 0.1721801757812, 0.2190551757812, -0.0627441406250, -0.0418701171875, -0.1635742187500, 0.0375366210938, -0.0852050781250, -0.0538940429688, -0.0811157226562, -0.2304687500000, 0.0468750000000, -0.0853271484375, 0.2242431640625, 0.0215454101562, 0.0125122070312, -0.1289062500000, 0.0314331054688, 0.0374145507812, 0.2278442382812, -0.0467529296875, 0.1453247070312, -0.0525512695312, 0.1181640625000, 0.0161132812500, 0.0643920898438, -0.1434326171875, -0.0693359375000, -0.0971069335938, -0.0397338867188, 0.0228271484375, -0.0913085937500, 0.1830444335938, 0.1753540039062, -0.0549316406250, 0.0590209960938, 0.0139770507812, -0.1272583007812, 0.0317993164062, -0.1394653320312, 0.2627563476562, -0.1099243164062, 0.1127319335938, 0.1560668945312, -0.0446166992188, 0.0084838867188, -0.0748901367188, 0.0019531250000, -0.0968017578125, -0.2470092773438, -0.0009765625000, -0.2169799804688, -0.0261230468750, 0.0134277343750, 0.1470947265625, -0.0148315429688, 0.0413208007812, -0.1381835937500, 0.0526123046875, -0.0394287109375, 0.1118164062500, 0.1418457031250, -0.0065917968750, 0.1007080078125, -0.1401977539062, 0.0443725585938, -0.0675048828125, -0.0606689453125, 0.1770019531250, -0.1619873046875, -0.0134277343750, 0.1102905273438, 0.0596923828125, 0.1232299804688, 0.1527099609375, 0.1322021484375, -0.1419067382812, 0.1199340820312, 0.1281738281250, -0.0241088867188, -0.0207519531250, -0.1531982421875, -0.1422119140625, -0.0237426757812, 0.0165405273438, 0.0314331054688, -0.0388793945312, 0.1062622070312, -0.1317749023438, 0.0479125976562, 0.0250854492188, -0.1766357421875, -0.0986328125000, 0.2355957031250, 0.1159057617188, 0.0336914062500, -0.0772094726562, 0.0141601562500, 0.0857543945312, 0.0875244140625, 0.1930541992188, -0.0590209960938, 0.1453857421875, -0.0412597656250, 0.2031250000000, 0.1002197265625, -0.0516967773438, -0.0139770507812, -0.0213623046875, 0.1392822265625, -0.2418212890625, -0.1735839843750, 0.0810546875000, -0.1195068359375, 0.0258789062500, 0.1072387695312, -0.1521606445312, -0.2649536132812, 0.1744995117188, -0.0864257812500, -0.2217407226562, 0.2661743164062, -0.1328125000000, -0.0516967773438, 0.1365356445312, 0.0039062500000, -0.1077270507812, 0.1381225585938, 0.0564575195312, -0.0214843750000, 0.0520019531250, 0.0017700195312, 0.0173950195312, -0.2102050781250, -0.1489868164062, 0.0845947265625, 0.2133178710938, -0.0941162109375, 0.1017456054688, 0.0641479492188, 0.0227050781250, -0.1903686523438, -0.0716552734375, -0.1311035156250, 0.2313842773438, 0.0452880859375, 0.2576904296875, 0.1983032226562, -0.0100097656250, -0.0888671875000, 0.0928955078125, -0.0061035156250, 0.0346069335938, 0.0933837890625, -0.2711181640625, -0.1134643554688, -0.1926879882812, 0.2056884765625, 0.1707153320312, -0.0181274414062, -0.2032470703125, -0.0007324218750, -0.0748291015625, -0.1986694335938, -0.0690917968750, 0.0697021484375, -0.2275390625000, -0.1771240234375, 0.1910400390625, -0.0202026367188, -0.1167602539062, -0.1787719726562, 0.0703125000000, 0.0998535156250, -0.0941162109375, 0.2067260742188, -0.0750122070312, 0.1085815429688, -0.0374145507812, -0.0012817382812, 0.1364135742188, -0.1531372070312, -0.0170288085938, -0.2096557617188, 0.0587768554688, 0.0026855468750, 0.0450439453125, -0.1401977539062, -0.2711181640625, 0.0308837890625, -0.0319824218750, 0.1031494140625, 0.0603027343750, -0.0302124023438, 0.1388549804688, -0.0097656250000, -0.0250244140625, 0.0091552734375, -0.0300292968750, -0.0337524414062, -0.0756835937500, 0.1192016601562, -0.0454711914062, -0.0519409179688, 0.0646972656250, 0.0828857421875, 0.0602416992188, 0.1770019531250, -0.0554199218750, -0.0581054687500, 0.1118774414062, 0.1132202148438, 0.0355834960938, 0.0898437500000, 0.1946411132812, 0.0123291015625, -0.1336669921875, -0.0213623046875, -0.0753784179688, -0.0359497070312, -0.2670288085938, -0.0681762695312, 0.0905761718750, -0.2283325195312, -0.0069580078125, -0.0760498046875, 0.0983276367188, -0.0963134765625, 0.1370239257812, -0.0214843750000, -0.0341796875000, -0.0261230468750, 0.1560058593750, 0.0715942382812, 0.0346069335938, 0.0280761718750, 0.0986328125000, 0.0582275390625, 0.1122436523438, -0.0493164062500, -0.0654296875000, 0.0918579101562, 0.0222167968750, 0.0467529296875, 0.0198974609375, -0.1146240234375, 0.0221557617188, 0.0762329101562, -0.0483398437500, 0.0992431640625, -0.2131347656250, -0.0572509765625, -0.0101928710938, -0.1966552734375, 0.0327758789062, 0.0007324218750, -0.0776367187500, 0.0048828125000, -0.2020874023438, 0.1390991210938, -0.0897827148438, 0.0585937500000, 0.2509155273438, 0.0028076171875, -0.0607299804688, 0.1956176757812, -0.1258544921875, 0.0072021484375, 0.2754516601562, 0.1943359375000, 0.0631103515625, 0.2171020507812, 0.0516967773438, -0.0425415039062, 0.1488037109375, 0.0844726562500, 0.1726074218750, 0.2234497070312, 0.0383911132812, -0.0139160156250, -0.1506958007812, 0.0665893554688, 0.0039062500000, -0.2483520507812, 0.1286010742188, 0.2454833984375, -0.0322265625000, -0.0722045898438, -0.0284423828125, -0.0898437500000, -0.0853271484375, -0.0711669921875, 0.0433959960938, 0.0406494140625, -0.1141357421875, -0.0780639648438, -0.1353759765625, 0.0891723632812, 0.0531616210938, 0.2291259765625, 0.0543823242188, -0.1394042968750, -0.1177368164062, -0.0867309570312, -0.0104370117188, 0.2700195312500, -0.0723876953125, 0.0174560546875, -0.2083740234375, 0.0691528320312, 0.1112670898438, -0.1488037109375, -0.2427978515625, -0.2061767578125, -0.1116943359375, -0.0331420898438, 0.0449829101562, -0.1062011718750, 0.1657714843750, -0.0896606445312, 0.1755981445312, -0.0900878906250, -0.0491333007812, -0.0993041992188, 0.0015258789062, -0.0023193359375, 0.2442626953125, -0.2288208007812, -0.2055664062500, 0.0639038085938, 0.0189819335938, -0.1651000976562, 0.1011352539062, 0.1557617187500, -0.0672607421875, 0.1654052734375, 0.1077270507812, 0.2133178710938, 0.0465698242188, -0.1834106445312, 0.0429687500000, 0.1364135742188, 0.1375732421875, 0.0383911132812, 0.0526733398438, -0.0307617187500, -0.0933837890625, 0.0849609375000, -0.0798339843750, 0.0159301757812, -0.0404663085938, 0.0014038085938, 0.1243286132812, 0.1057128906250, -0.0264892578125, -0.1668090820312, -0.0556640625000, 0.0973510742188, -0.0441284179688, 0.0612182617188, -0.2193603515625, 0.2341308593750, 0.0761108398438, -0.0960083007812, 0.0462646484375, 0.0606689453125, 0.0836791992188, 0.1359252929688, 0.1682128906250, 0.0577392578125, -0.0866088867188, -0.0192260742188, -0.0776367187500, 0.0145263671875, 0.0807495117188, -0.1704101562500, 0.0307617187500, -0.0643310546875, -0.0526733398438, -0.2606811523438, -0.2094726562500, -0.0247802734375, 0.0329589843750, 0.0101318359375, 0.0529174804688, -0.0374755859375, -0.1457519531250, 0.1866455078125, 0.0954589843750, 0.2192382812500, 0.0588378906250, 0.0250244140625, -0.1079101562500, 0.0891723632812, 0.0493774414062, -0.1786499023438, -0.0559082031250, -0.0986328125000, 0.1290893554688, 0.2175903320312, -0.0353393554688, 0.1362304687500, 0.0835571289062, 0.0436401367188, 0.0805053710938, -0.0416870117188, 0.1137084960938, -0.0640869140625, -0.1135864257812, 0.0548706054688, 0.0395507812500, 0.0532226562500, 0.1254272460938, 0.1464843750000, 0.0477905273438, -0.1044311523438, 0.1141357421875, -0.1921386718750, -0.0336303710938, -0.0032348632812, -0.1002807617188, 0.0798950195312, -0.1350097656250, -0.0750122070312, 0.0944213867188, 0.1588745117188, -0.1201171875000, -0.0761718750000, -0.0948486328125, 0.1350708007812, 0.1498413085938, -0.0433959960938, -0.1395263671875, -0.1461181640625, -0.2496337890625, 0.2005615234375, 0.0835571289062, 0.2546386718750, -0.1766967773438, 0.0866699218750, -0.0996093750000, 0.1791992187500, 0.0134277343750, -0.2106323242188, -0.2396850585938, -0.1325073242188, 0.1367797851562, 0.0421142578125, -0.0412597656250, 0.1145019531250, 0.0515136718750, -0.0691528320312, -0.1084594726562, 0.0856323242188, -0.1947631835938, 0.0847167968750, 0.1192016601562, 0.1987304687500, -0.1471557617188, -0.0002441406250, 0.1412963867188, -0.0930786132812, 0.0322265625000, -0.1312255859375, 0.1433105468750, -0.0317993164062, -0.0009155273438, -0.0293579101562, 0.2474365234375, 0.0518798828125, -0.1771240234375, -0.0289306640625, 0.1697387695312, 0.0531616210938, -0.0482177734375, 0.0037231445312, -0.2474975585938, 0.1464233398438, -0.0684204101562, 0.0860595703125, -0.1574096679688, 0.1132812500000, 0.0824584960938, 0.0075683593750, 0.0454101562500, -0.1232299804688, -0.0373535156250, -0.0893554687500, -0.0806884765625, -0.1027221679688, -0.1215820312500, 0.2109375000000, 0.2041625976562, -0.0703735351562, 0.1690063476562, -0.0564575195312, -0.0462036132812, 0.2830200195312, 0.0859985351562, 0.1627197265625, 0.0101318359375, -0.1767578125000, -0.0504760742188, -0.0477294921875, 0.1925659179688, -0.0397949218750, 0.1011962890625, -0.0091552734375, -0.1156005859375, 0.1912841796875, -0.0003051757812, 0.0343017578125, 0.0939941406250, -0.1871337890625, -0.0994262695312, 0.0883789062500, -0.0360717773438, 0.0961914062500, 0.2248535156250, 0.1003417968750, 0.0451660156250, 0.1674804687500, 0.2354736328125, -0.0439453125000, -0.1082153320312, -0.2117309570312, 0.0857543945312, -0.2216796875000, 0.2199707031250, 0.1525878906250, -0.0692138671875, -0.1060791015625, 0.0095214843750, -0.2124633789062, 0.1268920898438, -0.0167236328125, -0.0625610351562, -0.0223999023438, 0.0198974609375, 0.0147094726562, -0.1167602539062, -0.2016601562500, 0.1449584960938, 0.1437377929688, 0.0518188476562, 0.0555419921875, -0.0733032226562, 0.0510253906250, -0.2832641601562, 0.0310058593750, -0.0414428710938, 0.0160522460938, 0.1176757812500, 0.0505371093750, -0.0434570312500, 0.0759887695312, -0.0160522460938, -0.1157836914062, -0.0529174804688, 0.1586303710938, -0.2185668945312, -0.0961303710938, -0.0215454101562, 0.1058349609375, -0.0518188476562, 0.0222778320312, 0.0048217773438, -0.1366577148438, -0.1680908203125, -0.0225219726562, -0.0027465820312, 0.0313110351562, 0.1903076171875, -0.0889282226562, -0.2490234375000, -0.1171264648438, 0.0235595703125, -0.0123901367188, 0.0213012695312, -0.0846557617188, -0.1260375976562, 0.1195068359375, -0.0574951171875, -0.0802001953125, -0.0729980468750, -0.1275024414062, 0.0222778320312, 0.0507202148438, -0.0642700195312, 0.1741333007812, 0.0415649414062, -0.1996459960938, -0.1958007812500, 0.1604003906250, -0.0494384765625, -0.1108398437500, 0.2060546875000, -0.1216430664062, -0.0508422851562, 0.0856323242188, -0.2785644531250, 0.1251220703125, -0.1838989257812, -0.0706787109375, -0.0020751953125, 0.0039672851562, -0.1265258789062, -0.1545410156250, -0.1112060546875, 0.0150146484375, 0.0809326171875, -0.1284179687500, 0.0155029296875, 0.0264282226562, -0.1426391601562, -0.1547851562500, 0.1469116210938, 0.0884399414062, 0.1146850585938, 0.0072021484375, 0.0038452148438, 0.2500610351562, 0.0418701171875, 0.1694946289062, -0.2296752929688, 0.0594482421875, -0.0142822265625, 0.1087646484375, -0.1644897460938, 0.1079711914062, -0.2522583007812, 0.2573242187500, -0.1896362304688, -0.0540161132812, 0.2249755859375, -0.0570678710938, -0.0608520507812, 0.0206909179688, 0.0657348632812, -0.1127319335938, 0.1439819335938, -0.1848754882812, 0.2183837890625, 0.0010986328125, -0.0672607421875, 0.0111694335938, -0.0037841796875, 0.1074218750000, -0.1097412109375, 0.2484130859375, 0.1165161132812, 0.0734863281250, 0.1150512695312, 0.2136840820312, 0.1134033203125, 0.2280883789062, 0.2022094726562, 0.0204467773438, 0.2763671875000, -0.0456542968750, 0.1083984375000, 0.1132202148438, 0.0664062500000, 0.1290283203125, 0.0361938476562, 0.0374755859375, -0.1632080078125, -0.0352783203125, -0.0087280273438, 0.0585937500000, -0.0944824218750, -0.0395507812500, -0.0827636718750, -0.1381225585938, -0.0223999023438, 0.2175903320312, 0.0203857421875, 0.0513305664062, 0.0484008789062, -0.0045166015625, -0.0531616210938, 0.0653076171875, 0.0460205078125, -0.1081542968750, -0.1428222656250, 0.0469970703125, 0.2304077148438, -0.2067260742188, 0.1685180664062, 0.1174926757812, 0.2069702148438, -0.0527343750000, 0.1679077148438, -0.0831298828125, 0.0969238281250, 0.0779418945312, 0.0543212890625, 0.1777343750000, 0.1046752929688, 0.1502685546875, -0.0692138671875, 0.1705932617188, -0.1400756835938, -0.1258544921875, 0.0424194335938, -0.0788574218750, -0.0537109375000, -0.1281738281250, 0.0228881835938, 0.1230468750000, -0.2366333007812, 0.0034790039062, 0.0344848632812, 0.0877685546875, 0.1159667968750, 0.2283935546875, -0.1746215820312, -0.2492675781250, -0.0897827148438, 0.0662841796875, -0.0168457031250, 0.0350341796875, -0.1052246093750, 0.2357788085938, -0.0875244140625, -0.2248535156250, -0.0069580078125, -0.0277709960938, 0.0673828125000, 0.0726318359375, -0.0837402343750, 0.0236206054688, 0.0483398437500, -0.1120605468750, -0.0507812500000, 0.1711425781250, -0.0524902343750, 0.1879272460938, -0.2110595703125, -0.2767333984375, 0.0158081054688, 0.0529174804688, 0.0908813476562, 0.0029907226562, 0.0409545898438, -0.1030273437500, 0.1797485351562, 0.1923828125000, -0.0004882812500, -0.1865234375000, 0.1124877929688, -0.0166625976562, -0.0638427734375, -0.0478515625000, 0.1046752929688, 0.1581420898438, -0.1048583984375, 0.0772705078125, 0.1204833984375, 0.2000732421875, -0.1483764648438, -0.1312255859375, -0.0412597656250, -0.1388549804688, -0.0545043945312, -0.0438232421875, 0.2536621093750, 0.1450195312500, -0.1452636718750, 0.0687255859375, -0.0722656250000, -0.1400756835938, -0.1112670898438, -0.2471313476562, 0.0828247070312, 0.1383056640625, 0.0280761718750, 0.1334228515625, -0.1073608398438, 0.0807495117188, -0.0101928710938, -0.1071166992188, 0.2061767578125, 0.2550659179688, -0.0247192382812, -0.0784912109375, 0.1014404296875, 0.2233886718750, 0.1231079101562, 0.1009521484375, -0.1033325195312, -0.2394409179688, -0.0345458984375, -0.0604858398438, 0.0584106445312, 0.0501098632812, 0.0839233398438, 0.1123046875000, 0.1567382812500, -0.1427612304688, 0.0518798828125, -0.1970214843750, -0.0604248046875, 0.1947021484375, -0.0090332031250, -0.1083984375000, 0.0341186523438, -0.2262573242188, -0.0962524414062, 0.0073852539062, 0.0418701171875, -0.0367431640625, -0.0845336914062, 0.2546997070312, 0.1723022460938, -0.1846923828125, -0.1520385742188, 0.1807250976562, -0.0632934570312, -0.0193481445312, -0.0776367187500, -0.0242919921875, -0.0488891601562, -0.1299438476562, -0.2572021484375, -0.0451049804688, -0.0411987304688, -0.1732177734375, -0.0708007812500, -0.1614990234375, 0.0011596679688, -0.1738281250000, 0.0645141601562, 0.1920776367188, -0.0302124023438, 0.0260620117188, -0.1973266601562, 0.0155639648438, 0.1790771484375, 0.0989990234375, -0.2289428710938, -0.1749877929688, 0.0791625976562, 0.0349121093750, -0.0833740234375, -0.0071411132812, -0.0280761718750, -0.1919555664062, 0.0458374023438, -0.0097656250000, -0.0167236328125, 0.0496215820312, 0.0419921875000, -0.0438842773438, -0.0377807617188, -0.1119384765625, 0.0939331054688, -0.0786132812500, 0.0716552734375, -0.1668701171875, 0.1987915039062, 0.0413208007812, -0.0035400390625, -0.0822143554688, 0.1718750000000, 0.0548706054688, -0.2170410156250, 0.1555786132812, -0.0562744140625, -0.1506958007812, -0.0554809570312, 0.1636962890625, -0.0317382812500, -0.0617065429688, -0.0268554687500, -0.0101928710938, -0.0643920898438, -0.0438842773438, -0.0535888671875, -0.0003662109375, 0.1948242187500, 0.0530395507812, -0.0332031250000, 0.1065063476562, -0.1576538085938, -0.0666503906250, 0.2030639648438, 0.0177001953125, 0.0763549804688, -0.2753906250000, -0.2670288085938, 0.0485839843750, -0.0316162109375, -0.1420898437500, 0.0964355468750, 0.0828857421875, 0.1556396484375, -0.0775146484375, 0.1529541015625, 0.0242309570312, -0.0302734375000, 0.1307373046875, 0.2487182617188, 0.1541748046875, 0.0720825195312, -0.1716918945312, 0.1232299804688, 0.0611572265625, 0.1376342773438, 0.1865234375000, -0.0927124023438, 0.1109008789062, 0.0818481445312, -0.0015258789062, -0.1097412109375, -0.1132812500000, 0.2702636718750, -0.1434326171875, 0.0339355468750, -0.1143188476562, -0.0364990234375, 0.0147094726562, 0.0324707031250, 0.0560302734375, -0.2029418945312, -0.1085815429688, -0.0075073242188, 0.0898437500000, 0.1194458007812, -0.1303710937500, -0.0358276367188, 0.2685546875000, -0.1031494140625, 0.0498046875000, -0.1721191406250, -0.0017089843750, -0.0966186523438, -0.0697021484375, 0.2514648437500, 0.0827636718750, -0.0933227539062, 0.2384643554688, -0.0580444335938, -0.0070800781250, 0.1206665039062, -0.1665649414062, -0.0504150390625, 0.1747436523438, -0.2125244140625, 0.1408691406250, -0.2197875976562, 0.0015258789062, 0.0974121093750, -0.1805419921875, -0.0573120117188, -0.0094604492188, -0.1078491210938, 0.0999755859375, 0.1408081054688, 0.0609741210938, 0.0574340820312, -0.0549316406250, 0.0884399414062, 0.0064697265625, -0.2489624023438, 0.2386474609375, -0.0493774414062, -0.0013427734375, 0.1740722656250, -0.1063842773438, -0.0603027343750, -0.0349731445312, 0.1437988281250, -0.1882324218750, 0.1852416992188, 0.0200195312500, 0.0503540039062, 0.0689697265625, -0.0191650390625, -0.0089721679688, -0.0250854492188, 0.0487060546875, -0.0170898437500, -0.1914062500000, -0.0863647460938, -0.0427246093750, -0.0089111328125, -0.1815795898438, 0.0291748046875, -0.0048828125000, 0.1362304687500, -0.0121459960938, -0.0891113281250, -0.0388793945312, -0.0655517578125, -0.1101074218750, 0.1419067382812, 0.1193847656250, 0.1032714843750, -0.1945800781250, 0.2247314453125, -0.0158081054688, 0.2650146484375, 0.2421264648438, 0.2103271484375, -0.0559082031250, -0.0028076171875, -0.1098632812500, -0.0372314453125, 0.2630615234375, -0.1237182617188, -0.0540161132812, 0.2778320312500, -0.2041015625000, 0.1436157226562, -0.2755126953125, 0.1448974609375, -0.0036621093750, 0.0887451171875, -0.0061035156250, 0.1588134765625, 0.0784912109375, 0.0166015625000, -0.0849609375000, 0.0471801757812, -0.0889892578125, 0.1059570312500, 0.1058349609375, 0.1697387695312, 0.1079101562500, -0.0635986328125, 0.0822753906250, 0.1271362304688, -0.0919189453125, 