//Numpy array shape [128, 64]
//Min -1.992675781250
//Max 1.999938964844
//Number of zeros 2

#ifndef W4_H_
#define W4_H_

#ifndef __SYNTHESIS__
weight4_t w4[8192];
#else
weight4_t w4[8192] = {-0.0530395507812, 0.0260009765625, -0.0714111328125, 0.3562622070312, 0.4848632812500, -0.1145019531250, 0.0433959960938, 0.0039672851562, -0.7810058593750, 0.1079711914062, -0.1284790039062, 0.0483398437500, -0.2517700195312, 0.0538940429688, -0.1723632812500, -0.1802368164062, -0.3732299804688, 0.0841674804688, 0.4041137695312, 0.0712890625000, -0.3352661132812, -0.0234375000000, 0.1461181640625, 0.1263427734375, 0.3341064453125, -0.1437377929688, 0.7242431640625, 0.2603759765625, -0.1290283203125, 0.2718505859375, -0.2845458984375, -0.4915771484375, -0.2124023437500, -0.0177001953125, 0.6089477539062, 0.0104980468750, -0.2525024414062, -0.1644287109375, 0.0929565429688, -0.1384277343750, 0.2334594726562, 0.2327880859375, -0.8466186523438, -0.1278686523438, -0.2438354492188, -0.8291015625000, -0.2452392578125, 0.6616821289062, -0.4216308593750, 0.3610839843750, 0.2653198242188, -0.0330810546875, 0.0238647460938, 0.8681030273438, -0.7110595703125, -0.7960815429688, -0.0270385742188, 0.1870727539062, 0.5587768554688, -0.1330566406250, 0.0521240234375, -0.4475708007812, -0.1710815429688, -0.4515991210938, -0.1173706054688, -0.2982788085938, 0.0928344726562, -0.1090087890625, 0.0329589843750, 0.0116577148438, 0.0160522460938, 0.0993652343750, 0.2426757812500, -0.4406127929688, 0.0838012695312, -0.1673583984375, 0.0191040039062, -0.1514282226562, -0.4824218750000, 0.0191040039062, 0.2229003906250, 0.0489501953125, -0.2864990234375, -0.0261840820312, -0.5842895507812, 0.0062866210938, 0.0254516601562, -0.0579223632812, -0.1254882812500, 0.3831787109375, -0.1615600585938, -0.0031127929688, -0.0401611328125, -0.0504150390625, 0.0910034179688, 0.0781250000000, -0.1253051757812, 0.0040283203125, 0.1527709960938, -0.0776367187500, 0.0158691406250, 0.3280029296875, 0.0126953125000, 0.0339965820312, -0.0521850585938, 0.0122680664062, 0.0953369140625, 0.1999511718750, -0.0404052734375, 0.0632324218750, 0.1443481445312, 0.3673095703125, -0.0731811523438, 0.0550537109375, 0.1439819335938, -0.2625732421875, 0.2484741210938, -0.1492309570312, -0.4495849609375, -0.1600341796875, -0.2604980468750, -0.0550537109375, 0.3132324218750, -0.0753173828125, 0.2219848632812, 0.1588134765625, -0.1330566406250, -0.1514282226562, -0.0515747070312, 0.1061401367188, 0.0359497070312, 0.0001220703125, 0.1367797851562, 0.0702514648438, -0.0522460937500, -0.2360229492188, -0.0850830078125, 0.1498413085938, -0.0066528320312, -0.1062622070312, 0.0372924804688, 0.1177978515625, 0.0114135742188, 0.0212402343750, -0.1080322265625, 0.0284423828125, 0.3873291015625, -0.1753540039062, 0.1627197265625, -0.0454711914062, -0.0322875976562, 0.0206909179688, 0.0003051757812, 0.2092895507812, -0.1077270507812, -0.3093261718750, -0.0494384765625, -0.0159912109375, -0.0079956054688, 0.1659545898438, 0.3070678710938, -0.3188476562500, 0.0388183593750, -0.0402832031250, 0.0072631835938, -0.0516357421875, -0.0408935546875, -0.1309814453125, 0.0166015625000, -0.0822143554688, 0.1619262695312, 0.0184326171875, 0.0205078125000, -0.7643432617188, 0.0810546875000, 0.0167236328125, -0.1105957031250, 0.0908813476562, -0.4539184570312, 0.1623535156250, -0.1289062500000, 0.1558837890625, 0.0562744140625, -0.2279052734375, -0.0472412109375, 0.1646728515625, 0.0861816406250, 0.0142211914062, -0.0161132812500, 0.5965576171875, 0.0367431640625, -0.1511230468750, 0.0310668945312, -0.0689086914062, 0.0367431640625, -0.0806274414062, 0.0371704101562, -0.0198974609375, -0.0395507812500, -0.0803833007812, 0.0194702148438, -0.2529907226562, -0.0040893554688, 0.0751953125000, -0.0224609375000, 0.3071899414062, 0.2775268554688, 0.0266723632812, -0.4277954101562, 0.0665283203125, -0.0018920898438, 0.0396728515625, 0.0064086914062, 0.0180664062500, 0.1123046875000, -0.0171508789062, -0.0183715820312, -0.0103759765625, 0.0272827148438, -0.0897216796875, 0.0968017578125, -0.0182495117188, 0.0030517578125, -0.1805419921875, 0.0728759765625, -0.0568237304688, 0.0361938476562, 0.0530395507812, 0.0324707031250, -0.0676879882812, 0.0563354492188, -0.0369262695312, -0.2509765625000, -0.0009765625000, -0.0085449218750, -0.1189575195312, 0.0748901367188, 0.0015258789062, -0.0084228515625, 0.0322875976562, -0.1016235351562, 0.0264282226562, -0.0245361328125, -0.0859985351562, -0.0187988281250, -0.0095825195312, -0.0167846679688, 0.0202636718750, -0.0634155273438, -0.0454711914062, 0.0922241210938, -0.0700683593750, -0.0356445312500, -0.0027465820312, -0.0245971679688, 0.0961303710938, -0.0130004882812, 0.0333251953125, -0.0587158203125, 0.0756835937500, 0.2048339843750, -0.1742553710938, 0.0061645507812, -0.1315917968750, 0.1148071289062, 0.1192626953125, 0.0752563476562, -0.0036010742188, -0.0137329101562, 0.0667724609375, -0.0162353515625, -0.0712280273438, -0.0803222656250, 0.0434570312500, 0.2963256835938, -0.0046997070312, 0.0567016601562, -0.0452880859375, 0.0560302734375, 0.1304321289062, -0.0516357421875, -0.4425048828125, 0.0330810546875, 0.0398559570312, -0.0062255859375, 0.1429443359375, -0.2655639648438, -0.0528564453125, 0.1558837890625, -0.0783081054688, -0.0328979492188, -0.0067138671875, -0.1318969726562, -0.0334472656250, -0.0455932617188, 0.1895751953125, 0.0303344726562, 0.0299682617188, -0.1417846679688, -0.0775756835938, 0.0354003906250, -0.2321166992188, 0.0162963867188, 0.0588989257812, -0.0440063476562, -0.0346679687500, 0.2609863281250, -0.0623779296875, 0.0541992187500, -0.0286254882812, -0.0250854492188, -0.3685913085938, 0.0826416015625, 0.0353393554688, -0.0292968750000, -0.0048217773438, -0.0147705078125, 0.0981445312500, -0.1015625000000, -0.1648559570312, 0.0458374023438, 0.0209350585938, 0.0138549804688, -0.0394287109375, -0.0044555664062, 0.0276489257812, -0.0042724609375, 0.0090942382812, -0.0026245117188, -0.1181640625000, -0.1278686523438, 0.5430297851562, 0.0080566406250, -0.0804443359375, 0.0507812500000, -0.0039672851562, 0.0787963867188, -0.0001831054688, -0.0122070312500, 0.0295410156250, -0.0591430664062, 0.0162353515625, 0.0546264648438, -0.0208129882812, -0.0765380859375, 0.0532836914062, 0.0338745117188, -0.0261840820312, -0.1597900390625, 0.0338745117188, 0.0322875976562, 0.0352172851562, -0.0034179687500, 0.0274658203125, -0.0446166992188, -0.0764770507812, 0.0220336914062, -0.0523071289062, 0.0526123046875, 0.0085449218750, 0.0060424804688, -0.0087280273438, 0.0650024414062, 0.0427856445312, 0.0164794921875, 0.0054321289062, -0.0363769531250, 0.0466308593750, -0.0397338867188, 0.0382080078125, -0.0360717773438, 0.1464843750000, 0.0205688476562, -0.0090332031250, -0.0740966796875, -0.0505371093750, -0.1361694335938, -0.0260620117188, 0.2280883789062, 0.0747070312500, 0.1413574218750, -0.0311279296875, -0.0067749023438, -0.0056762695312, 0.0108032226562, 0.0074462890625, 0.0559692382812, 0.0200805664062, -0.0153808593750, -0.0058593750000, 0.0507812500000, -0.0116577148438, -0.1124267578125, 0.1761474609375, 0.0061035156250, 0.1846923828125, -0.0086669921875, -0.1316528320312, 0.0524291992188, -0.0040283203125, 0.0609130859375, -0.0333251953125, -0.0514526367188, 0.0421142578125, -0.1646728515625, -0.0555419921875, 0.1030883789062, -0.0009155273438, 0.0801391601562, 0.0507812500000, -0.0025024414062, -0.0424194335938, 0.0985107421875, -0.0520629882812, -0.0338745117188, -0.1253051757812, -0.1529541015625, -0.1196289062500, -0.1666870117188, 0.1045532226562, 0.0245971679688, 0.0394897460938, -0.0209960937500, -0.0841674804688, 0.1207275390625, 0.0371704101562, -0.1868286132812, 0.0396728515625, -0.0711059570312, -0.0094604492188, 0.0944824218750, -0.0540771484375, -0.0280761718750, 0.0249633789062, -0.0248413085938, -0.0016479492188, 0.1112670898438, -0.0064086914062, -0.0858154296875, 0.0551147460938, -0.1020507812500, -0.0178833007812, 0.1135253906250, 0.0250244140625, -0.0031738281250, -0.1178588867188, 0.0457153320312, 0.2550048828125, -0.1245727539062, -0.2070312500000, -0.0414428710938, 0.0240478515625, 0.0933227539062, -0.0028076171875, -0.1898803710938, 0.0497436523438, 0.0914306640625, -0.0008544921875, 0.0026245117188, 0.0521240234375, -0.0374755859375, 0.0546875000000, -0.1783447265625, 0.0140380859375, -0.1384277343750, -0.0352172851562, 0.0593872070312, 0.0613403320312, 0.0280761718750, -0.0552368164062, -0.0227050781250, -0.0527954101562, 0.0029907226562, -0.0235595703125, -0.0597534179688, -0.0084228515625, 0.1964721679688, 0.0375976562500, -0.0281372070312, 0.0122070312500, 0.0156860351562, 0.0184326171875, -0.0682983398438, 0.0803833007812, 0.0284423828125, -0.1109008789062, 0.0161132812500, -0.0083618164062, -0.2786254882812, 0.0251464843750, -0.1412963867188, 0.1252441406250, 0.0396118164062, 0.0104370117188, 0.0358276367188, 0.0534057617188, 0.0021972656250, -0.0598754882812, 0.0147705078125, -0.0015869140625, 0.1815185546875, -0.0404052734375, 0.0439453125000, -0.0202026367188, 0.0341796875000, -0.0451660156250, 0.1358032226562, 0.0744628906250, -0.0451660156250, -0.0406494140625, 0.0277709960938, -0.0805664062500, 0.0208129882812, 0.0078125000000, -0.0919189453125, -0.0878906250000, -0.1773681640625, 0.0388793945312, -0.0438232421875, 0.0106201171875, 0.1251831054688, -0.0678100585938, 0.0385742187500, -0.1459960937500, -0.0702514648438, -0.1074218750000, -0.0417480468750, 0.0186157226562, 0.1459960937500, 0.0609741210938, -0.0225219726562, 0.0204467773438, 0.0231323242188, 0.0023803710938, 0.0024414062500, -0.0437622070312, -0.0847167968750, -0.0872192382812, -0.1102905273438, -0.0985107421875, -0.0015869140625, -0.0712890625000, 0.1166992187500, 0.1254882812500, -0.0062255859375, 0.0568847656250, -0.0876464843750, -0.0099487304688, 0.0704956054688, -0.0112915039062, -0.0058593750000, -0.0242309570312, 0.0008544921875, -0.0289916992188, 0.0855102539062, -0.1187744140625, 0.0565185546875, 0.2822265625000, -0.1174926757812, -0.0180664062500, 0.0519409179688, -0.1561889648438, -0.1082763671875, 0.0934448242188, -0.1380615234375, -0.0858154296875, -0.0082397460938, -0.0889892578125, 0.0483398437500, -0.0401000976562, -0.0866699218750, -0.2633666992188, -0.0392456054688, -0.2022094726562, -0.0039062500000, 0.1196899414062, -0.0308837890625, 0.0852661132812, -0.0215454101562, 0.0151367187500, -0.0289916992188, 0.0689086914062, 0.0227661132812, -0.0346069335938, -0.0421752929688, 0.1240234375000, 0.0463867187500, -0.3348388671875, 0.0104370117188, -0.0287475585938, -0.0117187500000, 0.0126953125000, -0.0319213867188, -0.0155639648438, -0.0657958984375, 0.0018920898438, 0.0031127929688, 0.0453491210938, -0.0452270507812, 0.0527343750000, 0.0048828125000, 0.0482177734375, -0.0402832031250, 0.0233154296875, 0.0693359375000, 0.0184936523438, -0.0268554687500, -0.0743408203125, 0.0110473632812, -0.0067749023438, 0.0300292968750, -0.1010742187500, 0.0162353515625, -0.0070190429688, -0.0560913085938, -0.0254516601562, 0.1881713867188, 0.0090332031250, 0.0753784179688, -0.0358276367188, -0.0068359375000, 0.0436401367188, -0.0270996093750, -0.0212402343750, 0.0464477539062, -0.0283203125000, -0.0252685546875, 0.0908203125000, 0.0285034179688, -0.0623168945312, -0.0136108398438, 0.0167846679688, 0.1156616210938, 0.0540161132812, -0.0159301757812, -0.0419311523438, -0.0227661132812, 0.0515136718750, 0.0131835937500, -0.0043334960938, 0.0424804687500, -0.0888061523438, 0.0254516601562, -0.0939941406250, -0.0335693359375, 0.1010742187500, 0.0281982421875, 0.1694335937500, -0.0440063476562, 0.0437622070312, 0.0496826171875, -0.0476074218750, -0.0048217773438, -0.0198974609375, 0.0454101562500, 0.0556640625000, 0.0852050781250, -0.0415039062500, -0.1159057617188, -0.0164794921875, -0.0031738281250, 0.0399169921875, -0.0728759765625, -0.0794067382812, -0.0056762695312, -0.0041503906250, -0.0780639648438, 0.1279296875000, 0.0244140625000, -0.0135498046875, 0.1303100585938, -0.0953979492188, 0.0060424804688, 0.2503662109375, -0.1455078125000, -0.0238037109375, 0.0505981445312, 0.0348510742188, -0.0682373046875, -0.0429077148438, -0.0847778320312, -0.0711669921875, 0.0969848632812, -0.0034179687500, -0.0562744140625, 0.2813720703125, 0.0565795898438, -0.0258178710938, -0.1814575195312, -0.1589965820312, 0.0547485351562, -0.0117187500000, -0.0376586914062, 0.0337524414062, 0.1438598632812, 0.1318359375000, 0.0659179687500, -0.1479492187500, -0.1171875000000, -0.1389160156250, 0.0623168945312, -0.0814208984375, 0.1366577148438, 0.0003662109375, -0.0010375976562, -0.0002441406250, 0.0413818359375, 0.0159912109375, 0.0117797851562, -0.0304565429688, -0.0584106445312, -0.0303344726562, 0.0007324218750, 0.3164062500000, 0.0472412109375, -0.0625610351562, -0.0028076171875, -0.0079345703125, 0.0325927734375, -0.0012817382812, -0.0863647460938, -0.0023193359375, 0.1042480468750, 0.0874633789062, 0.1128540039062, 0.0363769531250, 0.0333862304688, 0.0305175781250, 0.0675659179688, -0.1005249023438, 0.0022583007812, 0.0230712890625, -0.0236206054688, -0.0172729492188, 0.0307617187500, -0.0740356445312, 0.0514526367188, 0.0143432617188, -0.0072631835938, 0.0066528320312, -0.0161132812500, -0.0488891601562, 0.0391845703125, 0.0055541992188, 0.0721435546875, -0.0630493164062, -0.0293579101562, 0.0313720703125, -0.0034790039062, -0.0203247070312, -0.0545043945312, -0.0512695312500, 0.0377197265625, -0.0134887695312, -0.0310668945312, -0.0184326171875, -0.0493164062500, 0.0155029296875, 0.0397338867188, 0.0426635742188, 0.1911010742188, 0.0214233398438, -0.1344604492188, -0.0361938476562, -0.1049194335938, 0.0242919921875, 0.0414428710938, -0.0714111328125, 0.0426635742188, 0.0574951171875, -0.1304931640625, -0.1239013671875, 0.1307983398438, 0.2349243164062, -0.0979614257812, 0.0040893554688, 0.1275634765625, -0.1350097656250, -0.0687866210938, 0.3764648437500, 0.1168212890625, -0.0090942382812, 0.1026000976562, -0.0756835937500, -0.3284301757812, 0.0293579101562, 0.0226440429688, 0.0073852539062, -0.0642700195312, 0.0006713867188, -0.2336425781250, 0.1039428710938, 0.1359863281250, 0.3133544921875, 0.0010986328125, -0.0677490234375, 0.1048583984375, 0.1599731445312, -0.2433471679688, 0.0211181640625, 0.0258178710938, -0.1477050781250, -0.2676391601562, 0.0268554687500, -0.0606689453125, -0.0761718750000, -0.0344238281250, 0.1289062500000, -0.0110473632812, 0.0319213867188, 0.0468750000000, -0.0594482421875, -0.1856689453125, -0.1410522460938, -0.0788574218750, 0.0777587890625, 0.3024291992188, 0.0556030273438, -0.2164306640625, -0.1156616210938, 0.1774291992188, 0.1284179687500, -0.3679199218750, -0.1013183593750, -0.1055908203125, -0.0651855468750, 0.2912597656250, 0.1598510742188, -0.0166625976562, -0.0496826171875, 0.0347900390625, -0.0495605468750, 0.0149536132812, 0.0821533203125, -0.0045776367188, 0.0169677734375, -0.0099487304688, 0.0398559570312, 0.0558471679688, 0.0122070312500, 0.1122436523438, -0.2814331054688, 0.0289916992188, -0.0930175781250, 0.0227050781250, 0.0900268554688, -0.0364990234375, 0.0505371093750, 0.0466918945312, -0.0830688476562, -0.2153320312500, -0.1099853515625, -0.1143798828125, -0.0555419921875, -0.0980224609375, -0.0128173828125, -0.0827636718750, 0.0448608398438, 0.0816040039062, 0.0236206054688, 0.0971679687500, -0.0232543945312, -0.0994262695312, -0.1582031250000, -0.0252685546875, -0.1195678710938, -0.0152587890625, -0.0220336914062, 0.0382690429688, 0.0029907226562, -0.0648193359375, -0.0332641601562, 0.0068969726562, -0.0053100585938, 0.0852050781250, -0.0563964843750, -0.0075073242188, 0.0202026367188, 0.1013793945312, 0.1395874023438, -0.0218505859375, -0.0327758789062, 0.1339111328125, -0.2106323242188, -0.0002441406250, -0.0629272460938, -0.1239624023438, -0.0313110351562, 0.1156616210938, 0.0200195312500, 0.2871704101562, 0.0366210937500, -0.2053833007812, 0.0994873046875, -0.0393676757812, -0.0090942382812, 0.1121215820312, -0.1132812500000, 0.0131225585938, -0.0899047851562, 0.4729003906250, -0.0458374023438, -0.0274047851562, 0.2554931640625, 0.9710083007812, 0.3060913085938, 0.1481323242188, 0.3833618164062, 0.0826416015625, 0.4160766601562, -0.0231933593750, 0.2310791015625, -0.0263671875000, 0.0125122070312, -0.0881347656250, -0.1773071289062, -0.0086059570312, 0.0088500976562, 0.1559448242188, 0.0430297851562, -0.2902221679688, -0.2424316406250, -0.2107543945312, -0.2740478515625, 0.0656738281250, -0.0127563476562, -0.1147460937500, -0.3118286132812, 0.3455200195312, -0.3269653320312, -0.7877807617188, 0.0350341796875, 0.2083740234375, 0.4371948242188, -0.2517089843750, 0.0039062500000, -0.1555786132812, -0.1243896484375, 0.1627807617188, -0.1485595703125, 0.1030883789062, -0.1536254882812, 0.4616088867188, -0.8402099609375, -0.0126953125000, 0.7409057617188, -0.3010253906250, -0.0784301757812, 0.2282104492188, -0.1139526367188, 0.5438842773438, 0.3023681640625, 0.0476684570312, -0.2170410156250, -0.0749511718750, 0.5595703125000, 0.0175170898438, 0.1983642578125, 0.3302001953125, 0.4328613281250, -0.1131591796875, -0.2809448242188, -0.0505981445312, 0.0549316406250, 0.3497314453125, -0.0790405273438, -0.2497558593750, -0.0880737304688, -0.2111816406250, -0.0377807617188, -0.1376953125000, -0.1021118164062, -0.0739746093750, 0.0283203125000, 0.2540283203125, 0.0760498046875, -0.1142578125000, 0.0296020507812, 0.1858520507812, 0.2824096679688, 0.2537841796875, -0.0988769531250, -0.0103759765625, 0.1268920898438, 0.0342407226562, -0.2349243164062, -0.0704956054688, 0.0321655273438, 0.0706176757812, -0.0678710937500, 0.1170654296875, -0.2196044921875, 0.1337890625000, -0.0338745117188, 0.0000610351562, 0.1211547851562, 0.0169067382812, -0.2727050781250, 0.1557617187500, -0.0095214843750, -0.1990966796875, 0.0147094726562, -0.3531494140625, -0.0699462890625, 0.0689086914062, -0.1091918945312, 0.1281127929688, -0.0753784179688, -0.0235595703125, -0.0710449218750, -0.0755004882812, 0.1497802734375, 0.0192260742188, 0.0893554687500, 0.0682373046875, 0.0625610351562, 0.3796386718750, 0.0390625000000, 0.0433349609375, 0.0798339843750, 0.1038818359375, -0.1560058593750, 0.1912231445312, 0.0784301757812, 1.2203979492188, -0.1198120117188, -0.1570434570312, -0.0906372070312, 0.0500488281250, 0.1923217773438, -0.3748779296875, -0.0321044921875, -0.1604614257812, 0.2295532226562, 0.3291015625000, 0.2453613281250, 0.3139648437500, 0.1602172851562, -0.1575927734375, 0.1554565429688, 0.4458618164062, 0.2413330078125, -0.2827148437500, -0.4033813476562, -0.0753784179688, -0.3738403320312, 0.1052246093750, 0.2985229492188, -0.2227783203125, -0.3845825195312, 0.7188110351562, 0.2554321289062, 0.0178833007812, 0.4091186523438, 0.0424194335938, 0.1132202148438, 0.3732910156250, 0.0022583007812, 0.3155517578125, 0.8151855468750, -0.2519531250000, 0.2224731445312, -1.6026611328125, -0.2510986328125, -0.3863525390625, 0.3035278320312, 0.3170776367188, -0.2256469726562, -0.1528930664062, -0.6660156250000, 0.0582885742188, 0.0367431640625, -0.3821411132812, -0.8417968750000, -0.4426269531250, -0.3107910156250, 0.4686279296875, 0.5304565429688, 0.1708374023438, 0.5743408203125, 1.0621337890625, -0.3502807617188, -0.2154541015625, -0.9546508789062, 0.0401000976562, 0.1897583007812, 0.4620971679688, -0.3189697265625, -0.6967163085938, 0.5217285156250, 0.0581054687500, 1.4559326171875, 0.1412963867188, -0.0531616210938, 0.4752807617188, -0.4085693359375, -0.2022705078125, -0.4377441406250, -0.0112915039062, -0.0499267578125, -1.5162963867188, -0.4517822265625, 0.0021362304688, 1.6687011718750, 0.6589355468750, 0.0980224609375, 1.0400390625000, 0.3358154296875, -0.1590576171875, -0.1494750976562, -1.4816894531250, 0.7854614257812, 0.0059814453125, -0.1525878906250, 0.1734008789062, 1.6035766601562, 0.4833984375000, 0.0346069335938, 0.0263671875000, 0.1392822265625, 1.7161865234375, 0.2255249023438, 0.1034545898438, 0.0063476562500, 1.8280029296875, -0.1109008789062, 1.7348022460938, -1.8204345703125, -0.7241821289062, -0.3959350585938, -0.9187011718750, -0.0223999023438, 1.7910156250000, 0.0936279296875, 0.4210815429688, -0.0416870117188, 1.6212768554688, 0.0238647460938, -1.8131103515625, 0.3902587890625, 0.9543457031250, 0.1456909179688, 0.1146850585938, 0.9149169921875, -0.5289306640625, 1.4588012695312, 0.0558471679688, -0.3258056640625, -0.5769042968750, -0.1804199218750, 0.0875854492188, -0.6867675781250, 0.0181274414062, -0.0001831054688, 0.1663818359375, 0.0787353515625, -0.0130004882812, -0.1580810546875, 0.1055908203125, 0.1628417968750, 0.0635375976562, 0.0484619140625, -0.1090087890625, -0.2441406250000, -0.0264282226562, 0.1955566406250, -0.0940551757812, 0.0301513671875, 0.1435546875000, -0.0591430664062, 0.1778564453125, 0.1309204101562, -0.0725097656250, -0.1283569335938, -0.1240844726562, 0.0140991210938, 0.0052490234375, -0.4652709960938, 0.1015014648438, -0.1106567382812, -0.0366210937500, 0.1251220703125, -0.0329589843750, -0.1387329101562, 0.0024414062500, -0.2387695312500, 0.0707397460938, -0.1281738281250, -0.0857543945312, 0.1146850585938, 0.0758666992188, 0.1295776367188, 0.0302124023438, 0.0453491210938, -0.1603393554688, 0.0518798828125, 0.0272216796875, 0.3004760742188, -0.1842041015625, 0.0758666992188, -0.1220703125000, 0.0174560546875, 0.0559082031250, -0.0922851562500, -0.2735595703125, -0.0107421875000, 0.0106811523438, -0.1763305664062, 0.1459960937500, 0.0623779296875, -0.1431274414062, 0.0252685546875, 0.1639404296875, -0.2321777343750, -0.2268676757812, -0.0565185546875, 0.0902709960938, -0.1295166015625, 0.0670776367188, -0.1033935546875, 0.0679321289062, -0.0430908203125, -0.0366821289062, -0.0275878906250, -0.0540771484375, 0.1253051757812, -0.0697631835938, 0.4220581054688, 0.0133056640625, -0.0700683593750, -0.0160522460938, -0.0283813476562, -0.0617675781250, 0.0482788085938, 0.1693725585938, 0.0368652343750, -0.1102905273438, -0.1235351562500, 0.0490722656250, 0.0402832031250, 0.0229492187500, 0.0604858398438, -0.0421752929688, -0.0000610351562, -0.3467407226562, 0.0670166015625, 0.2154541015625, -0.0123291015625, -0.0893554687500, -0.0473632812500, 0.0418701171875, -0.0289916992188, -0.0457763671875, 0.1189575195312, -0.0194702148438, 0.0469360351562, 0.2275390625000, 0.0654296875000, 0.0699462890625, 0.1361694335938, -0.0826416015625, 0.0705566406250, -0.0263061523438, -0.0766601562500, 0.0122680664062, 0.0429077148438, -0.0130004882812, 0.1110229492188, 0.0295410156250, -0.0600585937500, 0.0148925781250, -0.1323852539062, -0.1228637695312, -0.0088500976562, -0.0631103515625, -0.0122070312500, 0.2703247070312, 0.0043334960938, -0.0161132812500, 0.0793457031250, -0.0041503906250, 0.0337524414062, 0.0217895507812, -0.0771484375000, -0.0422363281250, -0.0328979492188, 0.0109863281250, 0.1762084960938, -0.3052368164062, -0.1484985351562, -0.1976928710938, 0.0270385742188, 0.1154174804688, 0.1246948242188, 0.0520019531250, 0.0114746093750, 0.0895996093750, -0.0415039062500, -0.0122070312500, 0.0350952148438, 0.0587768554688, -0.0035400390625, 0.0543823242188, -0.0987548828125, -0.1309814453125, 0.4560546875000, -0.0707397460938, -0.2588500976562, 0.2154541015625, -0.2424926757812, 0.2073364257812, 0.2196655273438, 0.1194458007812, 0.2633666992188, -0.3663940429688, 0.0383300781250, 0.0785522460938, -0.0685424804688, 0.0999145507812, -0.1889038085938, -0.1016845703125, -0.0694580078125, 0.6532592773438, -0.1462402343750, -0.3317871093750, -0.1119995117188, 0.2202148437500, -0.1093139648438, 0.3312377929688, -0.1555786132812, -0.2857666015625, -0.1123657226562, -0.2991333007812, -0.0802001953125, 0.2603759765625, 0.0520629882812, 0.0547485351562, 0.1300048828125, -0.1867675781250, -0.0067749023438, -0.0531005859375, 0.0582885742188, -0.0239868164062, -0.1743164062500, -0.1214599609375, -0.0328979492188, 0.0288696289062, 0.0377807617188, -0.0249633789062, -0.0276489257812, 0.0106201171875, 0.0315551757812, -0.1152954101562, 0.2836914062500, 0.0051879882812, -0.1985473632812, -0.0231323242188, 0.0476074218750, -0.0972900390625, 0.0066528320312, -0.3184814453125, 0.0390014648438, -0.1138305664062, -0.0529174804688, -0.0423583984375, -0.0876464843750, -0.0950317382812, 0.0773925781250, 0.0718383789062, -0.1071166992188, -0.0593261718750, 0.0786743164062, -0.0355834960938, 0.0482788085938, 0.1044921875000, -0.0161132812500, 0.0095214843750, -0.0504150390625, 0.0344238281250, 0.0192871093750, -0.0628662109375, 0.1869506835938, -0.0011596679688, 0.0026855468750, -0.0175170898438, -0.1446533203125, 0.2174072265625, -0.1141967773438, -0.0218505859375, -0.0480957031250, 0.1140136718750, -0.0526733398438, 0.0172119140625, -0.0212402343750, -0.1481933593750, -0.1841430664062, -0.0236206054688, 0.1000366210938, 0.1751708984375, -0.0180664062500, 0.1794433593750, 0.0255126953125, 0.2046508789062, -0.0772094726562, -0.0985717773438, 0.0241699218750, -0.0766601562500, -0.0501708984375, -0.0430908203125, 0.0490112304688, 0.0527954101562, 0.0482788085938, 0.1759033203125, -0.0692749023438, 0.0635375976562, -0.0966796875000, -0.0960693359375, 0.1414794921875, 0.0086059570312, 0.1182250976562, -0.0134887695312, -0.0275878906250, -0.0064697265625, 0.0140991210938, -0.0530395507812, -0.0294799804688, 0.0927734375000, 0.0468750000000, -0.1356811523438, 0.0006103515625, 0.0100708007812, 0.0009765625000, 0.0823364257812, 0.0797119140625, 0.1146240234375, 0.0781250000000, 0.0515747070312, -0.0073242187500, -0.0214233398438, -0.0893554687500, -0.0480957031250, -0.0292358398438, -0.0255737304688, 0.0308227539062, -0.0399169921875, -0.0679931640625, 0.0309448242188, -0.0487060546875, 0.0200805664062, 0.0498657226562, -0.2336425781250, 0.0275878906250, -0.1135253906250, -0.0853271484375, 0.0581054687500, 0.0213012695312, -0.1511230468750, 0.0258178710938, 0.1470947265625, -0.0155029296875, 0.1088256835938, 0.0726318359375, -0.0635986328125, -0.0225830078125, -0.0877685546875, 0.0953979492188, 0.0903930664062, 0.0825195312500, -0.0567016601562, -0.0299072265625, -0.1350708007812, 0.0059814453125, -0.1009521484375, -0.1619873046875, -0.0163574218750, -0.0342407226562, 0.0187988281250, -0.0241699218750, -0.0549316406250, 0.0216064453125, 0.0795288085938, -0.0016479492188, 0.0257568359375, 0.0219116210938, -0.0012817382812, 0.1399536132812, -0.1158447265625, -0.0076293945312, -0.0521240234375, -0.0094604492188, -0.0869140625000, 0.0383300781250, -0.0153808593750, -0.0925903320312, -0.0535278320312, -0.0244140625000, -0.0332031250000, -0.0574340820312, 0.0434570312500, -0.0286254882812, -0.0999755859375, 0.0430908203125, 0.0032958984375, 0.0487060546875, -0.0019531250000, 0.0138549804688, -0.0598754882812, 0.0780029296875, 0.0059204101562, -0.0613403320312, -0.0357055664062, -0.0117797851562, -0.0438842773438, 0.0024414062500, -0.0072021484375, 0.0946655273438, 0.0125122070312, -0.0103759765625, 0.0026245117188, 0.0505981445312, 0.0169067382812, 0.0149536132812, -0.0107421875000, 0.1652221679688, 0.0312500000000, -0.0130615234375, -0.0190429687500, -0.0489501953125, -0.0555419921875, -0.0559082031250, 0.0606689453125, -0.0065307617188, -0.0555419921875, -0.0023193359375, -0.0144042968750, -0.0085449218750, -0.0060424804688, 0.0143432617188, 0.0180053710938, -0.0341186523438, -0.3947143554688, -0.1414184570312, -0.1587524414062, 0.1875610351562, -0.3204956054688, -0.1627197265625, -0.1550292968750, -0.0979003906250, 0.2611694335938, 0.0201416015625, -0.0040893554688, 0.1665039062500, 0.4131469726562, -0.0022583007812, -0.0617675781250, -0.0359497070312, 0.1148071289062, 0.0631713867188, 0.1541137695312, -0.1379394531250, -0.1066284179688, 0.3894042968750, -0.1917724609375, -0.4678344726562, 0.1119384765625, -0.2792968750000, 0.3764038085938, 0.4296264648438, 0.0328369140625, 0.4563598632812, -0.0026245117188, -0.1961669921875, 0.0748901367188, 0.1373291015625, 0.0866088867188, -0.2896118164062, -0.0762329101562, -0.1518554687500, 0.8229980468750, -0.0322265625000, -0.2539672851562, -0.2200317382812, 0.2760620117188, -0.1323242187500, 0.3950805664062, 0.1029052734375, -0.2506103515625, -0.0139160156250, -0.4544067382812, -0.1354370117188, 0.2072143554688, 0.2324218750000, -0.0706787109375, 0.1734008789062, -0.1152343750000, -0.0790405273438, -0.0322265625000, 0.2490234375000, -0.0766601562500, -0.1522827148438, -0.0978393554688, 0.1052246093750, 0.0530395507812, 0.0313110351562, 0.0382690429688, -0.0180664062500, -0.0447998046875, 0.0096435546875, -0.1796264648438, 0.2662963867188, 0.0708007812500, -0.4266967773438, 0.0294799804688, -0.0433959960938, -0.1641845703125, 0.0241088867188, -0.3677978515625, 0.0447387695312, -0.1269531250000, -0.0265502929688, -0.0332031250000, -0.0816650390625, -0.0374755859375, 0.0475463867188, 0.1153564453125, -0.0725708007812, -0.0144042968750, 0.0485229492188, -0.0792846679688, -0.0270996093750, 0.0765991210938, 0.0108642578125, 0.0030517578125, -0.0701904296875, 0.1224365234375, -0.0016479492188, -0.0720825195312, 0.1555175781250, -0.0750122070312, -0.0151977539062, 0.0387573242188, -0.0534057617188, 0.0817871093750, -0.2335815429688, -0.0514526367188, -0.0435180664062, 0.1411132812500, -0.1998291015625, -0.0070800781250, -0.0072631835938, -0.0315551757812, -0.0855712890625, -0.0234985351562, 0.1119384765625, 0.0836181640625, -0.0324096679688, 0.2833251953125, 0.0197753906250, 0.0480346679688, -0.1393432617188, -0.0837402343750, 0.0208740234375, -0.0806884765625, -0.0090942382812, 0.0180664062500, 0.0086059570312, 0.1201171875000, -0.1413574218750, 0.2830200195312, -0.1548461914062, 0.0756835937500, 0.0192871093750, 0.1444702148438, 0.0613403320312, 0.2600097656250, 0.0947875976562, 0.0431518554688, -0.1649780273438, -0.1246948242188, -0.0117187500000, -0.0424194335938, 0.0034790039062, -0.2514038085938, 0.0712280273438, -0.0676269531250, 0.0205078125000, 0.0046386718750, -0.1090698242188, 0.0851440429688, -0.0916748046875, -0.0110473632812, -0.2207641601562, 0.0839843750000, -0.0479125976562, -0.2093505859375, -0.1878662109375, 0.4004516601562, -0.2633666992188, -0.1505737304688, -0.0916748046875, -0.1231689453125, -0.2019042968750, -0.0068359375000, 0.2243652343750, -0.0354003906250, -0.0554809570312, -0.0863647460938, -0.1172485351562, 0.0643920898438, 0.0861206054688, 0.1643066406250, 0.1798706054688, 0.2475585937500, 0.0825805664062, -0.1611938476562, -0.1116333007812, -0.1246948242188, 0.0579223632812, -0.0438232421875, -0.2163085937500, -0.0463256835938, 0.0893554687500, -0.0383911132812, 0.3220825195312, 0.0325317382812, -0.1961059570312, -0.2981567382812, -0.3272705078125, 0.1119995117188, -0.0051879882812, -0.0097656250000, 0.0559082031250, -0.0568237304688, -0.0769042968750, 0.0547485351562, -0.1160278320312, -0.2063598632812, 0.0816650390625, -0.3519897460938, 0.3283691406250, 0.0961914062500, 0.1037597656250, 0.0699462890625, -0.0081176757812, -0.1956787109375, -0.1109008789062, 0.0516967773438, -0.0593872070312, 0.1923217773438, -0.0549926757812, -0.1223754882812, -0.0299682617188, 0.0803222656250, -0.1099853515625, -0.0239868164062, -0.0090942382812, -0.0920410156250, -0.0162353515625, 0.0823364257812, 0.0483398437500, 0.0355834960938, -0.1039428710938, -0.0624389648438, 0.1505126953125, 0.0170288085938, -0.0626831054688, -0.1097412109375, -0.0354003906250, 0.6559448242188, 0.0161743164062, 0.1625976562500, 0.0776367187500, 0.0299072265625, -0.0668334960938, 0.0900268554688, 0.2011718750000, 0.0862426757812, -0.0319824218750, -0.0642089843750, 0.1309204101562, 0.0529174804688, 0.0391235351562, 0.1019287109375, -0.0288696289062, 0.2004394531250, -0.0428466796875, 0.0277099609375, 0.1064453125000, 0.0341796875000, -0.2330932617188, 0.0367431640625, 0.0201416015625, -0.0615844726562, -0.0332031250000, -0.1285400390625, 0.0148315429688, -0.0584716796875, 0.1063842773438, -0.2124023437500, -0.1524047851562, 0.1870117187500, -0.1801757812500, -0.0793457031250, -0.2850341796875, 0.1057739257812, 0.0128173828125, 0.0023193359375, 0.0102539062500, 0.0607910156250, 0.0739746093750, 0.3546752929688, -0.1169433593750, 0.4641723632812, -0.0603637695312, -0.2973022460938, 0.1250610351562, -0.1511840820312, -0.1603393554688, -0.2960205078125, -0.1508789062500, -0.0038452148438, 0.1900024414062, -0.0168457031250, 0.4483032226562, 0.1057128906250, 0.0657958984375, 0.1002807617188, -0.2043457031250, -0.1155395507812, -0.0178222656250, -0.0466308593750, -0.1749877929688, -0.1525878906250, -0.0126342773438, 0.4533691406250, -0.1642456054688, 0.1146240234375, -0.1602783203125, 0.0880126953125, 0.0269775390625, 0.1481933593750, -0.0055541992188, -0.2362060546875, 0.1892089843750, -0.1917724609375, -0.0080566406250, 0.1254882812500, -0.0559082031250, 0.1812744140625, 0.0612182617188, -0.0390625000000, -0.0890502929688, -0.0395507812500, 0.5375976562500, 0.1137084960938, -0.3041992187500, 0.1871337890625, 0.1624145507812, 0.0936279296875, -0.0802612304688, -0.0350952148438, 0.0628051757812, 0.0794067382812, -0.0496826171875, -0.0335693359375, -0.1934814453125, 0.0305175781250, 0.0423583984375, 0.0214843750000, -0.0426025390625, 0.3905029296875, 0.0207519531250, -0.1161499023438, 0.0307006835938, -0.1777954101562, 0.0031738281250, -0.0193481445312, 0.1050415039062, 0.1181640625000, -0.0430297851562, -0.0588378906250, 0.0252075195312, 0.1495361328125, -0.0488281250000, 0.1389160156250, -0.0162353515625, -0.0544433593750, -0.1442871093750, -0.0299682617188, 0.0906982421875, 0.0218505859375, -0.1543579101562, 0.0256958007812, 0.0451049804688, -0.0217285156250, -0.0380249023438, -0.2013549804688, 0.0195312500000, 0.0475463867188, -0.3571777343750, 0.0142822265625, -0.0400390625000, -0.0123901367188, -0.1417846679688, -0.0657958984375, 0.0430297851562, 0.1083984375000, -0.1972045898438, -0.2324829101562, -0.0012207031250, -0.0628662109375, 0.0720214843750, -0.0904541015625, 0.0319213867188, -0.1121826171875, -0.1082153320312, -0.1199951171875, 0.0958862304688, -0.0261230468750, 0.0784301757812, 0.0269165039062, -0.0189819335938, -0.0220336914062, 0.0400390625000, 0.0015869140625, 0.0045776367188, -0.0956420898438, 0.0286254882812, 0.0250854492188, -0.0123291015625, 0.0225219726562, 0.0170898437500, -0.0561523437500, 0.0571899414062, -0.0209960937500, 0.0130004882812, 0.0952758789062, 0.0162963867188, -0.0562133789062, -0.0199584960938, -0.0466918945312, 0.0943603515625, -0.0029907226562, 0.0352172851562, 0.0493164062500, -0.0356445312500, 0.1110229492188, 0.0375366210938, -0.0463256835938, -0.0686645507812, 0.0615234375000, -0.0250854492188, -0.0472412109375, 0.2177734375000, 0.0017700195312, 0.0404052734375, -0.0406494140625, 0.0180664062500, 0.0097045898438, -0.0404663085938, -0.0465087890625, 0.0058593750000, -0.0174560546875, 0.0105590820312, -0.0123291015625, 0.0701293945312, -0.0352783203125, -0.0531005859375, 0.0638427734375, -0.0728759765625, 0.1504516601562, -0.0539550781250, 0.0967407226562, 0.0080566406250, -0.0236206054688, 0.1302490234375, 0.0429687500000, -0.0273437500000, 0.0218505859375, -0.0620727539062, -0.0625610351562, 0.0214843750000, 0.0048828125000, -0.0775146484375, -0.0532226562500, 0.1207885742188, -0.0161132812500, 0.0128784179688, 0.0034790039062, 0.0398559570312, -0.0084838867188, 0.0061645507812, 0.0011596679688, -0.0082397460938, 0.0650024414062, -0.1823730468750, 0.0192871093750, -0.0549316406250, -0.0547485351562, -0.0217285156250, -0.0092773437500, 0.0130615234375, -0.0348510742188, 0.0195922851562, -0.0341186523438, -0.0053100585938, 0.0149536132812, -0.0084838867188, -0.0033569335938, -0.0099487304688, 0.0142211914062, 0.0051269531250, 0.0095214843750, 0.0130615234375, 0.0072631835938, 0.0111083984375, 0.0045776367188, -0.0106811523438, -0.0190429687500, -0.0237426757812, -0.0070800781250, 0.0279541015625, 0.0113525390625, 0.0312500000000, 0.0264892578125, 0.0355834960938, -0.0438842773438, 0.0407714843750, -0.0042114257812, 0.0064086914062, -0.0054321289062, 0.0138549804688, -0.0135498046875, 0.0045776367188, 0.0496215820312, 0.1192016601562, -0.0368041992188, -0.0245361328125, -0.0385742187500, 0.0217895507812, -0.0150146484375, -0.0097656250000, -0.0454711914062, -0.0106811523438, 0.0064697265625, 0.0430908203125, -0.0328369140625, -0.0681152343750, 0.0071411132812, 0.0216064453125, 0.0522460937500, -0.0177612304688, 0.0554199218750, -0.0155639648438, -0.0114746093750, 0.0156250000000, -0.0829467773438, -0.0033569335938, -0.0229492187500, 0.0283203125000, -0.0008544921875, -0.0471801757812, -0.0131835937500, 0.0211181640625, -0.0529785156250, -0.0238647460938, 0.0675659179688, 0.0317382812500, -0.0552368164062, -0.0005493164062, -0.0454711914062, -0.0709228515625, 0.0153808593750, 0.1326904296875, -0.1043701171875, -0.0725708007812, 0.0113525390625, -0.0332031250000, 0.0451660156250, 0.0271606445312, 0.0239868164062, 0.0395507812500, -0.0106201171875, 0.0452270507812, 0.0596923828125, 0.0437011718750, 0.0147094726562, -0.0989990234375, -0.0345458984375, -0.0140991210938, 0.0805053710938, 0.0119018554688, -0.0333862304688, -0.0763549804688, 0.0390625000000, 0.0297241210938, -0.0734863281250, 0.0095214843750, -0.1027832031250, 0.0701293945312, -0.0411987304688, -0.0018310546875, 0.0607910156250, 0.0349121093750, -0.0679321289062, 0.0201416015625, 0.0108032226562, 0.0225219726562, 0.0718383789062, 0.0450439453125, 0.0469360351562, 0.0258789062500, -0.0087280273438, -0.1234741210938, 0.0170288085938, 0.0172119140625, 0.0015258789062, -0.0322875976562, 0.0087280273438, -0.0336914062500, -0.0247192382812, 0.0514526367188, -0.0346069335938, -0.1520996093750, -0.0396728515625, 0.1399536132812, 0.0490112304688, 0.0122680664062, -0.1629638671875, -0.0134887695312, -0.0156250000000, 0.0077514648438, 0.0178222656250, -0.0382690429688, -0.0293579101562, 0.0255126953125, 0.0126953125000, -0.0275268554688, 0.0012817382812, 0.0152587890625, 0.1406860351562, 0.0028686523438, 0.0254516601562, -0.0138549804688, 0.0021362304688, 0.0045166015625, 0.0106201171875, 0.0517578125000, -0.0134887695312, -0.0026855468750, -0.0217285156250, -0.0058593750000, -0.1370849609375, -0.0007934570312, 0.0260009765625, -0.0184326171875, -0.0004272460938, -0.0310058593750, 0.0598754882812, -0.0410156250000, 0.0148315429688, -0.0333251953125, -0.0329589843750, -0.1078491210938, 0.0177001953125, -0.0161132812500, 0.0189208984375, 0.0277709960938, 0.0739746093750, 0.0266723632812, 0.0147094726562, -0.0610961914062, -0.1273193359375, 0.0274658203125, 0.0014038085938, 0.0413818359375, -0.0134887695312, -0.0370483398438, 0.0994262695312, -0.0015869140625, 0.1573486328125, -0.0286865234375, 0.0879516601562, -0.0332641601562, -0.0559692382812, -0.0120239257812, 0.0171508789062, 0.0239868164062, 0.0147094726562, 0.0572509765625, -0.0310668945312, 0.0644531250000, -0.1328125000000, -0.0194702148438, 0.0460815429688, -0.0056762695312, 0.0029296875000, 0.0000000000000, -0.0211791992188, -0.0209350585938, 0.0249633789062, 0.0641479492188, 0.0282592773438, -0.0626831054688, 0.0629882812500, -0.0358886718750, 0.0123291015625, -0.0114746093750, 0.0607910156250, -0.0438232421875, 0.0150756835938, -0.0052490234375, 0.0377807617188, -0.0706787109375, 0.0355834960938, -0.0177001953125, 0.0740966796875, 0.0104370117188, -0.1174316406250, 0.0053710937500, -0.0239257812500, -0.0811767578125, -0.0228881835938, 0.0483398437500, -0.1135864257812, 0.0687866210938, 0.0334472656250, 0.0745849609375, -0.0468139648438, 0.0340576171875, -0.0855102539062, -0.1533813476562, 0.0255737304688, 0.0655517578125, 0.0468750000000, 0.0634155273438, 0.0969238281250, 0.1147460937500, 0.0291748046875, -0.0191650390625, 0.0903930664062, -0.0429077148438, 0.0198974609375, -0.0114746093750, -0.0148925781250, 0.0377807617188, -0.0348510742188, -0.0223388671875, 0.0341186523438, -0.0252075195312, 0.0211791992188, 0.1126708984375, -0.0023193359375, 0.0863037109375, 0.0291137695312, -0.0098876953125, -0.1857910156250, -0.0068359375000, -0.0066528320312, 0.0048828125000, 0.0032348632812, -0.0145874023438, -0.0479125976562, 0.0036621093750, -0.0113525390625, 0.0111694335938, 0.0506591796875, -0.0007934570312, 0.0248413085938, 0.0204467773438, -0.0111083984375, 0.0412597656250, 0.0157470703125, 0.0299682617188, -0.0155029296875, 0.0023803710938, 0.0151367187500, -0.0401611328125, -0.0391845703125, -0.0327148437500, -0.0284423828125, -0.0211791992188, 0.0566406250000, 0.0271606445312, -0.0112915039062, 0.0113525390625, -0.0358886718750, 0.0100708007812, 0.0300292968750, -0.0003662109375, 0.0087280273438, -0.0322875976562, 0.0170288085938, -0.0343627929688, 0.0194091796875, -0.0266113281250, -0.0543823242188, -0.0250854492188, -0.0323486328125, -0.0342407226562, -0.0150756835938, 0.0603637695312, 0.0066528320312, 0.0164794921875, 0.2440795898438, -0.6013183593750, -0.0964965820312, -0.1859130859375, 0.4129028320312, 0.1891479492188, 0.0498657226562, 0.3383178710938, 0.1306152343750, 0.0300903320312, 0.0573730468750, 0.0321044921875, 0.0628662109375, 0.2389526367188, 0.0848999023438, 0.3342895507812, -0.1199340820312, 0.0684814453125, -0.5040893554688, -0.2612915039062, 0.5382080078125, 0.2457885742188, -0.1971435546875, 0.6187133789062, -0.1406250000000, -0.1242675781250, -0.7285156250000, -0.0195922851562, -0.2777709960938, 0.2495117187500, -0.2613525390625, 0.1932983398438, -0.0458374023438, 1.1413574218750, 0.0685424804688, -0.1224365234375, 0.3184204101562, 0.3942260742188, -0.0479736328125, 0.1514892578125, -0.1547851562500, -0.1205444335938, -0.1490478515625, 0.0213623046875, -0.1215209960938, -0.5242309570312, 0.2561645507812, 0.2302856445312, -0.1006469726562, 0.1311645507812, 0.0994262695312, -0.0759887695312, -0.1503906250000, -0.5708618164062, 0.5034790039062, -0.3210449218750, -0.3098754882812, -0.1116333007812, -0.1881713867188, 0.3693237304688, 0.2131958007812, 0.5255737304688, 0.4281616210938, 0.4381713867188, 0.1838989257812, 0.0942382812500, 0.0275878906250, 0.0343627929688, 0.5106811523438, 0.1968383789062, 0.0498657226562, 0.2935180664062, 0.0116577148438, -0.2846069335938, -0.3058471679688, -0.1347045898438, -0.0679321289062, -0.5626220703125, -0.1877441406250, 0.0606689453125, 0.2548217773438, 0.0256958007812, 0.0561523437500, -0.2367553710938, -0.5443115234375, 0.1296997070312, 0.0405883789062, -0.0531005859375, -0.0783081054688, 0.2939453125000, -0.1506347656250, -0.1085205078125, 0.2543945312500, -0.0163574218750, -0.1699218750000, 0.2839965820312, 0.1713867187500, 0.2336425781250, -0.0070190429688, -0.2390136718750, 0.0311889648438, -1.2886962890625, 0.0421142578125, -0.1205444335938, -0.3076171875000, -0.3721313476562, -0.1602172851562, 0.2241821289062, 0.1077880859375, 0.0663452148438, 0.0524291992188, 0.0873413085938, -0.0086059570312, -0.0208740234375, -0.0159301757812, -0.2243652343750, -0.0605468750000, 0.1867675781250, 0.4884033203125, 0.1503295898438, -0.0394287109375, 0.0462036132812, 0.3363647460938, 0.1984252929688, -0.2432250976562, -0.1115112304688, 0.0387573242188, 0.0148925781250, -0.0249633789062, -0.0223999023438, 0.1406250000000, -0.0195922851562, 0.0639038085938, -0.0303344726562, 0.0107421875000, 0.0461425781250, -0.0768432617188, 0.0532226562500, 0.0540771484375, -0.0531616210938, 0.0141601562500, -0.0842285156250, 0.0269165039062, 0.0255737304688, -0.0334472656250, -0.0512084960938, 0.1605224609375, 0.0068969726562, -0.0424194335938, -0.1044311523438, -0.0289306640625, -0.0724487304688, -0.0238647460938, -0.0024414062500, -0.0063476562500, 0.0084228515625, 0.0783691406250, 0.1225585937500, 0.0094604492188, -0.0226440429688, 0.0267333984375, -0.0504760742188, -0.0898437500000, 0.0192871093750, 0.0380249023438, -0.0089111328125, 0.0219116210938, -0.0380859375000, 0.0297851562500, -0.0427856445312, -0.1860961914062, -0.0397338867188, -0.0721435546875, -0.1278686523438, 0.0034790039062, 0.0203247070312, -0.1810302734375, -0.0679931640625, 0.0567016601562, 0.0445556640625, -0.0974731445312, 0.1303710937500, 0.1071166992188, -0.0531005859375, -0.0083618164062, 0.0191040039062, 0.0465087890625, -0.0158691406250, 0.0197753906250, -0.2008056640625, -0.0825805664062, -0.0441894531250, -0.0198974609375, -0.2106323242188, 0.0291748046875, -0.0573730468750, 0.0966796875000, -0.0283813476562, -0.0251464843750, -0.0384521484375, 0.0144653320312, 0.1251831054688, -0.0182495117188, 0.0891723632812, 0.0112304687500, 0.1405029296875, 0.0460815429688, 0.0206298828125, 0.0123291015625, -0.0089111328125, 0.0499267578125, 0.0002441406250, 0.0665283203125, -0.0835571289062, 0.0109863281250, 0.0034179687500, 0.0183715820312, -0.0365600585938, 0.0028076171875, -0.0012207031250, 0.0499267578125, -0.0339965820312, 0.0493164062500, -0.0027465820312, -0.0159301757812, -0.0048217773438, 0.0067749023438, 0.0430908203125, -0.0050659179688, 0.0692138671875, 0.0227661132812, -0.0238647460938, 0.0391845703125, -0.0113525390625, 0.0577392578125, -0.0039672851562, 0.0039062500000, 0.0045166015625, 0.0272216796875, -0.0246582031250, 0.0128784179688, -0.0015869140625, 0.0230712890625, 0.1121826171875, 0.0488281250000, 0.0166015625000, -0.0200195312500, -0.0136718750000, 0.1428222656250, -0.0377197265625, 0.0330810546875, -0.0402832031250, 0.0358886718750, -0.0006713867188, 0.0347900390625, 0.0808715820312, 0.0985107421875, -0.0775756835938, 0.0252685546875, 0.0246582031250, -0.1918945312500, 0.0526733398438, 0.0567626953125, 0.1351318359375, -0.1169433593750, -0.0079956054688, -0.0277099609375, 0.2252197265625, 0.0111083984375, -0.1572875976562, 0.0162963867188, -0.0158081054688, -0.0122070312500, -0.0579833984375, -0.3325805664062, -0.0161743164062, -0.2716064453125, 0.0194702148438, 0.0760498046875, -0.0510253906250, 0.1068725585938, 0.3205566406250, 0.2636108398438, 0.1185302734375, 0.0961914062500, -0.1151123046875, 0.0012817382812, -0.2463989257812, -0.1679687500000, 0.1348266601562, -0.1317138671875, 0.0018920898438, 0.0493164062500, 0.0892333984375, 0.0474243164062, -0.0565795898438, 0.0116577148438, -0.0016479492188, -0.0938110351562, 0.0310668945312, -0.0235595703125, 0.1058349609375, 0.0336303710938, 0.0864257812500, 0.1694335937500, 0.1891479492188, 0.0596923828125, -0.0461425781250, 0.1311035156250, 0.0677490234375, -0.0228271484375, 0.1638183593750, -0.1770629882812, -0.0622558593750, 0.0245971679688, 0.0878906250000, 0.0972900390625, -0.3654174804688, 0.0005493164062, 0.0408325195312, -0.0047607421875, -0.0360107421875, -0.0244750976562, 0.1276245117188, 0.0682373046875, 0.0177612304688, 0.0876464843750, 0.0653686523438, 0.0301513671875, -0.1315917968750, 0.0133666992188, -0.1036376953125, -0.0159912109375, -0.0457153320312, -0.1889038085938, -0.0102539062500, 0.2014160156250, -0.0445556640625, 0.1619873046875, -0.0928955078125, 0.0428466796875, -0.0035400390625, -0.0281982421875, 0.0264892578125, 0.0205688476562, 0.0222167968750, -0.0559082031250, 0.0155639648438, -0.0397949218750, 0.0082397460938, -0.0250244140625, 0.0918579101562, 0.1164550781250, 0.0439453125000, 0.0419311523438, 0.0663452148438, 0.0009155273438, -0.0327148437500, 0.0188598632812, 0.0044555664062, 0.0484008789062, 0.0079345703125, -0.0367431640625, 0.1488647460938, 0.0487670898438, 0.0117187500000, 0.0405273437500, 0.0100708007812, 0.0222778320312, -0.0209960937500, -0.0350341796875, -0.1569824218750, 0.0322875976562, 0.0540771484375, 0.0270996093750, 0.0766601562500, -0.0482788085938, -0.0115966796875, -0.0777587890625, 0.0403442382812, 0.0939941406250, -0.0449829101562, 0.0171508789062, -0.1697998046875, -0.0126953125000, -0.0156860351562, 0.0458984375000, 0.0259399414062, 0.0842285156250, -0.1458740234375, 0.0828857421875, -0.0310058593750, -0.0582275390625, 0.0043945312500, -0.0079956054688, -0.0236206054688, 0.0554809570312, 0.0115356445312, 0.0090942382812, 0.0202636718750, -0.0559692382812, -0.0604248046875, 0.0654296875000, 0.0365600585938, -0.0823974609375, -0.0047607421875, 0.0814208984375, 0.0184936523438, 0.0217285156250, 0.0382080078125, 0.0865478515625, -0.0398559570312, 0.0441894531250, -0.0653076171875, 0.0095214843750, -0.0347290039062, -0.0194702148438, 0.0377197265625, -0.0673828125000, -0.0482788085938, -0.0070190429688, -0.0163574218750, 0.0092773437500, -0.0436401367188, 0.1016845703125, 0.0223999023438, -0.0839233398438, 0.0294189453125, -0.0365600585938, -0.1636352539062, 0.0376586914062, -0.0165405273438, -0.0045776367188, 0.0384521484375, 0.0817871093750, 0.0042724609375, -0.0488281250000, 0.0689086914062, -0.0676879882812, -0.1365356445312, 0.0310058593750, 0.1088867187500, 0.0606689453125, 0.0457153320312, 0.0305175781250, 0.2047119140625, -0.0471191406250, 0.0726928710938, -0.0463256835938, -0.0303955078125, 0.0046997070312, -0.0033569335938, 0.0202026367188, 0.0007324218750, -0.0951538085938, 0.0299682617188, 0.0496215820312, 0.0159301757812, 0.0279541015625, 0.0037231445312, -0.0409545898438, 0.0883789062500, -0.0772094726562, -0.0116577148438, -0.2740478515625, 0.0091552734375, 0.0406494140625, 0.0026245117188, -0.0184936523438, -0.0833740234375, 0.0054931640625, -0.0061645507812, -0.0202636718750, 0.0581665039062, 0.0139160156250, -0.0256347656250, 0.0064697265625, 0.0246582031250, 0.0579833984375, 0.0310668945312, 0.0187377929688, 0.0066528320312, -0.0120239257812, 0.0250244140625, -0.0170898437500, -0.0090942382812, 0.0097045898438, -0.0262451171875, 0.0656738281250, 0.0363769531250, 0.0538940429688, 0.0545654296875, 0.0078125000000, 0.0155029296875, 0.0394287109375, 0.0025024414062, 0.0019531250000, 0.0272827148438, -0.0601806640625, -0.0527343750000, 0.0250244140625, -0.0617675781250, 0.0085449218750, -0.0119628906250, -0.0614624023438, -0.0510864257812, 0.0377197265625, 0.0051879882812, -0.0678100585938, 0.0209350585938, -0.0270385742188, 0.0181274414062, -0.0678100585938, 0.3532104492188, 0.2072143554688, 0.1099243164062, -0.9716796875000, -1.9279785156250, 1.2338256835938, -1.3042602539062, -0.4426879882812, -0.6143798828125, 0.0604858398438, -0.3834838867188, 0.3291015625000, -1.8914184570312, 0.4078369140625, -0.8465576171875, 0.1032104492188, 0.1292114257812, 0.4415893554688, 0.8258666992188, -0.4829101562500, -0.3502197265625, -1.2809448242188, -0.1975708007812, 0.0919799804688, 0.4237670898438, 0.8229980468750, -0.0652465820312, -1.0970458984375, -0.0488281250000, 0.6424560546875, 0.4993286132812, -0.1854858398438, 1.1043701171875, -0.3802490234375, 0.0366821289062, -0.1287231445312, -1.8833007812500, 0.1959228515625, -0.0230102539062, -0.0302734375000, -0.0300292968750, 0.2169799804688, 0.3306884765625, -0.3190917968750, -0.1333618164062, -1.9716186523438, 0.3489379882812, 0.0947265625000, -0.7908325195312, 0.6071166992188, 0.8681640625000, -0.2797241210938, 0.3415527343750, 0.0609130859375, -0.1657714843750, -0.1227416992188, -0.1004028320312, -0.1692504882812, -0.6311035156250, 0.2797241210938, -0.4276733398438, -0.5471801757812, -0.6196899414062, -0.2397460937500, -0.2789916992188, -0.4024047851562, 0.0116577148438, -0.6022338867188, -0.0658569335938, -0.1734008789062, -0.0592041015625, 0.1285400390625, -0.2803955078125, 1.1224365234375, 0.4304809570312, 0.1336669921875, -0.0747070312500, -0.5707397460938, -0.2288818359375, -0.2035522460938, 0.1878662109375, 0.2527465820312, -0.1543579101562, -1.2686767578125, -0.1530151367188, 0.1416625976562, -0.3424682617188, 0.0458374023438, 0.7644653320312, 0.3896484375000, -0.0136108398438, 0.1230468750000, 0.3181762695312, 0.5948486328125, 0.1674804687500, -0.0861816406250, -0.1605224609375, 0.0615844726562, 0.1072998046875, -0.2435302734375, 0.2027587890625, -0.1218872070312, 0.2476806640625, -0.0606079101562, 0.4014892578125, 0.1074829101562, 0.1621093750000, -0.1157836914062, 0.0863037109375, -0.2612304687500, -0.1787719726562, -0.1051025390625, 0.1868896484375, -0.3411254882812, 0.0477905273438, 0.0307006835938, -0.1813964843750, -0.2566528320312, 0.0294189453125, -0.8591308593750, -0.2320556640625, -0.0086059570312, -0.4043579101562, 0.0178222656250, 0.2568969726562, -0.5211181640625, -0.4948120117188, -0.0433959960938, -0.0380249023438, 0.0355224609375, -0.0225219726562, -0.2988281250000, 0.0429687500000, -0.0946655273438, 0.0860595703125, -0.0054931640625, -0.0169677734375, 0.0311279296875, -0.0000610351562, 0.0260620117188, -0.1703491210938, -0.0571899414062, 0.0793457031250, 0.0976562500000, 0.0090942382812, -0.0968017578125, -0.0435180664062, 0.1268920898438, 0.0234985351562, -0.1817016601562, -0.0004272460938, -0.0067138671875, -0.1839599609375, -0.1240234375000, -0.1000976562500, -0.0733642578125, 0.0029296875000, 0.0628051757812, 0.1376953125000, -0.0668945312500, -0.0740356445312, 0.0633544921875, 0.0629272460938, 0.0420532226562, 0.0083007812500, -0.0072021484375, -0.0607910156250, 0.0025024414062, -0.0403442382812, 0.1126708984375, -0.0110473632812, 0.0690307617188, 0.2343750000000, -0.0383911132812, -0.0469360351562, 0.0244750976562, -0.0939941406250, -0.0927734375000, 0.1013793945312, -0.0901489257812, 0.0213623046875, 0.1370849609375, 0.3781738281250, -0.0642700195312, -0.0025634765625, -0.0986938476562, -0.1624755859375, -0.0715332031250, 0.0323486328125, -0.0792236328125, -0.0424804687500, -0.0188598632812, 0.0694580078125, -0.0131225585938, 0.0134277343750, 0.0227050781250, -0.0120849609375, 0.0947875976562, -0.0312500000000, 0.0003051757812, 0.0673828125000, 0.0946655273438, -0.1790771484375, 0.0100708007812, -0.0429687500000, 0.0125732421875, -0.0006103515625, 0.0603637695312, -0.0404052734375, 0.0487670898438, 0.0219116210938, 0.0799560546875, 0.0938110351562, 0.0386962890625, 0.0113525390625, 0.0171508789062, -0.0083007812500, 0.0065307617188, -0.0095825195312, 0.1608276367188, 0.0007934570312, -0.0201416015625, -0.0123291015625, 0.0111694335938, 0.0091552734375, -0.0676879882812, -0.0161743164062, 0.0304565429688, 0.0899047851562, -0.0310058593750, -0.0005493164062, 0.1510620117188, 0.0536499023438, -0.0088500976562, -0.0452880859375, 0.0092163085938, -0.0033569335938, -0.0863647460938, -0.0802001953125, 0.0372924804688, -0.0009765625000, -0.0202026367188, 0.0416259765625, 0.0235595703125, -0.0585327148438, -0.0175170898438, 0.0558471679688, 0.0505981445312, -0.0012207031250, -0.1295776367188, -0.0399780273438, 0.1367187500000, -0.0426025390625, -0.0086669921875, 0.0498657226562, 0.0267944335938, 0.0460815429688, 0.0234985351562, 0.0034790039062, -0.0297851562500, 0.1262817382812, 0.0372314453125, -0.0277099609375, -0.0545043945312, 0.0250244140625, 0.0017700195312, 0.1089477539062, 0.0200805664062, -0.0333862304688, -0.0079345703125, 0.0311889648438, -0.0776977539062, 0.0164184570312, 0.0355224609375, 0.0047607421875, 0.0332031250000, -0.0303344726562, -0.0402832031250, -0.0313110351562, -0.0193481445312, 0.2387695312500, -0.2898559570312, -0.0260620117188, 0.0110473632812, -0.0289916992188, 0.0279541015625, 0.0615234375000, 0.0755615234375, -0.1052856445312, 0.0165405273438, 0.1939697265625, 0.0029296875000, -0.0042724609375, -0.0308837890625, -0.0267944335938, -0.1154174804688, -0.0473632812500, 0.1571655273438, 0.0355224609375, -0.0211181640625, -0.1416015625000, 0.1352539062500, -0.0281372070312, 0.0166015625000, -0.1274414062500, -0.2218627929688, 0.0266113281250, 0.0415649414062, -0.0263061523438, 0.0927124023438, 0.0847778320312, -0.1089477539062, 0.0096435546875, -0.0191650390625, 0.0359497070312, 0.0683593750000, 0.1835327148438, 0.0996093750000, -0.0223388671875, -0.0687255859375, -0.1756591796875, 0.0303955078125, 0.0594482421875, 0.0040893554688, -0.0281982421875, 0.1215820312500, -0.0352783203125, -0.0613403320312, 0.0187377929688, -0.0858764648438, -0.0686035156250, -0.0332031250000, 0.1016845703125, 0.1060180664062, 0.0220947265625, -0.0038452148438, 0.0021362304688, -0.0391845703125, -0.0679931640625, 0.0458374023438, -0.0146484375000, -0.0269165039062, 0.0350952148438, 0.0084838867188, -0.0349121093750, 0.0057983398438, 0.0241088867188, 0.2459716796875, 0.0013427734375, -0.0019531250000, -0.0106811523438, 0.0261840820312, 0.0132446289062, -0.0350952148438, 0.0670166015625, 0.0142211914062, -0.0303344726562, -0.0201416015625, -0.0059814453125, -0.2906494140625, -0.0184326171875, -0.0126342773438, -0.0923461914062, 0.0231933593750, -0.0508422851562, 0.0567626953125, -0.0301513671875, 0.0053100585938, -0.0274658203125, -0.0252075195312, -0.2146606445312, -0.0407104492188, 0.0685424804688, 0.0993652343750, 0.0308227539062, 0.0513305664062, 0.0102539062500, 0.0772705078125, -0.0534057617188, -0.0668334960938, -0.0512695312500, 0.0406494140625, -0.0077514648438, -0.0230712890625, -0.0564575195312, 0.0362548828125, 0.0809326171875, -0.1896972656250, -0.0393066406250, -0.0412597656250, 0.0943603515625, -0.1669311523438, -0.1263427734375, -0.0313720703125, 0.0825805664062, 0.0201416015625, -0.0568237304688, -0.0556030273438, 0.0908813476562, -0.0192260742188, -0.0034179687500, 0.0753784179688, -0.0401000976562, -0.0200805664062, 0.0422363281250, 0.0092773437500, -0.0302124023438, 0.0554199218750, 0.1159057617188, 0.0197753906250, -0.0398559570312, -0.0525512695312, -0.0856323242188, 0.1156005859375, 0.0226440429688, -0.0695190429688, 0.0087890625000, 0.0895385742188, 0.0756225585938, 0.0004272460938, 0.0537719726562, 0.0281982421875, -0.1761474609375, 0.0637207031250, 0.0054321289062, 0.1724853515625, 0.0403442382812, -0.0910034179688, -0.0174560546875, 0.0139770507812, -0.1041870117188, 0.1398925781250, -0.0783691406250, 0.0345458984375, 0.0130615234375, -0.0073242187500, 0.0864257812500, 0.0711669921875, 0.2023315429688, -0.1251831054688, 0.0378417968750, -0.0278930664062, -0.1774902343750, -0.0200805664062, -0.0160522460938, 0.0027465820312, -0.0223999023438, -0.0756835937500, -0.0960693359375, 0.0552368164062, 0.0078735351562, 0.0290527343750, -0.0523071289062, 0.0054931640625, -0.0212402343750, 0.0217285156250, -0.0763549804688, 0.0074462890625, -0.0220336914062, -0.0497436523438, 0.0120849609375, -0.1402587890625, -0.0034179687500, -0.2062988281250, 0.0295410156250, -0.0474853515625, 0.0102539062500, -0.0585937500000, -0.0227661132812, -0.0355834960938, -0.0023803710938, 0.0157470703125, 0.0079345703125, -0.0267944335938, 0.0280151367188, 0.0701293945312, -0.0193481445312, 0.0167236328125, 0.0222778320312, -0.0177001953125, 0.0435791015625, 0.0129394531250, 0.0028686523438, 0.0145874023438, 0.1023559570312, -0.0678710937500, -0.0079956054688, 0.0067749023438, 0.0902709960938, -0.0289916992188, -0.0047607421875, -0.0185546875000, 0.0173339843750, 0.0221557617188, -0.0359497070312, 0.0413208007812, -0.0048217773438, 0.0095214843750, -0.0021972656250, 0.0350341796875, -0.0343627929688, -0.0666503906250, -0.0088500976562, -0.0451660156250, 0.0031738281250, -0.0422363281250, -0.0893554687500, 0.0654296875000, 0.0473022460938, -0.0283813476562, 0.0048217773438, -0.0136718750000, -0.0458374023438, -0.0441894531250, 0.0332641601562, -0.0255737304688, -0.1002807617188, 0.0329589843750, 0.0354003906250, 0.0665893554688, -0.0813598632812, -0.0534057617188, -0.1345825195312, -0.0513916015625, 0.1990966796875, -0.0388793945312, 0.0247802734375, -0.0018920898438, -0.0166625976562, -0.0434570312500, 0.0089721679688, -0.0153808593750, 0.0403442382812, 0.0449218750000, 0.0719604492188, 0.0164794921875, -0.1395874023438, 0.1567382812500, 0.0060424804688, 0.0247802734375, 0.0093383789062, -0.0210571289062, -0.0166625976562, -0.0840454101562, 0.1647949218750, -0.0073242187500, -0.0900878906250, -0.0255126953125, 0.0189208984375, 0.0418090820312, 0.0581665039062, 0.0292358398438, 0.0283203125000, -0.1307983398438, 0.0116577148438, 0.0433349609375, 0.1489257812500, -0.1704711914062, 0.0252075195312, 0.0379638671875, -0.0236206054688, 0.3152465820312, -0.0932617187500, -0.0810546875000, -0.0346069335938, -0.2077026367188, -0.1389770507812, 0.0997924804688, 0.0163574218750, -0.0451660156250, 0.0405883789062, 0.0083007812500, -0.0277099609375, -0.0480346679688, 0.0469360351562, 0.0470581054688, 0.1415405273438, 0.0051879882812, -0.0284423828125, -0.0336303710938, 0.0659179687500, -0.0770874023438, 0.0278320312500, 0.0383911132812, 0.0364379882812, 0.0737915039062, 0.1829223632812, 0.0368041992188, -0.1203002929688, -0.0929565429688, -0.0388793945312, -0.0554199218750, 0.0040893554688, -0.0219116210938, 0.0037841796875, -0.0477905273438, 0.0076904296875, -0.0094604492188, -0.0112304687500, -0.0235595703125, 0.0630493164062, 0.0296020507812, -0.0214843750000, -0.1672363281250, 0.0396118164062, 0.0438842773438, 0.0322875976562, -0.0395507812500, 0.0292968750000, -0.0032348632812, -0.1096801757812, -0.0310668945312, -0.0343017578125, -0.0307617187500, 0.0289306640625, 0.2567749023438, -0.0048217773438, 0.0413208007812, 0.0332031250000, -0.0404052734375, 0.0534667968750, -0.0406494140625, 0.0236206054688, 0.0100097656250, 0.0507202148438, -0.0018310546875, 0.0181274414062, -0.0579223632812, -0.0499877929688, -0.0132446289062, -0.0318603515625, -0.0926513671875, -0.0130615234375, -0.0757446289062, 0.0010375976562, 0.0578002929688, 0.0613403320312, -0.0480957031250, -0.0772705078125, -0.0366821289062, -0.0175781250000, 0.0619506835938, 0.0529174804688, 0.3035278320312, -0.0070800781250, 0.0066528320312, -0.1324462890625, -0.0068969726562, 0.0263671875000, -0.0287475585938, -0.0388793945312, 0.0607910156250, 0.0531616210938, -0.0263061523438, 0.0046997070312, -0.0744018554688, -0.0167236328125, 0.0509643554688, 0.0286865234375, -0.0480346679688, -0.0303955078125, -0.0806274414062, -0.0080566406250, 0.0056762695312, 0.0925292968750, 0.0680541992188, 0.0343017578125, 0.0155029296875, 0.0331420898438, -0.1530151367188, -0.0525512695312, 0.1853027343750, -0.0773925781250, 0.1074218750000, 0.0149536132812, -0.0325317382812, -0.1217041015625, 0.1280517578125, 0.0951538085938, 0.0463256835938, 0.0268554687500, -0.2247314453125, 0.0054931640625, -0.0846557617188, -0.1802368164062, -0.0299072265625, 0.0461425781250, -0.0503540039062, 0.1287231445312, 0.2736816406250, 0.0277709960938, 0.0296020507812, 0.1870117187500, -0.0871582031250, -0.1303100585938, 0.0305786132812, 0.1868286132812, 0.0806274414062, 0.0833740234375, 0.0435791015625, 0.0449829101562, -0.1905517578125, -0.2448730468750, 0.1545410156250, 0.1323242187500, -0.0041503906250, -0.0357055664062, -0.0122070312500, -0.0299682617188, 0.0304565429688, 0.0003662109375, 0.0772705078125, -0.1389770507812, -0.0155029296875, 0.3279418945312, 0.0133056640625, 0.0782470703125, 0.0413818359375, -0.0095214843750, 0.0261230468750, 0.0092773437500, -0.0673217773438, -0.0421142578125, 0.0064697265625, -0.0798950195312, -0.0050048828125, -0.0410156250000, -0.0233764648438, -0.0166625976562, 0.0930786132812, -0.0282592773438, -0.1652832031250, 0.0040893554688, 0.0361328125000, 0.0498046875000, -0.0338134765625, -0.0187377929688, -0.1140747070312, 0.0123291015625, -0.0021972656250, 0.0385131835938, -0.0504760742188, -0.0145263671875, 0.0977172851562, 0.0199584960938, 0.0769653320312, 0.0507202148438, -0.0237426757812, 0.0077514648438, -0.0068969726562, 0.0756225585938, 0.0123291015625, 0.0197143554688, 0.0692138671875, 0.1536865234375, -0.0106811523438, -0.0056152343750, -0.0733642578125, -0.0343627929688, -0.0153198242188, -0.0470581054688, -0.0668334960938, -0.0467529296875, 0.1400756835938, 0.0203857421875, -0.0298461914062, 0.0795898437500, -0.0122070312500, 0.0189208984375, 0.0887451171875, 0.0810546875000, 0.0452880859375, -0.0225219726562, 0.0825805664062, 0.0229492187500, -0.1246948242188, 0.0429687500000, -0.0119628906250, 0.0625610351562, 0.0202636718750, 0.0427856445312, 0.0021362304688, -0.0132446289062, -0.0388183593750, -0.0355224609375, 0.0186767578125, 0.0213623046875, -0.0928344726562, 0.0072021484375, 0.0010375976562, -0.0005493164062, 0.0242919921875, 0.0745849609375, 0.0333862304688, 0.0231933593750, 0.0249633789062, -0.0499267578125, 0.0308227539062, -0.0272827148438, -0.0569458007812, 0.1159667968750, -0.0616455078125, 0.0631713867188, -0.0125732421875, 0.0280761718750, -0.0006713867188, -0.0366821289062, 0.0705566406250, 0.0262451171875, -0.1882934570312, 0.0197753906250, -0.0930786132812, -0.0930175781250, 0.0041503906250, 0.0534057617188, -0.0466918945312, -0.0086669921875, 0.1400756835938, -0.0941772460938, 0.0034790039062, 0.0790405273438, 0.0402832031250, 0.0173950195312, -0.1069946289062, 0.0228881835938, 0.0289916992188, 0.0110473632812, -0.0210571289062, 0.0418090820312, -0.0894775390625, -0.0147705078125, -0.1701660156250, -0.1953125000000, 0.0075683593750, -0.0057373046875, 0.0489501953125, 0.0001220703125, -0.0589599609375, 0.0158691406250, 0.0077514648438, 0.0921630859375, 0.0109863281250, 0.0922851562500, -0.0581665039062, 0.0382080078125, -0.0987548828125, -0.0086669921875, -0.0090942382812, 0.0047607421875, 0.0505371093750, 0.0118408203125, -0.0042114257812, -0.0724487304688, -0.0064086914062, -0.0001220703125, -0.0217285156250, -0.0028076171875, -0.0117187500000, -0.0052490234375, 0.1312255859375, 0.0185546875000, 0.0379638671875, 0.0856323242188, 0.0061035156250, 0.0173950195312, -0.0446166992188, 0.0411376953125, 0.0102539062500, 0.0499267578125, 0.0322875976562, -0.0136108398438, -0.1135864257812, 0.0467529296875, 0.0112915039062, 0.0814819335938, 0.0205688476562, -0.0179443359375, 0.0442504882812, -0.0197143554688, -0.0075073242188, 0.0110473632812, -0.0440063476562, -0.0413208007812, 0.0994262695312, -0.0178833007812, 0.0093994140625, -0.0275878906250, 0.0617065429688, -0.0607910156250, 0.0961303710938, -0.0040283203125, -0.0458374023438, 0.0133666992188, -0.0299072265625, -0.0535888671875, 0.0263061523438, 0.0411376953125, -0.0050659179688, -0.0095825195312, -0.0053710937500, 0.0438842773438, 0.0902099609375, 0.0046997070312, -0.0181884765625, 0.0308227539062, 0.0168457031250, 0.0220336914062, -0.0111083984375, 0.1133422851562, -0.0230102539062, -0.0520019531250, -0.0496215820312, -0.0029907226562, 0.0543212890625, -0.0273437500000, 0.0016479492188, 0.0060424804688, -0.0446166992188, -0.0017089843750, -0.0020141601562, 0.0115356445312, -0.0034179687500, -0.0451049804688, -0.0662841796875, 0.0123901367188, 0.0131225585938, 0.0349121093750, 0.0444946289062, 0.0955200195312, 0.0500488281250, 0.0933227539062, 0.0280761718750, 0.0332031250000, 0.0059814453125, 0.0122680664062, -0.0367431640625, -0.0058593750000, 0.1080322265625, 0.0123291015625, -0.0477905273438, -0.0772705078125, 0.0185546875000, -0.0268554687500, -0.1123046875000, -0.0299682617188, 0.0037841796875, 0.0291137695312, 0.0047607421875, 0.0140380859375, 0.1711425781250, 0.1224365234375, -0.0659179687500, -0.0583496093750, -0.0490722656250, 0.0581054687500, 0.0407104492188, 0.3685302734375, -0.0327758789062, -0.0900878906250, -0.0740966796875, -0.1420288085938, 0.0178222656250, 0.0548706054688, -0.0532836914062, -0.0670776367188, 0.0668945312500, -0.0336303710938, -0.0670166015625, -0.0156250000000, -0.0627441406250, 0.0329589843750, -0.0451660156250, 0.0025024414062, 0.1412963867188, -0.0003662109375, 0.1324462890625, -0.0073242187500, -0.0459594726562, 0.0104980468750, 0.0166625976562, 0.0076904296875, 0.0016479492188, 0.0274658203125, -0.0123901367188, -0.0264892578125, -0.0217285156250, 0.0208129882812, 0.0017089843750, -0.0211791992188, 0.0292358398438, -0.0411376953125, 0.0360717773438, 0.0033569335938, 0.0576171875000, 0.0139160156250, 0.0021362304688, -0.0151367187500, -0.0039062500000, 0.0046997070312, -0.0823364257812, -0.0144653320312, 0.0407714843750, 0.0191040039062, 0.0038452148438, -0.0315551757812, -0.0058593750000, -0.0557861328125, 0.0115966796875, -0.0111083984375, -0.0396118164062, -0.0305786132812, -0.0070800781250, 0.0324096679688, -0.0314941406250, 0.0328369140625, 0.0457763671875, 0.0252075195312, -0.0231323242188, -0.0496826171875, 0.0211791992188, -0.0221557617188, -0.0087280273438, 0.0482788085938, 0.0043334960938, -0.0614624023438, 0.0012817382812, 0.0281982421875, 0.0853881835938, -0.1577148437500, 0.0928344726562, 0.1022949218750, 0.0985107421875, 0.0675659179688, 0.0203247070312, -0.0808715820312, -0.0152587890625, 0.0851440429688, -0.0010986328125, -0.0370483398438, 0.1198120117188, -0.0233154296875, -0.0906982421875, 0.1072998046875, -0.1482543945312, 0.0812377929688, 0.0841064453125, 0.0684814453125, 0.0282592773438, -0.2501220703125, 0.1242675781250, 0.1098632812500, 0.0234375000000, 0.0532836914062, -0.2011108398438, -0.1182250976562, -0.0382080078125, 0.1070556640625, -0.0341796875000, -0.1184692382812, -0.1123657226562, 0.0575561523438, -0.0178833007812, 0.1615600585938, 0.0125122070312, 0.0332641601562, -0.2430419921875, 0.0174560546875, -0.0010986328125, 0.1902465820312, -0.1328125000000, 0.0750732421875, 0.0451049804688, 0.0759277343750, 0.4394531250000, -0.1146240234375, 0.0310058593750, -0.0281372070312, -0.1025390625000, -0.2003173828125, 0.1204223632812, 0.0662231445312, -0.0219726562500, -0.0181884765625, -0.0148925781250, -0.2451782226562, -0.0237426757812, 0.0147094726562, -0.0108642578125, 0.1314086914062, -0.0131835937500, -0.0333251953125, 0.0455322265625, -0.0177612304688, -0.1621704101562, 0.0570068359375, 0.0604858398438, 0.1218872070312, 0.0597534179688, 0.3066406250000, 0.0292358398438, -0.1499633789062, -0.0892333984375, -0.0158691406250, -0.0836181640625, -0.0131225585938, 0.0540161132812, 0.0681152343750, -0.0244140625000, -0.0397949218750, 0.0297851562500, -0.0024414062500, -0.0158081054688, 0.0161132812500, -0.0248413085938, -0.0193481445312, -0.1616210937500, 0.0451660156250, 0.0593261718750, 0.0327758789062, -0.0393676757812, -0.0336914062500, -0.0892333984375, -0.1022338867188, -0.0252685546875, -0.0718383789062, 0.0034790039062, 0.0144653320312, 0.1811523437500, -0.0107421875000, -0.0406494140625, 0.0750122070312, -0.0183105468750, 0.0601196289062, -0.0065307617188, 0.0313110351562, -0.0019531250000, 0.0108032226562, 0.0427856445312, 0.2435302734375, -0.0030517578125, -0.0362548828125, -0.0120239257812, -0.0505371093750, 0.0285034179688, -0.0354003906250, 0.0220336914062, 0.0630493164062, 0.0731201171875, -0.0039062500000, -0.0344848632812, -0.0952758789062, -0.0219116210938, -0.0022583007812, -0.0401611328125, -0.0538330078125, -0.1885986328125, 0.0823364257812, -0.1105957031250, 0.1506958007812, -0.0558471679688, -0.0333862304688, -0.0708007812500, 0.0803833007812, 0.0105590820312, -0.0658569335938, 0.0584106445312, 0.0858764648438, 0.1613159179688, -0.0018310546875, -0.0048217773438, 0.0401611328125, 0.0557861328125, -0.0107421875000, -0.0545654296875, -0.0774536132812, -0.0327758789062, 0.1330566406250, -0.2031860351562, -0.0445556640625, 0.0822143554688, 0.0386962890625, 0.1109619140625, 0.0787963867188, -0.0371093750000, -0.0534667968750, -0.0220947265625, 0.0358886718750, 0.0493164062500, 0.0160522460938, 0.0102539062500, -0.1127929687500, -0.1022338867188, -0.0314941406250, 0.1812744140625, 0.0070190429688, -0.0270996093750, 0.0667724609375, -0.0348510742188, -0.0555419921875, 0.1421508789062, -0.1636352539062, -0.2460327148438, -0.0283203125000, 0.0451049804688, -0.1090087890625, 0.0091552734375, 0.1704711914062, -0.0145874023438, 0.0072021484375, -0.0507202148438, -0.1433715820312, 0.0043945312500, 0.0076904296875, 0.0659179687500, 0.0671386718750, 0.0802001953125, -0.0330200195312, 0.0136108398438, -0.0251464843750, -0.0511474609375, 0.0019531250000, 0.0305175781250, 0.0195922851562, -0.0246582031250, 0.1386108398438, 0.0023193359375, -0.2961425781250, 0.0303955078125, 0.0210571289062, -0.0199584960938, -0.0111083984375, -0.1425781250000, 0.0126953125000, -0.1043701171875, -0.0363769531250, -0.0069580078125, -0.0138549804688, -0.0535278320312, -0.0021362304688, 0.0367431640625, 0.0146484375000, -0.0330200195312, 0.0346679687500, 0.0605468750000, -0.0075073242188, -0.0424804687500, 0.0018310546875, -0.0449829101562, -0.0151977539062, -0.0062866210938, 0.0426635742188, -0.0093994140625, 0.0330200195312, -0.0274047851562, -0.0089721679688, -0.0691528320312, -0.0323486328125, -0.0181274414062, -0.0932617187500, -0.0230712890625, -0.0049438476562, 0.0404052734375, -0.0292358398438, 0.0289306640625, -0.0034179687500, 0.0511474609375, -0.1386108398438, 0.0468139648438, 0.0589599609375, 0.1171875000000, -0.0243530273438, 0.1476440429688, 0.0295410156250, 0.0355224609375, 0.0218505859375, -0.0839233398438, 0.0159301757812, -0.0023193359375, -0.0283813476562, -0.0223388671875, 0.0501708984375, 0.0773315429688, 0.0933837890625, 0.1079101562500, -0.1282348632812, 0.0063476562500, -0.0828857421875, -0.0456542968750, -0.0189208984375, -0.0128784179688, -0.0371093750000, -0.0003662109375, -0.0191650390625, -0.0515747070312, -0.0173339843750, -0.1302490234375, -0.0239868164062, 0.1572265625000, -0.0069580078125, -0.0925903320312, -0.0483398437500, 0.0905151367188, 0.0535278320312, 0.0392456054688, 0.0336303710938, 0.1209716796875, 0.0318603515625, -0.0612792968750, -0.0090942382812, -0.0866088867188, -0.0774536132812, 0.0778808593750, -0.0911865234375, 0.1479492187500, -0.0200805664062, 0.0076904296875, -0.0275268554688, 0.0416870117188, 0.0178222656250, 0.0354003906250, 0.0323486328125, -0.1044921875000, 0.0098266601562, -0.0546264648438, -0.2130737304688, 0.0388183593750, 0.0418701171875, -0.1396484375000, 0.0737915039062, 0.1221923828125, -0.0020751953125, -0.0418090820312, 0.0886230468750, 0.0947875976562, -0.1282958984375, 0.0253906250000, 0.0809326171875, 0.0297851562500, 0.0630493164062, 0.0116577148438, -0.0227661132812, -0.0847778320312, -0.1168823242188, -0.0375366210938, -0.0632324218750, -0.0011596679688, -0.0495605468750, 0.0563964843750, -0.0970458984375, 0.0549926757812, -0.0455932617188, 0.0072021484375, -0.1149902343750, -0.0117797851562, 0.2894897460938, -0.0193481445312, 0.0407104492188, 0.0346069335938, -0.0104980468750, 0.0647583007812, 0.0017700195312, 0.0861816406250, -0.0023803710938, 0.0225219726562, -0.0425415039062, 0.0156860351562, -0.0029296875000, -0.0276489257812, -0.0384521484375, 0.0176391601562, -0.0272827148438, -0.2188720703125, -0.0254516601562, 0.0531616210938, -0.0150756835938, -0.0011596679688, -0.0145263671875, -0.0156860351562, 0.0033569335938, -0.0091552734375, 0.0308837890625, 0.0156250000000, -0.0146484375000, -0.0157470703125, 0.0117797851562, 0.0326538085938, 0.0842895507812, 0.0034179687500, -0.0053100585938, -0.0043945312500, 0.0056762695312, -0.0098876953125, 0.0239257812500, -0.0080566406250, 0.0759277343750, 0.0183105468750, 0.0012207031250, -0.0355224609375, -0.0166625976562, -0.1488647460938, -0.0250244140625, 0.0060424804688, -0.0578002929688, -0.0070800781250, -0.0120849609375, -0.0064086914062, 0.0451049804688, 0.2005615234375, -0.0892333984375, 0.1055908203125, -0.1107177734375, 0.3313598632812, -0.2301635742188, 0.0927124023438, -0.0059204101562, 0.3027343750000, 0.2127685546875, 0.0450439453125, 0.3486328125000, -0.0652465820312, 0.2012939453125, 0.0618286132812, 0.1115112304688, -0.1171875000000, -0.0420532226562, -0.0950317382812, -0.0372924804688, -0.1609497070312, -0.0290527343750, 0.1527709960938, 0.0177001953125, -0.0969238281250, -0.0436401367188, -0.0402221679688, -0.1672973632812, 0.1146850585938, 0.0344848632812, -0.1282958984375, -0.3651123046875, 0.0314941406250, -0.2150878906250, -0.5888671875000, 0.0914306640625, 0.0733642578125, 0.1665039062500, -0.1757202148438, 0.0289306640625, -0.0649414062500, -0.0687255859375, -0.1596069335938, 0.0116577148438, -0.0357055664062, -0.2919921875000, 0.1013793945312, -0.4185180664062, -0.2469482421875, 0.2775268554688, -0.0818481445312, 0.0584106445312, 0.3241577148438, -0.1209716796875, 0.4418334960938, 0.1027832031250, -0.1112670898438, -0.2371215820312, -0.0938110351562, 0.2456054687500, 0.1030273437500, 0.2531738281250, 0.1651611328125, 0.3635864257812, -0.0081787109375, -0.3278198242188, -0.0457153320312, 0.0512695312500, 0.2402954101562, -0.1337280273438, -0.2944335937500, 0.0070800781250, -0.1029052734375, 0.0633544921875, -0.1325683593750, 0.0046386718750, -0.0784301757812, 0.1435546875000, 0.1438598632812, 0.0623779296875, -0.1795043945312, -0.0164184570312, 0.3213500976562, 0.1157226562500, 0.1049194335938, -0.1489868164062, -0.0257568359375, 0.0873413085938, 0.0794677734375, -0.1500244140625, -0.1008911132812, 0.0275878906250, 0.0136718750000, -0.0120849609375, 0.1623535156250, -0.1596069335938, 0.0903930664062, 0.0190429687500, 0.0371093750000, 0.1436767578125, 0.0085449218750, -0.3276367187500, 0.0861206054688, 0.0305786132812, -0.1453857421875, -0.1096801757812, -0.3312377929688, -0.0358276367188, 0.0285034179688, -0.0889892578125, 0.1814575195312, -0.0776367187500, -0.0095214843750, -0.0516967773438, -0.0403442382812, 0.0791625976562, 0.1413574218750, 0.0491943359375, 0.0769653320312, 0.0654907226562, 0.1432495117188, 0.0228271484375, 0.2234497070312, 0.1287841796875, -0.0098876953125, -0.1024780273438, 0.1735839843750, 0.0801391601562, -0.0158081054688, 0.0596313476562, -0.0270385742188, -0.0285644531250, 0.1362915039062, -0.0080566406250, 0.0557861328125, -0.0921630859375, 0.0267944335938, -0.0021972656250, 0.0294189453125, -0.1174316406250, -0.0144042968750, -0.0139770507812, -0.0181274414062, -0.0368652343750, -0.0839843750000, -0.0081176757812, 0.0445556640625, -0.0025634765625, 0.0515136718750, -0.0696411132812, 0.0128784179688, 0.0167236328125, -0.0248413085938, 0.0294189453125, -0.1527099609375, -0.0466918945312, 0.0024414062500, 0.0689697265625, -0.0980224609375, 0.0065307617188, 0.0728149414062, -0.0963134765625, -0.0264282226562, -0.0369873046875, -0.0053100585938, -0.0631103515625, 0.0057373046875, 0.0341796875000, 0.0013427734375, -0.0061035156250, -0.0738525390625, -0.0391235351562, 0.0387573242188, -0.2255249023438, 0.0201416015625, 0.0650634765625, -0.1649780273438, 0.0239868164062, 0.0037231445312, 0.0235595703125, -0.1262207031250, 0.0033569335938, 0.0314941406250, -0.1861572265625, -0.0103759765625, 0.0501098632812, -0.0480346679688, 0.1275634765625, -0.0042114257812, 0.2011718750000, 0.0099487304688, 0.0173950195312, 0.0366821289062, -0.0332641601562, -0.0183105468750, 0.0034179687500, -0.0208129882812, 0.0114746093750, 0.0071411132812, -0.0247192382812, 0.0135498046875, -0.0357055664062, 0.0422363281250, 0.1664428710938, -0.0131225585938, 0.0491943359375, 0.1268310546875, 0.0021972656250, 0.0355834960938, -0.0238037109375, 0.0228881835938, -0.0012817382812, 0.0402832031250, 0.0336914062500, 0.0045776367188, 0.0254516601562, -0.0538940429688, 0.0062255859375, 0.0001831054688, -0.0537719726562, 0.0304565429688, 0.0610961914062, 0.0245361328125, -0.0433959960938, 0.0125732421875, 0.0396728515625, -0.0034790039062, -0.0027465820312, 0.0095214843750, -0.0770263671875, -0.0483398437500, -0.0027465820312, 0.0466918945312, -0.0579223632812, 0.0740356445312, -0.0109863281250, 0.0230102539062, 0.0016479492188, -0.0249023437500, 0.0107421875000, -0.0073852539062, 0.0090942382812, -0.0421752929688, -0.0300903320312, 0.0047607421875, -0.0254516601562, 0.0452270507812, 0.0290527343750, -0.0640258789062, -0.0136718750000, 0.0649414062500, 0.0110473632812, 0.0346679687500, -0.0333862304688, 0.0208129882812, 0.0389404296875, -0.0565185546875, -0.0504760742188, 0.3294067382812, 0.0845336914062, 0.1593627929688, -0.0531005859375, -0.0694580078125, -0.0281982421875, 0.2923583984375, 0.0955200195312, 0.1325073242188, -0.5977783203125, -0.3247680664062, 0.0982055664062, -0.0438232421875, -0.0439453125000, 0.3566894531250, -0.0848999023438, 0.6058349609375, 0.0344848632812, -0.1162109375000, -0.0901489257812, -0.1737670898438, 0.0692138671875, -0.2136230468750, -0.5144653320312, 0.1290893554688, 0.1310424804688, 0.1096191406250, 0.3171997070312, -0.0244750976562, -0.1635742187500, -0.0213012695312, -0.0535888671875, -0.0169067382812, -0.1198730468750, -0.0689086914062, 0.1044311523438, -0.0957031250000, -0.0639038085938, 0.0165405273438, 0.0540161132812, -0.1928100585938, -0.0872802734375, -0.0031738281250, -0.1016235351562, -0.0708007812500, -0.1189575195312, -0.2450561523438, -0.0767211914062, 0.0963134765625, 0.2131958007812, -0.2598876953125, -0.1306152343750, -0.0184936523438, -0.3204956054688, 0.2106323242188, -0.0609130859375, -0.1143798828125, -0.0961303710938, 0.0365600585938, -0.1539916992188, 0.1434326171875, 0.2863159179688, -0.1428222656250, -0.4069824218750, 0.0665893554688, -0.1719970703125, -0.0341796875000, 0.0741577148438, -0.2976074218750, -0.1436157226562, -0.0769042968750, 0.1528930664062, -0.1009521484375, 0.3439331054688, -0.1058349609375, -0.0511474609375, 0.3889160156250, 0.0453491210938, 0.0358886718750, 0.0900878906250, 0.1234130859375, 0.2846679687500, 0.0473022460938, -0.0642700195312, 0.1066894531250, 0.0208129882812, -0.1336669921875, 0.1320190429688, -0.0902099609375, -0.0792236328125, -0.2083740234375, -0.1061401367188, 0.0859985351562, -0.0032958984375, -0.0900268554688, 0.0243530273438, 0.2418212890625, 0.0357666015625, 0.0086669921875, -0.0917968750000, 0.0764160156250, 0.0142822265625, -0.4355468750000, 0.1906738281250, 0.0219726562500, 0.0043945312500, 0.0021362304688, 0.1188964843750, -0.1060791015625, -0.2063598632812, -0.0059814453125, 0.0478515625000, 0.0656127929688, 0.2575073242188, 0.0507812500000, -0.0711059570312, -0.0929565429688, -0.0380249023438, -0.1259765625000, 0.0612182617188, -0.1640625000000, 0.1137084960938, -0.0599975585938, 0.1833496093750, 0.1145019531250, 0.1095581054688, -0.0407104492188, 0.0340576171875, -0.0458374023438, -0.0053710937500, -0.0609130859375, 0.0885620117188, -0.0343627929688, 0.0745239257812, -0.1477050781250, -0.1785888671875, -0.0748291015625, -0.0239257812500, -0.0187988281250, -0.0445556640625, -0.0197753906250, 0.0302124023438, -0.0155639648438, 0.0534057617188, -0.0159301757812, -0.0357055664062, 0.1914062500000, -0.0350952148438, 0.0709838867188, -0.0491943359375, -0.0454711914062, 0.3917846679688, -0.2437133789062, -0.1340332031250, 0.0750122070312, -0.1229858398438, 0.0863647460938, 0.2132568359375, 0.0772094726562, 0.1958007812500, -0.0687255859375, 0.1112670898438, 0.0402221679688, -0.0209960937500, 0.0479125976562, -0.1412963867188, -0.0264892578125, -0.0095825195312, 0.3447265625000, -0.0930175781250, -0.1462402343750, -0.1284179687500, 0.1044311523438, 0.0834960937500, 0.1981811523438, -0.1096191406250, -0.0828857421875, -0.0258789062500, -0.1026611328125, -0.0048828125000, -0.0531616210938, -0.0303344726562, -0.0339965820312, 0.1333007812500, -0.0050659179688, -0.0266113281250, -0.0882568359375, 0.2849731445312, -0.0267944335938, -0.1160888671875, 0.0134277343750, -0.0006103515625, 0.0391845703125, 0.0203247070312, -0.0897827148438, 0.0522460937500, 0.1078491210938, 0.0494384765625, 0.0002441406250, -0.0745239257812, -0.0079345703125, -0.1161499023438, 0.0103759765625, 0.0673217773438, -0.0028686523438, 0.0002441406250, -0.3477783203125, 0.0211181640625, -0.2360839843750, -0.1558837890625, -0.0262451171875, -0.0521850585938, -0.0916748046875, -0.0043334960938, -0.0072021484375, -0.0158081054688, 0.0531005859375, 0.0386962890625, 0.1896362304688, 0.0341186523438, -0.0232543945312, 0.0145263671875, -0.0092773437500, 0.0149536132812, 0.0040893554688, -0.0081787109375, 0.0104980468750, 0.0850219726562, -0.0520629882812, -0.0289916992188, -0.0552368164062, -0.0701904296875, 0.1068725585938, -0.1147460937500, 0.0161743164062, -0.0206298828125, 0.0509643554688, -0.0041503906250, 0.0039062500000, -0.0007934570312, -0.0335693359375, -0.2409057617188, -0.0270996093750, 0.0463256835938, 0.0672607421875, -0.0426025390625, -0.0375976562500, -0.0288696289062, 0.1481933593750, -0.0783081054688, -0.0787353515625, 0.0217895507812, -0.0351562500000, -0.0045166015625, 0.0014648437500, 0.0128784179688, 0.0587158203125, 0.0068359375000, 0.1370849609375, -0.0396728515625, 0.1072998046875, -0.0799560546875, -0.0488891601562, -0.0062255859375, -0.0095214843750, -0.0972290039062, -0.0285034179688, 0.0234985351562, -0.0448608398438, 0.0003662109375, -0.0966796875000, -0.0298461914062, 0.0401611328125, -0.0141601562500, 0.0076293945312, -0.0374145507812, -0.0099487304688, 0.0063476562500, 0.0281982421875, 0.1253051757812, -0.0333251953125, -0.0109252929688, -0.0073852539062, 0.0077514648438, -0.0391235351562, -0.0396728515625, 0.0996704101562, -0.1447143554688, 0.0057373046875, -0.0361938476562, 0.0339965820312, -0.0860595703125, -0.0043334960938, -0.0140991210938, 0.0837402343750, 0.0010375976562, -0.2107543945312, 0.0260620117188, 0.0165405273438, -0.2575683593750, 0.0327148437500, 0.0468750000000, -0.1392211914062, 0.1410522460938, 0.0018920898438, 0.0629882812500, -0.0783691406250, 0.0319213867188, 0.0119018554688, -0.1102294921875, -0.0606079101562, -0.0044555664062, 0.0272216796875, 0.0780029296875, 0.0906372070312, 0.0719604492188, 0.0682373046875, 0.0424194335938, 0.0173339843750, -0.0825805664062, 0.0111083984375, 0.0206298828125, -0.0312500000000, -0.0321655273438, -0.0131225585938, -0.0344238281250, 0.0244750976562, -0.0711669921875, -0.0184326171875, 0.1181640625000, -0.0458984375000, 0.1220703125000, 0.1002197265625, 0.0223999023438, -0.1166381835938, 0.0064697265625, 0.0501098632812, 0.0040893554688, 0.0447998046875, 0.0203857421875, 0.0089721679688, 0.0260620117188, 0.0044555664062, 0.0145263671875, 0.0180053710938, -0.0237426757812, 0.0447998046875, 0.0120849609375, 0.0134887695312, -0.0254516601562, 0.0444335937500, 0.0404052734375, 0.0422363281250, 0.0264892578125, 0.0238647460938, -0.0851440429688, 0.0090332031250, -0.0166015625000, -0.0863647460938, -0.0057983398438, 0.0245361328125, 0.0251464843750, 0.0313720703125, 0.0211791992188, -0.0296630859375, 0.0078735351562, -0.0035400390625, 0.0021362304688, -0.0674438476562, -0.1420288085938, 0.0826416015625, -0.0446166992188, 0.0164184570312, 0.0283203125000, -0.0848999023438, -0.0363769531250, -0.0360717773438, -0.0451660156250, 0.0007934570312, -0.0062866210938, 0.0107421875000, 0.0511474609375, -0.0203247070312, 0.1001586914062, -0.1164550781250, -0.0171508789062, 0.0635986328125, 0.0484619140625, -0.0696411132812, -0.1367187500000, 0.0785522460938, -0.1057128906250, -0.0077514648438, -0.0020751953125, -0.0253906250000, -0.1657104492188, 0.0428466796875, -0.1021118164062, 0.0404052734375, 0.0745239257812, 0.0771484375000, -0.0422363281250, 0.1477661132812, -0.0677490234375, 0.0921020507812, -0.0355224609375, -0.1189575195312, 0.0255126953125, -0.3259277343750, 0.0306396484375, -0.0227661132812, -0.0900268554688, 0.0074462890625, 0.1113891601562, 0.1020507812500, -0.0947265625000, -0.1757202148438, -0.1008300781250, 0.0443725585938, -0.0419311523438, -0.0656738281250, -0.0736083984375, 0.0441284179688, 0.0073852539062, 0.1347656250000, -0.1633911132812, -0.0411987304688, -0.0728759765625, 0.1694946289062, 0.0979614257812, 0.2175292968750, -0.0277709960938, -0.3240356445312, 0.0305175781250, -0.0058593750000, -0.1586914062500, -0.0518188476562, -0.1514892578125, 0.0446166992188, 0.0262451171875, 0.0209350585938, -0.2135620117188, -0.1037597656250, 0.1338500976562, 0.0811157226562, -0.0701293945312, -0.0012817382812, -0.0292358398438, -0.0100097656250, 0.0148315429688, -0.1019897460938, 0.1150512695312, 0.0000610351562, -0.0026245117188, -0.0005493164062, -0.0585327148438, -0.1116333007812, -0.1101074218750, 0.0195922851562, 0.0377807617188, -0.0114135742188, 0.0149536132812, -0.1693725585938, 0.0596313476562, -0.2756958007812, -0.0428466796875, -0.0144653320312, 0.0110473632812, -0.0650024414062, 0.0181884765625, -0.0426025390625, 0.0242919921875, -0.0171508789062, -0.0120849609375, 0.0888061523438, -0.0268554687500, -0.0950927734375, -0.0503540039062, 0.0051269531250, 0.0291137695312, 0.0238647460938, -0.0250854492188, 0.0244140625000, 0.0269775390625, -0.0136718750000, -0.0161132812500, -0.2318725585938, -0.0877075195312, 0.0048217773438, -0.1279907226562, 0.0264892578125, -0.0083618164062, 0.0347290039062, 0.0645751953125, -0.0330200195312, -0.0063476562500, -0.0090332031250, -0.0443725585938, 0.1157836914062, 0.0495605468750, 0.0119018554688, -0.0675659179688, 0.0574340820312, 0.0187988281250, 0.2080078125000, 0.0288085937500, -0.2553100585938, 0.0338134765625, 0.0109863281250, 0.0442504882812, -0.2744750976562, -0.3677368164062, -0.1270141601562, 0.2859497070312, -0.3670654296875, 0.2908325195312, -0.1647338867188, -0.1942138671875, -0.4757690429688, 0.6329345703125, 0.2218017578125, 0.4781494140625, -0.0462036132812, -0.3071289062500, -0.0186767578125, 0.2103881835938, -0.5066528320312, -0.2862548828125, -0.3704833984375, 0.2293090820312, 0.1378784179688, 0.3407592773438, 0.1842041015625, -0.1959838867188, -0.8996582031250, -0.0775756835938, -0.4830932617188, -0.1760864257812, 0.2678833007812, 0.1538085937500, 0.5981445312500, 0.1627197265625, 0.3751831054688, -0.4187011718750, 0.9752197265625, 0.6302490234375, 0.9930419921875, 0.5254516601562, -0.0200195312500, 0.1974487304688, 0.3587646484375, 0.1897583007812, 1.0469360351562, -0.6275634765625, 0.3624267578125, -0.3161621093750, -0.1267700195312, 0.7079467773438, -0.8331909179688, 0.7175903320312, -0.3808593750000, -0.3033447265625, 0.4736938476562, -1.1264038085938, 0.5769653320312, -0.4453125000000, -0.3827514648438, -0.0009765625000, -0.6337280273438, 0.2055053710938, -0.1401977539062, 0.1364746093750, -0.3493041992188, -0.6610717773438, -0.0794677734375, -0.1048583984375, 0.2318725585938, -0.0245361328125, 0.3099975585938, 0.1796264648438, 1.0059204101562, 0.1267089843750, 0.3099365234375, 0.3023071289062, 0.0521850585938, 0.2670288085938, 0.1004028320312, 0.2044067382812, 0.5146484375000, 0.0133666992188, 0.2592163085938, -0.0909423828125, -0.2545776367188, -0.4133300781250, 0.1181030273438, -0.2335815429688, 0.0477905273438, -0.4480590820312, 0.1651611328125, -0.2093505859375, 0.2510986328125, -0.2104492187500, -0.1586303710938, 0.4240112304688, -0.2741088867188, -0.0692138671875, -0.0654296875000, 0.0057983398438, -0.3068237304688, 0.0731811523438, -0.0593872070312, -0.0436401367188, 0.0447998046875, 0.1318359375000, 0.1463012695312, -0.5482788085938, 0.7028198242188, 0.0935058593750, -0.1525268554688, 0.0375976562500, 0.0342407226562, 0.0242919921875, -0.0264282226562, 0.2730712890625, 0.2091064453125, 0.3057861328125, 0.0433349609375, 0.4779663085938, 0.7688598632812, -0.0596313476562, 0.0794677734375, -0.1365356445312, 1.3013916015625, -0.0368652343750, 0.6265869140625, -0.2303466796875, 0.3636474609375, -0.5534057617188, 0.0755615234375, -0.0535278320312, -0.1165161132812, -0.0175170898438, -0.1126098632812, 0.3275756835938, -0.0321044921875, -0.1004638671875, -0.1488037109375, 0.0584716796875, -0.0126342773438, 0.3252563476562, 0.1540527343750, 0.0405883789062, 0.2258911132812, -0.0540771484375, -0.0881958007812, -0.0205688476562, -0.0257568359375, -0.0295410156250, 0.1594848632812, 0.1234130859375, 0.0976562500000, 0.1239624023438, 0.0815429687500, 0.4323120117188, 0.0305175781250, -0.0881347656250, -0.0087280273438, -0.0415039062500, 0.0947265625000, 0.0374755859375, -0.2605590820312, 0.0418090820312, -0.0608520507812, -0.1020507812500, 0.0012207031250, 0.0988159179688, -0.2362060546875, -0.2125854492188, -0.0704956054688, -0.0858154296875, -0.0179443359375, 0.1572265625000, -0.0303344726562, -0.0328369140625, -0.0481567382812, -0.1716308593750, 0.0916748046875, -0.1326904296875, 0.2034301757812, -0.0061035156250, 0.4544677734375, -0.0214233398438, 0.0645751953125, 0.2808227539062, -0.2263183593750, 0.0063476562500, 0.1011962890625, 0.0593872070312, -0.0223999023438, 0.3686523437500, 0.1436767578125, 0.0694580078125, -0.1013793945312, -0.0431518554688, 0.0205688476562, -0.0144653320312, 0.0004882812500, 0.0167236328125, -0.1193847656250, 0.1629638671875, 0.0944824218750, -0.1872558593750, 0.1605834960938, 0.0520629882812, -0.0292968750000, -0.0734252929688, -0.0976562500000, 0.0226440429688, 0.0516357421875, 0.0414428710938, 0.0495605468750, -0.1303710937500, -0.1038208007812, 0.0293579101562, 0.1413574218750, -0.1201171875000, -0.0206298828125, 0.0723266601562, -0.1583862304688, -0.0910034179688, 0.0993652343750, -0.0254516601562, -0.1584472656250, -0.0456542968750, 0.0473022460938, 0.0687255859375, -0.0264892578125, -0.0625000000000, -0.0036010742188, 0.1570434570312, 0.0504760742188, -0.0191040039062, -0.1702880859375, -0.0388793945312, -0.1851806640625, -0.1658935546875, 0.0064697265625, -0.0831909179688, 0.0733642578125, -0.0037841796875, -0.0944213867188, 0.0199584960938, 0.0344238281250, -0.5371093750000, 0.2587890625000, 0.0462036132812, 0.0158691406250, 0.0319213867188, -0.0722045898438, -0.0386962890625, 0.1847534179688, 0.0219726562500, 0.0374145507812, -0.0661010742188, -0.0087890625000, -0.1160278320312, 0.0008544921875, 0.0006713867188, 0.0497436523438, 0.0766601562500, 0.2189331054688, -0.0693359375000, 0.0352172851562, -0.0662841796875, -0.1754760742188, 0.0213012695312, 0.0025634765625, 0.1204223632812, 0.0347900390625, -0.0402221679688, -0.0048217773438, -0.0100708007812, -0.1259155273438, -0.0302734375000, -0.0196533203125, 0.0091552734375, -0.0364990234375, 0.0028076171875, -0.0064697265625, 0.0585937500000, 0.0718994140625, 0.1387939453125, 0.2373046875000, 0.1097412109375, -0.0031127929688, -0.0070800781250, -0.0258178710938, -0.1340332031250, 0.0406494140625, -0.1898193359375, 0.0559692382812, -0.0113525390625, 0.0068969726562, -0.1240844726562, -0.0037231445312, 0.0140991210938, 0.1128540039062, 0.0515136718750, -0.2825927734375, 0.0604858398438, -0.0324707031250, -0.3239135742188, 0.0600585937500, 0.0400390625000, -0.0831298828125, 0.0781250000000, 0.1144409179688, 0.0061645507812, 0.0879516601562, 0.1878662109375, -0.1644897460938, -0.1249389648438, -0.0277709960938, 0.0979003906250, 0.1535034179688, 0.0880737304688, -0.0812988281250, -0.1113281250000, -0.0800781250000, -0.0410156250000, -0.0228271484375, -0.0308837890625, -0.0163574218750, -0.0388793945312, 0.0364990234375, 0.0128173828125, -0.0252075195312, 0.0205688476562, 0.1111450195312, -0.2695312500000, 0.0262451171875, 0.1753540039062, 0.0043945312500, 0.1177978515625, -0.1242065429688, -0.0135498046875, -0.0051269531250, 0.0132446289062, 0.0443115234375, -0.0082397460938, -0.0090332031250, -0.0413818359375, 0.0130004882812, -0.0297851562500, -0.0242919921875, 0.0203857421875, 0.0352783203125, -0.0434570312500, -0.0942993164062, 0.0023803710938, 0.0139770507812, 0.0638427734375, 0.0062866210938, -0.0014038085938, -0.0657958984375, 0.0775146484375, 0.0072631835938, -0.0070190429688, 0.0211791992188, -0.0247192382812, 0.0222167968750, 0.0012817382812, 0.0740966796875, 0.0482177734375, 0.0212402343750, 0.0057983398438, 0.0137939453125, 0.0962524414062, -0.0045776367188, 0.0382080078125, 0.0100708007812, -0.0627441406250, 0.1065673828125, -0.0154418945312, 0.0019531250000, -0.0397949218750, -0.1044921875000, -0.0598754882812, 0.0201416015625, 0.0103759765625, 0.0344848632812, 0.0029907226562, -0.0352783203125, 0.0384521484375, 0.0053710937500, -0.0486450195312, -0.0060424804688, -0.0529174804688, -0.1647949218750, 0.1185913085938, -0.0858154296875, 0.1160278320312, -0.0330810546875, -0.2370605468750, -0.0536499023438, 0.0343017578125, -0.0089721679688, -0.0968627929688, 0.0588378906250, -0.0266723632812, 0.1417236328125, -0.0158691406250, -0.0061645507812, -0.0245971679688, 0.0512084960938, -0.0320434570312, 0.0350952148438, -0.0906982421875, -0.1073608398438, 0.1586914062500, -0.0104980468750, 0.0946044921875, -0.0429077148438, -0.0538330078125, 0.2865600585938, 0.0432128906250, -0.0855102539062, 0.1224365234375, -0.0045776367188, 0.0303344726562, 0.1019287109375, 0.0404663085938, -0.0095825195312, -0.1486206054688, 0.0117797851562, -0.0404663085938, 0.0617675781250, -0.0433959960938, -0.0629882812500, 0.4019165039062, 0.0702514648438, -0.0465698242188, 0.0775756835938, -0.1022338867188, -0.2182006835938, 0.0380859375000, -0.0233764648438, -0.1081542968750, 0.1096801757812, 0.2664184570312, 0.0590820312500, -0.1201171875000, -0.1178588867188, -0.1595458984375, 0.0614624023438, -0.2350463867188, 0.0550537109375, 0.0651855468750, -0.0007324218750, -0.0447387695312, 0.0225830078125, -0.0025024414062, -0.0570068359375, 0.0090332031250, 0.0139770507812, 0.0036621093750, -0.0615844726562, 0.1388549804688, -0.0250854492188, -0.2761230468750, 0.0260009765625, -0.0398559570312, -0.0776367187500, -0.0108642578125, 0.1749877929688, 0.0457763671875, -0.0494995117188, -0.0316162109375, 0.0048217773438, 0.0079956054688, -0.0350341796875, -0.0047607421875, 0.0519409179688, 0.0212402343750, -0.0343627929688, 0.0313720703125, 0.0601806640625, -0.0786132812500, -0.0351562500000, -0.0369873046875, -0.0109252929688, 0.0046386718750, 0.1027221679688, 0.0217285156250, -0.0380249023438, 0.1026611328125, 0.0249023437500, -0.0104980468750, -0.0266723632812, 0.0346679687500, -0.0668334960938, -0.1248779296875, -0.0272216796875, -0.0230102539062, 0.0467529296875, -0.0473022460938, 0.0153808593750, -0.0083007812500, -0.0168457031250, -0.0722656250000, 0.0775146484375, 0.0807495117188, 0.0715332031250, 0.0139770507812, 0.1703491210938, 0.0448608398438, -0.1309204101562, -0.0239868164062, -0.1200561523438, 0.0396118164062, 0.0189208984375, 0.0170898437500, -0.0174560546875, -0.0252075195312, 0.0660400390625, 0.0786743164062, 0.1619262695312, 0.0201416015625, -0.0221557617188, -0.0854492187500, -0.0895385742188, 0.0701904296875, 0.0281982421875, 0.1044311523438, 0.0546875000000, -0.0678100585938, -0.0546264648438, 0.0689086914062, -0.0031738281250, -0.0235595703125, 0.0343627929688, -0.0126953125000, -0.0623779296875, 0.0119628906250, -0.0437011718750, 0.0296630859375, 0.0570678710938, 0.0916748046875, 0.0947875976562, 0.0491333007812, -0.0350341796875, -0.0311279296875, -0.0198364257812, -0.0355224609375, 0.0225830078125, -0.2332153320312, 0.1593627929688, 0.0461425781250, 0.0255737304688, -0.0640258789062, 0.0101318359375, 0.0169677734375, 0.1059570312500, 0.0142211914062, -0.1906738281250, 0.0650024414062, 0.0061035156250, -0.1889648437500, -0.0437011718750, 0.0368652343750, -0.1314697265625, 0.1095581054688, -0.0463256835938, 0.0250244140625, 0.0969238281250, 0.1043090820312, -0.0521240234375, -0.0257568359375, -0.0090332031250, -0.0052490234375, 0.0938110351562, 0.0407714843750, 0.0440063476562, -0.0413208007812, -0.0073242187500, -0.0212402343750, 0.0212402343750, -0.0156250000000, -0.0090942382812, -0.0228271484375, 0.0428466796875, 0.0120849609375, 0.0212402343750, -0.0199584960938, 0.0706176757812, -0.1277465820312, 0.0332031250000, 0.0960083007812, -0.0077514648438, 0.0870361328125, -0.0433349609375, -0.0184936523438, 0.0715332031250, -0.0054931640625, 0.0381469726562, -0.0042114257812, 0.0057373046875, 0.0028076171875, 0.0159301757812, -0.0302124023438, -0.0367431640625, 0.0001220703125, 0.0269775390625, -0.0289916992188, -0.0435180664062, 0.0084228515625, -0.0271606445312, 0.0384521484375, -0.0015869140625, 0.0158691406250, -0.0522460937500, 0.0433959960938, 0.0155029296875, -0.0243530273438, 0.0027465820312, -0.0102539062500, -0.0457763671875, 0.0239257812500, -0.0564575195312, 0.0390014648438, -0.0039672851562, -0.0084838867188, -0.0128784179688, 0.0299072265625, 0.0012207031250, -0.0087890625000, 0.0108032226562, 0.0455322265625, 0.0061645507812, -0.0210571289062, -0.0057983398438, 0.0023803710938, -0.0710449218750, -0.0513916015625, -0.0488281250000, -0.0147094726562, -0.0263061523438, 0.0403442382812, 0.0117797851562, 0.0039672851562, 0.0238647460938, -0.0108032226562, 0.0767211914062, 0.0413208007812, 0.0944213867188, 0.0460205078125, 0.0510253906250, 0.0199584960938, -0.0244140625000, 0.0494384765625, 0.0841674804688, 0.0771484375000, -0.0046997070312, -0.0157470703125, -0.0154418945312, -0.0263061523438, -0.0045776367188, -0.0331420898438, 0.0079956054688, 0.0493164062500, 0.0053100585938, -0.0164184570312, 0.0229492187500, 0.0019531250000, 0.0089721679688, -0.1254272460938, -0.1347045898438, 0.0493774414062, 0.0186157226562, 0.0431518554688, -0.1560668945312, -0.0803833007812, 0.0858764648438, -0.0518188476562, 0.0894165039062, 0.0880126953125, -0.0523681640625, -0.0059204101562, 0.0181884765625, 0.1033935546875, -0.0563354492188, 0.0220336914062, -0.1246948242188, 0.0167846679688, 0.0106811523438, -0.1130371093750, -0.0162353515625, 0.1324462890625, -0.0095214843750, 0.0888671875000, 0.1309204101562, -0.0321655273438, -0.0394287109375, 0.0599975585938, 0.0175170898438, -0.0333251953125, -0.0390625000000, 0.0748291015625, 0.0125732421875, 0.0437622070312, 0.0044555664062, -0.0286865234375, -0.0781860351562, -0.1201782226562, -0.0515747070312, -0.0774536132812, 0.0179443359375, -0.0034790039062, 0.0595092773438, -0.0375366210938, 0.0736694335938, 