//Numpy array shape [64, 192]
//Min -1.281005859375
//Max 1.322753906250
//Number of zeros 3044

#ifndef WR10_H_
#define WR10_H_

#ifndef __SYNTHESIS__
recurrent_weight10_t wr10[12288];
#else
recurrent_weight10_t wr10[12288] = {-0.0974121093750, 0.0755615234375, 0.1976928710938, 0.0996093750000, -0.0214233398438, 0.0070190429688, -0.2637939453125, 0.2823486328125, -0.0899658203125, 0.2125854492188, 0.0547485351562, 0.0319213867188, 0.0402832031250, -0.0797119140625, -0.0498657226562, 0.0278930664062, -0.0106201171875, 0.0663452148438, 0.1920166015625, -0.0368041992188, 0.0297851562500, 0.0395507812500, 0.2276000976562, -0.0551147460938, 0.1069335937500, 0.0297851562500, 0.0651855468750, -0.1237182617188, 0.1134033203125, -0.0082397460938, -0.0523681640625, 0.0677490234375, -0.0159912109375, 0.3618774414062, 0.0469360351562, 0.2402343750000, 0.0681152343750, -0.0034790039062, -0.0742187500000, -0.0490722656250, 0.1402587890625, 0.0238647460938, -0.0594482421875, 0.0504150390625, 0.0297851562500, 0.1132812500000, 0.2043457031250, 0.1025390625000, 0.0298461914062, 0.0811767578125, 0.0648803710938, -0.0068969726562, 0.1172485351562, 0.0805664062500, -0.1834106445312, -0.2362670898438, 0.0470581054688, -0.0261230468750, -0.0843505859375, -0.0658569335938, -0.0290527343750, 0.1595458984375, 0.0723876953125, -0.0747070312500, 0.0000000000000, 0.0000000000000, 0.0000000000000, 0.0000000000000, 0.0000000000000, 0.0000000000000, 0.0001831054688, 0.0000000000000, 0.0000000000000, 0.0000000000000, 0.0000000000000, 0.0000610351562, 0.0000000000000, 0.0000000000000, 0.0000000000000, 0.0000000000000, 0.0000000000000, 0.0000000000000, 0.0000000000000, 0.0000000000000, 0.0000000000000, 0.0000000000000, 0.0000000000000, 0.0000000000000, 0.0000000000000, 0.0000000000000, 0.0000000000000, 0.0000000000000, -0.0003662109375, 0.0000000000000, 0.0000000000000, 0.0000000000000, 0.0000000000000, -0.0000610351562, 0.0000000000000, 0.0000000000000, 0.0000000000000, 0.0000000000000, 0.0000000000000, 0.0000000000000, 0.0000000000000, 0.0000000000000, 0.0000610351562, 0.0000000000000, 0.0000610351562, 0.0000000000000, 0.0000000000000, 0.0000000000000, 0.0000000000000, 0.0000000000000, 0.0001831054688, 0.0000000000000, 0.0000000000000, 0.0000000000000, 0.0000000000000, 0.0000000000000, 0.0000000000000, 0.0000000000000, 0.0000000000000, 0.0002441406250, 0.0000000000000, 0.0000000000000, 0.0000000000000, 0.0003051757812, 0.0000000000000, 0.0000000000000, 0.0000000000000, 0.0000000000000, 0.0000000000000, -0.0001220703125, 0.0000000000000, 0.0000000000000, 0.0000000000000, 0.0000000000000, 0.0000000000000, 0.0000000000000, 0.0000000000000, 0.0000000000000, 0.0000000000000, 0.0000610351562, 0.0000000000000, 0.0000000000000, 0.0000000000000, 0.0000000000000, 0.0001220703125, 0.0000000000000, 0.0000000000000, 0.0000000000000, 0.0000000000000, 0.0000000000000, 0.0000000000000, 0.0000000000000, 0.0000000000000, 0.0000000000000, 0.0000000000000, 0.0000000000000, 0.0000610351562, 0.0000000000000, 0.0000000000000, 0.0000000000000, 0.0000000000000, 0.0001220703125, -0.0000610351562, 0.0000000000000, 0.0000000000000, -0.0002441406250, 0.0000000000000, 0.0000000000000, 0.0000000000000, 0.0000000000000, 0.0000000000000, 0.0000000000000, 0.0002441406250, 0.0000000000000, 0.0000000000000, 0.0000000000000, 0.0000000000000, 0.0000000000000, 0.0000000000000, 0.0000000000000, 0.0000000000000, 0.0000000000000, 0.0000000000000, 0.0003662109375, 0.0000000000000, 0.0000000000000, 0.0000000000000, 0.0000000000000, -0.0272827148438, -0.0234375000000, -0.0156860351562, 0.0981445312500, 0.0476684570312, 0.0283203125000, -0.0065307617188, 0.0479125976562, -0.1947631835938, -0.0041503906250, -0.0701293945312, -0.0048217773438, -0.0346679687500, -0.0170898437500, -0.0194091796875, 0.0349121093750, -0.0081176757812, -0.0124511718750, 0.1314086914062, 0.0056152343750, 0.0321655273438, -0.0517578125000, 0.0233154296875, 0.0037841796875, -0.0251464843750, 0.0045166015625, -0.0018920898438, -0.0197753906250, -0.0199584960938, 0.0036010742188, -0.0149536132812, -0.0202636718750, -0.0226440429688, 0.0556640625000, -0.0127563476562, 0.0061035156250, -0.0334472656250, 0.0341186523438, 0.0051269531250, 0.0673828125000, 0.0114135742188, -0.0136108398438, 0.0286254882812, -0.0310668945312, 0.0333251953125, -0.0288085937500, -0.0001831054688, 0.0482177734375, -0.0023803710938, -0.0010986328125, -0.0334472656250, -0.0120239257812, -0.0315551757812, -0.0279541015625, 0.0037231445312, 0.0549926757812, -0.0211791992188, -0.0214843750000, -0.0147094726562, -0.0082397460938, -0.0015869140625, -0.0225830078125, 0.0159301757812, 0.0405883789062, 0.0536499023438, -0.0214843750000, -0.0538330078125, -0.0186767578125, -0.1805419921875, -0.0554809570312, -0.0262451171875, 0.1644897460938, 0.0573730468750, -0.0133056640625, 0.0225219726562, -0.0605468750000, -0.0326538085938, 0.0178222656250, -0.0579833984375, -0.0601806640625, -0.0344238281250, 0.0941162109375, 0.1275024414062, 0.0440063476562, 0.0236206054688, -0.0277709960938, 0.0166625976562, -0.0066528320312, 0.0320434570312, 0.0408935546875, -0.0798950195312, 0.0027465820312, 0.0508422851562, -0.0287475585938, -0.0353393554688, 0.0289306640625, 0.0352783203125, 0.1414794921875, 0.0344238281250, -0.0260009765625, 0.0466308593750, -0.0259399414062, 0.0059814453125, -0.0260009765625, 0.0366210937500, -0.0004882812500, 0.0112304687500, 0.0571289062500, -0.0747680664062, 0.0488281250000, 0.0064697265625, -0.0431518554688, 0.0084228515625, -0.0266113281250, 0.0228271484375, 0.0046386718750, -0.0452880859375, 0.0845947265625, 0.0358276367188, -0.0764160156250, -0.0192871093750, 0.0333862304688, 0.1303100585938, -0.0045166015625, -0.0161743164062, -0.0749511718750, -0.0531616210938, -0.0086059570312, -0.0902709960938, 0.0057983398438, -0.1058349609375, 0.0436401367188, 0.0821533203125, -0.0360107421875, 0.0352172851562, 0.0936279296875, -0.0153198242188, -0.0095825195312, 0.0783081054688, 0.0254516601562, 0.0581054687500, -0.0012207031250, 0.0138549804688, -0.0208740234375, -0.0026245117188, -0.0033569335938, -0.0078125000000, 0.0036010742188, -0.0201416015625, 0.0705566406250, -0.0573730468750, 0.0731811523438, -0.0013427734375, 0.0375976562500, -0.0832519531250, 0.0509033203125, 0.0112915039062, 0.0062255859375, 0.0106201171875, -0.0213012695312, -0.0372924804688, 0.0151367187500, 0.0317382812500, 0.0523071289062, 0.0394897460938, 0.0457763671875, -0.0487670898438, 0.0460815429688, -0.0094604492188, -0.0167236328125, -0.0095825195312, -0.0415039062500, 0.0493164062500, -0.0028686523438, 0.0271606445312, 0.2178955078125, 0.0024414062500, -0.0011596679688, 0.0222167968750, -0.0265502929688, -0.0306396484375, -0.0413818359375, 0.0018920898438, -0.0479125976562, -0.0104370117188, -0.0816650390625, -0.1013183593750, -0.0200805664062, 0.0039672851562, 0.0610961914062, -0.0455932617188, -0.0537109375000, 0.0383300781250, 0.0047607421875, 0.0642700195312, 0.1018066406250, -0.0730590820312, 0.0194091796875, -0.3422851562500, 0.3697509765625, -0.4201660156250, -0.1693115234375, 0.1890869140625, 0.0733642578125, 0.0416870117188, -0.0278930664062, 0.0296020507812, -0.0346069335938, 0.0324096679688, 0.0694580078125, 0.1679687500000, 0.1096801757812, -0.0570068359375, 0.0919799804688, 0.1547851562500, -0.0722656250000, 0.1065063476562, 0.0151977539062, -0.1265869140625, 0.1308593750000, 0.0834960937500, 0.0766601562500, -0.1219482421875, -0.0214233398438, 0.0266113281250, 0.3643188476562, 0.0959472656250, -0.1798706054688, 0.1267089843750, 0.0120239257812, 0.0487670898438, -0.6322021484375, 0.0743408203125, 0.0441284179688, 0.0202636718750, 0.0900878906250, 0.1094970703125, 0.1076049804688, 0.0643920898438, 0.3411254882812, -0.0895385742188, -0.0036621093750, 0.0499877929688, -0.0783081054688, -0.0265502929688, 0.1170043945312, 0.0581665039062, -0.4464111328125, -0.1129760742188, -0.0053100585938, -0.5213623046875, -0.0883178710938, -0.0967407226562, -0.0577392578125, 0.1050415039062, -0.0724487304688, 0.0444335937500, -0.0225830078125, 0.0725708007812, -0.0795898437500, -0.0589599609375, -0.0130615234375, 0.0504150390625, -0.1226806640625, -0.0647583007812, 0.0670776367188, -0.0518798828125, -0.0163574218750, -0.0296020507812, -0.0635375976562, 0.0484619140625, -0.0239257812500, 0.0550537109375, 0.0567626953125, 0.0797119140625, -0.0601196289062, 0.0343017578125, -0.0522460937500, 0.0745849609375, 0.0169067382812, 0.0149536132812, 0.0286254882812, -0.0182495117188, 0.0070800781250, 0.0206298828125, 0.0155029296875, -0.0169067382812, 0.0155639648438, 0.0883178710938, 0.1510009765625, 0.1123046875000, 0.1052856445312, -0.0840454101562, 0.0169677734375, 0.0048217773438, -0.1466674804688, 0.0161132812500, -0.0239257812500, 0.0480957031250, 0.0164184570312, 0.0106201171875, -0.0733032226562, 0.0175781250000, -0.0709228515625, -0.1397705078125, -0.0156860351562, 0.0255126953125, 0.1253051757812, 0.0437622070312, -0.1428833007812, -0.0682983398438, -0.1914672851562, 0.0504150390625, 0.0304565429688, -0.1151123046875, -0.0108032226562, 0.0021362304688, -0.0086059570312, 0.0213623046875, -0.0679931640625, 0.0659790039062, -0.1019897460938, 0.0341186523438, 0.0221557617188, 0.0212402343750, 0.0277099609375, 0.1406860351562, 0.2448730468750, 0.0378417968750, 0.0716552734375, 0.0487670898438, -0.0397949218750, -0.0524291992188, -0.0190429687500, -0.0501708984375, 0.0190429687500, 0.0234985351562, -0.0541381835938, 0.1832885742188, -0.0267333984375, 0.1491088867188, -0.0012207031250, 0.0234375000000, -0.1089477539062, 0.0055541992188, -0.0326538085938, -0.0053710937500, -0.0132446289062, -0.0016479492188, 0.0187377929688, 0.0520019531250, 0.0028686523438, -0.0231933593750, 0.3485717773438, -0.0164794921875, 0.0758666992188, -0.0731811523438, -0.0247192382812, -0.0651245117188, -0.1429443359375, 0.0223388671875, -0.0765991210938, 0.0131225585938, -0.0523681640625, -0.0581054687500, -0.0070190429688, 0.0031127929688, 0.0380859375000, -0.2976684570312, 0.0433349609375, -0.0104980468750, 0.0075683593750, 0.0224609375000, 0.0855102539062, 0.0270385742188, -0.2097778320312, 0.0034790039062, -0.0548095703125, -0.0518798828125, -0.0159912109375, 0.0762939453125, -0.0714111328125, 0.0985717773438, -0.0957031250000, 0.0000000000000, 0.0000000000000, 0.0000000000000, 0.0000000000000, 0.0000000000000, 0.0000000000000, 0.0000000000000, 0.0000000000000, 0.0000000000000, 0.0000000000000, 0.0000000000000, 0.0000610351562, 0.0000000000000, 0.0000000000000, 0.0000000000000, 0.0000000000000, 0.0000000000000, 0.0000000000000, 0.0000000000000, 0.0000000000000, 0.0000000000000, 0.0000000000000, 0.0000000000000, 0.0000000000000, 0.0000000000000, 0.0001831054688, 0.0000000000000, 0.0000000000000, 0.0000000000000, -0.0000610351562, -0.0000610351562, -0.0003662109375, 0.0000000000000, 0.0000000000000, 0.0000000000000, 0.0000000000000, 0.0000000000000, 0.0000000000000, 0.0000000000000, 0.0000000000000, 0.0000000000000, 0.0000000000000, 0.0000000000000, 0.0000000000000, -0.0002441406250, 0.0000000000000, 0.0000000000000, 0.0001220703125, 0.0000000000000, 0.0000000000000, 0.0000000000000, 0.0000000000000, 0.0000000000000, 0.0000000000000, 0.0000000000000, 0.0000000000000, 0.0000000000000, 0.0000000000000, 0.0000000000000, 0.0000000000000, 0.0000000000000, 0.0000000000000, 0.0000000000000, 0.0000000000000, -0.0791625976562, -0.1360473632812, -0.0651245117188, -0.0102539062500, 0.0594482421875, 0.0213012695312, 0.0296020507812, -0.0031127929688, -0.1207275390625, 0.0411376953125, -0.0599975585938, -0.0727539062500, -0.0546264648438, -0.0859375000000, -0.0720214843750, 0.0401000976562, 0.0285644531250, -0.0346679687500, 0.0232543945312, -0.0214843750000, 0.0101318359375, -0.0445556640625, -0.0231933593750, -0.0441284179688, -0.0325317382812, -0.0140380859375, 0.1204223632812, -0.0971679687500, 0.0606689453125, -0.0273437500000, 0.1087036132812, 0.0529174804688, 0.0151977539062, 0.0171508789062, -0.0438842773438, 0.0627441406250, -0.0310668945312, 0.0299072265625, 0.0449218750000, 0.1984252929688, 0.0406494140625, -0.0735473632812, 0.0830078125000, -0.0803833007812, -0.0063476562500, 0.0195922851562, -0.1063232421875, 0.1687011718750, -0.0195922851562, 0.0335693359375, -0.0436401367188, 0.0386962890625, -0.0950317382812, -0.0256958007812, -0.1002807617188, -0.1117553710938, -0.0011596679688, -0.0652465820312, -0.0802612304688, 0.0959472656250, 0.1600341796875, -0.0233154296875, 0.0681152343750, -0.0004882812500, 0.0000000000000, 0.0000000000000, 0.0000000000000, 0.0000000000000, -0.0000610351562, 0.0000610351562, 0.0000000000000, 0.0000000000000, 0.0000000000000, 0.0000000000000, 0.0003051757812, 0.0000000000000, 0.0000000000000, 0.0000000000000, 0.0000000000000, 0.0000000000000, 0.0000000000000, 0.0000000000000, 0.0002441406250, 0.0000000000000, 0.0000000000000, 0.0000000000000, 0.0000000000000, 0.0000000000000, 0.0000000000000, 0.0000000000000, 0.0000000000000, 0.0000000000000, 0.0000000000000, 0.0000000000000, 0.0000000000000, 0.0000000000000, 0.0000000000000, 0.0000000000000, 0.0000000000000, 0.0000000000000, 0.0004272460938, 0.0000000000000, 0.0000000000000, 0.0000000000000, 0.0001831054688, 0.0000000000000, 0.0000000000000, 0.0000000000000, 0.0000000000000, 0.0000000000000, 0.0000000000000, 0.0000000000000, 0.0000000000000, 0.0000000000000, 0.0000000000000, 0.0000000000000, -0.0000610351562, 0.0000000000000, 0.0000000000000, 0.0000000000000, 0.0000000000000, 0.0000000000000, 0.0000000000000, 0.0000000000000, 0.0000000000000, 0.0000000000000, 0.0000000000000, 0.0000000000000, 0.0899047851562, -0.0820922851562, -0.0359497070312, 0.0386962890625, 0.1292724609375, -0.0126953125000, 0.0222167968750, 0.2425537109375, -0.3118286132812, -0.0241088867188, 0.0043334960938, 0.0714721679688, -0.0005493164062, 0.0764770507812, -0.0722656250000, 0.0169677734375, 0.0040283203125, 0.1144409179688, -0.0691528320312, 0.0782470703125, 0.0032348632812, 0.0351562500000, -0.1066894531250, 0.0307006835938, 0.0242309570312, -0.0360107421875, -0.0390014648438, 0.0817871093750, 0.0114746093750, 0.0258789062500, 0.0677490234375, 0.0229492187500, 0.0070800781250, 0.1158447265625, 0.0759277343750, -0.0698852539062, -0.0184326171875, 0.0018920898438, -0.0172729492188, -0.2207031250000, -0.0755615234375, 0.0032348632812, 0.0225219726562, 0.0725097656250, -0.0599975585938, 0.0512695312500, -0.0565795898438, 0.1243286132812, 0.0079956054688, -0.0092163085938, 0.0449829101562, -0.0632324218750, -0.1209106445312, 0.0166625976562, 0.1115722656250, -0.2323608398438, -0.0538330078125, 0.0425415039062, -0.2489624023438, 0.0993041992188, -0.0197753906250, 0.0008544921875, 0.0164794921875, -0.0663452148438, -0.2192382812500, -0.0895996093750, 0.0460205078125, -0.0275268554688, 0.0335693359375, -0.0202026367188, 0.0311279296875, 0.5574951171875, -0.2653198242188, 0.1327514648438, 0.0493164062500, -0.0403442382812, 0.0999755859375, -0.0180053710938, -0.1663208007812, -0.0919189453125, 0.0524291992188, -0.0060424804688, 0.1352539062500, -0.0213012695312, 0.0698852539062, 0.0693359375000, 0.2995605468750, 0.1043090820312, 0.0267333984375, 0.1411743164062, -0.0341796875000, -0.1068725585938, 0.0177001953125, -0.0223999023438, -0.1358032226562, 0.0490112304688, -0.0353393554688, 0.5713500976562, 0.0215454101562, -0.0883789062500, 0.0456542968750, -0.0784301757812, -0.0407714843750, -0.5631713867188, 0.1097412109375, -0.0240478515625, -0.0175170898438, -0.0126342773438, -0.1005249023438, 0.0305175781250, 0.0565795898438, 0.2175292968750, 0.0333862304688, 0.0285644531250, -0.0110473632812, -0.0594482421875, -0.1235961914062, 0.0311889648438, 0.0219116210938, -0.5930175781250, 0.0399169921875, 0.0967407226562, -0.6663818359375, 0.0058593750000, -0.0274047851562, -0.1061401367188, 0.0401000976562, 0.1864013671875, 0.0000000000000, 0.0000000000000, 0.0000000000000, 0.0003051757812, 0.0000000000000, 0.0000000000000, 0.0000000000000, 0.0000000000000, 0.0000000000000, 0.0000000000000, 0.0000000000000, 0.0000000000000, 0.0000610351562, 0.0000000000000, 0.0000000000000, 0.0000000000000, 0.0005493164062, 0.0000000000000, 0.0000000000000, 0.0000000000000, 0.0000000000000, 0.0000000000000, 0.0000000000000, 0.0000000000000, 0.0000000000000, 0.0000000000000, 0.0000000000000, 0.0000000000000, 0.0000000000000, 0.0000000000000, 0.0000000000000, 0.0000000000000, 0.0000000000000, 0.0000000000000, 0.0000000000000, 0.0000000000000, 0.0000000000000, 0.0000610351562, -0.0000610351562, 0.0000000000000, 0.0000000000000, 0.0000000000000, 0.0000000000000, 0.0000000000000, 0.0000000000000, 0.0000000000000, 0.0000000000000, 0.0000000000000, 0.0000000000000, 0.0000000000000, 0.0000000000000, 0.0000000000000, 0.0000000000000, 0.0000000000000, -0.0000610351562, 0.0000000000000, 0.0000000000000, 0.0000000000000, 0.0000000000000, 0.0000000000000, 0.0000000000000, 0.0000000000000, 0.0001220703125, 0.0000000000000, 0.0000000000000, -0.0001220703125, 0.0000000000000, 0.0000000000000, 0.0000000000000, 0.0000000000000, 0.0000000000000, 0.0003662109375, 0.0000000000000, 0.0001220703125, 0.0000610351562, 0.0000000000000, 0.0000000000000, 0.0000000000000, 0.0000000000000, 0.0000000000000, 0.0000000000000, 0.0000000000000, 0.0000000000000, -0.0000610351562, 0.0000000000000, 0.0000000000000, 0.0000000000000, 0.0000000000000, 0.0000000000000, 0.0000000000000, 0.0000000000000, 0.0000000000000, 0.0000000000000, 0.0000000000000, 0.0000000000000, 0.0000610351562, 0.0003662109375, 0.0000000000000, 0.0000000000000, 0.0000000000000, 0.0000000000000, 0.0000000000000, 0.0000000000000, 0.0000000000000, -0.0002441406250, 0.0000000000000, 0.0000000000000, 0.0000000000000, 0.0000000000000, 0.0000000000000, 0.0000000000000, 0.0000000000000, 0.0000000000000, 0.0000000000000, 0.0000000000000, 0.0000000000000, 0.0000000000000, 0.0000000000000, 0.0000000000000, 0.0000000000000, 0.0000000000000, 0.0000000000000, 0.0000000000000, 0.0000000000000, 0.0000000000000, 0.0000000000000, 0.0000610351562, 0.0000000000000, 0.0000000000000, 0.0000000000000, 0.0000000000000, 0.0003051757812, 0.0004882812500, -0.0000610351562, 0.0000000000000, 0.0000000000000, 0.0000000000000, -0.0006103515625, 0.0000000000000, 0.0000000000000, 0.0000000000000, 0.0000000000000, 0.0000000000000, 0.0000000000000, 0.0000000000000, 0.0000000000000, 0.0000000000000, 0.0000000000000, 0.0000000000000, 0.0000000000000, 0.0000610351562, 0.0000000000000, 0.0000000000000, -0.0003051757812, 0.0000000000000, -0.0003051757812, 0.0000000000000, 0.0000000000000, 0.0000000000000, 0.0000000000000, 0.0000000000000, 0.0000000000000, 0.0000000000000, 0.0000000000000, 0.0000000000000, 0.0000000000000, 0.0000000000000, 0.0000000000000, -0.0001220703125, 0.0000000000000, 0.0000000000000, 0.0000000000000, 0.0000000000000, 0.0000000000000, 0.0000000000000, 0.0000000000000, 0.0000000000000, 0.0000000000000, 0.0000000000000, 0.0000000000000, 0.0000000000000, 0.0000610351562, 0.0000000000000, 0.0000000000000, 0.0000000000000, 0.0000000000000, 0.0000000000000, 0.0000000000000, 0.0000000000000, 0.0000000000000, 0.0000000000000, 0.0000000000000, 0.0000000000000, -0.0004882812500, 0.0000000000000, 0.0000000000000, 0.0007324218750, -0.0000610351562, 0.0001220703125, 0.0000000000000, 0.0000000000000, 0.0000000000000, 0.0000000000000, 0.0000000000000, 0.0000000000000, 0.0000000000000, 0.0000000000000, 0.0000000000000, 0.0000000000000, 0.0000000000000, 0.0000000000000, 0.0001831054688, 0.0000000000000, 0.0000610351562, 0.0000000000000, 0.0000000000000, 0.0000000000000, 0.0003051757812, 0.0000000000000, 0.0000000000000, 0.0000000000000, 0.0000610351562, 0.0000000000000, 0.0000000000000, 0.0000000000000, 0.0000000000000, 0.0000000000000, 0.0000000000000, 0.0001220703125, 0.0005493164062, 0.0000000000000, 0.0000000000000, 0.0000000000000, 0.0000000000000, 0.0000000000000, 0.0000000000000, 0.0000000000000, 0.0000000000000, 0.0000610351562, 0.0000000000000, 0.0000000000000, 0.0000000000000, 0.0000000000000, 0.0001220703125, 0.0000000000000, 0.0000000000000, 0.0000000000000, 0.0000000000000, 0.0003051757812, 0.0000000000000, 0.0000000000000, 0.0000000000000, 0.0000000000000, 0.0000000000000, 0.0000000000000, -0.0000610351562, -0.0310058593750, 0.1595458984375, -0.0406494140625, 0.0287475585938, -0.0546264648438, 0.0541992187500, 0.1317749023438, 0.2879638671875, -0.1276245117188, 0.2154541015625, -0.0476074218750, 0.0845947265625, -0.2000122070312, 0.1270751953125, -0.1056518554688, -0.0259399414062, -0.0009765625000, -0.0069580078125, 0.0328979492188, 0.0061035156250, -0.1400756835938, -0.0529785156250, 0.2827148437500, -0.0083618164062, 0.0808715820312, 0.0103759765625, -0.0556030273438, -0.0650634765625, -0.0192260742188, 0.0148925781250, -0.0621948242188, 0.0998535156250, 0.0816650390625, 0.5031127929688, 0.0411376953125, 0.0222778320312, -0.1480102539062, 0.0240478515625, -0.0953979492188, -0.2369384765625, -0.0851440429688, 0.0228881835938, -0.0975341796875, -0.0103759765625, -0.0697021484375, -0.0557861328125, 0.0323486328125, 0.0868530273438, 0.1475219726562, 0.0705566406250, 0.0227661132812, -0.0178833007812, -0.0729370117188, -0.0741577148438, -0.1710205078125, -0.1400756835938, -0.0571899414062, 0.0315551757812, 0.0982666015625, -0.0281372070312, 0.0304565429688, 0.0498657226562, -0.0755004882812, -0.0802612304688, 0.0000000000000, 0.0000000000000, 0.0000000000000, 0.0000000000000, 0.0000000000000, 0.0005493164062, 0.0000000000000, 0.0000000000000, 0.0000000000000, 0.0000000000000, 0.0000000000000, -0.0004272460938, 0.0000000000000, 0.0000000000000, 0.0000000000000, -0.0003662109375, 0.0000000000000, 0.0000610351562, 0.0000000000000, 0.0000000000000, 0.0000000000000, 0.0000000000000, -0.0001220703125, 0.0000000000000, 0.0000000000000, 0.0000000000000, 0.0000000000000, 0.0000000000000, 0.0000000000000, 0.0000000000000, 0.0000000000000, 0.0000000000000, 0.0000000000000, 0.0000000000000, -0.0000610351562, 0.0000000000000, 0.0000000000000, 0.0000000000000, 0.0000000000000, 0.0000000000000, 0.0000000000000, 0.0000000000000, 0.0000000000000, -0.0003051757812, 0.0000000000000, 0.0000000000000, 0.0000000000000, -0.0000610351562, 0.0000000000000, 0.0000000000000, 0.0000000000000, 0.0000000000000, 0.0000000000000, 0.0000000000000, 0.0000000000000, -0.0001220703125, 0.0000000000000, 0.0000000000000, 0.0000000000000, 0.0000000000000, 0.0000000000000, 0.0000000000000, 0.0000000000000, 0.0000000000000, 0.0922241210938, 0.0560302734375, -0.0014038085938, -0.1390380859375, 0.0382080078125, -0.0264282226562, 0.0202636718750, -0.0093994140625, 0.0168457031250, 0.0014648437500, -0.1159057617188, -0.0681152343750, -0.0166625976562, -0.0771484375000, -0.0930175781250, -0.0026245117188, -0.0450439453125, -0.0244750976562, 0.0830688476562, 0.0126342773438, 0.0933227539062, 0.0686645507812, -0.2983398437500, -0.0001220703125, -0.0842895507812, 0.0905761718750, -0.0147705078125, -0.0092773437500, -0.0176391601562, -0.0029296875000, -0.0118408203125, -0.0187988281250, 0.0119018554688, 0.1389770507812, 0.0369262695312, -0.0392456054688, -0.1317749023438, 0.0314331054688, -0.0576782226562, -0.0920410156250, 0.0430908203125, 0.0405883789062, 0.0266113281250, 0.0028076171875, 0.0223388671875, 0.0123901367188, 0.0333251953125, 0.2456054687500, -0.0305175781250, 0.0014038085938, 0.0086669921875, -0.0175781250000, 0.0645141601562, 0.0670776367188, 0.1549072265625, -0.0297851562500, -0.0139770507812, 0.0507202148438, 0.0938110351562, -0.0184936523438, -0.0526123046875, -0.1957397460938, 0.0560302734375, 0.0645141601562, 0.0000000000000, 0.0000000000000, 0.0001220703125, 0.0000000000000, 0.0000000000000, -0.0000610351562, 0.0000000000000, 0.0000610351562, 0.0000000000000, 0.0000000000000, 0.0000000000000, 0.0000000000000, 0.0000000000000, 0.0000000000000, 0.0000000000000, 0.0000000000000, 0.0000000000000, 0.0000000000000, 0.0000000000000, -0.0001831054688, 0.0000000000000, 0.0000000000000, 0.0000000000000, 0.0000000000000, 0.0000000000000, 0.0000000000000, 0.0000000000000, 0.0000000000000, 0.0000000000000, 0.0000000000000, 0.0000000000000, 0.0000000000000, 0.0000000000000, 0.0000000000000, 0.0003662109375, 0.0000000000000, 0.0000000000000, 0.0000000000000, 0.0000000000000, 0.0000000000000, 0.0000000000000, 0.0000000000000, 0.0000000000000, 0.0000000000000, 0.0000000000000, 0.0000000000000, 0.0000000000000, 0.0000000000000, 0.0000000000000, 0.0004272460938, 0.0000000000000, 0.0000000000000, 0.0000000000000, 0.0000000000000, -0.0000610351562, 0.0000000000000, 0.0000000000000, 0.0000000000000, 0.0000000000000, 0.0000000000000, 0.0000000000000, 0.0000610351562, 0.0000000000000, 0.0000000000000, -0.2368774414062, 0.0086669921875, -0.1047973632812, 0.0933837890625, 0.0554199218750, 0.1408691406250, 0.2869262695312, 0.3913574218750, 0.0073242187500, -0.4694213867188, -0.0805664062500, 0.0328369140625, 0.0114135742188, 0.0509033203125, 0.0552978515625, 0.0506591796875, 0.0329589843750, 0.0676269531250, 0.2595214843750, 0.0269775390625, -0.0517578125000, -0.0755004882812, 0.0119628906250, 0.0568847656250, 0.1169433593750, 0.1087646484375, -0.0974121093750, 0.0115966796875, -0.0742797851562, 0.0206909179688, -0.0930786132812, 0.0374755859375, -0.1223144531250, 0.1741943359375, -0.0314331054688, -0.0515136718750, 0.1500244140625, -0.0177612304688, 0.1699218750000, 0.1217651367188, 0.0063476562500, -0.0977783203125, 0.0316772460938, -0.0219116210938, -0.0250854492188, 0.0010986328125, -0.0375976562500, 0.1703491210938, 0.2274169921875, 0.0868530273438, 0.1447753906250, -0.1716308593750, -0.0281372070312, -0.0874633789062, -0.0180664062500, -0.2514648437500, 0.0231323242188, -0.0601196289062, 0.0528564453125, -0.0006103515625, 0.1623535156250, -0.4703369140625, -0.1238403320312, 0.0347900390625, 0.0000000000000, 0.0000000000000, 0.0000000000000, 0.0000000000000, 0.0000000000000, 0.0000000000000, 0.0000000000000, 0.0000000000000, 0.0000000000000, 0.0000000000000, 0.0000000000000, 0.0000000000000, 0.0000000000000, 0.0000000000000, -0.0000610351562, 0.0000000000000, 0.0000000000000, 0.0000000000000, 0.0000000000000, 0.0000000000000, 0.0000000000000, 0.0005493164062, 0.0000000000000, 0.0000000000000, 0.0000000000000, 0.0000000000000, 0.0000000000000, 0.0000000000000, 0.0000000000000, 0.0000000000000, -0.0000610351562, 0.0000000000000, 0.0000610351562, 0.0000000000000, 0.0000000000000, 0.0000000000000, 0.0000000000000, 0.0000000000000, 0.0000000000000, 0.0000000000000, 0.0000000000000, 0.0000000000000, 0.0000000000000, 0.0000000000000, 0.0000000000000, 0.0000000000000, 0.0000000000000, 0.0000000000000, 0.0000000000000, 0.0000000000000, 0.0000000000000, 0.0000000000000, 0.0000000000000, 0.0000000000000, 0.0000000000000, -0.0002441406250, -0.0000610351562, 0.0000000000000, 0.0000000000000, 0.0000000000000, 0.0000000000000, 0.0000000000000, 0.0000000000000, 0.0000000000000, 0.0000000000000, 0.0000000000000, 0.0000000000000, 0.0000000000000, 0.0000000000000, 0.0000000000000, 0.0000000000000, 0.0000000000000, 0.0000000000000, 0.0000000000000, 0.0000000000000, 0.0001220703125, 0.0000000000000, 0.0000000000000, 0.0000000000000, 0.0000000000000, 0.0000000000000, 0.0000000000000, 0.0000000000000, 0.0000000000000, 0.0000000000000, -0.0000610351562, 0.0000000000000, 0.0000000000000, 0.0000000000000, 0.0000000000000, 0.0000000000000, 0.0000000000000, 0.0000000000000, 0.0000000000000, 0.0000000000000, 0.0000000000000, 0.0000000000000, 0.0000000000000, 0.0000000000000, 0.0000000000000, 0.0000000000000, 0.0000000000000, 0.0000000000000, 0.0000000000000, 0.0000000000000, 0.0000000000000, 0.0000000000000, 0.0000000000000, 0.0000000000000, 0.0000000000000, 0.0000000000000, 0.0000000000000, 0.0000000000000, 0.0000000000000, 0.0000000000000, 0.0000000000000, 0.0000000000000, 0.0000000000000, 0.0000000000000, 0.0000000000000, 0.0000610351562, 0.0000000000000, 0.0000000000000, 0.0000000000000, 0.0001220703125, 0.0000000000000, 0.0000000000000, 0.0000000000000, 0.0002441406250, -0.0001831054688, 0.0022583007812, 0.0006103515625, 0.0006103515625, 0.0000000000000, 0.0000000000000, -0.0000610351562, -0.0735473632812, -0.0004882812500, 0.0001220703125, -0.0003662109375, -0.0027465820312, -0.0017700195312, 0.0000610351562, 0.0001220703125, 0.0000000000000, 0.0000000000000, 0.0000000000000, 0.0000000000000, -0.0000610351562, 0.0000610351562, 0.0018920898438, 0.0000000000000, 0.0000000000000, 0.0028686523438, -0.0001220703125, -0.0001220703125, -0.0002441406250, 0.0000000000000, -0.0001220703125, 0.0002441406250, 0.0000000000000, -0.0015869140625, 0.0000000000000, -0.0004272460938, 0.0000610351562, 0.0000000000000, 0.0000000000000, -0.0025634765625, 0.0050659179688, 0.0000000000000, 0.0001220703125, 0.0000000000000, 0.0006713867188, -0.0001220703125, 0.0003051757812, 0.0131225585938, -0.0015869140625, -0.0003662109375, 0.0000610351562, -0.0001220703125, -0.0003051757812, 0.0000000000000, 0.0000000000000, 0.0001831054688, 0.0000000000000, 0.0000000000000, 0.0021972656250, 0.0004272460938, 0.0000000000000, 0.0000000000000, 0.0002441406250, 0.0203857421875, 0.0000000000000, -0.0000610351562, 0.0000000000000, 0.0000000000000, 0.0000000000000, 0.0000000000000, 0.0000000000000, 0.0000000000000, 0.0000000000000, 0.0000000000000, -0.0006713867188, 0.0000000000000, 0.0000000000000, 0.0000000000000, 0.0000000000000, 0.0000000000000, 0.0000000000000, 0.0000000000000, 0.0000000000000, 0.0000000000000, 0.0000000000000, 0.0000000000000, 0.0000000000000, 0.0000000000000, 0.0001220703125, 0.0000000000000, 0.0000000000000, 0.0000000000000, 0.0000000000000, 0.0000000000000, 0.0000000000000, -0.0006713867188, 0.0000000000000, 0.0000000000000, 0.0000000000000, 0.0000000000000, 0.0000000000000, 0.0000000000000, 0.0000000000000, 0.0000000000000, 0.0003051757812, 0.0000000000000, 0.0000000000000, 0.0000000000000, 0.0000000000000, 0.0000610351562, -0.0007324218750, 0.0000000000000, 0.0000000000000, 0.0000000000000, 0.0000000000000, 0.0000000000000, 0.0000000000000, -0.0003662109375, 0.0000000000000, 0.0000000000000, 0.0000000000000, 0.0000000000000, 0.0000000000000, 0.0000000000000, 0.0000000000000, 0.0000000000000, 0.0000000000000, 0.0000000000000, 0.0000000000000, 0.0000000000000, 0.0000000000000, 0.0000000000000, 0.0000000000000, 0.0000000000000, 0.0000000000000, 0.0000000000000, 0.0000000000000, 0.0000000000000, 0.0000000000000, 0.0000000000000, 0.0000000000000, 0.0000000000000, 0.0000000000000, 0.0000000000000, 0.0000000000000, 0.0002441406250, 0.0000000000000, 0.0000000000000, 0.0000000000000, -0.0000610351562, 0.0000000000000, 0.0000000000000, 0.0000000000000, 0.0000000000000, 0.0001220703125, 0.0000000000000, 0.0000000000000, 0.0000000000000, 0.0000000000000, 0.0000000000000, 0.0001220703125, 0.0000000000000, 0.0000000000000, 0.0000000000000, 0.0000000000000, 0.0000000000000, 0.0000000000000, 0.0000000000000, 0.0000000000000, 0.0000000000000, 0.0000000000000, -0.0001220703125, 0.0000000000000, 0.0001220703125, 0.0000000000000, 0.0009765625000, 0.0000000000000, 0.0000000000000, 0.0000000000000, 0.0000000000000, 0.0000000000000, 0.0000000000000, 0.0000000000000, 0.0000000000000, 0.0000000000000, 0.0000000000000, 0.0000000000000, 0.0000000000000, 0.0000000000000, 0.0000000000000, 0.0000000000000, 0.0001831054688, 0.0000000000000, 0.0000000000000, 0.0000000000000, 0.0001831054688, 0.0000000000000, 0.0001831054688, 0.0000000000000, 0.0000000000000, 0.0003051757812, 0.0000000000000, 0.0000000000000, 0.0000000000000, 0.0001831054688, 0.0000000000000, 0.0000000000000, 0.0000000000000, 0.0000000000000, -0.0000610351562, 0.0000000000000, 0.0000000000000, -0.0000610351562, -0.0001220703125, 0.0000000000000, 0.0000000000000, 0.0000610351562, 0.0000000000000, -0.0001220703125, 0.0000000000000, 0.0000000000000, 0.0000000000000, 0.0000000000000, 0.0000000000000, 0.0000000000000, 0.0000000000000, 0.0000000000000, 0.0000000000000, 0.0000000000000, -0.0000610351562, 0.0000000000000, 0.0000000000000, 0.0000000000000, 0.0000000000000, 0.0000000000000, 0.0000000000000, -0.0009765625000, -0.0001220703125, 0.0000000000000, 0.0000000000000, 0.0000000000000, 0.0000000000000, 0.0000000000000, 0.0000000000000, 0.0000000000000, 0.0000000000000, 0.0000000000000, 0.0000000000000, 0.0000000000000, 0.0000000000000, 0.0000000000000, 0.0001831054688, 0.0000000000000, 0.0000000000000, 0.0002441406250, -0.0001220703125, 0.0000000000000, 0.0000000000000, 0.0000000000000, 0.0000000000000, -0.0000610351562, 0.0000000000000, 0.0000000000000, 0.0000000000000, 0.0003051757812, 0.0000000000000, 0.0000000000000, 0.0000000000000, 0.0000000000000, 0.0000000000000, 0.0000000000000, 0.0000000000000, 0.0000000000000, 0.0000000000000, 0.0000000000000, 0.0000000000000, 0.0000000000000, -0.0001831054688, 0.0000000000000, 0.0000000000000, 0.0000000000000, -0.0000610351562, 0.0000000000000, -0.0002441406250, 0.0000000000000, 0.0000000000000, 0.0000000000000, 0.0000000000000, 0.0000000000000, 0.0000000000000, 0.0000000000000, -0.0006103515625, 0.0000000000000, -0.0001831054688, 0.0000000000000, 0.0000000000000, 0.0000000000000, 0.0000000000000, 0.0000000000000, 0.0000000000000, 0.0000000000000, 0.0000000000000, 0.0000000000000, 0.0000000000000, 0.0000000000000, 0.0000000000000, 0.0000000000000, 0.0006103515625, 0.0000000000000, 0.0000000000000, 0.0000000000000, 0.0000000000000, 0.0000000000000, 0.0000000000000, 0.0000000000000, 0.0000000000000, 0.0000000000000, 0.0000000000000, 0.0000000000000, 0.0000000000000, 0.0000000000000, 0.0000000000000, 0.0000000000000, 0.0000000000000, 0.0000000000000, 0.0000000000000, 0.0000000000000, 0.0000000000000, 0.0000000000000, 0.0000000000000, -0.0000610351562, 0.0000000000000, 0.0000000000000, 0.0000000000000, 0.0000000000000, 0.0000000000000, 0.0000000000000, 0.0000000000000, 0.0000000000000, 0.0000000000000, 0.0000000000000, 0.0000000000000, 0.0000000000000, 0.0000000000000, 0.0000000000000, -0.0003051757812, 0.0000000000000, 0.0000000000000, 0.0000000000000, 0.0000000000000, 0.0000000000000, 0.0000000000000, 0.0000000000000, 0.0000000000000, 0.0000000000000, 0.0000000000000, 0.0000000000000, 0.0000000000000, 0.0000000000000, 0.0000000000000, 0.0000000000000, 0.0000000000000, 0.0000000000000, 0.0000000000000, 0.0000000000000, 0.0000000000000, 0.0000000000000, 0.0000000000000, 0.0000000000000, 0.0000000000000, 0.0001220703125, -0.0002441406250, 0.0000000000000, 0.0000000000000, 0.0000000000000, 0.0004272460938, 0.0000610351562, 0.0000000000000, 0.0000000000000, -0.0000610351562, 0.0000000000000, 0.0000000000000, 0.0006103515625, 0.0000000000000, 0.0000000000000, 0.0000610351562, 0.0000000000000, 0.0000000000000, 0.0000000000000, -0.0001831054688, 0.0000000000000, 0.0000000000000, 0.0000000000000, 0.0000000000000, 0.0000000000000, 0.0000000000000, 0.0000000000000, 0.0000000000000, 0.0000000000000, 0.0006713867188, 0.0001220703125, 0.0000000000000, 0.0003662109375, 0.0000000000000, 0.0000000000000, 0.0000000000000, 0.0000000000000, 0.0000000000000, 0.0000000000000, 0.0000000000000, 0.0000000000000, 0.0000000000000, 0.0000000000000, 0.0000000000000, 0.0000000000000, 0.0000000000000, 0.0000000000000, 0.0000000000000, 0.0000000000000, 0.0000000000000, 0.0000000000000, 0.0000000000000, 0.0000000000000, 0.0000000000000, -0.0000610351562, 0.0000000000000, 0.0000000000000, 0.0000000000000, 0.0000000000000, 0.0000000000000, 0.0000000000000, 0.0000000000000, 0.0000000000000, 0.0002441406250, 0.0006713867188, 0.0000000000000, 0.0000000000000, 0.0000000000000, -0.0000610351562, 0.0000000000000, 0.0000000000000, 0.0003051757812, 0.0000000000000, 0.0000000000000, 0.0000000000000, -0.0003051757812, 0.0000000000000, 0.0000000000000, 0.0021972656250, 0.0026245117188, -0.0226440429688, -0.0172729492188, 0.0034179687500, 0.0260620117188, 0.0136718750000, -0.0103149414062, -0.0703735351562, -0.0084838867188, -0.0107421875000, -0.0062255859375, 0.0090942382812, 0.0158081054688, 0.0211181640625, -0.0186767578125, -0.0411376953125, -0.0060424804688, -0.0552368164062, 0.0141601562500, -0.0267333984375, -0.0059204101562, -0.0770263671875, -0.0292968750000, 0.0327148437500, -0.0338745117188, -0.0248413085938, 0.0059814453125, -0.0201416015625, 0.0382690429688, -0.0089721679688, 0.0046386718750, -0.0412597656250, -0.0128784179688, 0.0186767578125, -0.0168457031250, 0.0383911132812, -0.0018310546875, 0.0098876953125, 0.0230102539062, -0.0174560546875, -0.0066528320312, 0.0275268554688, 0.0015258789062, -0.0164184570312, -0.0074462890625, 0.0041503906250, 0.0863037109375, 0.0000000000000, 0.0112304687500, 0.0167846679688, -0.0206298828125, 0.0164794921875, -0.0323486328125, 0.0396118164062, 0.0133666992188, -0.0139770507812, 0.0673217773438, -0.1365966796875, -0.0121459960938, 0.0108642578125, 0.0156860351562, -0.0119628906250, -0.0103759765625, 0.0000000000000, 0.0000000000000, 0.0000000000000, 0.0000610351562, 0.0000000000000, 0.0000000000000, 0.0000000000000, 0.0000000000000, 0.0000000000000, 0.0000000000000, -0.0003051757812, 0.0000000000000, 0.0000000000000, 0.0000000000000, 0.0000000000000, 0.0000610351562, 0.0000000000000, 0.0000000000000, 0.0000000000000, 0.0000000000000, 0.0000000000000, 0.0000000000000, 0.0000000000000, 0.0000000000000, 0.0000000000000, 0.0000000000000, 0.0000000000000, 0.0000610351562, 0.0000000000000, 0.0000000000000, 0.0000000000000, 0.0000000000000, 0.0000000000000, 0.0000000000000, 0.0000000000000, 0.0000000000000, 0.0000000000000, 0.0000000000000, 0.0000000000000, 0.0000610351562, 0.0000000000000, 0.0000000000000, 0.0000000000000, 0.0000000000000, 0.0000000000000, 0.0000000000000, 0.0000000000000, 0.0000000000000, 0.0000000000000, 0.0000000000000, 0.0000000000000, 0.0000000000000, 0.0000000000000, 0.0000000000000, 0.0000000000000, 0.0000000000000, 0.0000000000000, 0.0000000000000, 0.0000000000000, 0.0000000000000, 0.0000000000000, 0.0000000000000, 0.0000000000000, 0.0000610351562, 0.0000000000000, 0.0000000000000, -0.0000610351562, 0.0000000000000, 0.0000000000000, 0.0000000000000, 0.0000000000000, 0.0000000000000, 0.0000000000000, 0.0000000000000, 0.0000000000000, 0.0000000000000, 0.0000000000000, 0.0000000000000, 0.0000000000000, 0.0000000000000, 0.0000000000000, 0.0000000000000, 0.0000000000000, 0.0000000000000, 0.0000000000000, 0.0000000000000, 0.0000000000000, 0.0000000000000, 0.0000000000000, 0.0000000000000, 0.0000000000000, 0.0000000000000, 0.0000000000000, 0.0000000000000, 0.0000000000000, 0.0000000000000, 0.0000000000000, 0.0000000000000, 0.0000000000000, 0.0000000000000, 0.0000610351562, -0.0000610351562, 0.0000000000000, 0.0000000000000, 0.0006103515625, 0.0000000000000, 0.0000000000000, 0.0000000000000, 0.0000000000000, 0.0000000000000, -0.0002441406250, 0.0000000000000, 0.0000000000000, 0.0000000000000, 0.0000000000000, 0.0000000000000, 0.0000000000000, -0.0000610351562, 0.0000000000000, 0.0000000000000, 0.0001831054688, 0.0000000000000, 0.0000000000000, -0.0009765625000, 0.0000000000000, 0.0001831054688, 0.0000000000000, 0.0000000000000, -0.1928100585938, -0.0697021484375, -0.0221557617188, 0.0368041992188, -0.0181884765625, -0.0216674804688, 0.0463256835938, 0.4536743164062, -0.3073120117188, -0.0538940429688, 0.1173706054688, 0.0055541992188, 0.0451049804688, -0.0625610351562, 0.0701293945312, -0.0000610351562, 0.0149536132812, -0.0020751953125, 0.3004760742188, -0.0330810546875, 0.0048217773438, -0.0745239257812, 0.3552246093750, -0.0309448242188, 0.0409545898438, -0.0322875976562, -0.0322265625000, -0.0207519531250, 0.0742797851562, 0.0381469726562, 0.0360107421875, 0.0017700195312, 0.0210571289062, 0.4448852539062, -0.0089111328125, 0.2696533203125, 0.0954589843750, 0.0351562500000, -0.0653686523438, -0.5810546875000, 0.0278320312500, -0.0058593750000, -0.1118774414062, -0.0084838867188, 0.0963745117188, 0.0768432617188, 0.0247802734375, 0.3377075195312, -0.0046997070312, -0.0804443359375, 0.1024169921875, -0.0839233398438, -0.1047363281250, -0.1256713867188, -0.0335083007812, -0.6402587890625, -0.0269775390625, 0.0028686523438, -0.5205078125000, 0.0336303710938, -0.0373535156250, -0.0485839843750, 0.0394287109375, 0.1516113281250, 0.0000000000000, 0.0000000000000, 0.0000000000000, 0.0000000000000, 0.0000000000000, 0.0000000000000, 0.0000000000000, 0.0000000000000, 0.0000000000000, 0.0000000000000, -0.0004272460938, 0.0000000000000, 0.0000000000000, 0.0000000000000, 0.0000000000000, 0.0000000000000, 0.0000000000000, 0.0000000000000, 0.0000000000000, 0.0000000000000, 0.0000000000000, 0.0000000000000, 0.0000000000000, -0.0000610351562, 0.0000000000000, 0.0000000000000, 0.0000000000000, -0.0000610351562, 0.0000000000000, 0.0000000000000, 0.0000000000000, 0.0000000000000, -0.0003662109375, 0.0000000000000, 0.0000000000000, 0.0000000000000, 0.0000000000000, 0.0000000000000, 0.0000000000000, 0.0000000000000, 0.0000000000000, 0.0000000000000, 0.0000000000000, 0.0000000000000, 0.0000000000000, 0.0000000000000, 0.0000000000000, 0.0000000000000, 0.0000000000000, 0.0000000000000, 0.0000000000000, 0.0000000000000, 0.0000000000000, 0.0000000000000, 0.0000000000000, 0.0000000000000, 0.0000000000000, 0.0000000000000, 0.0000000000000, 0.0000000000000, 0.0000000000000, 0.0000000000000, 0.0000000000000, 0.0000000000000, -0.0049438476562, 0.0000000000000, -0.0006713867188, 0.0001220703125, -0.0003051757812, -0.0003051757812, -0.0002441406250, 0.0180664062500, -0.0551147460938, 0.0003662109375, 0.0000000000000, -0.0002441406250, -0.0004272460938, 0.0000000000000, 0.0001220703125, 0.0024414062500, -0.0005493164062, -0.0003051757812, 0.0062255859375, 0.0001831054688, -0.0003051757812, 0.0003051757812, -0.0272216796875, -0.0000610351562, -0.0006103515625, 0.0028686523438, -0.0000610351562, 0.0000000000000, 0.0000000000000, 0.0000000000000, -0.0001220703125, 0.0000000000000, -0.0000610351562, 0.0031738281250, 0.0003051757812, 0.0000000000000, 0.0001220703125, 0.0007934570312, 0.0001220703125, 0.0212402343750, 0.0000000000000, -0.0001220703125, 0.0000000000000, 0.0003051757812, 0.0002441406250, 0.0000000000000, -0.0003662109375, 0.0334472656250, -0.0000610351562, 0.0015258789062, 0.0000610351562, -0.0001220703125, 0.0006103515625, 0.0004272460938, -0.0000610351562, -0.0006103515625, -0.0001831054688, 0.0000000000000, -0.0186767578125, -0.0001220703125, -0.0001831054688, -0.0009765625000, 0.0007934570312, -0.0101318359375, 0.0000000000000, 0.0000000000000, 0.0000000000000, 0.0000610351562, 0.0000000000000, 0.0000000000000, 0.0000000000000, 0.0000000000000, 0.0000000000000, 0.0000000000000, 0.0000000000000, 0.0000000000000, 0.0000000000000, 0.0000000000000, 0.0000000000000, 0.0000000000000, 0.0000000000000, 0.0000000000000, 0.0000000000000, 0.0000000000000, 0.0000000000000, 0.0000000000000, -0.0002441406250, 0.0000000000000, 0.0000000000000, 0.0000000000000, 0.0000000000000, 0.0000000000000, 0.0000000000000, 0.0000000000000, 0.0000000000000, 0.0000000000000, 0.0000000000000, -0.0001831054688, 0.0000000000000, 0.0000000000000, 0.0000000000000, 0.0000000000000, 0.0000000000000, 0.0000000000000, 0.0000000000000, -0.0000610351562, 0.0000000000000, 0.0000000000000, 0.0000000000000, 0.0000000000000, 0.0001831054688, 0.0000000000000, 0.0000000000000, -0.0004272460938, 0.0000000000000, 0.0000000000000, 0.0000000000000, 0.0000610351562, 0.0000000000000, 0.0000000000000, 0.0000000000000, 0.0000000000000, 0.0000000000000, 0.0000000000000, 0.0000000000000, 0.0000000000000, 0.0000000000000, 0.0000000000000, -0.1133422851562, 0.0778198242188, 0.2359008789062, 0.0307617187500, -0.0262451171875, -0.1294555664062, -0.0613403320312, 0.4992065429688, -0.1793212890625, 0.0575561523438, 0.0802612304688, -0.0204467773438, -0.0659179687500, 0.0330810546875, -0.0661010742188, -0.0328979492188, -0.0102539062500, -0.0997314453125, 0.2763061523438, -0.0068969726562, -0.0815429687500, -0.0485229492188, 0.0659790039062, -0.0433349609375, 0.1104125976562, -0.1301879882812, -0.0941772460938, -0.1014404296875, 0.0374145507812, 0.0261230468750, 0.0001220703125, 0.0219726562500, -0.0020141601562, 0.4431152343750, 0.0780639648438, 0.1335449218750, 0.0637207031250, -0.0228881835938, 0.1110229492188, -0.0997924804688, 0.0413818359375, -0.0486450195312, -0.0506591796875, -0.0709228515625, 0.1075439453125, 0.0521850585938, 0.0449218750000, 0.4068603515625, 0.0263671875000, -0.0475463867188, 0.0151367187500, -0.0674438476562, -0.0761718750000, 0.0142211914062, -0.0009765625000, -0.4238281250000, 0.0972900390625, 0.0010375976562, -0.2210083007812, 0.0952758789062, 0.0161743164062, -0.0712280273438, 0.0328369140625, -0.1968994140625, -0.1992797851562, 0.2733764648438, -0.0122680664062, 0.0542602539062, 0.0411376953125, 0.1024780273438, -0.3338012695312, 0.4967651367188, -0.1690673828125, 0.1893310546875, 0.1093750000000, 0.0856933593750, 0.2642822265625, -0.0651855468750, -0.0900268554688, -0.0488281250000, 0.1102294921875, 0.0631713867188, 0.1604003906250, 0.1165161132812, -0.0534057617188, 0.1244506835938, 0.2313842773438, 0.1755981445312, 0.1135253906250, 0.2038574218750, -0.1825561523438, -0.0789184570312, 0.0758056640625, 0.0861206054688, -0.0405883789062, -0.0377807617188, 0.0811157226562, 0.4116210937500, 0.0059204101562, -0.0010375976562, 0.0945434570312, 0.0036621093750, -0.2230224609375, -0.4362182617188, 0.2485351562500, 0.1309204101562, -0.2106933593750, 0.0777587890625, 0.1795654296875, 0.0290527343750, 0.1447753906250, 0.1943969726562, -0.0006103515625, -0.0019531250000, 0.0554199218750, -0.1448974609375, -0.0881347656250, -0.1965942382812, -0.1096191406250, -0.6036376953125, -0.1051635742188, 0.0759887695312, -0.3552856445312, -0.0535888671875, -0.1052246093750, -0.0621337890625, -0.1826782226562, -0.0503540039062, 0.0000000000000, 0.0000000000000, 0.0000000000000, 0.0000000000000, 0.0000000000000, -0.0003051757812, 0.0000000000000, 0.0000000000000, 0.0000000000000, 0.0000000000000, 0.0000000000000, 0.0000000000000, 0.0000000000000, 0.0000000000000, 0.0000000000000, 0.0000000000000, -0.0001831054688, 0.0000000000000, 0.0000000000000, 0.0000000000000, 0.0000000000000, 0.0000000000000, 0.0000000000000, 0.0000000000000, 0.0000610351562, 0.0000000000000, 0.0000000000000, -0.0001220703125, 0.0000000000000, 0.0000610351562, 0.0000000000000, 0.0000000000000, 0.0000000000000, 0.0000000000000, 0.0003662109375, 0.0000000000000, 0.0000000000000, 0.0000000000000, 0.0000000000000, 0.0000000000000, 0.0000000000000, 0.0000000000000, 0.0000000000000, 0.0000000000000, -0.0001220703125, 0.0000000000000, 0.0000000000000, 0.0000000000000, 0.0000000000000, 0.0000610351562, 0.0000000000000, 0.0000000000000, 0.0000000000000, 0.0002441406250, 0.0000000000000, 0.0000000000000, 0.0000000000000, 0.0000000000000, 0.0003051757812, 0.0000000000000, 0.0000000000000, 0.0000000000000, 0.0000000000000, 0.0000610351562, 0.0000000000000, 0.0000000000000, 0.0000000000000, 0.0000000000000, 0.0000000000000, 0.0000000000000, 0.0000000000000, 0.0000000000000, 0.0000000000000, 0.0000000000000, 0.0000000000000, 0.0000000000000, 0.0000000000000, 0.0000000000000, 0.0000000000000, 0.0000000000000, 0.0000000000000, 0.0000000000000, 0.0000000000000, 0.0000000000000, 0.0000000000000, 0.0000000000000, -0.0005493164062, 0.0000000000000, 0.0000000000000, 0.0000000000000, 0.0000610351562, 0.0000000000000, 0.0000000000000, 0.0000000000000, 0.0000000000000, 0.0001831054688, 0.0000000000000, 0.0000000000000, 0.0000000000000, 0.0000000000000, 0.0000000000000, 0.0000000000000, 0.0000000000000, 0.0000000000000, 0.0000000000000, 0.0000000000000, 0.0000610351562, 0.0000000000000, 0.0000000000000, 0.0000000000000, 0.0000000000000, -0.0003051757812, 0.0000000000000, 0.0000000000000, 0.0000000000000, 0.0000000000000, 0.0000000000000, 0.0000000000000, 0.0000000000000, 0.0000000000000, 0.0000000000000, 0.0000000000000, 0.0000000000000, 0.0000000000000, -0.0000610351562, 0.0004882812500, 0.0000000000000, 0.0000000000000, 0.0000000000000, 0.0000000000000, 0.0000000000000, 0.0000000000000, 0.0008544921875, 0.0002441406250, 0.0000000000000, 0.0001831054688, 0.0000000000000, 0.0000000000000, 0.0000000000000, 0.0003662109375, 0.0000000000000, 0.0000000000000, 0.0000000000000, 0.0000000000000, 0.0000000000000, 0.0000000000000, 0.0000610351562, 0.0000000000000, 0.0000000000000, 0.0000000000000, 0.0000000000000, 0.0000000000000, -0.0000610351562, 0.0003051757812, 0.0000000000000, 0.0000000000000, 0.0000610351562, 0.0000000000000, -0.0007324218750, 0.0000000000000, 0.0000000000000, 0.0000000000000, 0.0000000000000, 0.0000000000000, 0.0000000000000, -0.0000610351562, 0.0000000000000, 0.0000000000000, 0.0000000000000, 0.0000000000000, 0.0004272460938, 0.0000000000000, -0.0001831054688, 0.0000000000000, 0.0000000000000, 0.0000000000000, 0.0000000000000, 0.0000000000000, 0.0001831054688, 0.0001831054688, 0.0000000000000, 0.0000000000000, 0.0000000000000, 0.0004272460938, 0.0000000000000, 0.0000000000000, 0.0000000000000, 0.0000000000000, -0.0003051757812, 0.0000000000000, -0.0001220703125, 0.0000000000000, 0.0000000000000, -0.0003051757812, 0.0000000000000, 0.0000000000000, 0.0000000000000, 0.0000000000000, 0.0000000000000, 0.0000000000000, 0.0000000000000, 0.0000000000000, 0.0000000000000, 0.0000000000000, 0.0000000000000, 0.0000000000000, 0.0000000000000, 0.0000000000000, 0.0000000000000, 0.0000000000000, 0.0000000000000, -0.0000610351562, 0.0000000000000, 0.0000000000000, 0.0000000000000, 0.0000000000000, 0.0000000000000, -0.0000610351562, 0.0000000000000, -0.0000610351562, 0.0000000000000, 0.0000000000000, 0.0000000000000, -0.0001831054688, 0.0000000000000, 0.0000000000000, 0.0000000000000, 0.0000000000000, 0.0000000000000, -0.0000610351562, 0.0000000000000, 0.0000000000000, 0.0000000000000, 0.0000610351562, 0.0000000000000, 0.0000000000000, 0.0000000000000, 0.0000000000000, 0.0000000000000, 0.0000000000000, 0.0000000000000, 0.0000000000000, 0.0000000000000, 0.0000000000000, 0.0000000000000, 0.0000000000000, -0.0001831054688, 0.0000000000000, 0.0000000000000, 0.0000000000000, 0.0000000000000, 0.0000000000000, 0.0000000000000, -0.0000610351562, 0.0000000000000, 0.0000000000000, 0.0000610351562, 0.0000000000000, 0.0000000000000, 0.0000000000000, 0.0000000000000, 0.0000000000000, 0.0000000000000, 0.0000000000000, 0.0000000000000, 0.0000000000000, 0.0000000000000, 0.0000000000000, 0.0000000000000, 0.0000000000000, 0.0000000000000, 0.0000000000000, 0.0000000000000, 0.0000000000000, 0.0000000000000, 0.0000000000000, 0.0000000000000, 0.0000000000000, 0.0000000000000, 0.0000000000000, 0.0003051757812, 0.0000000000000, 0.0000000000000, 0.0000000000000, 0.0000000000000, 0.0000000000000, 0.0000000000000, -0.0000610351562, 0.0000000000000, 0.0000000000000, 0.0000000000000, 0.0000000000000, 0.0000000000000, 0.0000000000000, 0.0000000000000, 0.0000000000000, 0.0000000000000, 0.0000000000000, 0.0000000000000, 0.0000000000000, 0.0000000000000, 0.0000000000000, 0.0000000000000, 0.0000000000000, 0.0000000000000, 0.0000000000000, 0.0000000000000, 0.0000000000000, 0.0000000000000, 0.0000000000000, 0.0000000000000, 0.0000000000000, 0.0000000000000, 0.0000000000000, 0.0000000000000, 0.0000610351562, 0.0000000000000, 0.0000000000000, 0.0000000000000, 0.0000000000000, 0.0389404296875, -0.0165405273438, -0.0000610351562, -0.0052490234375, -0.0029296875000, 0.0004882812500, 0.0164184570312, -0.0532226562500, -0.0332031250000, 0.0090942382812, -0.0283203125000, 0.0030517578125, -0.0266113281250, 0.0020141601562, 0.0025024414062, 0.0200195312500, -0.0003662109375, 0.0018310546875, -0.0272827148438, -0.0059814453125, 0.0487060546875, 0.0072631835938, -0.0797729492188, -0.0039062500000, 0.0134887695312, -0.0059814453125, -0.0009155273438, 0.0073852539062, -0.0029907226562, -0.0108032226562, -0.0085449218750, -0.0029907226562, -0.0048828125000, -0.0001220703125, -0.0021972656250, -0.0006713867188, -0.0348510742188, -0.0003662109375, 0.0021972656250, -0.0752563476562, 0.0075683593750, -0.0175170898438, -0.0234985351562, -0.0191040039062, -0.0045166015625, -0.0050048828125, 0.0148925781250, 0.0556640625000, 0.0065307617188, 0.0010986328125, 0.0087280273438, 0.0134277343750, 0.0271606445312, -0.0138549804688, 0.0173950195312, 0.0073242187500, 0.0222778320312, -0.0082397460938, -0.0690917968750, 0.0552368164062, 0.0312500000000, 0.0341796875000, 0.0092163085938, 0.0186157226562, -0.0635986328125, -0.1168212890625, 0.1018676757812, -0.0513916015625, 0.0925292968750, -0.0412597656250, 0.0275268554688, 0.0917968750000, 0.0283813476562, -0.1504516601562, -0.0907592773438, -0.1177978515625, -0.1422119140625, -0.0358276367188, 0.0184936523438, 0.0426025390625, -0.0877075195312, -0.0797729492188, 0.0308227539062, -0.0962524414062, 0.0913696289062, -0.1101074218750, 0.0384521484375, -0.0261840820312, -0.0700073242188, -0.1172485351562, 0.0445556640625, -0.1127319335938, -0.0760498046875, -0.0214233398438, -0.0003051757812, -0.0049438476562, -0.0659790039062, 0.0692138671875, -0.0388793945312, 0.0235595703125, -0.1131591796875, -0.0825805664062, 0.1002807617188, -0.3449096679688, 0.1084594726562, -0.0844116210938, 0.0976562500000, -0.0569458007812, -0.1029663085938, -0.0575561523438, -0.0559692382812, 0.0317382812500, -0.0203857421875, -0.0039672851562, -0.0410156250000, 0.0038452148438, -0.1492309570312, -0.1240234375000, -0.0804443359375, -0.0669555664062, 0.0895996093750, -0.0684204101562, 0.0150756835938, -0.0177001953125, 0.1773071289062, -0.1062622070312, -0.0164184570312, -0.0911865234375, 0.0000000000000, 0.0000000000000, 0.0000000000000, 0.0000000000000, 0.0000000000000, 0.0000000000000, 0.0000000000000, 0.0000000000000, 0.0000000000000, 0.0000000000000, 0.0000000000000, 0.0000000000000, 0.0000000000000, -0.0003662109375, 0.0000000000000, 0.0000000000000, 0.0000000000000, 0.0000000000000, -0.0003051757812, -0.0000610351562, 0.0000000000000, -0.0000610351562, 0.0000000000000, 0.0000000000000, 0.0000610351562, -0.0000610351562, -0.0000610351562, 0.0000000000000, 0.0000000000000, 0.0000000000000, 0.0000000000000, 0.0000000000000, 0.0000000000000, 0.0000000000000, 0.0000000000000, 0.0000000000000, -0.0000610351562, 0.0000000000000, -0.0005493164062, 0.0000000000000, 0.0000000000000, 0.0000000000000, 0.0000000000000, -0.0002441406250, 0.0000000000000, -0.0003051757812, 0.0000000000000, 0.0001831054688, 0.0000000000000, 0.0000000000000, 0.0000000000000, 0.0000000000000, 0.0000000000000, -0.0003662109375, 0.0000000000000, 0.0000000000000, 0.0000000000000, 0.0000000000000, 0.0000000000000, 0.0000000000000, 0.0000000000000, 0.0000000000000, 0.0000000000000, -0.0002441406250, -0.0239868164062, -0.0156860351562, 0.0300292968750, -0.0089111328125, 0.0642700195312, 0.0217895507812, -0.0123291015625, 0.0751953125000, 0.0625610351562, -0.0555419921875, -0.0059204101562, -0.0181274414062, 0.0377197265625, 0.0165405273438, -0.0178222656250, 0.0007324218750, -0.0040283203125, 0.0036621093750, -0.0491943359375, -0.0053100585938, 0.0214233398438, 0.0079345703125, 0.0715332031250, 0.0175781250000, 0.0283203125000, -0.0180053710938, -0.0074462890625, -0.0336303710938, -0.0093383789062, 0.0233154296875, -0.0294799804688, 0.0447387695312, -0.0128784179688, 0.0577392578125, -0.0005493164062, -0.0240478515625, -0.0026245117188, 0.0432739257812, -0.0242309570312, -0.0627441406250, -0.0270996093750, -0.0410156250000, 0.0069580078125, 0.0032348632812, -0.0306396484375, -0.0009155273438, -0.0021362304688, -0.0428466796875, -0.0223999023438, -0.1035156250000, 0.0166015625000, 0.0614624023438, 0.0297241210938, -0.0247802734375, -0.0072631835938, -0.1058959960938, 0.0070800781250, -0.0281372070312, 0.1083374023438, 0.0301513671875, -0.0076293945312, 0.0010986328125, 0.0009155273438, -0.0242919921875, -0.0529174804688, -0.0130615234375, 0.0071411132812, -0.0019531250000, 0.0030517578125, 0.0284423828125, -0.0097045898438, 0.1367797851562, -0.1383666992188, 0.0350341796875, -0.0377197265625, 0.0056152343750, -0.0297241210938, -0.0073242187500, 0.0081787109375, -0.0274658203125, -0.0096435546875, -0.0147705078125, 0.0483398437500, -0.0043945312500, -0.0159301757812, -0.0096435546875, -0.0200805664062, -0.0220336914062, 0.0275268554688, -0.0103759765625, 0.0115966796875, 0.0029907226562, 0.0189819335938, 0.0043945312500, 0.0187988281250, 0.0035400390625, -0.0220947265625, 0.0675048828125, -0.0013427734375, 0.0415039062500, 0.0004272460938, 0.0120849609375, 0.0003051757812, 0.0444335937500, 0.0144042968750, -0.0190429687500, 0.0029907226562, 0.0063476562500, 0.0350341796875, 0.0173950195312, -0.0007934570312, 0.0485839843750, -0.0240478515625, 0.0008544921875, 0.0534057617188, 0.0329589843750, 0.0266723632812, 0.0218505859375, 0.0103759765625, -0.0681152343750, 0.0090332031250, -0.0314331054688, 0.0109252929688, 0.0004882812500, 0.0114135742188, 0.0370483398438, 0.0016479492188, -0.0234985351562, 0.0000000000000, -0.0000610351562, -0.0000610351562, 0.0000000000000, 0.0000000000000, 0.0000000000000, 0.0000000000000, 0.0000000000000, 0.0000000000000, 0.0000000000000, 0.0000000000000, 0.0000610351562, 0.0000000000000, 0.0000000000000, 0.0000000000000, 0.0000000000000, 0.0000000000000, 0.0000000000000, 0.0000000000000, 0.0000000000000, 0.0000000000000, 0.0000000000000, 0.0000000000000, 0.0000610351562, 0.0000000000000, 0.0000000000000, 0.0000000000000, 0.0000000000000, 0.0000000000000, 0.0000000000000, 0.0000000000000, 0.0000000000000, -0.0000610351562, 0.0000000000000, 0.0000000000000, 0.0000000000000, 0.0000000000000, 0.0000000000000, 0.0000000000000, 0.0000000000000, 0.0000000000000, 0.0000000000000, -0.0005493164062, 0.0000000000000, 0.0000000000000, 0.0000000000000, 0.0000000000000, 0.0000000000000, 0.0000610351562, 0.0000000000000, 0.0000000000000, 0.0000000000000, 0.0000000000000, 0.0000000000000, 0.0000000000000, 0.0000000000000, 0.0000000000000, 0.0000000000000, 0.0000000000000, 0.0000000000000, 0.0000610351562, -0.0003051757812, 0.0007934570312, 0.0000000000000, -0.0158081054688, 0.1168212890625, 0.0516357421875, 0.0679931640625, -0.0025024414062, -0.1118164062500, 0.0564575195312, 0.1425170898438, -0.1699829101562, 0.1247558593750, -0.1752319335938, -0.0900878906250, 0.0708618164062, 0.3087158203125, -0.0465087890625, -0.1427612304688, -0.0537109375000, 0.0363769531250, -0.1784057617188, 0.0850219726562, -0.0266113281250, -0.0142211914062, 0.0794067382812, 0.1880493164062, -0.0010375976562, -0.0535888671875, -0.0771484375000, 0.0880737304688, -0.0858764648438, -0.0147705078125, -0.0535278320312, -0.0079956054688, -0.0263061523438, 0.2078857421875, 0.0487060546875, -0.1982421875000, -0.0527954101562, 0.0552368164062, -0.0098876953125, -0.1719360351562, -0.1322631835938, 0.0290527343750, -0.0460205078125, 0.0350952148438, -0.1166381835938, -0.0077514648438, -0.0161743164062, 0.0371093750000, 0.3485717773438, 0.0577392578125, 0.0142822265625, -0.0064697265625, -0.0020141601562, 0.1392822265625, 0.1555175781250, 0.0209960937500, -0.1041259765625, 0.0064697265625, 0.0161132812500, 0.0859375000000, -0.0459594726562, -0.0692749023438, 0.0377807617188, -0.1178588867188, -0.0452880859375, 0.0470581054688, -0.0117187500000, 0.0349731445312, -0.0105590820312, -0.0250244140625, 0.0231323242188, 0.0981445312500, -0.1155395507812, 0.0173339843750, 0.0326538085938, -0.0703735351562, 0.0447387695312, -0.0373535156250, -0.0069580078125, -0.0026245117188, -0.0333862304688, -0.0015258789062, 0.1386108398438, -0.0267944335938, 0.0393066406250, -0.0064086914062, -0.0430908203125, -0.0468750000000, 0.0025024414062, -0.0591430664062, -0.0203247070312, -0.0321044921875, -0.0091552734375, 0.0072631835938, -0.1145629882812, -0.0681152343750, 0.0112915039062, 0.0358886718750, 0.0031127929688, 0.0112915039062, 0.0880737304688, -0.0338134765625, 0.0203247070312, 0.0580444335938, -0.0121459960938, 0.0016479492188, 0.0090942382812, -0.0298461914062, 0.0566406250000, -0.0123901367188, 0.1035766601562, 0.1015625000000, -0.0748291015625, -0.0202636718750, 0.0690307617188, 0.0145263671875, 0.0071411132812, -0.0180053710938, 0.0281372070312, -0.1427612304688, 0.0078125000000, 0.0012207031250, -0.1038208007812, -0.0360107421875, 0.0624389648438, -0.0357055664062, 0.0159912109375, -0.0970458984375, 0.0286254882812, 0.0495605468750, 0.0120849609375, 0.0184936523438, -0.0346679687500, 0.0260620117188, 0.0173950195312, 0.0720214843750, -0.1779785156250, 0.1019897460938, 0.0253906250000, -0.0094604492188, -0.0054321289062, -0.0927124023438, -0.0571899414062, -0.0010986328125, -0.0023193359375, 0.0554809570312, 0.0626831054688, -0.0086669921875, 0.0184326171875, -0.0211791992188, -0.1222534179688, -0.0267944335938, -0.0130615234375, 0.0635375976562, 0.0435180664062, -0.0440063476562, 0.0054931640625, -0.0821533203125, 0.0090332031250, 0.0242919921875, -0.0360107421875, 0.0533447265625, -0.0091552734375, 0.1195678710938, -0.0294799804688, -0.0140380859375, 0.0818481445312, -0.0390014648438, 0.0031738281250, -0.0447387695312, -0.0024414062500, -0.0866088867188, -0.0249633789062, 0.0598754882812, 0.0225219726562, 0.0231323242188, -0.0051879882812, 0.0260009765625, -0.0581665039062, 0.0088500976562, 0.1082153320312, 0.0328369140625, -0.0048828125000, 0.0020141601562, -0.0100708007812, -0.0099487304688, -0.0497436523438, -0.0490112304688, -0.0120239257812, -0.1189575195312, -0.0069580078125, -0.0464477539062, 0.1863403320312, 0.0291748046875, 0.0258789062500, 0.1080322265625, -0.0193481445312, -0.1858520507812, 0.0243530273438, -0.0005493164062, -0.3986206054688, -0.0261840820312, -0.0523681640625, 0.0757446289062, -0.0568847656250, -0.1270141601562, -0.0399780273438, 0.0120239257812, -0.0567626953125, 0.0073242187500, 0.0880737304688, 0.0057373046875, 0.0411376953125, 0.1277465820312, 0.1942749023438, 0.1140136718750, -0.1223754882812, 0.0325317382812, 0.1185913085938, -0.0313720703125, 0.0527954101562, -0.0908813476562, 0.0030517578125, 0.0053100585938, -0.0010375976562, 0.0352783203125, 0.0172119140625, 0.0740966796875, 0.0192871093750, 0.0155029296875, 0.0642700195312, -0.1107788085938, 0.0835571289062, 0.1065063476562, -0.0738525390625, 0.0402221679688, -0.0324096679688, 0.0548095703125, 0.1173706054688, 0.3373413085938, -0.0107421875000, 0.0917968750000, 0.0516967773438, 0.0897216796875, 0.0408935546875, -0.0920410156250, -0.0952148437500, 0.2242431640625, -0.0232543945312, 0.0097045898438, -0.0039672851562, -0.0346069335938, 0.0701904296875, -0.0079345703125, 0.1063232421875, 0.1322021484375, 0.0000000000000, 0.0000000000000, 0.0000000000000, 0.0000000000000, 0.0000000000000, 0.0000000000000, 0.0000000000000, 0.0000000000000, 0.0000000000000, 0.0000000000000, 0.0000000000000, 0.0000000000000, 0.0002441406250, 0.0000000000000, 0.0000000000000, 0.0000000000000, 0.0000000000000, 0.0000000000000, 0.0000000000000, 0.0000000000000, 0.0000000000000, 0.0000000000000, 0.0000000000000, 0.0000000000000, 0.0000000000000, 0.0000000000000, 0.0000000000000, 0.0003051757812, 0.0002441406250, 0.0000000000000, 0.0000000000000, 0.0001831054688, 0.0000000000000, 0.0000000000000, 0.0000000000000, 0.0000000000000, 0.0000000000000, 0.0000000000000, 0.0000000000000, 0.0000610351562, 0.0000000000000, 0.0000000000000, 0.0000000000000, 0.0000000000000, 0.0000000000000, 0.0000000000000, 0.0000000000000, -0.0000610351562, 0.0000000000000, 0.0000000000000, 0.0000000000000, 0.0000000000000, 0.0000000000000, 0.0000000000000, 0.0000000000000, 0.0000000000000, 0.0000000000000, 0.0000000000000, 0.0000000000000, 0.0000000000000, 0.0000000000000, 0.0000000000000, 0.0000000000000, 0.0000000000000, 0.0002441406250, 0.0000000000000, 0.0000000000000, 0.0000000000000, 0.0000000000000, 0.0000000000000, 0.0000000000000, 0.0000000000000, 0.0000000000000, 0.0000000000000, 0.0000000000000, 0.0000000000000, 0.0000000000000, 0.0000000000000, 0.0000000000000, 0.0000000000000, -0.0001220703125, -0.0007324218750, 0.0000000000000, 0.0000000000000, 0.0000000000000, 0.0000000000000, 0.0000000000000, 0.0000000000000, 0.0000000000000, 0.0000000000000, 0.0004272460938, 0.0000000000000, 0.0000000000000, 0.0000000000000, 0.0000000000000, 0.0000610351562, 0.0000000000000, 0.0000000000000, 0.0000000000000, 0.0000000000000, 0.0000610351562, 0.0000000000000, 0.0000000000000, 0.0000000000000, 0.0000000000000, 0.0000000000000, -0.0001831054688, 0.0000000000000, 0.0000000000000, -0.0001220703125, 0.0000000000000, 0.0000000000000, 0.0000000000000, 0.0000000000000, 0.0002441406250, 0.0000000000000, 0.0000000000000, 0.0000000000000, 0.0000000000000, 0.0000000000000, 0.0000000000000, 0.0000000000000, 0.0000000000000, 0.0000000000000, 0.0000000000000, 0.0000000000000, 0.0002441406250, 0.0000000000000, 0.0022583007812, -0.0172119140625, -0.0354614257812, 0.0662231445312, -0.0107421875000, 0.0674438476562, 0.0686035156250, 0.1973266601562, 0.0013427734375, -0.0244140625000, 0.0890502929688, -0.0153198242188, 0.0283203125000, 0.0037841796875, -0.1279907226562, -0.0061035156250, 0.0399780273438, -0.0055541992188, 0.0254516601562, 0.0012817382812, 0.1239013671875, 0.0469970703125, 0.0851440429688, -0.0758666992188, 0.0272216796875, 0.0165405273438, -0.0662231445312, -0.0864257812500, 0.0561523437500, 0.0509033203125, -0.0448608398438, 0.0274047851562, -0.0440063476562, 0.3438110351562, -0.0815429687500, 0.0568237304688, -0.0200195312500, 0.0068969726562, -0.0412597656250, 0.0353393554688, 0.0905151367188, -0.0202026367188, 0.0962524414062, -0.0297241210938, -0.0169677734375, 0.0006713867188, -0.0182495117188, 0.0268554687500, -0.1905517578125, 0.0621948242188, -0.0171508789062, -0.0161132812500, -0.0634155273438, 0.1337890625000, 0.0285034179688, -0.2168579101562, 0.0237426757812, 0.0198364257812, -0.0115356445312, 0.0162963867188, 0.0820922851562, 0.1958618164062, -0.0725097656250, -0.0333862304688, 0.0900878906250, 0.0002441406250, 0.1210937500000, -0.0533447265625, 0.1204223632812, -0.0595703125000, 0.0298461914062, -0.0455322265625, -0.1190185546875, 0.0327758789062, -0.0977172851562, -0.0184326171875, -0.1124267578125, 0.0433959960938, -0.0253295898438, 0.0046386718750, 0.0416259765625, -0.0101318359375, 0.1547241210938, 0.0528564453125, 0.0807495117188, 0.0321044921875, -0.2663574218750, 0.0488281250000, -0.0413208007812, -0.0052490234375, 0.0280151367188, 0.0342407226562, 0.0117187500000, -0.0288696289062, 0.0469970703125, -0.0582885742188, 0.0065917968750, 0.0859985351562, 0.0008544921875, -0.1280517578125, -0.1441650390625, -0.0297851562500, -0.0119018554688, -0.2731933593750, -0.0640869140625, -0.0041503906250, -0.0664672851562, 0.0007324218750, 0.0175170898438, -0.0391845703125, 0.0037231445312, 0.0364379882812, 0.0576171875000, -0.0372314453125, -0.0676879882812, 0.0385742187500, -0.1062011718750, -0.0042724609375, 0.0410156250000, 0.0419921875000, 0.0395507812500, -0.0407714843750, 0.0081787109375, -0.1715087890625, -0.0420532226562, -0.0526733398438, 0.0624389648438, -0.0463867187500, 0.0000000000000, 0.0000000000000, 0.0000000000000, 0.0000000000000, 0.0000000000000, 0.0000000000000, 0.0000000000000, 0.0000000000000, -0.0003051757812, 0.0000000000000, 0.0000000000000, 0.0000000000000, 0.0000000000000, 0.0000000000000, 0.0000000000000, 0.0000610351562, 0.0000000000000, 0.0000000000000, 0.0000000000000, 0.0000000000000, 0.0000000000000, 0.0000000000000, 0.0000000000000, 0.0000000000000, 0.0000000000000, 0.0000000000000, 0.0000000000000, 0.0000000000000, 0.0000000000000, 0.0000610351562, 0.0000000000000, 0.0000000000000, 0.0000000000000, 0.0000000000000, 0.0000000000000, 0.0000610351562, 0.0000000000000, 0.0000000000000, 0.0000000000000, 0.0000000000000, 0.0000000000000, 0.0000000000000, 0.0000000000000, 0.0000000000000, 0.0000000000000, 0.0000000000000, 0.0000000000000, 0.0000000000000, 0.0000000000000, 0.0000000000000, 0.0000000000000, 0.0000000000000, 0.0000000000000, 0.0000000000000, 0.0000000000000, 0.0000000000000, 0.0000000000000, 0.0000000000000, 0.0000000000000, 0.0000000000000, 0.0000000000000, 0.0000000000000, 0.0001831054688, 0.0000000000000, 0.0000000000000, 0.0000000000000, 0.0000000000000, 0.0000000000000, 0.0000000000000, 0.0000000000000, 0.0000000000000, 0.0000000000000, 0.0000000000000, 0.0000000000000, 0.0000000000000, 0.0000000000000, 0.0000000000000, 0.0000000000000, 0.0000000000000, 0.0000000000000, 0.0000000000000, 0.0000000000000, 0.0000000000000, 0.0000000000000, -0.0003051757812, 0.0000000000000, 0.0000000000000, 0.0000000000000, 0.0000000000000, 0.0000000000000, -0.0000610351562, 0.0000000000000, -0.0001220703125, 0.0000000000000, 0.0000000000000, 0.0000000000000, 0.0000000000000, 0.0000000000000, 0.0000000000000, 0.0000000000000, 0.0000000000000, 0.0000000000000, 0.0000000000000, 0.0000000000000, 0.0000000000000, 0.0000000000000, 0.0000000000000, 0.0000000000000, 0.0000000000000, 0.0000000000000, 0.0000000000000, 0.0000000000000, 0.0000000000000, 0.0000000000000, 0.0000000000000, 0.0000000000000, 0.0000000000000, 0.0000000000000, 0.0000000000000, 0.0000000000000, 0.0000000000000, 0.0000000000000, 0.0000000000000, 0.0000000000000, 0.0000000000000, 0.0000000000000, 0.0000000000000, 0.0000000000000, 0.0000000000000, 0.0000000000000, 0.0000000000000, 0.0000000000000, 0.0003051757812, 0.0000000000000, 0.0000000000000, -0.0001831054688, 0.0000000000000, 0.0000000000000, 0.0000000000000, 0.0000000000000, 0.0000610351562, 0.0000000000000, 0.0000000000000, 0.0000000000000, 0.0000000000000, -0.0002441406250, 0.0000000000000, -0.0003662109375, 0.0000000000000, 0.0000000000000, 0.0000000000000, -0.0001831054688, 0.0000000000000, 0.0000000000000, 0.0000000000000, 0.0000000000000, 0.0000000000000, 0.0000000000000, 0.0000000000000, 0.0000000000000, 0.0000000000000, 0.0000000000000, 0.0000000000000, 0.0000610351562, 0.0000000000000, 0.0000000000000, 0.0000000000000, 0.0000000000000, 0.0000000000000, 0.0000000000000, 0.0000000000000, 0.0000000000000, 0.0000000000000, 0.0000000000000, 0.0003051757812, 0.0001220703125, 0.0000000000000, 0.0000000000000, 0.0000000000000, 0.0000000000000, 0.0000000000000, 0.0000000000000, 0.0000000000000, 0.0000000000000, 0.0000000000000, 0.0000000000000, 0.0000000000000, 0.0000000000000, 0.0000000000000, 0.0000000000000, 0.0000000000000, 0.0000000000000, 0.0015869140625, 0.0499267578125, -0.0828857421875, 0.0897216796875, -0.0491333007812, -0.0003051757812, -0.0247802734375, 0.3356323242188, -0.2286987304688, 0.0493774414062, -0.1926879882812, 0.0582275390625, -0.0809936523438, -0.1251220703125, -0.0485229492188, -0.0494995117188, 0.0415649414062, 0.0587158203125, 0.1257934570312, 0.1016845703125, -0.1334838867188, 0.0015869140625, -0.2148437500000, -0.0423583984375, 0.0260620117188, -0.1196289062500, 0.0310668945312, -0.0470581054688, 0.0253906250000, 0.0061035156250, -0.0727539062500, -0.0584106445312, 0.0519409179688, 0.2634277343750, 0.0433349609375, 0.0837402343750, -0.0869140625000, 0.0307617187500, -0.2051391601562, 0.2764282226562, 0.0551147460938, 0.0733032226562, -0.0868530273438, 0.1223754882812, 0.0294189453125, 0.1079711914062, 0.0488891601562, 0.2894287109375, -0.0115356445312, 0.0697021484375, 0.1088867187500, -0.0254516601562, 0.0307006835938, -0.0440673828125, -0.1456909179688, -0.1544189453125, -0.0194091796875, -0.0732421875000, -0.0963745117188, 0.0419311523438, -0.0366821289062, 0.0125122070312, 0.0550537109375, 0.2320556640625, -0.1235961914062, 0.1948852539062, -0.1377563476562, 0.0753784179688, -0.0704956054688, 0.1355590820312, -0.1853027343750, 0.1632080078125, -0.3846435546875, 0.1815185546875, -0.0572509765625, -0.0691528320312, 0.1290893554688, -0.2874145507812, 0.0390625000000, -0.0104370117188, 0.0961914062500, 0.0681152343750, 0.2304687500000, 0.1328125000000, -0.1307373046875, -0.0154418945312, 0.2739868164062, 0.0829467773438, 0.0563964843750, 0.1510009765625, -0.0101928710938, 0.0490112304688, 0.0847778320312, 0.0311279296875, -0.0346069335938, 0.0440673828125, 0.0087280273438, 0.1048583984375, -0.0032958984375, 0.1192626953125, 0.0424194335938, 0.0439453125000, -0.0360717773438, -0.2327270507812, -0.1988525390625, -0.0388183593750, 0.0246582031250, 0.1241455078125, 0.0291748046875, 0.0402221679688, 0.1662597656250, 0.4558105468750, -0.3814086914062, -0.0407714843750, 0.1756591796875, -0.0458374023438, -0.2822265625000, -0.1423950195312, 0.1089477539062, -0.2153320312500, -0.0628051757812, 0.0687866210938, -0.1136474609375, -0.1429443359375, -0.0404663085938, 0.0493774414062, -0.0740966796875, -0.2986450195312, 0.5583496093750, -0.0983276367188, 0.2527465820312, -0.1063842773438, 0.0120239257812, 0.0083007812500, 0.1998901367188, 0.0472412109375, -0.1392822265625, 0.0949707031250, 0.0126953125000, 0.0722045898438, -0.2750854492188, 0.0236816406250, 0.2752075195312, 0.0455932617188, 0.0078735351562, 0.0032348632812, -0.0208129882812, 0.1434326171875, -0.0207519531250, 0.0145263671875, 0.0322875976562, -0.2091064453125, -0.0109863281250, -0.0302124023438, 0.0258789062500, 0.1091918945312, 0.0177612304688, 0.0047607421875, 0.0473632812500, -0.1029663085938, 0.0653076171875, 0.0077514648438, 0.0419921875000, 0.3405151367188, 0.0023193359375, 0.1089477539062, 0.1010131835938, -0.6417236328125, -0.1702270507812, -0.1449584960938, 0.1921997070312, 0.0196533203125, 0.0675048828125, 0.1054077148438, -0.0237426757812, 0.2168579101562, -0.0449218750000, 0.3081665039062, 0.0272216796875, 0.0139160156250, 0.4464721679688, 0.1251220703125, -0.0111694335938, -0.0748291015625, -0.0941162109375, 0.0133666992188, -0.1205444335938, -0.0695800781250, -0.0294799804688, 0.2860107421875, 0.2055664062500, -0.2886352539062, -0.1491699218750, -0.0634155273438, -0.1364135742188, 0.0709228515625, -0.1106567382812, -0.0551757812500, -0.1046752929688, -0.1785278320312, 0.0576782226562, -0.0265502929688, 0.0291137695312, 0.0397949218750, 0.0724487304688, -0.1225585937500, 0.3175048828125, -0.0405883789062, 0.0810546875000, 0.0261230468750, 0.0332031250000, 0.0221557617188, -0.1623535156250, 0.0212402343750, 0.1469726562500, -0.0251464843750, 0.0662841796875, 0.0981445312500, -0.0006103515625, 0.0939331054688, 0.0363769531250, 0.0250244140625, -0.1224365234375, 0.0150146484375, 0.0333862304688, -0.0215454101562, 0.0578613281250, -0.1724853515625, 0.0999755859375, 0.0381469726562, -0.0524291992188, 0.2496948242188, 0.1637573242188, 0.1043701171875, -0.0385742187500, 0.0526733398438, 0.1406250000000, 0.0797729492188, 0.1410522460938, 0.2109375000000, -0.1074218750000, -0.1996459960938, 0.1544799804688, -0.0908813476562, -0.0703125000000, 0.0317993164062, 0.0219726562500, -0.1209106445312, -0.0963134765625, 0.0017089843750, -0.0620727539062, -0.2460937500000, 0.0028686523438, -0.0122680664062, -0.0704956054688, 0.2830200195312, 0.0581665039062, -0.0313110351562, 0.0006103515625, 0.0247802734375, -0.1000976562500, 0.0256347656250, 0.1552124023438, 0.0748901367188, -0.0184326171875, -0.1052246093750, -0.0903320312500, -0.0249633789062, -0.0315551757812, -0.0633544921875, -0.0778808593750, 0.1035156250000, 0.0106201171875, -0.0185546875000, -0.0689697265625, -0.0533447265625, -0.0669555664062, -0.0266113281250, -0.0236816406250, -0.1171875000000, -0.0272216796875, -0.0573120117188, -0.0513916015625, -0.0637817382812, -0.0032958984375, 0.0006103515625, 0.0296630859375, 0.0065307617188, -0.0244750976562, 0.1813354492188, -0.1049194335938, 0.1240844726562, -0.1423339843750, -0.0596923828125, 0.0074462890625, 0.0920410156250, 0.2161254882812, 0.0072631835938, -0.0557861328125, -0.0092773437500, -0.0848999023438, -0.0546264648438, -0.0784301757812, 0.0652465820312, -0.1135864257812, -0.0783081054688, -0.1123046875000, 0.0344848632812, 0.0384521484375, 0.0223999023438, -0.0425415039062, 0.0142822265625, 0.0092773437500, -0.0098876953125, 0.1948242187500, 0.0932617187500, 0.0960693359375, 0.2089233398438, -0.0852050781250, 0.2266845703125, -0.0532836914062, -0.0706787109375, -0.0548095703125, 0.0090942382812, 0.2169799804688, -0.2372436523438, -0.0898437500000, -0.2224731445312, 0.0000000000000, -0.1870117187500, 0.2045288085938, 0.0195922851562, -0.0768432617188, -0.1151123046875, -0.1527099609375, 0.0092773437500, 0.0366210937500, 0.0914306640625, 0.0145263671875, -0.1654052734375, 0.1204223632812, 0.0687255859375, -0.1614990234375, -0.0312500000000, 0.0330200195312, 0.1774902343750, 0.0034179687500, -0.0631103515625, 0.0278930664062, 0.0148925781250, -0.2531738281250, 0.0163574218750, 0.0097045898438, -0.1157226562500, 0.0782470703125, -0.1605224609375, 0.1442260742188, 0.0488891601562, 0.1773071289062, -0.1029052734375, 0.0725097656250, 0.0617065429688, -0.0368041992188, 0.0648803710938, -0.1045532226562, 0.0241699218750, 0.1893920898438, 0.0216064453125, 0.0398559570312, 0.0671997070312, 0.2103881835938, -0.1063232421875, -0.1893920898438, 0.0994262695312, -0.0031738281250, -0.0325317382812, -0.0092163085938, 0.0054931640625, 0.1746215820312, -0.3103637695312, -0.0283813476562, -0.0870971679688, -0.0537109375000, 0.3035278320312, -0.2785644531250, -0.1706542968750, -0.0402221679688, -0.0205688476562, 0.1273803710938, 0.1976928710938, 0.0571899414062, 0.0110473632812, -0.3336791992188, -0.0928344726562, -0.0075073242188, -0.0310668945312, 0.2587890625000, 0.1871337890625, -0.0914306640625, 0.0274658203125, 0.0112304687500, 0.0120849609375, -0.1430664062500, -0.0311279296875, -0.0383300781250, -0.0250244140625, -0.1565551757812, 0.3209838867188, 0.0289306640625, 0.0617065429688, -0.0045776367188, -0.0095825195312, -0.0136108398438, 0.0529174804688, -0.0465087890625, 0.1268310546875, -0.1575927734375, 0.1004638671875, -0.0167236328125, -0.0667724609375, 0.0336303710938, -0.0466308593750, -0.1118774414062, -0.4194946289062, -0.0710449218750, -0.0084228515625, -0.1002197265625, -0.0347900390625, -0.0441894531250, -0.0797119140625, 0.0775146484375, 0.3375854492188, 0.0440673828125, 0.1126098632812, -0.0212402343750, 0.0256958007812, -0.1676635742188, -0.1341552734375, -0.0485839843750, -0.0536499023438, 0.0273437500000, 0.0759277343750, -0.1635131835938, -0.0747070312500, 0.0714111328125, -0.2116699218750, -0.0759277343750, -0.0339965820312, -0.2054443359375, 0.0193481445312, 0.0980834960938, 0.0424804687500, -0.0977172851562, -0.0020751953125, 0.2334594726562, 0.2011718750000, -0.9596557617188, -0.0466918945312, 0.1261596679688, 0.0689697265625, -0.0199584960938, 0.1163330078125, 0.1655273437500, -0.0283203125000, 0.0053100585938, -0.0063476562500, 0.3352050781250, 0.1015625000000, -0.0431518554688, 0.0385742187500, 0.1516723632812, -0.0098876953125, 0.0552368164062, -0.0673828125000, 0.0180664062500, 0.0166015625000, -0.0352172851562, 0.0551757812500, 0.0217285156250, 0.0408935546875, -0.0177612304688, 0.0042724609375, -0.0327148437500, 0.4692993164062, 0.0453491210938, 0.0105590820312, 0.0416870117188, -0.4260864257812, -0.0725097656250, 0.0573730468750, 0.0775756835938, -0.0408935546875, 0.0758056640625, -0.0193481445312, 0.0267944335938, 0.0754394531250, -0.0612792968750, 0.0726318359375, -0.0266113281250, -0.0080566406250, 0.3083496093750, 0.0747680664062, -0.1560058593750, -0.1338500976562, -0.0294189453125, 0.0215454101562, 0.1239624023438, 0.0982055664062, -0.0269775390625, 0.1002197265625, 0.0829467773438, -0.0212402343750, 0.0549926757812, 0.0656738281250, 0.0427246093750, 0.0582275390625, -0.0428466796875, 0.0620117187500, -0.0172119140625, 0.0308837890625, -0.2956542968750, -0.0792846679688, -0.0880126953125, -0.1399536132812, -0.1138916015625, -0.2052001953125, -0.0046386718750, 0.0656127929688, -0.0515747070312, 0.0072631835938, 0.1719970703125, -0.0557861328125, 0.1916503906250, 0.0421752929688, 0.1729736328125, -0.0460815429688, 0.0419921875000, 0.1169433593750, -0.0379028320312, -0.0508422851562, 0.0413208007812, 0.0968017578125, -0.1176147460938, -0.0497436523438, 0.0439453125000, 0.0540161132812, 0.0158081054688, 0.0394287109375, -0.0618286132812, 0.0153808593750, 0.0683593750000, -0.2012329101562, 0.2109985351562, 0.0662231445312, 0.0134887695312, 0.0064086914062, -0.0073242187500, 0.0745239257812, 0.0529785156250, -0.4742431640625, 0.0132446289062, 0.0953369140625, 0.1017456054688, -0.0869140625000, 0.0305786132812, -0.0968017578125, 0.0603637695312, -0.0538330078125, 0.0103759765625, -0.0075073242188, -0.0298461914062, 0.0055541992188, 0.0791625976562, 0.0231323242188, -0.0455322265625, -0.0220947265625, -0.1556396484375, -0.2649536132812, -0.1223754882812, 0.0009765625000, 0.0268554687500, 0.1646118164062, 0.1688842773438, 0.0085449218750, -0.0249023437500, -0.1085205078125, -0.0001831054688, -0.0604858398438, -0.0002441406250, -0.2528686523438, 0.0790405273438, -0.0009155273438, -0.0058593750000, -0.0324707031250, 0.1173095703125, -0.1093750000000, -0.0490112304688, -0.0307006835938, -0.7114868164062, -0.0121459960938, -0.0040283203125, -0.0437011718750, -0.0031127929688, -0.0454711914062, -0.1259155273438, -0.1855468750000, -0.0197753906250, 0.1239013671875, -0.0642700195312, -0.0994262695312, -0.0554199218750, 0.2509155273438, -0.0151977539062, -0.1129150390625, -0.1211547851562, 0.1781616210938, -0.0265502929688, -0.0322875976562, 0.0113525390625, 0.0134887695312, -0.0848388671875, -0.1295776367188, -0.0905761718750, 0.0874633789062, -0.1224365234375, 0.0007324218750, -0.0408325195312, 0.0372314453125, 0.0422973632812, -0.1271972656250, -0.0520019531250, 0.0205078125000, 0.0858764648438, -0.0698242187500, 0.3748168945312, 0.0351562500000, 0.1011352539062, -0.1286621093750, -0.0646362304688, 0.1301879882812, 0.1702880859375, -0.0184936523438, -0.0388183593750, 0.0991210937500, 0.1163330078125, -0.0149536132812, -0.3423461914062, 0.1504516601562, -0.3192749023438, 0.1845092773438, 0.0763549804688, -0.0460815429688, -0.0041503906250, -0.1199340820312, -0.1663208007812, -0.0881958007812, 0.1358032226562, -0.0103759765625, 0.0953369140625, -0.0914306640625, 0.1976928710938, 0.0177001953125, 0.1276245117188, -0.0230712890625, 0.0720825195312, 0.1298828125000, -0.0784912109375, -0.0235595703125, 0.0717163085938, 0.0382690429688, -0.0250244140625, -0.0611572265625, 0.0671386718750, 0.0875244140625, -0.0072021484375, -0.0288085937500, 0.0424804687500, -0.0504760742188, 0.0299682617188, -0.6318969726562, -0.2655029296875, -0.0862426757812, 0.0688476562500, -0.0125732421875, -0.0307617187500, 0.0357055664062, 0.1542968750000, -0.0718383789062, -0.1566772460938, 0.1035156250000, 0.0750732421875, -0.0444335937500, 0.1385498046875, 0.0330200195312, -0.0539550781250, -0.3551635742188, 0.0115356445312, 0.0252075195312, 0.0917968750000, -0.1956787109375, -0.0559082031250, 0.0939941406250, 0.0310668945312, -0.0623168945312, 0.0338134765625, -0.0231933593750, -0.0234375000000, -0.0529785156250, 0.2380371093750, -0.0729980468750, -0.0782470703125, -0.0487670898438, -0.0233154296875, -0.0341796875000, 0.0505371093750, 0.0337524414062, -0.0034179687500, -0.0100708007812, 0.0418090820312, -0.0848388671875, 0.0963134765625, 0.0682373046875, -0.0223388671875, 0.0648193359375, 0.1444702148438, 0.0549316406250, -0.7784423828125, 0.1948852539062, 0.1019897460938, 0.0465698242188, 0.0161743164062, 0.1096801757812, 0.1156005859375, 0.0675659179688, 0.0359497070312, -0.0767211914062, 0.0732421875000, -0.0383911132812, 0.0991821289062, 0.0607910156250, 0.0257568359375, 0.1152954101562, -0.0861816406250, 0.1326293945312, -0.3464965820312, 0.0403442382812, -0.1525878906250, 0.0646972656250, 0.1314697265625, 0.0566406250000, 0.0576171875000, -0.0809936523438, 0.1279907226562, 0.1047973632812, 0.0440673828125, -0.1110229492188, 0.1865844726562, 0.1449584960938, 0.0968627929688, 0.1312866210938, -0.0896606445312, 0.1268310546875, 0.2888183593750, 0.0405273437500, -0.0791625976562, -0.2324218750000, -0.0302124023438, -0.1237792968750, 0.0930786132812, -0.0109863281250, 0.0465698242188, -0.0338745117188, 0.0247192382812, 0.0854492187500, 0.1042480468750, 0.1685791015625, -0.0398559570312, 0.2664794921875, -0.1889038085938, -0.2406005859375, -0.0642089843750, -0.1541137695312, -0.1033325195312, -0.0084838867188, 0.0232543945312, -0.0872802734375, 0.1401977539062, -0.1047973632812, 0.3303222656250, -0.0466308593750, 0.1991577148438, 0.0245361328125, 0.1156616210938, 0.0566406250000, 0.0672607421875, -0.1283569335938, 0.0204467773438, 0.0128784179688, 0.0065307617188, -0.0350341796875, -0.0090942382812, 0.3078613281250, -0.0314941406250, 0.0458374023438, -0.1713867187500, -0.0361938476562, -0.0888671875000, -0.1309204101562, -0.1832275390625, -0.0523681640625, 0.0213623046875, 0.0044555664062, 0.0397949218750, -0.0085449218750, 0.0105590820312, 0.0628662109375, -0.1465454101562, 0.0792236328125, -0.0336914062500, -0.0595703125000, -0.0267333984375, 0.1914062500000, 0.0753784179688, -0.2121582031250, 0.0797729492188, -0.0416870117188, 0.2097167968750, -0.0834350585938, 0.0350341796875, -0.1793823242188, -0.0205078125000, -0.0402221679688, -0.3651733398438, -0.1238403320312, -0.0222167968750, 0.0285644531250, -0.1221923828125, 0.0162963867188, 0.0341796875000, -0.0354614257812, 0.2595825195312, 0.0033569335938, 0.1109008789062, 0.2061767578125, 0.0139770507812, 0.1884155273438, 0.0322265625000, -0.0951538085938, 0.0783081054688, 0.1112060546875, -0.0748901367188, 0.1907958984375, -0.1366577148438, 0.0691528320312, -0.5219116210938, 0.2009277343750, 0.0614013671875, 0.0921020507812, -0.1058959960938, 0.0541381835938, 0.0877075195312, 0.0912475585938, -0.1517944335938, -0.0647583007812, 0.0997314453125, -0.0327758789062, 0.0628051757812, 0.2219238281250, 0.0249023437500, 0.0861816406250, -0.1298217773438, 0.5038452148438, -0.0463867187500, 0.1233520507812, -0.1793212890625, 0.0858154296875, 0.0430297851562, 0.0516357421875, -0.0426635742188, -0.1037597656250, 0.1113891601562, -0.1918945312500, 0.0661010742188, -0.0797729492188, -0.0772705078125, 0.0086669921875, -0.1156616210938, -0.0349731445312, -0.1126098632812, 0.0729370117188, -0.4897460937500, 0.0820922851562, -0.0629882812500, -0.0712890625000, -0.0797119140625, -0.0407104492188, 0.0825805664062, 0.0255126953125, 0.0646362304688, 0.0615234375000, -0.0190429687500, -0.2371826171875, 0.4082031250000, 0.0585327148438, 0.5440673828125, -0.1027221679688, -0.2200317382812, 0.0161132812500, -0.4758300781250, 0.1195678710938, 0.0119628906250, -0.0172119140625, 0.1228637695312, 0.0466308593750, 0.0086669921875, -0.0394897460938, -0.0952758789062, 0.0574951171875, -0.2672729492188, -0.0802612304688, -0.0588378906250, -0.1455078125000, 0.0015258789062, 0.0382080078125, 0.0287475585938, 0.0050048828125, 0.1225585937500, -0.0761108398438, 0.0855712890625, 0.1393432617188, 0.0698852539062, -0.1942749023438, -0.1312255859375, 0.1065673828125, -0.0769042968750, -0.4690551757812, 0.0910034179688, 0.0727539062500, -0.0543823242188, 0.0159912109375, -0.0544433593750, 0.0452270507812, -0.1793823242188, 0.1956176757812, 0.2958984375000, -0.1008911132812, -0.0869140625000, 0.0266723632812, -0.0089721679688, 0.0155639648438, 0.0169677734375, 0.2255859375000, 0.0090942382812, -0.0724487304688, -0.2979736328125, 0.1979980468750, 0.0366210937500, -0.3494262695312, 0.0507202148438, 0.1667480468750, 0.2517089843750, -0.0939941406250, -0.0466918945312, -0.0685424804688, 0.0805664062500, -0.1356811523438, 0.2034912109375, -0.2089843750000, -0.2536621093750, -0.1526489257812, 0.0008544921875, -0.1038208007812, -0.0260009765625, 0.0119018554688, -0.2588500976562, 0.0851440429688, -0.0179443359375, -0.0103149414062, -0.3780517578125, -0.1748657226562, 0.1237792968750, 0.0180053710938, 0.2123413085938, -0.1589355468750, -0.1074829101562, -0.1091308593750, 0.0727539062500, -0.1138916015625, -0.0004882812500, -0.0221557617188, -0.0540161132812, -0.0086669921875, -0.0439453125000, -0.2390136718750, -0.0523071289062, -0.4860839843750, -0.0351562500000, -0.0405883789062, 0.0863037109375, -0.1539916992188, 0.0552978515625, 0.0581054687500, -0.0070190429688, -0.0463867187500, -0.1536254882812, -0.0107421875000, -0.0347290039062, -0.0894165039062, -0.0991210937500, -0.0823364257812, -0.0475463867188, 0.0471191406250, -0.3961181640625, 0.1788330078125, 0.2109375000000, 0.1213989257812, 0.0661621093750, -0.1004638671875, 0.2124633789062, 0.2154541015625, 0.0481567382812, 0.0512695312500, 0.0307006835938, 0.2178344726562, 0.0000000000000, 0.0000000000000, 0.0000000000000, 0.0000000000000, 0.0000000000000, 0.0000000000000, 0.0000000000000, 0.0000000000000, 0.0000000000000, 0.0000000000000, -0.0000610351562, 0.0000000000000, 0.0000000000000, 0.0000000000000, 0.0000000000000, 0.0000000000000, 0.0000000000000, 0.0000000000000, 0.0000000000000, 0.0000000000000, 0.0000000000000, 0.0000000000000, 0.0000000000000, 0.0000000000000, 0.0000000000000, 0.0000000000000, 0.0000000000000, 0.0000000000000, 0.0000000000000, 0.0000000000000, 0.0000000000000, 0.0000000000000, 0.0000000000000, 0.0000000000000, -0.0002441406250, 0.0000000000000, 0.0000000000000, 0.0000000000000, 0.0000000000000, 0.0000000000000, 0.0000000000000, 0.0000000000000, 0.0000000000000, 0.0000000000000, 0.0000000000000, 0.0000000000000, 0.0000000000000, 0.0000000000000, 0.0000000000000, 0.0000000000000, 0.0000000000000, 0.0000000000000, 0.0006103515625, -0.0000610351562, 0.0000000000000, 0.0000000000000, -0.0001831054688, 0.0000000000000, 0.0000000000000, 0.0000000000000, 0.0001220703125, 0.0000000000000, 0.0000610351562, 0.0000000000000, 0.0000000000000, 0.0000000000000, 0.0000000000000, 0.0000000000000, 0.0000000000000, 0.0000000000000, 0.0000000000000, 0.0000000000000, 0.0000000000000, 0.0000000000000, 0.0000000000000, 0.0000000000000, 0.0000000000000, 0.0000000000000, 0.0000000000000, 0.0000000000000, 0.0000000000000, 0.0000000000000, 0.0003051757812, 0.0000000000000, 0.0000000000000, 0.0000000000000, 0.0000000000000, 0.0000000000000, 0.0000000000000, 0.0000610351562, 0.0000000000000, 0.0000000000000, 0.0000000000000, 0.0001220703125, 0.0000000000000, 0.0000000000000, 0.0000000000000, 0.0000000000000, 0.0000000000000, 0.0000000000000, 0.0000000000000, 0.0000000000000, 0.0000000000000, 0.0000000000000, 0.0000000000000, 0.0000000000000, 0.0000000000000, 0.0000000000000, 0.0000000000000, 0.0000000000000, 0.0000000000000, 0.0000000000000, 0.0000000000000, 0.0000000000000, -0.0001831054688, 0.0000000000000, 0.0000000000000, 0.0000000000000, 0.0000000000000, 0.0000000000000, 0.0000000000000, 0.0000000000000, 0.0000000000000, 0.0000000000000, -0.0001831054688, -0.0002441406250, 0.0000000000000, 0.0000000000000, -0.0036010742188, 0.1853027343750, 0.0238647460938, 0.0745849609375, -0.0849609375000, 0.0047607421875, 0.0874633789062, 0.2180786132812, -0.0927734375000, -0.0432739257812, -0.1679687500000, -0.0928955078125, -0.1369628906250, -0.1439819335938, -0.0304565429688, -0.0377807617188, 0.0375366210938, 0.0519409179688, 0.1972045898438, -0.0753784179688, 0.0872192382812, -0.0062255859375, 0.0734252929688, -0.1065063476562, 0.0170898437500, -0.0245971679688, -0.0512695312500, -0.0825195312500, 0.0109863281250, -0.0251464843750, 0.0643920898438, -0.0466308593750, 0.0675048828125, 0.2608642578125, 0.0585327148438, 0.0681152343750, -0.1840209960938, 0.0281982421875, -0.0016479492188, 0.0014038085938, 0.1007690429688, 0.1368408203125, -0.2135009765625, 0.0132446289062, 0.0708007812500, 0.0411987304688, -0.0499877929688, 0.0186767578125, -0.1524658203125, -0.0521240234375, 0.0250854492188, -0.0209960937500, -0.0629882812500, -0.0094604492188, -0.0161132812500, -0.2174072265625, 0.0278930664062, 0.0510864257812, -0.1798706054688, 0.0789794921875, -0.0700073242188, -0.0997924804688, 0.0800781250000, -0.0592041015625, -0.0187377929688, 0.0687866210938, 0.1329956054688, 0.0002441406250, 0.1354980468750, 0.0969848632812, -0.0913696289062, 0.1247558593750, 0.2587890625000, 0.0966796875000, 0.0750122070312, -0.0455322265625, 0.0709228515625, -0.0593872070312, -0.2117309570312, 0.0227661132812, -0.0012817382812, -0.0463867187500, -0.1600341796875, 0.0132446289062, 0.0609130859375, -0.0644531250000, 0.0593872070312, 0.0620727539062, -0.0039672851562, -0.0556640625000, 0.0811767578125, -0.0487670898438, -0.0535278320312, -0.0838012695312, -0.0159912109375, 0.1215820312500, -0.1088867187500, 0.0845947265625, -0.0177612304688, -0.0883789062500, 0.0251464843750, -0.0165405273438, 0.1309814453125, -0.0922851562500, -0.2298583984375, -0.0987548828125, 0.0728759765625, -0.0209350585938, -0.0900878906250, 0.0378417968750, 0.0993041992188, -0.1889038085938, 0.0105590820312, 0.1044921875000, -0.0181274414062, -0.0212402343750, -0.0665283203125, 0.0430297851562, 0.0698242187500, -0.0112915039062, 0.0371093750000, -0.0363159179688, 0.2026977539062, 0.0006103515625, 0.0182495117188, -0.0878906250000, 0.1230468750000, -0.0394897460938, 0.1276855468750, -0.1134033203125, -0.1771850585938, 0.3830566406250, -0.0097656250000, -0.1172485351562, 0.0117797851562, -0.0756835937500, 0.1813354492188, 0.0201416015625, 0.0149536132812, 0.0757446289062, -0.0421752929688, -0.3370361328125, -0.1190185546875, -0.0291748046875, 0.0418090820312, -0.0052490234375, 0.2349243164062, -0.1797485351562, 0.3070068359375, -0.0265502929688, 0.3720703125000, -0.0548095703125, 0.0822753906250, 0.1434936523438, -0.0135498046875, -0.1492919921875, 0.0057373046875, 0.0122070312500, 0.0273437500000, 0.0152587890625, -0.0632324218750, -0.0821533203125, 0.0139160156250, -0.1380004882812, 0.1743774414062, -0.0560302734375, -0.1227416992188, 0.0198974609375, 0.0741577148438, -0.0219726562500, -0.0384521484375, -0.0195312500000, -0.1170654296875, 0.0568237304688, 0.1300048828125, -0.1203613281250, -0.2153930664062, -0.0863037109375, 0.2467041015625, -0.0681152343750, -0.0684814453125, -0.0262451171875, 0.1147460937500, -0.0245361328125, -0.1152343750000, -0.0590820312500, -0.1546020507812, -0.0425415039062, 0.0480957031250, -0.1373901367188, -0.0498657226562, 0.1828002929688, 0.2260742187500, -0.2243652343750, 0.0379028320312, -0.0130004882812, 0.1360473632812, -0.0402221679688, 0.1111450195312, 0.1347045898438, -0.1915283203125, -0.0995483398438, -0.1758422851562, -0.2078247070312, -0.1842041015625, -0.1429443359375, -0.0460205078125, -0.0348510742188, 0.0625000000000, 0.0370483398438, 0.2722778320312, -0.0043945312500, 0.3302001953125, 0.0543823242188, -0.4842529296875, 0.0856933593750, 0.0656738281250, -0.0317382812500, -0.0985107421875, -0.0633544921875, 0.0828247070312, 0.0405883789062, -0.0452270507812, -0.0934448242188, 0.0523071289062, 0.1290283203125, 0.0411987304688, 0.0349121093750, -0.0946655273438, 0.0102539062500, 0.0529174804688, -0.5216064453125, 0.0076293945312, -0.0638427734375, 0.0594482421875, 0.0284423828125, -0.0932006835938, 0.0619506835938, -0.1019287109375, 0.0991821289062, -0.0445556640625, 0.0838012695312, 0.0130004882812, -0.0214233398438, -0.0070800781250, 0.1330566406250, 0.1428833007812, -0.0925292968750, -0.0209350585938, 0.0216064453125, 0.5692749023438, 0.0960693359375, 0.0244750976562, -0.1576538085938, 0.1047973632812, -0.0001831054688, 0.0000000000000, 0.0000000000000, 0.0000000000000, -0.0004272460938, 0.0000000000000, 0.0000000000000, 0.0000000000000, 0.0000000000000, 0.0000000000000, 0.0000000000000, 0.0000000000000, 0.0000000000000, 0.0000000000000, 0.0000000000000, 0.0000000000000, 0.0000000000000, 0.0000000000000, 0.0000000000000, 0.0000000000000, 0.0000000000000, 0.0000000000000, 0.0000000000000, 0.0000000000000, 0.0000000000000, 0.0000000000000, 0.0000000000000, 0.0000000000000, 0.0000000000000, -0.0001831054688, 0.0000000000000, 0.0000000000000, 0.0000000000000, 0.0000000000000, 0.0000000000000, 0.0000000000000, 0.0000000000000, 0.0000000000000, 0.0000000000000, 0.0000000000000, 0.0000000000000, 0.0000000000000, 0.0000000000000, 0.0000000000000, -0.0000610351562, 0.0000000000000, 0.0000000000000, 0.0000000000000, 0.0000000000000, 0.0000000000000, 0.0000000000000, 0.0000000000000, 0.0000000000000, 0.0000000000000, 0.0000000000000, 0.0003051757812, 0.0000000000000, 0.0000610351562, 0.0000000000000, 0.0000000000000, 0.0000000000000, 0.0000000000000, 0.0000000000000, 0.0000000000000, -0.0001220703125, -0.3496704101562, 0.1710205078125, 0.0291748046875, -0.0615234375000, 0.0274658203125, 0.0551757812500, -0.1054687500000, 0.4411621093750, 0.3017578125000, -0.2174072265625, -0.0455322265625, -0.0413818359375, 0.0018310546875, 0.1867065429688, -0.0700683593750, -0.0276489257812, 0.0031738281250, -0.0215454101562, -0.0014648437500, -0.1088256835938, 0.0186767578125, -0.0296630859375, -0.3016967773438, 0.0331420898438, 0.0397338867188, -0.1215820312500, -0.1141357421875, -0.0002441406250, 0.0147094726562, -0.0092773437500, -0.0935668945312, -0.0515747070312, -0.0228271484375, 0.2750244140625, 0.0604858398438, 0.0117797851562, -0.0969238281250, 0.0396118164062, 0.0800781250000, -0.0553588867188, 0.0048828125000, -0.0061645507812, -0.0931396484375, -0.0269775390625, 0.0415039062500, 0.0249633789062, -0.0858154296875, -0.2145385742188, -0.0001831054688, 0.0204467773438, -0.0562744140625, -0.0422973632812, -0.0074462890625, -0.1094360351562, -0.0665893554688, -0.3867187500000, 0.0112304687500, 0.0852661132812, 0.0686645507812, 0.0937500000000, -0.0313720703125, -0.2417602539062, 0.0328979492188, -0.0828857421875, 0.0153198242188, 0.1430664062500, 0.1121826171875, 0.0043334960938, 0.1132202148438, -0.1058349609375, -0.0471191406250, 0.2089843750000, 0.2454223632812, -0.0321655273438, 0.2723388671875, 0.1253051757812, 0.1441040039062, 0.1653442382812, -0.0772094726562, -0.0100097656250, -0.0250244140625, 0.0573120117188, -0.0447998046875, 0.0764770507812, -0.1362915039062, 0.0275268554688, 0.2878417968750, 0.0466918945312, 0.0179443359375, 0.1082763671875, -0.0324096679688, -0.0254516601562, 0.0173339843750, -0.0278930664062, -0.0294189453125, -0.0819702148438, 0.0156250000000, 0.2294311523438, 0.0571899414062, 0.0137329101562, 0.2687377929688, 0.0708618164062, 0.1669921875000, -0.1622314453125, -0.1550903320312, -0.0067138671875, 0.0725097656250, 0.0484619140625, 0.0392456054688, 0.0556640625000, 0.1573486328125, 0.2261352539062, 0.0740966796875, 0.0849609375000, 0.0641479492188, -0.0231933593750, 0.1586303710938, -0.0046386718750, -0.0054321289062, -0.1840209960938, -0.0438232421875, 0.0143432617188, -0.5289306640625, -0.0692138671875, 0.0051269531250, 0.0144042968750, 0.1887817382812, 0.0514526367188, -0.0583496093750, 0.0508422851562, -0.0230102539062, -0.0879516601562, -0.1231689453125, 0.0086059570312, 0.0035400390625, -0.0338134765625, 0.0446166992188, -0.0388183593750, 0.1041870117188, -0.0751953125000, 0.1606445312500, -0.0831298828125, 0.0681152343750, 0.0280761718750, 0.0067138671875, 0.0619506835938, -0.0150146484375, -0.0286865234375, -0.0272827148438, 0.0212402343750, -0.1216430664062, -0.0902709960938, 0.0341796875000, -0.0341186523438, 0.0088500976562, -0.0269165039062, 0.0542602539062, -0.0512695312500, -0.0147094726562, -0.0202026367188, -0.0401611328125, -0.0574951171875, -0.0587768554688, -0.0034179687500, 0.0728759765625, 0.0119628906250, 0.0698852539062, 0.1951293945312, 0.0817871093750, -0.0076293945312, -0.0832519531250, 0.0453491210938, -0.0232543945312, -0.0332641601562, 0.1204833984375, 0.2049560546875, -0.0972900390625, -0.1431274414062, -0.0233764648438, -0.0525512695312, -0.3881835937500, 0.0510253906250, 0.0287475585938, -0.0736083984375, 0.0750122070312, -0.0462036132812, 0.1319580078125, -0.1009521484375, -0.0167236328125, 0.0603637695312, -0.0191040039062, -0.0709838867188, 0.2378540039062, -0.1958618164062, 0.1748046875000, -0.0364990234375, 0.0416870117188, -0.1263427734375, 0.1713867187500, 0.0383911132812, 0.0282592773438, 0.0437011718750, -0.0775756835938, 0.0119628906250, -0.2005004882812, -0.0444946289062, -0.1693725585938, 0.0309448242188, -0.1132202148438, -0.1110229492188, 0.1131591796875, -0.1213378906250, 0.1502075195312, -0.1109008789062, 0.0032348632812, -0.1320800781250, 0.0144653320312, -0.0092773437500, 0.0953979492188, -0.0170288085938, -0.0527954101562, -0.0370483398438, 0.0549316406250, 0.0697021484375, -0.0454711914062, 0.0191650390625, -0.0773925781250, -0.0368652343750, -0.1314086914062, -0.0666503906250, 0.1328735351562, 0.2252197265625, -0.0711059570312, -0.0081176757812, 0.0212402343750, -0.0651245117188, -0.0671997070312, -0.0668334960938, -0.0921020507812, -0.0188598632812, 0.0184326171875, -0.0426635742188, -0.0394897460938, -0.0371093750000, -0.0035400390625, 0.0331420898438, 0.0596313476562, -0.0883789062500, 0.1071777343750, -0.0537719726562, -0.3276977539062, -0.0031738281250, 0.1079711914062, 0.0297851562500, -0.0109252929688, -0.0010986328125, 0.1380004882812, -0.0411376953125, 